~o
<STREAMINFO> 1 25
<VECSIZE> 25<NULLD><MFCC_D_N_Z_0><DIAGC>
~t "T_a"
<TRANSP> 5
 0.000000e+00 1.000000e+00 0.000000e+00 0.000000e+00 0.000000e+00
 0.000000e+00 3.022733e-01 6.977267e-01 0.000000e+00 0.000000e+00
 0.000000e+00 0.000000e+00 7.962471e-02 9.203753e-01 0.000000e+00
 0.000000e+00 0.000000e+00 0.000000e+00 5.549871e-01 4.450129e-01
 0.000000e+00 0.000000e+00 0.000000e+00 0.000000e+00 0.000000e+00
~t "T_b"
<TRANSP> 5
 0.000000e+00 1.000000e+00 0.000000e+00 0.000000e+00 0.000000e+00
 0.000000e+00 6.640425e-01 3.359576e-01 0.000000e+00 0.000000e+00
 0.000000e+00 0.000000e+00 7.025712e-01 2.974289e-01 0.000000e+00
 0.000000e+00 0.000000e+00 0.000000e+00 8.292739e-01 1.707261e-01
 0.000000e+00 0.000000e+00 0.000000e+00 0.000000e+00 0.000000e+00
~t "T_e"
<TRANSP> 5
 0.000000e+00 1.000000e+00 0.000000e+00 0.000000e+00 0.000000e+00
 0.000000e+00 4.907106e-01 5.092894e-01 0.000000e+00 0.000000e+00
 0.000000e+00 0.000000e+00 3.666920e-01 6.333080e-01 0.000000e+00
 0.000000e+00 0.000000e+00 0.000000e+00 6.433308e-01 3.566692e-01
 0.000000e+00 0.000000e+00 0.000000e+00 0.000000e+00 0.000000e+00
~t "T_h"
<TRANSP> 5
 0.000000e+00 1.000000e+00 0.000000e+00 0.000000e+00 0.000000e+00
 0.000000e+00 6.916113e-01 3.083887e-01 0.000000e+00 0.000000e+00
 0.000000e+00 0.000000e+00 5.169319e-01 4.830681e-01 0.000000e+00
 0.000000e+00 0.000000e+00 0.000000e+00 7.003372e-01 2.996627e-01
 0.000000e+00 0.000000e+00 0.000000e+00 0.000000e+00 0.000000e+00
~t "T_i"
<TRANSP> 5
 0.000000e+00 1.000000e+00 0.000000e+00 0.000000e+00 0.000000e+00
 0.000000e+00 8.267866e-01 1.732134e-01 0.000000e+00 0.000000e+00
 0.000000e+00 0.000000e+00 8.184115e-01 1.815885e-01 0.000000e+00
 0.000000e+00 0.000000e+00 0.000000e+00 7.851209e-01 2.148791e-01
 0.000000e+00 0.000000e+00 0.000000e+00 0.000000e+00 0.000000e+00
~t "T_j"
<TRANSP> 5
 0.000000e+00 1.000000e+00 0.000000e+00 0.000000e+00 0.000000e+00
 0.000000e+00 8.404346e-01 1.595654e-01 0.000000e+00 0.000000e+00
 0.000000e+00 0.000000e+00 7.852485e-01 2.147514e-01 0.000000e+00
 0.000000e+00 0.000000e+00 0.000000e+00 6.645910e-01 3.354090e-01
 0.000000e+00 0.000000e+00 0.000000e+00 0.000000e+00 0.000000e+00
~t "T_k"
<TRANSP> 5
 0.000000e+00 1.000000e+00 0.000000e+00 0.000000e+00 0.000000e+00
 0.000000e+00 6.000000e-01 4.000000e-01 0.000000e+00 0.000000e+00
 0.000000e+00 0.000000e+00 6.000000e-01 4.000000e-01 0.000000e+00
 0.000000e+00 0.000000e+00 0.000000e+00 7.000000e-01 3.000000e-01
 0.000000e+00 0.000000e+00 0.000000e+00 0.000000e+00 0.000000e+00
~t "T_l"
<TRANSP> 5
 0.000000e+00 1.000000e+00 0.000000e+00 0.000000e+00 0.000000e+00
 0.000000e+00 6.201670e-01 3.798330e-01 0.000000e+00 0.000000e+00
 0.000000e+00 0.000000e+00 5.108456e-01 4.891544e-01 0.000000e+00
 0.000000e+00 0.000000e+00 0.000000e+00 6.491830e-01 3.508170e-01
 0.000000e+00 0.000000e+00 0.000000e+00 0.000000e+00 0.000000e+00
~t "T_m"
<TRANSP> 5
 0.000000e+00 1.000000e+00 0.000000e+00 0.000000e+00 0.000000e+00
 0.000000e+00 5.826292e-01 4.173708e-01 0.000000e+00 0.000000e+00
 0.000000e+00 0.000000e+00 5.820412e-01 4.179588e-01 0.000000e+00
 0.000000e+00 0.000000e+00 0.000000e+00 5.485208e-01 4.514792e-01
 0.000000e+00 0.000000e+00 0.000000e+00 0.000000e+00 0.000000e+00
~t "T_n"
<TRANSP> 5
 0.000000e+00 1.000000e+00 0.000000e+00 0.000000e+00 0.000000e+00
 0.000000e+00 7.108687e-01 2.891314e-01 0.000000e+00 0.000000e+00
 0.000000e+00 0.000000e+00 4.987695e-01 5.012305e-01 0.000000e+00
 0.000000e+00 0.000000e+00 0.000000e+00 8.535514e-01 1.464486e-01
 0.000000e+00 0.000000e+00 0.000000e+00 0.000000e+00 0.000000e+00
~t "T_p"
<TRANSP> 5
 0.000000e+00 1.000000e+00 0.000000e+00 0.000000e+00 0.000000e+00
 0.000000e+00 5.699896e-01 4.300105e-01 0.000000e+00 0.000000e+00
 0.000000e+00 0.000000e+00 7.185800e-01 2.814200e-01 0.000000e+00
 0.000000e+00 0.000000e+00 0.000000e+00 9.370016e-01 6.299834e-02
 0.000000e+00 0.000000e+00 0.000000e+00 0.000000e+00 0.000000e+00
~t "T_r"
<TRANSP> 5
 0.000000e+00 1.000000e+00 0.000000e+00 0.000000e+00 0.000000e+00
 0.000000e+00 6.739699e-01 3.260300e-01 0.000000e+00 0.000000e+00
 0.000000e+00 0.000000e+00 7.537534e-01 2.462467e-01 0.000000e+00
 0.000000e+00 0.000000e+00 0.000000e+00 8.046413e-01 1.953587e-01
 0.000000e+00 0.000000e+00 0.000000e+00 0.000000e+00 0.000000e+00
~t "T_s"
<TRANSP> 5
 0.000000e+00 1.000000e+00 0.000000e+00 0.000000e+00 0.000000e+00
 0.000000e+00 7.321363e-01 2.678638e-01 0.000000e+00 0.000000e+00
 0.000000e+00 0.000000e+00 7.694472e-01 2.305527e-01 0.000000e+00
 0.000000e+00 0.000000e+00 0.000000e+00 6.459871e-01 3.540129e-01
 0.000000e+00 0.000000e+00 0.000000e+00 0.000000e+00 0.000000e+00
~t "T_t"
<TRANSP> 5
 0.000000e+00 1.000000e+00 0.000000e+00 0.000000e+00 0.000000e+00
 0.000000e+00 4.111016e-01 5.888984e-01 0.000000e+00 0.000000e+00
 0.000000e+00 0.000000e+00 4.454971e-01 5.545030e-01 0.000000e+00
 0.000000e+00 0.000000e+00 0.000000e+00 6.464850e-01 3.535150e-01
 0.000000e+00 0.000000e+00 0.000000e+00 0.000000e+00 0.000000e+00
~t "T_u"
<TRANSP> 5
 0.000000e+00 1.000000e+00 0.000000e+00 0.000000e+00 0.000000e+00
 0.000000e+00 3.955168e-01 6.044832e-01 0.000000e+00 0.000000e+00
 0.000000e+00 0.000000e+00 4.818840e-01 5.181161e-01 0.000000e+00
 0.000000e+00 0.000000e+00 0.000000e+00 6.173888e-01 3.826112e-01
 0.000000e+00 0.000000e+00 0.000000e+00 0.000000e+00 0.000000e+00
~t "T_w"
<TRANSP> 5
 0.000000e+00 1.000000e+00 0.000000e+00 0.000000e+00 0.000000e+00
 0.000000e+00 7.403466e-01 2.596534e-01 0.000000e+00 0.000000e+00
 0.000000e+00 0.000000e+00 8.604936e-01 1.395064e-01 0.000000e+00
 0.000000e+00 0.000000e+00 0.000000e+00 8.620692e-01 1.379308e-01
 0.000000e+00 0.000000e+00 0.000000e+00 0.000000e+00 0.000000e+00
~t "T_kh"
<TRANSP> 5
 0.000000e+00 1.000000e+00 0.000000e+00 0.000000e+00 0.000000e+00
 0.000000e+00 4.074285e-01 5.925715e-01 0.000000e+00 0.000000e+00
 0.000000e+00 0.000000e+00 4.141953e-01 5.858047e-01 0.000000e+00
 0.000000e+00 0.000000e+00 0.000000e+00 4.329452e-01 5.670549e-01
 0.000000e+00 0.000000e+00 0.000000e+00 0.000000e+00 0.000000e+00
~t "T_ny"
<TRANSP> 5
 0.000000e+00 1.000000e+00 0.000000e+00 0.000000e+00 0.000000e+00
 0.000000e+00 8.030793e-01 1.969207e-01 0.000000e+00 0.000000e+00
 0.000000e+00 0.000000e+00 7.830089e-01 2.169911e-01 0.000000e+00
 0.000000e+00 0.000000e+00 0.000000e+00 7.853807e-01 2.146193e-01
 0.000000e+00 0.000000e+00 0.000000e+00 0.000000e+00 0.000000e+00
~s "ST_kh_2_1"
<MEAN> 25
 -4.947781e+00 -2.922596e+00 4.679066e+00 1.196641e+00 -1.867737e+00 2.521924e+00 4.801578e-02 2.542104e+00 -5.201642e-01 3.393398e+00 8.861153e+00 3.013726e-01 -3.518334e-01 2.614145e-01 -3.052379e-01 1.182881e+00 -7.079040e-03 -9.811686e-01 -2.219669e-01 9.146725e-01 6.429324e-01 1.121072e+00 5.844436e-02 -4.753778e-02 -2.840626e-01
<VARIANCE> 25
 1.486925e+01 2.972096e+01 3.402991e+01 7.522129e+01 5.405817e+01 1.184500e+02 1.103814e+01 5.692947e+01 2.410073e+01 7.597609e+01 2.004551e+01 1.018283e+01 2.715827e-01 1.097120e+00 1.002229e+00 2.016341e+00 4.005465e+00 1.288360e+00 4.585302e-01 2.502016e+00 2.955226e+00 1.000150e+00 3.216690e+00 7.574524e-01 1.507432e+00
<GCONST> 9.158065e+01
~s "ST_kh_3_1"
<MEAN> 25
 -4.831489e+00 -1.391264e+00 5.911016e+00 4.078101e+00 -3.288783e+00 -1.378814e+00 1.666155e+00 7.440177e+00 -2.381549e-02 2.483913e+00 4.987099e+00 1.287430e+00 9.441401e-02 -6.594387e-02 3.313611e-01 -4.905502e-01 -2.250796e-01 3.837666e-03 8.843200e-01 1.017573e+00 4.772420e-01 6.968619e-02 -2.053602e+00 1.694600e-01 -2.746149e-01
<VARIANCE> 25
 1.307400e+01 3.481534e+01 1.344983e+01 3.786543e+01 3.537738e+01 9.217824e+01 5.065671e+00 7.847039e+01 4.271793e+01 7.122688e+01 1.100779e+01 1.547574e+01 1.249276e+00 1.440129e+00 9.274098e-01 2.296944e+00 5.123204e+00 9.792916e-01 1.132344e+00 2.760405e+00 3.126667e-01 8.379838e-01 1.488160e+00 1.523095e+00 4.345901e-01
<GCONST> 8.827558e+01
~s "ST_kh_4_1"
<MEAN> 25
 -1.932226e+00 -2.588442e+00 6.414104e+00 -1.674291e+00 -5.051137e+00 -2.661374e+00 3.634511e+00 5.205291e+00 -2.924254e+00 4.449942e+00 1.987657e-01 1.530424e+00 1.274878e+00 -5.559517e-02 4.974033e-01 -7.588257e-01 -1.361248e+00 -7.268905e-01 -7.072825e-01 -1.275779e+00 -1.026515e+00 8.852946e-02 -2.437749e+00 -1.371792e+00 6.023739e-01
<VARIANCE> 25
 1.979039e+01 5.053803e+01 1.039661e+01 3.744852e+01 3.072901e+01 4.805852e+01 2.262238e+00 6.689697e+01 3.392873e+01 7.142217e+01 3.133596e+01 6.888379e+00 1.215942e+00 1.381834e+00 1.504696e+00 7.050747e+00 8.413277e+00 1.641249e+00 4.420624e+00 2.012757e+00 2.714421e+00 5.224833e+00 6.268243e-01 2.380125e+00 1.308271e+00
<GCONST> 9.531638e+01
~s "ST_s_2_1"
<MEAN> 25
 -2.603091e+00 7.164915e+00 5.155146e+00 -1.313812e+00 -8.192015e-01 4.757483e+00 2.554265e+00 -5.885603e+00 5.039869e+00 -3.060083e+00 2.701976e+00 6.909277e-01 -1.735448e+00 -1.223694e+00 2.618829e+00 -1.925932e+00 -1.323493e+00 1.535539e+00 3.153936e-01 -1.327618e+00 -9.151869e-01 7.228457e-01 1.165519e+00 -6.436483e-01 5.435187e-02
<VARIANCE> 25
 2.544858e+02 1.906913e+02 2.529670e+02 4.776202e+01 1.281679e+02 1.376913e+02 6.141060e+01 5.959872e+01 6.717718e+01 5.298188e+01 5.105891e+01 1.424519e+01 1.665883e+01 1.807148e+01 1.524871e+01 6.404648e+00 1.266838e+01 1.331355e+01 9.799337e+00 7.947071e+00 5.116005e+00 7.488279e+00 5.721466e+00 2.776887e+00 1.730031e+00
<GCONST> 1.256178e+02
~s "ST_s_3_1"
<MEAN> 25
 -1.040762e+01 -9.539293e+00 1.371361e+01 -9.652846e+00 -2.730578e+00 7.933855e+00 -9.669058e-01 -6.389289e+00 9.514186e-01 4.740565e+00 5.491539e-01 -8.526722e-02 -3.523983e-01 -1.023460e+00 8.041852e-02 -1.270864e-01 -5.532160e-02 -2.714902e-01 2.522569e-01 -3.268154e-01 -4.065551e-01 1.006708e-01 1.441554e-01 1.825979e-01 4.270644e-01
<VARIANCE> 25
 4.972822e+01 4.251296e+01 5.637007e+01 2.911219e+01 4.681989e+01 5.939342e+01 4.283322e+01 2.567805e+01 2.094636e+01 3.219396e+01 2.294180e+01 1.349895e+01 3.167269e+00 4.061205e+00 3.717154e+00 2.540098e+00 1.841422e+00 2.873868e+00 3.307172e+00 1.625238e+00 2.154433e+00 3.231097e+00 1.667322e+00 8.319297e-01 5.907123e-01
<GCONST> 9.807774e+01
~s "ST_s_4_1"
<MEAN> 25
 1.887216e+00 -4.468051e+00 1.311020e+01 -4.863572e+00 -5.402546e+00 6.770005e+00 -9.474961e-02 -7.786658e+00 -3.516328e+00 7.461348e-01 1.408202e+00 8.900703e-01 2.475780e+00 2.543500e+00 -2.556511e+00 1.693204e+00 7.845041e-01 -1.579908e+00 -6.720392e-02 1.227548e+00 -3.411045e-01 -1.753154e+00 -1.254730e+00 3.951051e-01 -3.329521e-01
<VARIANCE> 25
 1.462267e+02 1.580723e+02 9.553475e+01 3.407812e+01 9.522241e+01 6.944297e+01 4.506937e+01 5.378020e+01 3.739916e+01 5.352393e+01 2.869233e+01 1.585412e+01 5.217657e+00 1.037963e+01 7.848798e+00 2.125103e+00 8.795544e+00 4.874580e+00 4.166076e+00 3.092874e+00 4.566010e+00 7.876096e+00 2.343230e+00 2.258045e+00 2.536451e+00
<GCONST> 1.136946e+02
~s "ST_i_2_1"
<MEAN> 25
 6.525741e+00 -1.020638e+01 6.526762e+00 7.401523e+00 -2.449624e+00 -1.236063e+00 -4.208938e+00 -2.289945e+00 -9.976754e-01 -4.785244e-01 1.862068e+00 -2.473181e+00 6.640462e-01 9.495711e-01 6.742935e-01 1.942848e+00 1.188780e+00 -1.174284e+00 -1.249143e+00 -4.685160e-01 -7.983196e-01 -8.924382e-01 2.852731e-01 -8.736991e-01 1.707315e-01
<VARIANCE> 25
 1.091108e+02 1.142486e+02 5.112517e+01 9.733742e+01 7.841033e+01 7.746243e+01 4.539480e+01 4.744825e+01 2.335555e+01 4.498587e+01 2.240351e+01 2.614738e+01 2.058473e+00 4.847751e+00 4.214679e+00 2.585231e+00 5.824889e+00 5.854437e+00 3.255768e+00 2.339951e+00 3.152132e+00 6.316071e+00 2.351206e+00 1.884395e+00 1.618326e+00
<GCONST> 1.088169e+02
~s "ST_i_3_1"
<MEAN> 25
 1.867026e+00 -1.901056e+00 1.015700e+01 7.433082e+00 2.692858e+00 -5.430931e+00 -8.211767e+00 -4.901664e+00 -4.645945e+00 -1.547377e+00 -3.477837e-01 -3.002335e+00 3.207166e-01 2.723489e-03 -9.039415e-01 -2.942313e-01 -1.020833e-01 1.021379e-01 -1.941647e-01 -9.038277e-01 1.359621e-02 2.368874e-01 4.718764e-01 7.613511e-01 7.426431e-02
<VARIANCE> 25
 2.102297e+01 1.381732e+01 3.447647e+01 1.082463e+02 1.177396e+02 1.843077e+01 8.691808e+01 3.148100e+01 1.441070e+01 7.366415e+01 2.756943e+01 4.568498e+01 2.052430e-01 4.166006e-01 1.107980e+00 1.242393e+00 1.175865e+00 1.813641e+00 1.775305e+00 2.247275e+00 1.722510e+00 1.287614e+00 1.382593e+00 1.315611e+00 3.841709e-01
<GCONST> 8.998557e+01
~s "ST_i_4_1"
<MEAN> 25
 1.918043e+01 7.334573e-01 -5.059416e-01 1.237050e+01 8.877337e+00 -7.659116e+00 -1.280590e+01 -1.002166e+01 -6.350175e+00 -4.876273e+00 4.498746e+00 1.041276e+00 -1.830284e-01 7.108819e-01 -4.298180e-01 -1.096807e+00 -9.148657e-02 1.029170e+00 5.046028e-01 -2.244038e-02 2.877088e-01 2.847235e-01 -3.584894e-01 3.343456e-01 -4.798779e-01
<VARIANCE> 25
 6.899607e+01 2.897182e+01 3.065839e+01 1.687372e+02 4.559949e+01 1.412834e+02 5.598319e+01 3.513052e+01 2.018458e+01 3.596038e+01 3.518639e+01 2.183386e+01 8.408148e-01 6.592112e-01 3.214698e+00 4.028429e+00 1.289482e+00 4.209454e+00 3.706579e+00 2.687415e+00 9.542581e-01 2.481409e+00 1.794382e+00 2.743801e+00 8.974084e-01
<GCONST> 9.999385e+01
~s "ST_l_2_1"
<MEAN> 25
 4.117542e+00 -1.569461e+00 -2.345570e+00 -3.294840e+00 -3.921383e+00 -5.924703e+00 4.045494e+00 2.602358e+00 -5.184803e-02 -8.046125e-01 -1.351165e+00 2.996310e+00 1.373167e-01 3.909920e-01 -5.790328e-02 3.902703e-01 -9.333263e-02 4.682181e-01 -3.480182e-01 -3.210996e-02 1.638749e-01 -9.889308e-02 2.264642e-02 -2.103956e-01 -4.533216e-01
<VARIANCE> 25
 2.016451e+01 1.588545e+01 1.731407e+01 2.446075e+01 3.930775e+01 4.071801e+01 3.271563e+01 2.646022e+01 2.198210e+01 1.894115e+01 2.119319e+01 1.988079e+01 3.734721e-01 1.455550e+00 9.101958e-01 1.796727e+00 3.077557e+00 1.815412e+00 2.353002e+00 1.896888e+00 1.850696e+00 1.639513e+00 2.276757e+00 1.614427e+00 4.994721e-01
<GCONST> 8.879762e+01
~s "ST_l_3_1"
<MEAN> 25
 4.504369e+00 6.385942e-01 -7.998107e-01 -1.020164e+00 -1.229174e+00 -7.908456e-01 -1.700400e+00 -1.247520e-01 1.111414e+00 -9.003452e-01 -1.480080e+00 -6.538042e-01 -7.251044e-02 8.295499e-01 8.606230e-01 1.941063e+00 3.065442e-01 1.583117e+00 -9.239706e-01 -8.447840e-01 3.303687e-01 -5.682702e-02 -4.179062e-01 -1.292232e+00 -1.091675e+00
<VARIANCE> 25
 1.947834e+01 2.240642e+01 2.060910e+01 3.176864e+01 5.078400e+01 5.299113e+01 3.214025e+01 5.027809e+01 3.328448e+01 2.419796e+01 4.354521e+01 2.974466e+01 6.429248e-01 1.450530e+00 1.695733e+00 2.849527e+00 6.707304e+00 2.739537e+00 1.868065e+00 2.759703e+00 2.699359e+00 2.469468e+00 3.801596e+00 4.267460e+00 5.829184e-01
<GCONST> 9.785320e+01
~s "ST_l_4_1"
<MEAN> 25
 3.926711e+00 1.657037e+00 3.340409e-01 2.811723e+00 1.342193e-01 1.872463e+00 -1.331534e+00 -1.242072e-01 2.541635e+00 -2.095556e+00 -5.070485e+00 -5.317068e+00 -3.122611e-02 1.514197e-01 1.076676e-02 -8.802431e-02 -8.990844e-02 -1.236271e-01 1.279204e-01 7.063149e-02 -1.703070e-02 2.533861e-02 2.604020e-02 -2.360240e-03 -5.363676e-02
<VARIANCE> 25
 1.379575e+01 1.737291e+01 1.976180e+01 1.944208e+01 6.140265e+01 3.372904e+01 3.281446e+01 4.252007e+01 3.117313e+01 2.102902e+01 3.762873e+01 3.267862e+01 3.232195e-01 6.163876e-01 4.883217e-01 1.741394e+00 1.850698e+00 2.743600e+00 1.368134e+00 1.304827e+00 1.173350e+00 1.223128e+00 1.328525e+00 1.863842e+00 5.138128e-01
<GCONST> 8.688505e+01
~s "ST_b_2_1"
<MEAN> 25
 6.398741e-01 9.373563e+00 1.554268e+00 4.115389e+00 4.879345e-01 -4.837298e-01 4.772737e+00 6.309724e+00 -1.779452e+00 -2.876544e+00 -4.838313e+00 -3.414800e+00 -2.755250e-01 1.091099e-01 3.569241e-01 -2.465480e-01 -5.772938e-01 7.723815e-01 -1.571634e-01 -4.192186e-01 8.303759e-01 5.272054e-01 2.557944e-02 -1.697964e-01 -2.776346e-01
<VARIANCE> 25
 4.249961e+01 9.247449e+01 1.211820e+01 2.527641e+01 4.737006e+01 3.871395e+01 4.952661e+01 1.475544e+02 1.313558e+01 2.920882e+01 1.607216e+01 2.608957e+01 1.455159e+00 1.403680e+01 1.136709e+00 3.132680e+00 4.322101e+00 2.630808e+00 6.444814e+00 1.919354e+01 3.281637e+00 4.574886e+00 1.647752e+00 1.168799e+00 1.256032e+01
<GCONST> 1.057778e+02
~s "ST_b_3_1"
<MEAN> 25
 3.838712e+00 -1.385175e+00 3.524736e+00 2.099000e+00 -6.364502e+00 -1.107000e+00 -2.736221e+00 -3.902149e+00 -7.795314e+00 5.418187e-01 6.109317e+00 -6.686976e+00 -3.917120e-01 2.480791e-01 7.090229e-01 -9.313857e-01 5.119747e-02 4.878953e-01 -1.797730e-01 6.403542e-01 -8.516034e-02 -1.565658e-01 2.788530e-01 7.155864e-01 -4.899205e-02
<VARIANCE> 25
 3.559575e+01 1.731658e+01 2.489117e+01 7.947767e+01 6.904475e+01 4.132526e+01 7.739116e+01 6.234594e+01 8.148804e+01 5.183873e+01 5.396631e+01 2.667110e+01 8.096554e-01 2.095469e+00 5.186428e+00 1.378025e+01 8.679594e+00 3.953228e+00 9.437153e+00 9.848515e+00 9.156252e+00 4.048784e+00 3.653503e+00 1.326970e+00 1.769526e+00
<GCONST> 1.106467e+02
~s "ST_b_4_1"
<MEAN> 25
 2.041598e+01 3.226352e+00 1.536238e+00 7.975175e+00 3.477628e+00 -9.142296e+00 -1.004393e+01 1.113713e-01 5.392387e+00 -8.033958e+00 -3.723502e+00 -2.751582e+00 1.309646e-02 1.604703e-01 3.587942e-02 2.354730e-01 -1.220358e-01 -2.925673e-01 -2.546380e-01 -1.712262e-01 2.192601e-01 7.200499e-01 2.943132e-01 -2.281754e-01 -1.268150e-01
<VARIANCE> 25
 9.021474e+01 3.208333e+01 4.506791e+01 4.732816e+01 6.954567e+01 9.800658e+01 5.160814e+01 5.536571e+01 3.547746e+01 1.194838e+02 3.039133e+01 3.015542e+01 3.728164e-01 2.755133e+00 3.604276e+00 1.951552e+00 5.155025e+00 4.809951e+00 3.266082e+00 4.379076e+00 2.739345e+00 6.317897e+00 3.225022e+00 3.324645e+00 9.533510e-01
<GCONST> 1.065642e+02
~s "ST_e_2_1"
<MEAN> 25
 2.915773e+00 6.793038e-01 2.644347e+00 -1.250796e+00 -3.856160e+00 2.427658e+00 -2.849220e+00 -3.259363e+00 -3.023798e-01 -1.224031e+00 -1.474675e+00 2.647700e-01 1.639468e+00 -6.639321e-01 -1.253489e+00 1.007398e+00 -6.504877e-02 -1.839894e+00 -1.221924e+00 8.469991e-01 4.879127e-01 -1.542233e+00 -1.092232e+00 -1.765958e-01 1.065899e+00
<VARIANCE> 25
 7.384064e+01 2.578562e+01 3.062946e+01 3.761993e+01 2.292203e+01 4.470705e+01 2.732243e+01 3.769246e+01 4.249224e+01 6.208548e+01 2.296904e+01 2.656174e+01 2.437767e+00 5.867089e+00 6.603251e+00 4.022572e+00 5.054208e+00 8.682693e+00 2.932794e+00 3.206590e+00 3.147552e+00 7.664897e+00 3.511562e+00 2.373692e+00 2.314062e+00
<GCONST> 1.068144e+02
~s "ST_e_3_1"
<MEAN> 25
 6.309085e+00 -2.474257e+00 2.270850e+00 1.399119e+00 -2.731355e+00 -4.456708e+00 -4.595661e+00 -1.677897e+00 -6.664848e-01 -4.541260e+00 -3.700458e+00 -2.637561e-01 4.852910e-01 -2.083254e-02 -1.429047e+00 8.209143e-01 1.005228e+00 -2.479017e+00 1.656136e-01 1.264803e+00 -1.633519e-02 -6.541172e-01 -4.046642e-01 -1.741338e-01 3.289998e-01
<VARIANCE> 25
 6.665203e+01 1.785887e+01 2.783722e+01 6.867271e+01 3.706523e+01 9.199438e+01 4.706691e+01 4.231222e+01 4.103728e+01 6.182817e+01 2.582519e+01 3.151948e+01 7.897158e-01 5.027229e+00 2.514693e+00 3.036445e+00 4.899382e+00 8.512606e+00 3.468988e+00 2.684752e+00 2.321641e+00 3.596622e+00 2.860073e+00 3.199811e+00 1.706213e+00
<GCONST> 1.051007e+02
~s "ST_e_4_1"
<MEAN> 25
 1.852429e+01 -4.325943e+00 -6.070447e+00 6.168215e+00 5.383402e+00 -1.010233e+01 -6.713499e+00 -3.272236e-01 -1.318735e+00 -9.792431e+00 1.099139e+00 5.168061e+00 -9.814104e-03 4.003894e-01 -4.791904e-01 -5.304936e-01 4.098422e-01 9.287241e-01 9.222826e-01 1.992708e-01 -3.632336e-01 -4.781458e-02 9.017032e-02 3.139919e-01 -2.736387e-01
<VARIANCE> 25
 1.136512e+02 2.644713e+01 4.608170e+01 7.607774e+01 6.395984e+01 8.766416e+01 6.902409e+01 3.025988e+01 2.084477e+01 5.941248e+01 4.862254e+01 5.262230e+01 5.336819e-01 2.183327e+00 2.662941e+00 2.205717e+00 2.525569e+00 2.925597e+00 2.434465e+00 3.168589e+00 1.941882e+00 2.498246e+00 2.299804e+00 1.293073e+00 9.518996e-01
<GCONST> 1.019484e+02
~s "ST_r_2_1"
<MEAN> 25
 3.789316e+00 3.249012e+00 1.710165e+00 1.085072e+00 -3.181434e+00 -4.497331e+00 -3.496421e+00 2.644364e-02 -2.120054e+00 -4.352444e+00 1.580624e+00 3.855166e+00 -4.986491e-01 3.737795e-01 -4.406201e-01 3.179875e-01 7.335309e-01 6.505580e-02 -1.255422e-01 -4.580044e-02 3.506968e-01 -2.930582e-01 7.509593e-02 7.389745e-01 -8.756196e-01
<VARIANCE> 25
 2.047213e+01 2.019098e+01 2.121572e+01 2.303085e+01 6.643530e+01 3.305412e+01 5.825558e+01 7.103876e+01 1.918248e+01 1.673339e+01 1.066209e+01 1.482684e+01 9.940373e-01 2.195537e+00 3.562079e+00 3.578522e+00 1.423514e+00 3.175200e+00 4.781409e+00 2.966453e+00 3.208642e+00 3.461675e+00 1.649136e+00 3.076671e+00 9.925655e-01
<GCONST> 9.653036e+01
~s "ST_r_3_1"
<MEAN> 25
 4.539428e-01 4.044333e-01 -1.192016e+00 2.172446e+00 3.452748e+00 1.606241e+00 -4.015469e+00 -6.156095e+00 -1.430257e+00 2.672442e+00 1.025521e+00 1.121664e+00 -4.252874e-01 4.628616e-01 -5.079373e-01 -1.822491e-02 -3.973970e-01 1.142341e+00 1.130472e+00 9.000592e-01 2.678322e-01 4.760823e-01 -1.217904e-02 -3.974056e-02 -1.130658e+00
<VARIANCE> 25
 2.360022e+01 5.709521e+01 2.284654e+01 1.457003e+01 4.963128e+01 6.143243e+01 4.345274e+01 2.443325e+01 4.793923e+01 3.133450e+01 1.909449e+01 1.569031e+01 1.718624e+00 5.103275e+00 2.316901e+00 2.069734e+00 4.067711e+00 7.841405e+00 3.441417e+00 1.394411e+00 7.989566e+00 2.142100e+00 2.126428e+00 2.235230e+00 2.075804e+00
<GCONST> 1.008669e+02
~s "ST_r_4_1"
<MEAN> 25
 6.948062e-01 5.235614e+00 -1.367738e+00 3.307273e+00 3.114188e+00 4.762440e+00 -7.700834e-01 -4.369421e+00 -3.469244e+00 2.400822e+00 1.190208e+00 1.354751e+00 -6.998430e-01 5.639551e-01 -1.746481e-02 -4.817504e-02 -1.111153e-01 2.123691e-01 6.480465e-01 4.095796e-01 8.309060e-02 2.219810e-01 -1.437474e-01 -3.800191e-01 -8.388683e-01
<VARIANCE> 25
 4.165760e+01 3.084546e+01 3.456155e+01 1.490656e+01 2.634029e+01 4.140093e+01 3.337505e+01 1.577508e+01 4.578888e+01 2.303711e+01 1.288574e+01 1.438772e+01 6.968235e-01 1.082457e+00 9.500479e-01 1.692660e+00 1.322295e+00 1.398500e+00 1.881016e+00 7.645069e-01 1.419861e+00 1.735281e+00 1.274298e+00 1.083679e+00 2.409753e-01
<GCONST> 8.576678e+01
~s "ST_ny_2_1"
<MEAN> 25
 6.312815e-01 2.659041e+00 3.446987e+00 3.248221e+00 3.611808e+00 -5.342847e-01 -5.886040e+00 8.888394e-01 3.395155e-01 -1.179376e-01 9.757069e-01 -4.399945e+00 9.833078e-02 -5.407460e-01 1.386531e-01 2.919761e-01 1.086273e-02 -9.338214e-01 -2.024703e-01 -1.115408e-01 -3.161674e-01 1.620432e-01 7.212790e-01 7.797951e-02 5.814242e-01
<VARIANCE> 25
 7.425918e+00 3.123334e+01 2.023090e+01 3.214257e+01 5.545269e+01 5.353780e+01 5.428752e+01 1.877826e+01 2.083334e+01 1.441082e+01 2.036471e+01 4.240840e+01 7.744795e-01 1.740546e+00 1.790162e+00 2.019323e+00 2.715051e+00 5.137666e+00 3.429022e+00 1.813537e+00 1.244142e+00 1.402800e+00 1.386169e+00 2.550922e+00 6.939968e-01
<GCONST> 9.276066e+01
~s "ST_ny_3_1"
<MEAN> 25
 2.381028e+00 -3.380550e+00 3.922688e-01 5.247276e+00 4.259816e+00 -7.329549e+00 -5.355647e+00 -2.537721e+00 -2.506660e+00 1.021181e+00 6.457362e+00 1.570195e+00 3.181778e-01 6.436221e-02 -9.477463e-01 -6.555776e-01 -4.963655e-01 4.058436e-01 4.713359e-01 4.106601e-02 -2.133068e-01 -1.719264e-01 4.291462e-01 8.004119e-01 -7.363538e-02
<VARIANCE> 25
 7.193359e+00 1.817250e+01 2.715210e+01 3.461722e+01 3.221651e+01 3.982903e+01 3.058161e+01 2.353623e+01 1.642777e+01 2.205484e+01 2.648260e+01 2.861068e+01 5.730363e-01 5.524502e-01 1.063547e+00 1.451972e+00 2.236159e+00 2.857090e+00 1.143710e+00 1.181806e+00 9.677935e-01 9.758734e-01 8.958472e-01 7.893477e-01 3.338304e-01
<GCONST> 8.386399e+01
~s "ST_ny_4_1"
<MEAN> 25
 3.836486e+00 -3.564068e+00 -2.821968e+00 1.622740e+00 1.194836e+00 -2.962424e+00 -1.800012e+00 7.742875e-01 -3.067029e+00 -1.807456e+00 5.945462e+00 3.353054e+00 -2.491319e-01 4.557377e-01 -2.584522e-01 1.565002e-01 1.853163e-01 5.386161e-01 6.995776e-01 6.533470e-01 -1.452277e-01 1.107242e-02 -1.328284e-01 -1.053228e-01 -6.357238e-01
<VARIANCE> 25
 1.011277e+01 2.315927e+01 1.546466e+01 2.454583e+01 1.669734e+01 2.230838e+01 2.349174e+01 1.367581e+01 2.764539e+01 1.243458e+01 2.781939e+01 1.326183e+01 4.671718e-01 6.459538e-01 9.642334e-01 8.490947e-01 1.194356e+00 1.467375e+00 9.555176e-01 9.591250e-01 9.284312e-01 1.194133e+00 1.063692e+00 6.720109e-01 3.520279e-01
<GCONST> 7.858441e+01
~s "ST_h_2_1"
<MEAN> 25
 -1.775446e+00 -2.009950e+00 -3.780010e+00 -3.108411e+00 -2.636983e+00 2.819051e+00 7.113088e+00 1.885688e+00 -9.999383e-01 3.762856e+00 1.761851e+00 1.224576e+00 4.320433e-01 1.020040e-01 3.646121e-01 -7.084741e-02 6.139086e-01 -1.267157e+00 3.740339e-01 3.584938e-01 8.565236e-02 2.762391e-02 -2.175780e-01 2.144689e-01 1.334449e+00
<VARIANCE> 25
 4.154338e+01 5.174490e+01 4.026579e+01 3.946787e+01 3.885974e+01 6.615221e+01 4.607042e+01 2.656530e+01 2.350292e+01 2.965543e+01 1.549214e+01 1.853224e+01 3.349221e+00 6.924003e+00 3.354465e+00 2.912840e+00 3.717122e+00 4.515897e+00 3.902555e+00 3.053521e+00 1.772653e+00 2.728713e+00 1.325478e+00 1.317998e+00 3.927267e+00
<GCONST> 1.023831e+02
~s "ST_h_3_1"
<MEAN> 25
 -1.275745e+00 -2.244299e+00 4.352273e-01 -1.333779e+00 2.034039e+00 -1.010181e+00 3.941377e+00 6.854199e-01 1.263081e+00 1.983051e+00 1.546406e-01 8.514917e-01 1.122468e+00 -9.796098e-01 1.170175e-01 2.032803e-02 -5.929632e-01 2.804599e-02 -1.598593e+00 -3.156659e-01 1.821704e-01 -8.394442e-01 -5.573170e-01 -1.978099e-01 4.564844e-01
<VARIANCE> 25
 4.353834e+01 3.823192e+01 2.679257e+01 4.927893e+01 5.679594e+01 6.961724e+01 3.958670e+01 3.727746e+01 5.031308e+01 2.688355e+01 2.967484e+01 1.897091e+01 2.624095e+00 2.696563e+00 3.813249e+00 1.703461e+00 3.864527e+00 3.371480e+00 3.647852e+00 3.132421e+00 5.978047e+00 1.899044e+00 2.939649e+00 1.425794e+00 1.160863e+00
<GCONST> 1.025148e+02
~s "ST_h_4_1"
<MEAN> 25
 3.283218e+00 -2.818498e+00 -1.090387e+00 -1.367053e+00 -1.864366e+00 -2.111235e+00 1.626950e-01 -1.674937e-02 3.082001e-01 -1.386778e+00 -1.627616e+00 4.731902e-01 9.054764e-02 1.079717e-01 -1.797414e-01 1.339868e-01 5.241587e-02 -6.262847e-01 -2.458633e-01 -2.135401e-01 -2.132127e-02 -3.680831e-01 -5.233458e-01 3.465433e-02 -1.418015e-03
<VARIANCE> 25
 1.171164e+01 2.667908e+01 2.172599e+01 2.184679e+01 4.156365e+01 4.998143e+01 2.852243e+01 2.517538e+01 4.729174e+01 2.795417e+01 1.854606e+01 1.502176e+01 3.976123e-01 9.003076e-01 1.183998e+00 1.541896e+00 1.640469e+00 2.373390e+00 1.873053e+00 1.412804e+00 1.214213e+00 1.465670e+00 1.733368e+00 1.108958e+00 3.184647e-01
<GCONST> 8.687877e+01
~s "ST_u_2_1"
<MEAN> 25
 1.319453e+00 3.187233e+00 -1.190074e+00 2.386479e+00 5.675459e-01 1.693971e+00 2.764884e-01 -9.155819e-01 -1.757658e+00 -1.865507e+00 -5.121162e-01 1.133271e+00 -5.860246e-01 -3.353488e-01 3.923456e-02 -2.189701e-01 -1.737125e-01 -1.368020e-01 1.284198e+00 -2.424983e-01 -3.852915e-01 4.841134e-01 -3.023213e-01 4.724150e-01 -2.434350e-01
<VARIANCE> 25
 5.405635e+01 3.570001e+01 2.790297e+01 3.672792e+01 4.674754e+01 3.086617e+01 5.653034e+01 3.792890e+01 5.052240e+01 5.310324e+01 3.909505e+01 2.949865e+01 1.834523e+00 9.890747e+00 4.135371e+00 5.723243e+00 7.928560e+00 4.631124e+00 5.230774e+00 4.190830e+00 4.409718e+00 5.802692e+00 5.325216e+00 3.636006e+00 9.208251e+00
<GCONST> 1.115131e+02
~s "ST_u_3_1"
<MEAN> 25
 3.830946e+00 -2.504023e+00 1.756841e+00 -1.804227e-01 -1.125740e+00 -8.669873e-01 1.653005e+00 -3.773123e+00 -3.736878e+00 -1.012138e+00 -2.219351e+00 5.044361e-01 1.316058e+00 -6.219705e-01 1.483727e+00 -7.982952e-01 -4.374220e-01 -6.937323e-01 -9.583952e-01 5.777912e-01 4.921615e-02 -1.281634e+00 -5.941876e-01 -9.197036e-02 2.422506e+00
<VARIANCE> 25
 1.239097e+02 8.638438e+01 4.116967e+01 4.106606e+01 5.054303e+01 5.771609e+01 5.329600e+01 6.435704e+01 5.367867e+01 8.609547e+01 3.960448e+01 3.306743e+01 7.066354e+00 9.034880e+00 4.628650e+00 7.799919e+00 5.950460e+00 8.848430e+00 1.198329e+01 8.892915e+00 8.944088e+00 1.656535e+01 5.092174e+00 3.046727e+00 1.221340e+01
<GCONST> 1.210107e+02
~s "ST_u_4_1"
<MEAN> 25
 1.516709e+01 4.272852e+00 5.833680e+00 2.385949e+00 -3.940405e+00 -7.069068e+00 -3.178905e+00 2.502121e+00 -6.442847e-03 -1.112407e+01 -4.091710e+00 2.066367e+00 -5.758172e-01 5.397604e-01 -9.526692e-02 -2.115395e-01 -2.746639e-01 3.184933e-01 2.236137e-01 1.568572e-01 -1.060061e-01 6.429288e-01 1.197989e-01 -2.586099e-01 -9.551880e-01
<VARIANCE> 25
 1.618739e+02 6.345729e+01 4.861810e+01 3.943323e+01 3.899505e+01 1.100841e+02 8.824329e+01 4.196601e+01 6.905991e+01 1.454158e+02 2.583745e+01 3.311415e+01 1.456681e+00 2.960912e+00 2.092975e+00 3.455047e+00 2.641820e+00 5.414852e+00 4.980249e+00 4.255049e+00 3.876509e+00 4.121604e+00 1.578414e+00 2.202151e+00 2.044976e+00
<GCONST> 1.091774e+02
~s "ST_k_2_1"
<MEAN> 25
 -1.513887e-08 8.685321e-09 6.289883e-08 7.186313e-08 3.131923e-08 4.571417e-08 5.014053e-08 1.333485e-08 -7.134007e-08 8.713219e-09 1.011273e-09 4.209684e-08 -6.534437e-03 7.731597e-03 -5.306157e-03 4.609803e-03 -4.191151e-03 8.242088e-03 -6.219152e-03 5.951754e-03 -5.249157e-03 1.868283e-03 2.200403e-03 -1.269434e-03 2.744509e-03
<VARIANCE> 25
 6.716856e+01 2.941401e+01 5.663681e+01 4.741492e+01 4.696264e+01 4.914315e+01 4.999928e+01 4.303569e+01 5.672998e+01 3.222253e+01 2.850756e+01 4.103967e+01 2.100924e+00 1.434693e+00 1.891293e+00 2.194988e+00 2.363979e+00 2.636887e+00 2.464799e+00 2.732278e+00 2.851009e+00 2.222413e+00 2.036798e+00 2.011688e+00 1.909456e+00
<GCONST> 1.015924e+02
~s "ST_k_3_1"
<MEAN> 25
 -1.513887e-08 8.685321e-09 6.289883e-08 7.186313e-08 3.131923e-08 4.571417e-08 5.014053e-08 1.333485e-08 -7.134006e-08 8.713219e-09 1.011273e-09 4.209684e-08 -6.534438e-03 7.731596e-03 -5.306157e-03 4.609803e-03 -4.191151e-03 8.242088e-03 -6.219152e-03 5.951754e-03 -5.249158e-03 1.868283e-03 2.200403e-03 -1.269434e-03 2.744509e-03
<VARIANCE> 25
 6.716856e+01 2.941401e+01 5.663681e+01 4.741492e+01 4.696264e+01 4.914315e+01 4.999928e+01 4.303569e+01 5.672998e+01 3.222253e+01 2.850756e+01 4.103967e+01 2.100924e+00 1.434693e+00 1.891293e+00 2.194988e+00 2.363979e+00 2.636887e+00 2.464799e+00 2.732278e+00 2.851009e+00 2.222413e+00 2.036798e+00 2.011688e+00 1.909456e+00
<GCONST> 1.015924e+02
~s "ST_k_4_1"
<MEAN> 25
 -1.513887e-08 8.685321e-09 6.289883e-08 7.186313e-08 3.131923e-08 4.571417e-08 5.014053e-08 1.333485e-08 -7.134006e-08 8.713219e-09 1.011273e-09 4.209684e-08 -6.534437e-03 7.731597e-03 -5.306157e-03 4.609803e-03 -4.191151e-03 8.242088e-03 -6.219152e-03 5.951754e-03 -5.249157e-03 1.868283e-03 2.200403e-03 -1.269434e-03 2.744509e-03
<VARIANCE> 25
 6.716856e+01 2.941401e+01 5.663681e+01 4.741492e+01 4.696264e+01 4.914315e+01 4.999928e+01 4.303569e+01 5.672998e+01 3.222253e+01 2.850756e+01 4.103967e+01 2.100924e+00 1.434693e+00 1.891293e+00 2.194988e+00 2.363979e+00 2.636887e+00 2.464799e+00 2.732278e+00 2.851009e+00 2.222413e+00 2.036798e+00 2.011688e+00 1.909456e+00
<GCONST> 1.015924e+02
~s "ST_a_2_1"
<MEAN> 25
 3.473515e+00 -1.851438e+00 -1.481321e+00 -1.974636e+00 -1.547580e+00 -1.926230e+00 1.973280e-01 1.216972e+00 8.351092e-01 -1.035508e+00 -2.071335e+00 5.288489e-01 1.184205e-01 -1.436579e-01 -3.042946e-02 -8.329377e-01 -6.437531e-01 -1.401427e-01 3.899584e-01 3.622458e-01 5.972918e-01 -3.404901e-01 3.259135e-01 8.817884e-01 2.846561e-01
<VARIANCE> 25
 2.523285e+01 3.313370e+01 2.832155e+01 3.380777e+01 5.871962e+01 5.288625e+01 3.513358e+01 3.445410e+01 4.246615e+01 2.591090e+01 3.306683e+01 2.410536e+01 1.150328e+00 2.069070e+00 1.783341e+00 2.843144e+00 2.605967e+00 3.351876e+00 2.136371e+00 2.233326e+00 3.673207e+00 2.529382e+00 2.461614e+00 2.897050e+00 1.525800e+00
<GCONST> 9.920051e+01
~s "ST_a_3_1"
<MEAN> 25
 3.857493e+00 -1.322801e+00 -5.478097e-01 -2.907543e+00 -2.057219e+00 -1.039908e+00 8.899556e-01 1.514877e+00 1.262436e+00 -1.257400e+00 -1.042603e+00 1.590207e+00 -1.887484e-01 -1.248896e-01 4.627937e-02 -4.597776e-01 4.905582e-03 5.290324e-01 4.610319e-01 6.980408e-02 1.333089e-01 1.874426e-01 5.128013e-01 3.551589e-01 -8.158131e-02
<VARIANCE> 25
 3.784577e+01 4.345062e+01 3.578302e+01 3.745749e+01 4.792730e+01 5.470028e+01 3.927361e+01 3.903168e+01 4.434346e+01 3.209533e+01 2.986112e+01 1.916853e+01 1.284544e+00 2.512308e+00 1.666084e+00 2.493378e+00 2.935407e+00 3.827042e+00 2.297071e+00 2.561494e+00 2.935198e+00 2.053665e+00 2.626579e+00 1.934238e+00 1.658952e+00
<GCONST> 1.000846e+02
~s "ST_a_4_1"
<MEAN> 25
 1.884292e+00 -3.449307e+00 -1.924682e-01 -4.262415e+00 -7.865443e-01 5.436465e-01 -7.268820e-02 1.182181e+00 2.444708e+00 -8.519109e-01 1.665390e-01 1.578180e+00 -1.457703e-01 9.445491e-02 -1.651801e-01 1.867600e-01 5.029503e-01 2.407107e-01 7.186358e-02 -3.043555e-01 -4.321534e-01 2.329409e-01 3.026336e-01 -5.815480e-02 -2.276253e-01
<VARIANCE> 25
 2.535730e+01 3.312921e+01 2.711063e+01 3.062385e+01 4.858587e+01 4.106628e+01 3.655462e+01 2.632220e+01 4.697469e+01 3.230417e+01 2.330892e+01 2.112282e+01 8.918175e-01 1.832270e+00 1.274441e+00 1.981033e+00 3.081945e+00 2.366122e+00 2.261607e+00 2.172996e+00 2.532288e+00 1.899029e+00 2.104285e+00 1.546038e+00 1.104085e+00
<GCONST> 9.523918e+01
~s "ST_n_2_1"
<MEAN> 25
 -1.216479e+00 7.892501e+00 -2.166027e+00 2.258872e+00 7.084377e+00 5.315531e+00 2.084347e+00 -2.255439e+00 -7.326241e+00 -2.756033e-01 6.646424e-01 8.820601e-01 -6.620175e-01 1.008934e+00 -3.722634e-01 3.757308e-01 1.548823e-01 5.094142e-02 4.671478e-01 2.515259e-01 -2.328204e-01 4.540980e-01 -1.011713e-01 1.324730e-02 -1.109805e+00
<VARIANCE> 25
 5.628695e+01 7.893085e+01 2.931244e+01 2.628409e+01 4.256962e+01 3.583443e+01 5.524868e+01 2.613987e+01 7.623418e+01 2.932825e+01 2.814506e+01 1.749173e+01 2.271959e+00 7.080521e+00 2.887238e+00 3.122201e+00 5.766792e+00 3.777724e+00 4.908691e+00 3.288124e+00 4.957413e+00 2.912827e+00 3.134894e+00 1.925754e+00 3.607797e+00
<GCONST> 1.061002e+02
~s "ST_n_3_1"
<MEAN> 25
 -9.687703e-02 1.213495e+00 -1.777421e+00 4.785679e-01 -1.069709e+00 1.338475e+00 3.828969e+00 -8.082759e-01 -2.173117e+00 7.672709e-01 2.054268e+00 1.277587e+00 1.093375e+00 -1.695066e+00 7.002466e-01 -7.556715e-02 -1.458908e+00 -9.973456e-01 -4.167753e-01 3.914846e-01 1.075510e+00 -5.911309e-01 4.425696e-01 2.462534e-03 2.021326e+00
<VARIANCE> 25
 1.495076e+02 5.384650e+01 4.401968e+01 4.545178e+01 4.959009e+01 2.670495e+01 6.120480e+01 3.914377e+01 6.513050e+01 2.940331e+01 2.872054e+01 2.259303e+01 5.716224e+00 8.778159e+00 5.786739e+00 4.607598e+00 5.912785e+00 5.765107e+00 6.852326e+00 7.813907e+00 7.265334e+00 4.358968e+00 3.225357e+00 2.302880e+00 6.177298e+00
<GCONST> 1.135343e+02
~s "ST_n_4_1"
<MEAN> 25
 2.246639e+01 -2.206122e+00 -6.597942e+00 2.105073e+00 3.567113e+00 -9.687678e+00 -4.363341e+00 4.022913e+00 4.173810e+00 -1.083623e+01 -2.296950e+00 2.415151e+00 -9.787380e-02 -1.587110e-02 2.627815e-01 5.208666e-02 -3.117425e-02 -6.537917e-02 -1.693314e-01 -1.053619e-01 1.161835e-01 -1.471687e-01 -1.361143e-01 3.097335e-02 5.830573e-02
<VARIANCE> 25
 8.938772e+01 3.618107e+01 5.044347e+01 5.578120e+01 3.031725e+01 4.553050e+01 3.744931e+01 2.294797e+01 2.362758e+01 4.458281e+01 2.788579e+01 2.941191e+01 1.533815e+00 3.104572e+00 3.946042e+00 5.482352e+00 2.557125e+00 3.254490e+00 3.181585e+00 2.240457e+00 2.158062e+00 3.224567e+00 2.927522e+00 3.081500e+00 1.996182e+00
<GCONST> 1.031750e+02
~s "ST_t_2_1"
<MEAN> 25
 -1.096236e+00 3.335018e+00 1.252002e+00 1.382181e+00 9.098887e-01 2.977500e+00 3.914255e-01 -2.341616e+00 -3.778485e+00 1.109603e+00 6.507875e-02 -4.307994e-01 8.391767e-01 -6.737109e-01 2.636493e-01 3.488373e-02 -2.768256e-03 -9.435334e-01 -4.649383e-01 4.235751e-01 2.659909e-01 -6.416513e-01 -1.617453e-01 1.941833e-01 1.164790e+00
<VARIANCE> 25
 7.292433e+01 5.079316e+01 3.715725e+01 3.498319e+01 1.852136e+01 4.111899e+01 4.026209e+01 2.810896e+01 3.714912e+01 5.267494e+01 2.813911e+01 2.329145e+01 5.479019e+00 4.776780e+00 3.226241e+00 3.655554e+00 1.400343e+00 4.766579e+00 3.844707e+00 4.780493e+00 3.523828e+00 5.749222e+00 3.828332e+00 2.171744e+00 8.276822e+00
<GCONST> 1.068472e+02
~s "ST_t_3_1"
<MEAN> 25
 2.529823e+00 4.499303e+00 -4.284514e-01 -7.292413e-01 -3.284862e-01 -1.654412e-02 -1.656801e-01 -2.003203e+00 -5.538653e+00 -1.757249e+00 -2.567986e+00 1.320601e+00 -5.850778e-01 -4.031151e-01 -3.481560e-01 1.263140e-01 7.159996e-02 -1.559393e-01 2.919416e-02 8.729132e-04 5.570772e-01 1.520746e-03 4.247867e-02 2.159004e-01 -3.647280e-01
<VARIANCE> 25
 6.024026e+01 5.649313e+01 6.693533e+01 3.431989e+01 1.353749e+01 3.500518e+01 3.746298e+01 2.299989e+01 4.011489e+01 3.601661e+01 2.550095e+01 2.633377e+01 1.183342e+00 1.932211e+00 1.834310e+00 9.924091e-01 1.868278e+00 1.355748e+00 2.565378e+00 1.678993e+00 2.351781e+00 2.009308e+00 1.189399e+00 1.439970e+00 1.260106e+00
<GCONST> 9.466189e+01
~s "ST_t_4_1"
<MEAN> 25
 -1.153252e-01 -9.195561e-01 6.042458e-01 9.882140e-01 -2.140917e-01 9.924981e-01 -7.469682e-01 -1.030913e+00 1.842992e+00 -2.457651e-01 -7.257460e-01 -7.728062e-01 -8.240378e-02 -1.025778e-01 -1.757975e-01 1.035697e-01 4.750505e-02 -7.643862e-02 2.824373e-02 -5.468007e-02 1.566848e-01 1.933111e-01 1.848437e-01 6.538817e-02 -8.495557e-02
<VARIANCE> 25
 2.947445e+01 3.586795e+01 2.912270e+01 3.147730e+01 1.774267e+01 2.260291e+01 5.032007e+01 1.497468e+01 2.676250e+01 2.856514e+01 1.768864e+01 1.336119e+01 4.799041e-01 5.832520e-01 7.807212e-01 7.680487e-01 7.367235e-01 9.318396e-01 1.607729e+00 7.613388e-01 1.373875e+00 1.341308e+00 1.084860e+00 1.040974e+00 5.999014e-01
<GCONST> 8.271753e+01
~s "ST_sil_2_1"
<MEAN> 25
 -7.178158e+00 4.663566e+00 -2.002786e+00 2.331873e+00 -1.121005e+00 4.749357e+00 1.591853e+00 -1.524510e+00 1.038572e+00 3.245587e+00 3.483481e+00 -1.706206e-01 -2.213296e-01 -1.070244e-01 -1.762557e-01 -1.058399e-01 1.114350e-01 2.171326e-01 2.642280e-01 -1.346431e-02 7.916291e-02 7.285181e-02 -2.199885e-02 3.568022e-02 -1.182661e-01
<VARIANCE> 25
 6.748307e+01 4.126749e+01 3.846157e+01 3.966321e+01 2.850765e+01 4.112669e+01 3.371868e+01 2.342872e+01 2.792637e+01 2.699251e+01 2.180706e+01 2.205189e+01 1.334725e+00 1.255067e+00 1.182496e+00 1.264163e+00 1.436428e+00 1.687779e+00 1.694718e+00 1.688827e+00 1.412243e+00 1.342125e+00 1.249716e+00 1.117383e+00 1.097706e+00
<GCONST> 9.167021e+01
~s "silst"
<MEAN> 25
 -1.610566e+00 2.085984e+00 -3.473557e+00 2.229810e+00 6.805155e-02 1.241183e+00 5.326366e+00 9.036818e-01 -1.101172e+00 6.611057e-01 1.100589e-01 1.669186e+00 1.139697e+00 4.021930e-02 3.655009e-01 -8.224348e-02 -2.009972e-01 -7.662021e-03 -1.904403e-01 1.504390e-01 -2.202063e-01 2.418430e-01 -5.405740e-02 -3.507616e-03 7.427784e-01
<VARIANCE> 25
 7.381641e+01 6.256233e+01 5.591258e+01 6.730418e+01 4.579632e+01 5.208936e+01 5.934863e+01 3.519059e+01 6.271207e+01 4.033797e+01 3.154206e+01 2.744267e+01 7.147011e+00 5.461534e+00 4.781549e+00 5.516045e+00 3.888805e+00 6.145974e+00 7.142023e+00 3.648536e+00 5.391504e+00 4.140371e+00 3.977221e+00 2.644859e+00 7.546762e+00
<GCONST> 1.134893e+02
~s "ST_sil_3_1"
<MEAN> 25
 -1.695328e+00 2.056887e+00 -3.618475e+00 2.449031e+00 9.317169e-02 1.002035e+00 5.547813e+00 1.126843e+00 -1.189399e+00 6.923208e-01 2.465073e-02 1.684935e+00 1.196239e+00 2.957618e-03 3.389697e-01 -1.329150e-01 -2.060042e-01 -8.540901e-02 -1.765577e-01 1.489971e-01 -2.489778e-01 2.739829e-01 -9.998915e-02 1.991395e-02 8.146420e-01
<VARIANCE> 25
 7.358676e+01 5.953627e+01 5.470340e+01 6.766439e+01 4.528301e+01 5.208551e+01 6.133133e+01 3.581670e+01 6.361775e+01 4.017168e+01 3.169556e+01 2.791948e+01 7.028559e+00 5.399711e+00 4.827543e+00 5.577898e+00 3.776237e+00 5.967664e+00 7.174845e+00 3.673549e+00 5.412694e+00 4.126467e+00 4.009849e+00 2.650856e+00 7.483143e+00
<GCONST> 1.134393e+02
~s "ST_sil_4_1"
<MEAN> 25
 -1.210735e+01 5.093172e-01 9.246811e-01 -2.079269e+00 -3.709893e-01 3.423029e+00 2.195162e+00 2.042674e-02 -6.512218e-01 4.350270e+00 5.855122e-01 -1.210458e+00 -1.736691e-02 -1.356319e-02 -2.649307e-04 -5.996390e-03 5.341761e-03 2.665863e-03 -2.108049e-03 -3.340596e-03 -2.841103e-03 -4.026209e-03 1.437434e-02 4.801424e-03 -6.984716e-03
<VARIANCE> 25
 1.094413e+02 4.288769e+00 5.646923e+00 1.259711e+01 7.200935e+00 1.217627e+01 1.121805e+01 1.049047e+01 8.807273e+00 8.480939e+00 6.938056e+00 6.781355e+00 9.589610e-02 1.572058e-01 2.470183e-01 4.222255e-01 4.414019e-01 5.359345e-01 8.096335e-01 7.765385e-01 6.723018e-01 6.289119e-01 6.562821e-01 5.624744e-01 4.718156e-02
<GCONST> 6.049723e+01
~s "ST_j_2_1"
<MEAN> 25
 1.038722e+01 2.868383e+00 7.241198e+00 1.193011e+01 2.534302e+00 -5.354357e+00 -5.790829e+00 -3.763927e+00 -3.925430e+00 -6.169392e+00 2.957288e+00 -1.963736e-02 1.940267e-01 -5.758461e-02 -3.237547e-01 3.598698e-01 4.007095e-01 -4.510887e-01 -7.906432e-01 -5.558930e-01 -1.502754e-02 1.843333e-02 1.501135e-01 -1.895891e-01 1.541514e-01
<VARIANCE> 25
 1.225337e+02 8.515627e+01 4.357827e+01 8.519640e+01 9.544125e+01 5.955028e+01 6.701994e+01 2.817872e+01 3.163246e+01 7.145257e+01 2.436383e+01 3.162757e+01 5.094490e+00 1.048014e+01 7.148842e+00 7.361450e+00 7.572792e+00 6.095846e+00 8.609490e+00 4.016710e+00 4.359586e+00 4.672583e+00 2.327138e+00 2.738600e+00 4.668821e+00
<GCONST> 1.157020e+02
~s "ST_j_3_1"
<MEAN> 25
 4.791931e-01 -9.020915e-01 5.636628e+00 8.492499e+00 5.373050e+00 1.962283e+00 -6.780209e+00 -7.332659e+00 -4.772359e+00 -1.499821e+00 1.906957e+00 -1.655659e+00 -5.062099e-01 1.578579e+00 -1.259841e+00 -3.539532e-01 -1.843536e-01 5.406451e-01 5.750074e-01 6.288532e-02 -3.200791e-01 3.373745e-01 3.095936e-01 6.101146e-01 -1.725273e+00
<VARIANCE> 25
 3.074532e+01 3.760032e+01 2.789316e+01 2.480639e+01 3.614445e+01 5.522154e+01 3.210209e+01 2.303648e+01 1.797386e+01 1.868208e+01 3.367768e+01 2.168546e+01 2.484231e+00 3.366532e+00 2.287119e+00 2.977502e+00 2.978089e+00 3.091190e+00 2.096974e+00 2.488158e+00 2.070414e+00 2.312200e+00 2.982314e+00 1.908708e+00 5.065690e+00
<GCONST> 9.899565e+01
~s "ST_j_4_1"
<MEAN> 25
 1.674866e+01 -1.090474e+00 -6.643410e+00 9.519832e+00 6.819809e+00 -9.573449e+00 -1.014842e+01 -3.168705e+00 -3.589810e+00 -9.167479e+00 4.725984e+00 8.027390e+00 -1.452060e-01 7.001575e-01 -7.492517e-01 -1.464019e+00 -6.331732e-01 1.140039e+00 9.587469e-01 2.390055e-01 -2.936314e-01 -3.175791e-01 -1.024374e+00 4.414937e-02 -6.440673e-01
<VARIANCE> 25
 1.769115e+02 4.945916e+01 2.796704e+01 2.954172e+01 5.190877e+01 5.685712e+01 4.085595e+01 2.191741e+01 9.583616e+00 4.060410e+01 2.166426e+01 3.592829e+01 4.766204e-01 7.369773e-01 1.393617e+00 1.957972e+00 1.618620e+00 1.969976e+00 1.769552e+00 1.944817e+00 1.069659e+00 1.983871e+00 1.317506e+00 9.481155e-01 6.765541e-01
<GCONST> 9.208621e+01
~s "ST_w_2_1"
<MEAN> 25
 3.399578e+00 -5.756782e-01 -9.248180e-01 -3.310131e+00 -4.478203e+00 -7.538567e+00 1.150132e-01 3.478366e+00 2.986876e+00 -6.687879e-01 -1.901361e+00 9.912036e-01 4.411378e-02 1.073624e+00 8.240203e-01 5.178456e-01 -5.150968e-01 -8.874305e-01 -1.169395e+00 3.730287e-01 -4.601344e-02 4.556287e-01 1.536904e-01 -7.549521e-01 -6.009477e-01
<VARIANCE> 25
 2.700035e+01 3.460684e+01 3.721167e+01 3.165655e+01 1.851055e+01 2.970492e+01 3.568248e+01 1.304885e+01 2.819331e+01 1.757866e+01 1.603053e+01 1.563393e+01 3.114634e-01 1.082055e+00 7.801286e-01 1.353745e+00 7.457735e-01 1.236093e+00 2.269364e+00 1.701818e+00 1.327957e+00 8.183873e-01 1.151479e+00 8.338410e-01 4.806526e-01
<GCONST> 8.358784e+01
~s "ST_w_3_1"
<MEAN> 25
 2.696995e+00 -2.949595e+00 4.880632e+00 -9.236141e-01 -3.850246e+00 -4.120818e+00 -8.019337e+00 -5.155533e-01 8.691643e+00 3.417009e+00 2.177383e+00 -4.554265e+00 1.818206e-02 -3.990809e-02 -1.933997e-02 1.159654e-01 -1.256789e-01 -1.279099e-01 -7.598615e-02 3.044307e-02 5.863597e-02 2.542738e-02 -1.175303e-02 -4.275144e-03 4.686338e-03
<VARIANCE> 25
 1.525089e+01 4.326105e+01 1.182281e+01 1.397107e+01 2.482148e+01 2.689741e+01 2.667830e+01 3.061011e+01 3.829620e+01 2.219174e+01 2.168766e+01 1.325022e+01 2.285572e-01 6.662257e-01 3.517510e-01 7.220678e-01 1.337010e+00 1.490366e+00 2.097178e+00 1.437026e+00 6.223626e-01 1.299954e+00 1.421497e+00 1.208030e+00 2.045593e-01
<GCONST> 8.044255e+01
~s "ST_w_4_1"
<MEAN> 25
 2.279365e+01 -9.255659e-01 -3.705260e+00 3.513288e+00 -2.804760e+00 -1.990055e+01 -7.946031e+00 9.356146e+00 9.821451e+00 -8.074388e+00 -1.738300e+00 3.647575e+00 -9.608947e-02 2.879740e-01 2.779444e-01 5.100684e-02 -1.450008e-01 -5.512863e-02 8.863616e-04 -5.568220e-02 2.148954e-02 -2.714208e-02 -2.316230e-01 1.288123e-01 -1.607551e-01
<VARIANCE> 25
 6.381359e+01 2.775977e+01 3.939927e+01 2.228118e+01 1.227852e+01 4.094852e+01 3.115634e+01 1.203482e+01 2.411874e+01 2.696694e+01 2.415353e+01 8.281782e+00 3.275096e-01 1.171423e+00 2.038814e+00 1.501476e+00 5.736949e-01 1.455476e+00 2.248806e+00 6.838660e-01 5.293773e-01 1.026267e+00 8.408626e-01 3.878265e-01 4.611958e-01
<GCONST> 8.203336e+01
~s "ST_m_2_1"
<MEAN> 25
 3.212943e+00 2.736983e-02 7.095621e-01 -1.045516e+00 -4.138603e-01 -6.563820e-01 -1.862468e+00 1.298783e+00 1.173768e+00 -9.523167e-01 -2.319891e+00 -1.645465e+00 -3.499990e-01 1.361709e+00 6.366960e-02 8.962822e-01 1.035950e+00 3.864679e-01 2.593062e-01 4.759377e-01 -1.314566e+00 7.112643e-01 1.767436e-02 -6.105062e-01 -1.320766e+00
<VARIANCE> 25
 8.571005e+00 4.783102e+01 3.061038e+01 3.984325e+01 5.757011e+01 3.818636e+01 5.470562e+01 4.647725e+01 5.222070e+01 3.011827e+01 2.716443e+01 2.657194e+01 9.859744e-01 6.608266e+00 3.431050e+00 3.528771e+00 6.889630e+00 4.929303e+00 6.863391e+00 6.143134e+00 6.020578e+00 2.475403e+00 4.408188e+00 2.823532e+00 3.903079e+00
<GCONST> 1.067676e+02
~s "ST_m_3_1"
<MEAN> 25
 1.818768e+00 2.707703e+00 -3.302146e-01 6.873816e-01 2.351416e+00 2.403165e+00 6.089947e-01 4.077925e+00 -2.434124e+00 -6.664412e-01 -1.693490e+00 -3.693135e+00 -9.676690e-02 -1.551916e+00 6.142005e-02 -9.042448e-02 5.871078e-01 -2.328311e-01 -8.491158e-01 -3.674479e-03 8.555244e-01 1.858602e-01 -2.752925e-01 -1.198012e-01 9.715305e-01
<VARIANCE> 25
 8.191710e+00 7.711346e+01 2.728724e+01 4.191435e+01 5.379484e+01 6.156743e+01 6.303033e+01 3.630549e+01 4.687411e+01 3.678503e+01 2.118034e+01 3.187811e+01 8.764604e-01 4.862047e+00 1.885096e+00 4.871221e+00 7.629713e+00 4.841391e+00 3.800700e+00 4.450857e+00 5.594331e+00 1.622745e+00 2.609257e+00 2.705137e+00 3.992227e+00
<GCONST> 1.048947e+02
~s "ST_m_4_1"
<MEAN> 25
 1.632011e+00 -2.972716e+00 -4.716757e-01 3.245651e-02 5.603297e+00 5.561108e-01 -1.705890e+00 1.468553e-01 -6.561099e-01 1.941250e+00 -3.357883e+00 -1.952831e+00 -1.471806e-01 -3.020493e-02 1.313369e-01 1.981741e-01 9.127123e-02 3.864088e-01 2.822471e-01 -5.349622e-01 -3.914130e-02 -7.190183e-02 -2.916557e-01 1.915866e-01 -7.551066e-02
<VARIANCE> 25
 1.082962e+01 3.361445e+01 2.753997e+01 5.504540e+01 5.509069e+01 3.552690e+01 3.555070e+01 4.177028e+01 3.747141e+01 2.975736e+01 3.259664e+01 2.141190e+01 1.152325e+00 9.329929e-01 1.027124e+00 1.968632e+00 2.131312e+00 1.685469e+00 2.020075e+00 2.536634e+00 1.696937e+00 1.507992e+00 1.696645e+00 2.510448e+00 1.100986e+00
<GCONST> 9.378941e+01
~s "ST_p_2_1"
<MEAN> 25
 7.509121e+00 -4.075181e+00 5.599952e-01 -4.201290e+00 -1.425028e+00 -6.695296e+00 -7.581326e+00 2.606934e+00 4.051342e+00 -9.095460e+00 -7.502776e+00 2.151873e+00 1.194863e-01 4.365930e-01 -2.184931e-01 3.112507e-01 -2.436852e-02 -8.034429e-02 -6.354851e-01 8.436582e-01 1.048329e+00 1.663836e-01 7.302375e-01 2.962957e-01 -3.886790e-01
<VARIANCE> 25
 1.014059e+01 1.865834e+01 1.582833e+01 2.271504e+01 9.666099e+00 3.681268e+01 3.072554e+01 1.524700e+01 3.949942e+01 4.518931e+01 4.160192e+01 1.770056e+01 3.951473e-01 9.770038e-01 1.035984e+00 1.502835e+00 1.331294e+00 2.519946e+00 3.134036e+00 9.586579e-01 4.650003e+00 2.295693e+00 1.819901e+00 8.902128e-01 3.242468e-01
<GCONST> 8.671300e+01
~s "ST_p_3_1"
<MEAN> 25
 4.249358e+00 -1.227531e+00 1.605158e+00 -4.392594e-01 -2.862794e+00 -2.974382e+00 -4.546787e+00 2.841173e+00 4.837020e+00 -1.243500e+00 1.282688e+00 -5.076070e-01 -5.091036e-01 2.794512e-01 -2.115682e-01 3.547724e-02 -1.600080e-01 8.246001e-02 5.703354e-01 -1.027735e-01 -1.151646e-01 7.571718e-01 5.069559e-01 -1.120903e-01 -6.740899e-01
<VARIANCE> 25
 7.446872e+00 3.810600e+01 2.603693e+01 1.320181e+01 7.337059e+00 3.583089e+01 1.134626e+01 2.571999e+01 2.988052e+01 2.763470e+01 1.921541e+01 1.332085e+01 5.357238e-01 4.633541e-01 3.785705e-01 6.351781e-01 6.407428e-01 2.529418e+00 1.213602e+00 1.807229e+00 1.517239e+00 2.382875e+00 1.795678e+00 1.177149e+00 4.516255e-01
<GCONST> 8.063261e+01
~s "ST_p_4_1"
<MEAN> 25
 2.982226e+00 -1.083467e+00 -1.262262e+00 7.367540e-01 3.249858e-01 2.904840e+00 2.053836e+00 -6.352128e-01 4.726740e-01 2.402162e+00 7.237138e-01 5.763292e-01 -2.399751e-02 6.686459e-03 -3.904194e-02 -2.424370e-02 -2.669631e-02 -1.253186e-02 4.853832e-02 2.999266e-02 3.713805e-03 3.343888e-02 2.523876e-02 -5.950767e-03 -4.507472e-02
<VARIANCE> 25
 1.529304e+00 2.860493e+00 3.278620e+00 4.865241e+00 4.870779e+00 1.047304e+01 7.841352e+00 6.380307e+00 6.509282e+00 8.925771e+00 6.239486e+00 6.019108e+00 1.158711e-01 1.575428e-01 2.488773e-01 4.375846e-01 4.786764e-01 6.837707e-01 7.485984e-01 7.743056e-01 6.490386e-01 7.332722e-01 6.643206e-01 8.350362e-01 5.347325e-02
<GCONST> 5.358181e+01
~h "a"
<BEGINHMM>
<NUMSTATES> 5
<STATE> 2
~s "ST_a_2_1"
<STATE> 3
~s "ST_a_3_1"
<STATE> 4
~s "ST_a_4_1"
~t "T_a"
<ENDHMM>
~h "b"
<BEGINHMM>
<NUMSTATES> 5
<STATE> 2
~s "ST_b_2_1"
<STATE> 3
~s "ST_b_3_1"
<STATE> 4
~s "ST_b_4_1"
~t "T_b"
<ENDHMM>
~h "e"
<BEGINHMM>
<NUMSTATES> 5
<STATE> 2
~s "ST_e_2_1"
<STATE> 3
~s "ST_e_3_1"
<STATE> 4
~s "ST_e_4_1"
~t "T_e"
<ENDHMM>
~h "h"
<BEGINHMM>
<NUMSTATES> 5
<STATE> 2
~s "ST_h_2_1"
<STATE> 3
~s "ST_h_3_1"
<STATE> 4
~s "ST_h_4_1"
~t "T_h"
<ENDHMM>
~h "i"
<BEGINHMM>
<NUMSTATES> 5
<STATE> 2
~s "ST_i_2_1"
<STATE> 3
~s "ST_i_3_1"
<STATE> 4
~s "ST_i_4_1"
~t "T_i"
<ENDHMM>
~h "j"
<BEGINHMM>
<NUMSTATES> 5
<STATE> 2
~s "ST_j_2_1"
<STATE> 3
~s "ST_j_3_1"
<STATE> 4
~s "ST_j_4_1"
~t "T_j"
<ENDHMM>
~h "k"
<BEGINHMM>
<NUMSTATES> 5
<STATE> 2
~s "ST_k_2_1"
<STATE> 3
~s "ST_k_3_1"
<STATE> 4
~s "ST_k_4_1"
~t "T_k"
<ENDHMM>
~h "l"
<BEGINHMM>
<NUMSTATES> 5
<STATE> 2
~s "ST_l_2_1"
<STATE> 3
~s "ST_l_3_1"
<STATE> 4
~s "ST_l_4_1"
~t "T_l"
<ENDHMM>
~h "m"
<BEGINHMM>
<NUMSTATES> 5
<STATE> 2
~s "ST_m_2_1"
<STATE> 3
~s "ST_m_3_1"
<STATE> 4
~s "ST_m_4_1"
~t "T_m"
<ENDHMM>
~h "n"
<BEGINHMM>
<NUMSTATES> 5
<STATE> 2
~s "ST_n_2_1"
<STATE> 3
~s "ST_n_3_1"
<STATE> 4
~s "ST_n_4_1"
~t "T_n"
<ENDHMM>
~h "p"
<BEGINHMM>
<NUMSTATES> 5
<STATE> 2
~s "ST_p_2_1"
<STATE> 3
~s "ST_p_3_1"
<STATE> 4
~s "ST_p_4_1"
~t "T_p"
<ENDHMM>
~h "r"
<BEGINHMM>
<NUMSTATES> 5
<STATE> 2
~s "ST_r_2_1"
<STATE> 3
~s "ST_r_3_1"
<STATE> 4
~s "ST_r_4_1"
~t "T_r"
<ENDHMM>
~h "s"
<BEGINHMM>
<NUMSTATES> 5
<STATE> 2
~s "ST_s_2_1"
<STATE> 3
~s "ST_s_3_1"
<STATE> 4
~s "ST_s_4_1"
~t "T_s"
<ENDHMM>
~h "t"
<BEGINHMM>
<NUMSTATES> 5
<STATE> 2
~s "ST_t_2_1"
<STATE> 3
~s "ST_t_3_1"
<STATE> 4
~s "ST_t_4_1"
~t "T_t"
<ENDHMM>
~h "u"
<BEGINHMM>
<NUMSTATES> 5
<STATE> 2
~s "ST_u_2_1"
<STATE> 3
~s "ST_u_3_1"
<STATE> 4
~s "ST_u_4_1"
~t "T_u"
<ENDHMM>
~h "w"
<BEGINHMM>
<NUMSTATES> 5
<STATE> 2
~s "ST_w_2_1"
<STATE> 3
~s "ST_w_3_1"
<STATE> 4
~s "ST_w_4_1"
~t "T_w"
<ENDHMM>
~h "kh"
<BEGINHMM>
<NUMSTATES> 5
<STATE> 2
~s "ST_kh_2_1"
<STATE> 3
~s "ST_kh_3_1"
<STATE> 4
~s "ST_kh_4_1"
~t "T_kh"
<ENDHMM>
~h "ny"
<BEGINHMM>
<NUMSTATES> 5
<STATE> 2
~s "ST_ny_2_1"
<STATE> 3
~s "ST_ny_3_1"
<STATE> 4
~s "ST_ny_4_1"
~t "T_ny"
<ENDHMM>
~h "sp"
<BEGINHMM>
<NUMSTATES> 3
<STATE> 2
~s "ST_sil_3_1"
<TRANSP> 3
 0.000000e+00 1.483247e-01 8.516753e-01
 0.000000e+00 7.860296e-01 2.139704e-01
 0.000000e+00 0.000000e+00 0.000000e+00
<ENDHMM>
~h "sil"
<BEGINHMM>
<NUMSTATES> 5
<STATE> 2
~s "ST_sil_2_1"
<STATE> 3
~s "ST_sil_3_1"
<STATE> 4
~s "ST_sil_4_1"
<TRANSP> 5
 0.000000e+00 1.000000e+00 0.000000e+00 0.000000e+00 0.000000e+00
 0.000000e+00 6.945914e-01 1.073781e-01 1.980305e-01 0.000000e+00
 0.000000e+00 0.000000e+00 8.015134e-01 1.984867e-01 0.000000e+00
 0.000000e+00 4.884337e-03 0.000000e+00 9.352397e-01 5.987591e-02
 0.000000e+00 0.000000e+00 0.000000e+00 0.000000e+00 0.000000e+00
<ENDHMM>
