~o
<STREAMINFO> 1 25
<VECSIZE> 25<NULLD><MFCC_D_N_Z_0><DIAGC>
~h "a"
<BEGINHMM>
<NUMSTATES> 5
<STATE> 2
<MEAN> 25
 3.821998e+00 -2.442904e+00 -1.302325e+00 -2.293128e+00 -8.759950e-01 -1.933625e+00 3.745175e-01 1.650467e+00 1.258685e+00 -9.778156e-01 -9.693173e-01 8.899502e-01 1.000180e-03 -2.765686e-02 2.702464e-02 -1.213325e-01 -2.368336e-02 -4.505302e-02 -9.681839e-02 4.511037e-02 2.361796e-01 -2.629673e-02 -9.254963e-02 9.882788e-02 -1.138711e-02
<VARIANCE> 25
 4.620694e+01 3.561750e+01 2.997779e+01 3.858598e+01 5.606768e+01 5.302819e+01 3.892799e+01 3.137750e+01 4.745199e+01 2.963410e+01 3.467038e+01 2.473149e+01 8.968729e-01 2.013056e+00 1.759456e+00 2.486305e+00 3.065540e+00 3.080468e+00 2.613343e+00 2.519396e+00 3.242603e+00 2.106182e+00 2.548481e+00 2.169154e+00 1.260196e+00
<GCONST> 9.957296e+01
<STATE> 3
<MEAN> 25
 3.777117e+00 -2.236065e+00 -1.130031e+00 -2.243642e+00 -7.213045e-01 -1.632773e+00 1.828898e-01 1.557157e+00 1.493231e+00 -1.003632e+00 -1.049067e+00 9.711255e-01 -9.100597e-02 1.542381e-01 1.034270e-02 7.360119e-02 9.850773e-02 1.934609e-01 -8.274990e-02 -4.003552e-02 8.652836e-02 -4.240524e-04 -4.594623e-03 -2.999558e-02 -2.168734e-01
<VARIANCE> 25
 4.699454e+01 3.566035e+01 2.979930e+01 4.057626e+01 5.361346e+01 5.325736e+01 4.014194e+01 3.550883e+01 4.604909e+01 3.436189e+01 3.070922e+01 2.327710e+01 9.151381e-01 2.068306e+00 1.579993e+00 2.365822e+00 2.849009e+00 3.075175e+00 2.529022e+00 2.410187e+00 2.930263e+00 2.154513e+00 2.736925e+00 2.029224e+00 1.285413e+00
<GCONST> 9.936919e+01
<STATE> 4
<MEAN> 25
 3.350531e+00 -1.769971e+00 -1.263496e+00 -1.910449e+00 -4.847225e-01 -9.533377e-01 8.131273e-02 1.342526e+00 1.506614e+00 -1.174290e+00 -6.919692e-01 9.896791e-01 -1.008008e-01 1.910822e-01 4.173427e-02 1.039645e-01 4.578908e-02 1.907999e-01 -3.932516e-02 -8.384351e-02 6.863756e-03 5.491076e-02 2.753549e-02 2.831799e-03 -2.589465e-01
<VARIANCE> 25
 5.890820e+01 3.413454e+01 2.916622e+01 3.847717e+01 4.415373e+01 5.910183e+01 3.930335e+01 3.445210e+01 4.017889e+01 3.704051e+01 2.572241e+01 2.091971e+01 8.996580e-01 1.792471e+00 1.334882e+00 2.199798e+00 2.363259e+00 2.725989e+00 2.219392e+00 2.000402e+00 2.070068e+00 1.811680e+00 2.033141e+00 1.589709e+00 1.125859e+00
<GCONST> 9.676956e+01
<TRANSP> 5
 0.000000e+00 1.000000e+00 0.000000e+00 0.000000e+00 0.000000e+00
 0.000000e+00 4.022864e-01 5.977136e-01 0.000000e+00 0.000000e+00
 0.000000e+00 0.000000e+00 3.831423e-01 6.168577e-01 0.000000e+00
 0.000000e+00 0.000000e+00 0.000000e+00 4.668503e-01 5.331497e-01
 0.000000e+00 0.000000e+00 0.000000e+00 0.000000e+00 0.000000e+00
<ENDHMM>
~h "b"
<BEGINHMM>
<NUMSTATES> 5
<STATE> 2
<MEAN> 25
 2.265177e+00 6.605199e+00 1.215472e+00 4.490048e+00 -2.314414e-01 -2.504024e+00 1.922604e+00 5.109433e+00 -9.804274e-01 -2.833073e+00 -2.736955e+00 -3.186248e+00 1.798882e-01 8.379459e-01 -7.459446e-02 3.046758e-01 1.732440e-01 -4.386863e-03 -2.593778e-01 1.334140e+00 2.270607e-01 -6.888322e-01 -5.293566e-01 -5.462189e-01 -7.112997e-01
<VARIANCE> 25
 6.426908e+01 1.191296e+02 2.018801e+01 3.485204e+01 5.363354e+01 3.535455e+01 7.315867e+01 1.447814e+02 2.215395e+01 5.577858e+01 4.377900e+01 4.634936e+01 1.625554e+00 7.766510e+00 2.618000e+00 4.634629e+00 4.996960e+00 5.575345e+00 7.388188e+00 1.215241e+01 3.216462e+00 5.001177e+00 3.065353e+00 1.740699e+00 7.209564e+00
<GCONST> 1.122807e+02
<STATE> 3
<MEAN> 25
 4.735733e+00 9.302125e-01 1.918491e+00 4.819600e+00 -4.577261e+00 -2.376312e+00 -1.576541e+00 -3.540972e-01 -3.711516e+00 -2.114339e+00 2.292984e+00 -5.615834e+00 1.788233e-01 -2.081870e-01 -8.409391e-02 -3.898974e-01 8.553897e-02 1.583728e-01 -6.229127e-01 -5.739633e-01 2.932091e-02 -8.377311e-01 -4.227769e-01 1.129074e-02 5.698473e-01
<VARIANCE> 25
 5.235712e+01 8.048063e+01 1.707277e+01 5.617411e+01 7.993259e+01 3.044649e+01 9.804282e+01 1.141865e+02 7.807243e+01 6.374306e+01 8.711620e+01 4.723630e+01 1.089116e+00 6.298805e+00 2.880196e+00 9.012599e+00 7.502552e+00 5.582877e+00 9.484681e+00 1.472779e+01 5.465901e+00 5.161501e+00 3.746328e+00 1.803661e+00 4.903121e+00
<GCONST> 1.158111e+02
<STATE> 4
<MEAN> 25
 1.929245e+01 2.485033e-01 4.881860e+00 5.562677e+00 8.655376e-01 -3.787491e+00 -8.042609e+00 -2.884758e+00 2.062425e+00 -8.960404e+00 -2.386757e+00 -1.565018e+00 -3.754101e-02 2.223142e-03 4.731021e-02 -1.542463e-01 2.356497e-01 -1.721646e-01 -2.089650e-01 -3.219777e-02 -5.383155e-02 1.990052e-01 1.644509e-02 -4.406608e-02 1.026008e-01
<VARIANCE> 25
 7.385792e+01 8.401108e+01 1.644747e+02 7.477061e+01 1.638085e+02 1.961575e+02 6.403574e+01 7.311341e+01 5.196149e+01 8.814857e+01 4.125953e+01 3.125675e+01 2.950459e+00 7.273670e+00 1.374480e+01 5.160386e+00 1.041616e+01 9.983763e+00 5.557034e+00 6.202855e+00 4.323806e+00 6.865092e+00 2.952965e+00 3.251359e+00 2.246164e+00
<GCONST> 1.204919e+02
<TRANSP> 5
 0.000000e+00 1.000000e+00 0.000000e+00 0.000000e+00 0.000000e+00
 0.000000e+00 6.122358e-01 3.877642e-01 0.000000e+00 0.000000e+00
 0.000000e+00 0.000000e+00 6.217927e-01 3.782073e-01 0.000000e+00
 0.000000e+00 0.000000e+00 0.000000e+00 9.075661e-01 9.243400e-02
 0.000000e+00 0.000000e+00 0.000000e+00 0.000000e+00 0.000000e+00
<ENDHMM>
~h "e"
<BEGINHMM>
<NUMSTATES> 5
<STATE> 2
<MEAN> 25
 4.225505e+00 -5.818153e-01 1.894560e+00 -1.991285e+00 6.214970e-02 -7.788104e-01 -3.490163e+00 -1.894007e+00 2.541012e-01 -2.503298e+00 -2.293280e+00 -6.908693e-01 5.678375e-01 -1.761953e-01 -9.488373e-02 4.702328e-01 -1.735279e-01 -2.667830e-01 -5.140599e-01 1.297259e-01 2.449894e-04 -5.789902e-02 -3.677854e-01 -3.023554e-01 1.188324e-01
<VARIANCE> 25
 1.032418e+02 5.834542e+01 6.429569e+01 4.353849e+01 4.531206e+01 7.227330e+01 3.825196e+01 6.029446e+01 4.203068e+01 6.589848e+01 6.916845e+01 4.306193e+01 1.919670e+00 7.146830e+00 4.935413e+00 4.091468e+00 4.453744e+00 5.827968e+00 4.073574e+00 3.863323e+00 3.291291e+00 5.039142e+00 3.372156e+00 2.542313e+00 2.690237e+00
<GCONST> 1.119341e+02
<STATE> 3
<MEAN> 25
 5.264949e+00 -5.435368e-01 1.888616e+00 -7.142012e-01 -1.914311e-01 -1.967250e+00 -4.333485e+00 -1.319786e+00 3.664869e-01 -2.600857e+00 -2.780611e+00 -1.235460e+00 4.399656e-01 4.450191e-02 -4.101547e-01 8.303288e-01 9.819227e-02 -7.950973e-01 -1.351465e-01 2.832711e-01 1.298050e-02 -4.119883e-02 -2.115515e-01 -2.537722e-01 -3.785059e-03
<VARIANCE> 25
 9.901846e+01 4.224579e+01 4.762064e+01 4.564647e+01 4.871160e+01 6.702332e+01 3.995554e+01 5.115952e+01 4.596442e+01 5.411677e+01 6.164962e+01 4.260725e+01 1.422948e+00 5.552320e+00 4.063762e+00 3.841702e+00 4.575195e+00 7.922356e+00 3.610093e+00 3.722327e+00 2.831603e+00 5.318141e+00 3.838559e+00 2.886283e+00 2.122737e+00
<GCONST> 1.102492e+02
<STATE> 4
<MEAN> 25
 1.885013e+01 -3.728397e+00 -2.456180e+00 4.089559e+00 1.554811e+00 -7.703836e+00 -6.418547e+00 3.681011e-01 1.475702e+00 -9.404734e+00 6.462344e-01 2.188504e+00 1.072252e-01 -1.349067e-01 -3.200134e-01 -1.202930e-02 -2.523891e-02 -7.793843e-02 2.075932e-01 1.125198e-01 -1.856801e-01 -2.247060e-01 1.587016e-01 2.600848e-01 7.901118e-02
<VARIANCE> 25
 1.238472e+02 5.531630e+01 1.579640e+02 6.751710e+01 9.125167e+01 1.421286e+02 4.997419e+01 4.874327e+01 3.837949e+01 5.885989e+01 4.770900e+01 4.633723e+01 2.513832e+00 6.836358e+00 8.521487e+00 4.677287e+00 5.709835e+00 8.973581e+00 5.063401e+00 3.601248e+00 2.845728e+00 3.611025e+00 4.132045e+00 3.094263e+00 1.401784e+00
<GCONST> 1.153310e+02
<TRANSP> 5
 0.000000e+00 1.000000e+00 0.000000e+00 0.000000e+00 0.000000e+00
 0.000000e+00 2.697064e-01 7.302937e-01 0.000000e+00 0.000000e+00
 0.000000e+00 0.000000e+00 2.833339e-01 7.166662e-01 0.000000e+00
 0.000000e+00 0.000000e+00 0.000000e+00 8.143317e-01 1.856683e-01
 0.000000e+00 0.000000e+00 0.000000e+00 0.000000e+00 0.000000e+00
<ENDHMM>
~h "h"
<BEGINHMM>
<NUMSTATES> 5
<STATE> 2
<MEAN> 25
 -2.243824e+00 -1.694938e+00 -4.163624e+00 -5.922099e-01 -1.308774e+00 1.934061e+00 8.555534e+00 5.032280e-01 -1.362084e+00 3.019257e+00 1.270744e+00 8.862365e-01 1.360295e+00 -2.740827e-01 9.858531e-01 -3.214975e-01 3.701102e-01 -1.019954e+00 -3.202599e-01 4.441090e-01 -5.470644e-02 1.954497e-01 -4.571162e-01 1.278983e-01 2.141194e+00
<VARIANCE> 25
 6.604484e+01 5.083104e+01 4.010634e+01 7.137152e+01 6.316541e+01 6.058152e+01 4.975117e+01 3.098094e+01 4.148271e+01 2.874046e+01 2.521960e+01 1.770374e+01 5.194308e+00 5.948667e+00 4.367946e+00 3.269237e+00 4.812875e+00 4.909310e+00 5.924799e+00 3.700646e+00 5.371298e+00 2.693703e+00 2.563221e+00 1.773086e+00 3.516831e+00
<GCONST> 1.085835e+02
<STATE> 3
<MEAN> 25
 2.054445e+00 -3.466498e+00 -8.101654e-01 -2.121661e+00 -1.006169e+00 -6.552491e-02 3.884076e+00 1.347241e+00 -6.079202e-01 2.588711e+00 2.762026e-01 4.765269e-01 1.023573e+00 -5.441663e-01 4.292408e-01 -3.454084e-01 -5.777805e-01 -6.800013e-01 -1.143974e+00 1.528779e-01 3.849502e-01 -6.316047e-01 -3.297230e-01 -1.985752e-01 6.997731e-01
<VARIANCE> 25
 5.192828e+01 3.852767e+01 4.570611e+01 3.997282e+01 5.975951e+01 6.083302e+01 4.583461e+01 3.778637e+01 4.478982e+01 2.377636e+01 2.530190e+01 1.613465e+01 2.279737e+00 3.191312e+00 3.346114e+00 2.686134e+00 3.793729e+00 5.910115e+00 4.001933e+00 2.840785e+00 4.369944e+00 2.135329e+00 2.619104e+00 1.853935e+00 1.777830e+00
<GCONST> 1.038067e+02
<STATE> 4
<MEAN> 25
 2.776391e+00 -3.412635e+00 -4.340853e-01 -3.070056e+00 -1.062218e+00 -2.040373e-01 1.010018e+00 1.312806e+00 -2.239192e-01 8.827085e-01 -3.416008e-01 -8.665795e-02 3.315105e-01 4.889782e-03 -6.958599e-02 7.058566e-02 3.725234e-03 -5.393726e-01 -6.427095e-01 -9.522882e-02 2.061929e-01 -4.780373e-01 -3.411069e-01 -5.417747e-02 1.124451e-01
<VARIANCE> 25
 3.343768e+01 3.279605e+01 3.825283e+01 3.951878e+01 4.681944e+01 5.777039e+01 3.571497e+01 3.192971e+01 4.769309e+01 2.133004e+01 1.832750e+01 1.262096e+01 7.847299e-01 1.455169e+00 1.454321e+00 2.289267e+00 2.356127e+00 2.761317e+00 1.934072e+00 1.794426e+00 2.241796e+00 1.603995e+00 1.543905e+00 1.464512e+00 6.145963e-01
<GCONST> 9.363981e+01
<TRANSP> 5
 0.000000e+00 1.000000e+00 0.000000e+00 0.000000e+00 0.000000e+00
 0.000000e+00 6.886503e-01 3.113497e-01 0.000000e+00 0.000000e+00
 0.000000e+00 0.000000e+00 4.480292e-01 5.519708e-01 0.000000e+00
 0.000000e+00 0.000000e+00 0.000000e+00 5.734047e-01 4.265953e-01
 0.000000e+00 0.000000e+00 0.000000e+00 0.000000e+00 0.000000e+00
<ENDHMM>
~h "i"
<BEGINHMM>
<NUMSTATES> 5
<STATE> 2
<MEAN> 25
 5.241561e+00 -5.825411e+00 8.588330e+00 9.812616e+00 -1.450890e+00 -4.012742e+00 -5.730771e+00 -2.606787e+00 -2.346248e+00 -1.710791e-02 1.196668e+00 -2.292395e+00 7.851278e-01 9.196989e-01 5.263419e-01 1.373803e+00 1.471194e+00 -1.204626e+00 -1.079132e+00 -3.341701e-01 -7.912374e-01 -1.002376e+00 8.780091e-02 -7.165819e-01 5.405089e-01
<VARIANCE> 25
 7.514001e+01 9.608732e+01 3.992813e+01 1.038274e+02 9.305685e+01 5.505473e+01 5.076435e+01 5.330096e+01 2.472839e+01 4.895870e+01 2.898318e+01 3.707987e+01 1.779725e+00 4.386209e+00 3.856635e+00 4.086424e+00 6.659552e+00 3.340500e+00 3.692892e+00 2.638868e+00 2.756886e+00 5.181170e+00 2.617656e+00 2.524949e+00 1.259522e+00
<GCONST> 1.086544e+02
<STATE> 3
<MEAN> 25
 2.477418e+00 -1.690994e+00 1.069539e+01 8.121586e+00 1.444796e+00 -5.491839e+00 -6.410944e+00 -2.870195e+00 -4.855877e+00 -2.571881e+00 -5.193477e-02 -3.103068e+00 2.777990e-01 1.065357e-02 -7.283982e-01 2.539022e-02 1.805978e-01 -1.749514e-01 -3.276711e-01 -8.868017e-01 2.837768e-02 -3.779719e-02 2.620641e-01 5.244817e-01 1.283612e-01
<VARIANCE> 25
 4.118480e+01 1.507558e+01 3.938176e+01 1.250612e+02 1.138880e+02 2.697441e+01 7.945002e+01 3.795511e+01 1.554679e+01 7.969331e+01 3.476281e+01 4.692086e+01 4.406145e-01 9.125929e-01 2.158433e+00 1.968432e+00 1.898337e+00 1.850006e+00 1.863054e+00 2.531099e+00 1.692051e+00 2.608250e+00 1.531437e+00 1.422074e+00 9.114313e-01
<GCONST> 9.695368e+01
<STATE> 4
<MEAN> 25
 1.537133e+01 1.449591e+00 1.431904e+00 9.817514e+00 7.369275e+00 -5.160556e+00 -1.023447e+01 -8.533918e+00 -5.326797e+00 -3.908862e+00 2.754428e+00 6.592590e-01 -2.010808e-01 4.593357e-01 -3.794524e-01 -9.043115e-01 -2.634671e-01 6.943781e-01 4.109452e-01 3.631845e-03 1.594318e-01 2.126230e-01 -4.587221e-02 4.703803e-01 -4.350316e-01
<VARIANCE> 25
 9.909351e+01 3.960604e+01 4.045662e+01 1.532872e+02 5.852325e+01 1.373320e+02 9.610426e+01 4.082161e+01 1.844423e+01 3.854494e+01 3.867661e+01 2.765995e+01 9.482868e-01 7.876529e-01 2.947960e+00 3.402463e+00 1.338219e+00 3.811748e+00 3.647110e+00 2.701031e+00 1.100163e+00 2.249103e+00 2.047812e+00 2.865662e+00 7.384592e-01
<GCONST> 1.020660e+02
<TRANSP> 5
 0.000000e+00 1.000000e+00 0.000000e+00 0.000000e+00 0.000000e+00
 0.000000e+00 7.691222e-01 2.308778e-01 0.000000e+00 0.000000e+00
 0.000000e+00 0.000000e+00 7.176989e-01 2.823011e-01 0.000000e+00
 0.000000e+00 0.000000e+00 0.000000e+00 8.434704e-01 1.565296e-01
 0.000000e+00 0.000000e+00 0.000000e+00 0.000000e+00 0.000000e+00
<ENDHMM>
~h "j"
<BEGINHMM>
<NUMSTATES> 5
<STATE> 2
<MEAN> 25
 8.257318e+00 2.275019e+00 6.227483e+00 1.044671e+01 4.478221e+00 -2.380005e+00 -5.353933e+00 -4.094829e+00 -4.897459e+00 -3.991563e+00 1.902637e+00 3.288713e-01 1.406978e-01 1.361213e-01 -2.268998e-01 3.662646e-01 1.201621e-01 -2.102380e-01 -4.795240e-01 -2.647485e-01 -1.376009e-01 3.536648e-02 1.141017e-01 -2.118045e-01 -1.771842e-01
<VARIANCE> 25
 1.065871e+02 9.454633e+01 3.854855e+01 7.018787e+01 7.490337e+01 6.239686e+01 5.389034e+01 2.740702e+01 2.766737e+01 5.250922e+01 2.533853e+01 2.791738e+01 2.790763e+00 1.163547e+01 4.413695e+00 6.279665e+00 6.670192e+00 6.042601e+00 5.817401e+00 3.358958e+00 3.379758e+00 3.816632e+00 2.831820e+00 2.347485e+00 5.474825e+00
<GCONST> 1.122813e+02
<STATE> 3
<MEAN> 25
 1.810543e+00 1.228863e+00 4.924812e+00 8.903655e+00 4.925587e+00 2.494391e-01 -5.538885e+00 -5.712107e+00 -4.312584e+00 -1.454068e+00 1.407422e+00 -1.664852e+00 -2.364534e-01 8.209852e-01 -7.584125e-01 -8.849978e-02 1.382640e-01 3.096069e-01 1.843577e-01 5.117530e-04 -1.860742e-01 1.921894e-02 -6.558882e-02 3.402070e-01 -9.371365e-01
<VARIANCE> 25
 4.601941e+01 7.226987e+01 2.934903e+01 3.750952e+01 4.673940e+01 5.941941e+01 4.507899e+01 3.344062e+01 1.666528e+01 1.754936e+01 3.386942e+01 2.777663e+01 2.687794e+00 8.524277e+00 3.269571e+00 4.044816e+00 4.496633e+00 4.623143e+00 4.262075e+00 3.551464e+00 2.216126e+00 2.150551e+00 2.975652e+00 2.643973e+00 7.487556e+00
<GCONST> 1.059354e+02
<STATE> 4
<MEAN> 25
 1.220841e+01 1.293664e+00 -2.436519e+00 8.220417e+00 5.778481e+00 -4.276519e+00 -7.720754e+00 -4.206737e+00 -4.501738e+00 -6.294629e+00 3.189600e+00 5.025989e+00 -4.539537e-01 7.165397e-01 -3.995258e-01 -1.112277e+00 -6.423571e-01 9.288366e-01 8.835857e-01 1.208585e-01 -1.625872e-01 2.175784e-01 -6.504719e-01 -1.163447e-01 -8.294469e-01
<VARIANCE> 25
 1.869297e+02 5.202390e+01 6.077590e+01 4.953458e+01 4.401354e+01 9.320090e+01 5.243226e+01 2.491664e+01 1.659607e+01 5.298580e+01 2.225964e+01 4.700492e+01 1.840228e+00 3.272347e+00 3.301911e+00 3.060695e+00 2.970984e+00 4.637968e+00 3.945799e+00 2.334017e+00 2.199717e+00 3.146400e+00 2.269798e+00 1.660911e+00 2.909056e+00
<GCONST> 1.056472e+02
<TRANSP> 5
 0.000000e+00 1.000000e+00 0.000000e+00 0.000000e+00 0.000000e+00
 0.000000e+00 8.544554e-01 1.455447e-01 0.000000e+00 0.000000e+00
 0.000000e+00 0.000000e+00 7.255908e-01 2.744093e-01 0.000000e+00
 0.000000e+00 0.000000e+00 0.000000e+00 7.997782e-01 2.002218e-01
 0.000000e+00 0.000000e+00 0.000000e+00 0.000000e+00 0.000000e+00
<ENDHMM>
~h "k"
<BEGINHMM>
<NUMSTATES> 5
<STATE> 2
<MEAN> 25
 -1.513887e-08 8.685321e-09 6.289883e-08 7.186313e-08 3.131923e-08 4.571417e-08 5.014053e-08 1.333485e-08 -7.134006e-08 8.713219e-09 1.011273e-09 4.209684e-08 -6.534437e-03 7.731597e-03 -5.306157e-03 4.609803e-03 -4.191151e-03 8.242088e-03 -6.219152e-03 5.951754e-03 -5.249157e-03 1.868283e-03 2.200403e-03 -1.269434e-03 2.744509e-03
<VARIANCE> 25
 6.716856e+01 2.941401e+01 5.663681e+01 4.741492e+01 4.696264e+01 4.914315e+01 4.999928e+01 4.303569e+01 5.672998e+01 3.222253e+01 2.850756e+01 4.103967e+01 2.100924e+00 1.434693e+00 1.891293e+00 2.194988e+00 2.363979e+00 2.636887e+00 2.464799e+00 2.732278e+00 2.851009e+00 2.222413e+00 2.036798e+00 2.011688e+00 1.909456e+00
<GCONST> 1.015924e+02
<STATE> 3
<MEAN> 25
 -1.513887e-08 8.685321e-09 6.289883e-08 7.186313e-08 3.131923e-08 4.571417e-08 5.014053e-08 1.333485e-08 -7.134006e-08 8.713219e-09 1.011273e-09 4.209684e-08 -6.534437e-03 7.731597e-03 -5.306157e-03 4.609803e-03 -4.191151e-03 8.242088e-03 -6.219152e-03 5.951754e-03 -5.249157e-03 1.868283e-03 2.200403e-03 -1.269434e-03 2.744509e-03
<VARIANCE> 25
 6.716856e+01 2.941401e+01 5.663681e+01 4.741492e+01 4.696264e+01 4.914315e+01 4.999928e+01 4.303569e+01 5.672998e+01 3.222253e+01 2.850756e+01 4.103967e+01 2.100924e+00 1.434693e+00 1.891293e+00 2.194988e+00 2.363979e+00 2.636887e+00 2.464799e+00 2.732278e+00 2.851009e+00 2.222413e+00 2.036798e+00 2.011688e+00 1.909456e+00
<GCONST> 1.015924e+02
<STATE> 4
<MEAN> 25
 -1.513887e-08 8.685321e-09 6.289883e-08 7.186313e-08 3.131923e-08 4.571417e-08 5.014053e-08 1.333485e-08 -7.134006e-08 8.713219e-09 1.011273e-09 4.209684e-08 -6.534437e-03 7.731597e-03 -5.306157e-03 4.609803e-03 -4.191151e-03 8.242088e-03 -6.219152e-03 5.951754e-03 -5.249157e-03 1.868283e-03 2.200403e-03 -1.269434e-03 2.744509e-03
<VARIANCE> 25
 6.716856e+01 2.941401e+01 5.663681e+01 4.741492e+01 4.696264e+01 4.914315e+01 4.999928e+01 4.303569e+01 5.672998e+01 3.222253e+01 2.850756e+01 4.103967e+01 2.100924e+00 1.434693e+00 1.891293e+00 2.194988e+00 2.363979e+00 2.636887e+00 2.464799e+00 2.732278e+00 2.851009e+00 2.222413e+00 2.036798e+00 2.011688e+00 1.909456e+00
<GCONST> 1.015924e+02
<TRANSP> 5
 0.000000e+00 1.000000e+00 0.000000e+00 0.000000e+00 0.000000e+00
 0.000000e+00 6.000000e-01 4.000000e-01 0.000000e+00 0.000000e+00
 0.000000e+00 0.000000e+00 6.000000e-01 4.000000e-01 0.000000e+00
 0.000000e+00 0.000000e+00 0.000000e+00 7.000000e-01 3.000000e-01
 0.000000e+00 0.000000e+00 0.000000e+00 0.000000e+00 0.000000e+00
<ENDHMM>
~h "l"
<BEGINHMM>
<NUMSTATES> 5
<STATE> 2
<MEAN> 25
 4.815202e+00 -1.735902e+00 -1.292441e+00 -2.820582e+00 -2.142953e+00 -2.928973e+00 -2.669238e-01 7.108725e-01 2.508672e+00 -9.989437e-01 -2.457731e+00 4.673605e-01 1.548685e-01 4.348778e-01 1.911526e-02 4.570044e-01 -1.310850e-01 4.066854e-01 -2.414059e-01 -2.236853e-01 3.220543e-01 -2.384231e-01 -9.891322e-02 -1.382481e-01 -3.868558e-01
<VARIANCE> 25
 3.452450e+01 2.358885e+01 2.312832e+01 2.989348e+01 5.263445e+01 5.174188e+01 4.418881e+01 4.072747e+01 3.838389e+01 3.200716e+01 2.765119e+01 3.417139e+01 5.191469e-01 1.526139e+00 1.402423e+00 2.674037e+00 3.893461e+00 2.749748e+00 2.641560e+00 2.120646e+00 2.360243e+00 2.068733e+00 2.951020e+00 2.771335e+00 8.443243e-01
<GCONST> 9.725856e+01
<STATE> 3
<MEAN> 25
 5.323203e+00 2.101658e-02 -1.311263e+00 -8.579317e-01 -2.087242e+00 -1.323837e+00 -6.167257e-01 1.538266e-01 2.651269e+00 -1.972325e+00 -2.928517e+00 -6.678461e-01 3.068514e-02 4.466764e-01 1.263831e-01 7.893684e-01 8.205686e-02 4.483244e-01 -1.387952e-01 -2.252994e-01 -5.015540e-02 -2.187526e-01 1.968274e-02 -3.066299e-01 -4.971594e-01
<VARIANCE> 25
 3.392280e+01 2.485764e+01 2.612485e+01 3.649611e+01 5.511618e+01 4.892059e+01 3.861214e+01 4.275011e+01 3.392073e+01 2.844572e+01 3.714571e+01 4.420689e+01 5.953745e-01 1.680497e+00 1.804038e+00 3.689442e+00 4.555575e+00 3.381517e+00 2.409644e+00 2.510484e+00 2.471528e+00 2.035114e+00 3.104637e+00 3.924633e+00 1.099412e+00
<GCONST> 9.976958e+01
<STATE> 4
<MEAN> 25
 4.915440e+00 7.455744e-01 -9.545557e-01 7.322143e-01 -1.429021e+00 -1.899154e-01 -6.768199e-01 -4.330591e-01 1.230671e+00 -1.937222e+00 -2.197994e+00 -1.348989e+00 -1.250240e-01 1.964397e-01 7.610197e-03 2.406011e-01 8.458231e-02 5.040767e-02 5.730975e-02 8.566027e-02 -5.460190e-02 4.996166e-03 1.349366e-01 -2.819588e-03 -2.557198e-01
<VARIANCE> 25
 3.986771e+01 2.399791e+01 3.079210e+01 3.540575e+01 5.170744e+01 4.416192e+01 3.504367e+01 3.844475e+01 3.770584e+01 2.748367e+01 3.389428e+01 3.624035e+01 5.034442e-01 1.469134e+00 1.359776e+00 2.355615e+00 2.633616e+00 2.978698e+00 1.725649e+00 2.297305e+00 1.786179e+00 1.572956e+00 1.945470e+00 2.230907e+00 1.007612e+00
<GCONST> 9.560892e+01
<TRANSP> 5
 0.000000e+00 1.000000e+00 0.000000e+00 0.000000e+00 0.000000e+00
 0.000000e+00 5.621362e-01 4.378638e-01 0.000000e+00 0.000000e+00
 0.000000e+00 0.000000e+00 5.503464e-01 4.496537e-01 0.000000e+00
 0.000000e+00 0.000000e+00 0.000000e+00 5.251878e-01 4.748122e-01
 0.000000e+00 0.000000e+00 0.000000e+00 0.000000e+00 0.000000e+00
<ENDHMM>
~h "m"
<BEGINHMM>
<NUMSTATES> 5
<STATE> 2
<MEAN> 25
 3.756306e+00 8.167467e-01 -4.216800e-01 -3.377731e-01 5.395808e-01 2.754331e-01 -5.803676e-01 2.336992e+00 5.404428e-01 -1.651976e+00 -3.065177e+00 -2.315865e+00 -1.701946e-01 4.129834e-01 -8.866075e-02 1.424346e-01 6.483844e-01 5.090481e-02 2.291115e-01 2.218431e-01 -8.275787e-01 1.163191e-01 1.170701e-01 8.482780e-02 -3.764946e-01
<VARIANCE> 25
 2.439372e+01 4.740879e+01 2.249990e+01 3.376344e+01 4.842826e+01 5.753943e+01 4.920340e+01 4.070768e+01 4.803101e+01 2.776693e+01 3.042870e+01 4.098147e+01 6.965739e-01 4.993506e+00 1.861691e+00 4.674458e+00 6.193200e+00 4.694827e+00 4.208921e+00 4.508924e+00 4.461255e+00 2.049018e+00 3.316893e+00 4.172450e+00 3.290395e+00
<GCONST> 1.052467e+02
<STATE> 3
<MEAN> 25
 3.023648e+00 1.236792e+00 -2.454582e-01 7.276213e-02 2.170808e+00 8.099912e-01 1.792344e-02 2.724461e+00 -1.561833e+00 -1.669135e+00 -1.993901e+00 -8.941497e-01 -2.090997e-01 -5.119924e-01 5.543481e-02 -2.309046e-01 5.017576e-01 8.077775e-02 -2.095435e-01 -1.331823e-01 1.326771e-01 9.902903e-02 1.070520e-01 2.234963e-01 2.838826e-01
<VARIANCE> 25
 2.874320e+01 5.830209e+01 3.089475e+01 4.110152e+01 5.727892e+01 5.528228e+01 5.742924e+01 4.007588e+01 5.083697e+01 3.747016e+01 2.784515e+01 3.906531e+01 6.960181e-01 6.624583e+00 2.238224e+00 4.922698e+00 7.566977e+00 4.335430e+00 4.947585e+00 3.749707e+00 6.291162e+00 1.992249e+00 3.760217e+00 3.694326e+00 4.576527e+00
<GCONST> 1.078831e+02
<STATE> 4
<MEAN> 25
 2.781040e+00 -1.258336e-01 -1.267522e+00 -3.925265e-01 3.404382e+00 1.338923e+00 -6.234744e-01 5.034832e-01 -8.323290e-01 -1.580124e+00 -1.358078e+00 7.551400e-01 -3.094952e-01 -2.476136e-01 1.585853e-01 -8.597080e-02 6.902976e-02 5.509768e-02 -1.282681e-01 -2.560896e-01 1.690149e-02 1.698570e-01 2.067318e-01 1.144277e-01 -9.569440e-03
<VARIANCE> 25
 4.517567e+01 4.857428e+01 2.922751e+01 4.045683e+01 5.489459e+01 5.637124e+01 3.728783e+01 2.960742e+01 4.448368e+01 3.713882e+01 2.495636e+01 2.980783e+01 9.271754e-01 1.957691e+00 1.498257e+00 2.828248e+00 3.115819e+00 3.001290e+00 2.520128e+00 2.223164e+00 2.403542e+00 1.974099e+00 2.562814e+00 2.452124e+00 1.906197e+00
<GCONST> 9.982080e+01
<TRANSP> 5
 0.000000e+00 1.000000e+00 0.000000e+00 0.000000e+00 0.000000e+00
 0.000000e+00 6.896443e-01 3.103558e-01 0.000000e+00 0.000000e+00
 0.000000e+00 0.000000e+00 6.556568e-01 3.443432e-01 0.000000e+00
 0.000000e+00 0.000000e+00 0.000000e+00 4.937364e-01 5.062636e-01
 0.000000e+00 0.000000e+00 0.000000e+00 0.000000e+00 0.000000e+00
<ENDHMM>
~h "n"
<BEGINHMM>
<NUMSTATES> 5
<STATE> 2
<MEAN> 25
 -2.179948e-01 4.042541e+00 -1.598013e+00 8.721256e-01 5.104136e+00 2.798817e+00 1.401803e+00 -1.690601e+00 -4.948417e+00 -1.347798e+00 2.678747e-01 1.387186e+00 -5.308419e-01 4.191746e-01 -4.497920e-02 1.894584e-01 -1.199666e-01 4.565464e-02 5.187537e-01 6.766429e-02 -2.415398e-01 2.742273e-01 1.672469e-01 4.506796e-03 -6.205648e-01
<VARIANCE> 25
 7.635143e+01 9.674369e+01 3.733595e+01 3.792130e+01 6.325012e+01 4.908389e+01 6.630768e+01 3.296355e+01 1.035661e+02 3.788105e+01 3.548592e+01 1.842604e+01 2.546582e+00 7.575022e+00 3.898281e+00 3.489522e+00 5.684570e+00 3.831377e+00 4.913616e+00 3.731187e+00 5.702530e+00 3.687666e+00 4.084689e+00 2.227086e+00 5.137278e+00
<GCONST> 1.110477e+02
<STATE> 3
<MEAN> 25
 -1.333076e+00 9.428149e-01 -6.410513e-01 -7.687892e-01 4.633963e-01 1.380615e+00 1.645767e+00 -8.548608e-01 -8.111746e-01 2.444196e-01 6.986111e-01 1.195372e+00 -1.030209e-01 -5.489904e-01 7.317691e-01 -1.232998e-01 -6.873242e-01 -1.060536e-01 1.812530e-01 2.204843e-01 1.947368e-01 2.608745e-01 3.029566e-01 9.450136e-02 5.490797e-01
<VARIANCE> 25
 9.906441e+01 8.298103e+01 5.434654e+01 4.706698e+01 5.684788e+01 5.097387e+01 7.793360e+01 4.197111e+01 7.616927e+01 4.341633e+01 2.394253e+01 2.032782e+01 4.759500e+00 8.901319e+00 5.503249e+00 4.297258e+00 6.084366e+00 4.184895e+00 6.316471e+00 5.330381e+00 6.200930e+00 4.410136e+00 2.636935e+00 2.047023e+00 6.272896e+00
<GCONST> 1.136585e+02
<STATE> 4
<MEAN> 25
 1.536131e+01 -1.914636e+00 -2.767093e+00 8.632935e-01 1.800676e+00 -4.414549e+00 -1.806174e+00 1.981890e+00 1.398412e+00 -7.550371e+00 -1.998768e+00 1.639196e+00 -1.054733e-01 -2.784591e-01 2.342487e-01 4.618125e-02 -1.447876e-01 7.484050e-02 9.607148e-03 -5.365990e-02 -1.113745e-03 3.702096e-02 4.431269e-02 -1.481852e-02 1.218179e-01
<VARIANCE> 25
 1.647828e+02 8.520913e+01 8.315173e+01 6.510321e+01 4.490160e+01 7.782028e+01 4.668946e+01 3.991600e+01 3.295367e+01 6.695840e+01 2.625607e+01 2.552505e+01 2.878309e+00 4.042204e+00 4.718147e+00 6.409430e+00 3.617199e+00 3.928623e+00 3.516303e+00 3.124125e+00 3.031152e+00 3.530430e+00 2.018816e+00 2.289152e+00 3.079881e+00
<GCONST> 1.099289e+02
<TRANSP> 5
 0.000000e+00 1.000000e+00 0.000000e+00 0.000000e+00 0.000000e+00
 0.000000e+00 6.759261e-01 3.240739e-01 0.000000e+00 0.000000e+00
 0.000000e+00 0.000000e+00 5.956221e-01 4.043778e-01 0.000000e+00
 0.000000e+00 0.000000e+00 0.000000e+00 8.043873e-01 1.956126e-01
 0.000000e+00 0.000000e+00 0.000000e+00 0.000000e+00 0.000000e+00
<ENDHMM>
~h "p"
<BEGINHMM>
<NUMSTATES> 5
<STATE> 2
<MEAN> 25
 5.999976e+00 -2.678862e+00 1.719663e+00 -3.394750e+00 -7.419738e-01 -3.892214e+00 -6.556337e+00 1.859047e+00 3.092052e+00 -5.912632e+00 -4.532516e+00 4.664483e-01 6.143739e-01 8.922989e-01 -1.160734e-01 3.130870e-01 -4.577532e-01 -2.186941e-02 -1.020515e+00 1.094084e+00 1.171000e+00 -3.937445e-01 5.633114e-01 -8.257679e-02 -3.548838e-01
<VARIANCE> 25
 1.517583e+01 2.807496e+01 1.906384e+01 2.523529e+01 9.189322e+00 3.610680e+01 4.053584e+01 2.689454e+01 4.887614e+01 4.764546e+01 3.925122e+01 1.868877e+01 2.038945e+00 4.867154e+00 2.248054e+00 4.102609e+00 2.124367e+00 5.478048e+00 5.874950e+00 1.802078e+00 5.425831e+00 5.454870e+00 2.179112e+00 1.335483e+00 1.054769e+00
<GCONST> 9.916686e+01
<STATE> 3
<MEAN> 25
 5.643911e+00 -2.381223e-01 1.402872e-01 -1.242558e+00 -2.774996e+00 -4.964675e+00 -5.354401e+00 3.499464e+00 4.439920e+00 -3.813141e+00 -1.078502e+00 3.398543e-01 -1.679205e-01 4.431562e-01 -2.888277e-01 3.124158e-01 -4.866452e-01 1.405869e-01 2.429334e-01 3.085023e-01 1.635320e-03 5.864075e-01 8.809624e-01 -1.445735e-01 -7.925128e-01
<VARIANCE> 25
 8.623549e+00 1.843368e+01 2.131433e+01 1.750477e+01 8.025387e+00 4.680475e+01 1.265198e+01 2.861402e+01 3.978554e+01 3.335807e+01 2.626969e+01 1.488343e+01 8.084332e-01 1.009880e+00 6.781832e-01 1.540941e+00 8.634408e-01 2.726430e+00 1.973306e+00 2.256981e+00 2.777919e+00 3.495773e+00 2.463211e+00 1.405539e+00 5.149591e-01
<GCONST> 8.695985e+01
<STATE> 4
<MEAN> 25
 2.877647e+00 -1.148326e+00 -6.812081e-01 6.929390e-01 -3.130696e-01 1.882208e+00 1.179447e+00 -4.204163e-01 9.247081e-01 1.998316e+00 7.636482e-01 -3.244886e-02 -1.003698e-01 3.786452e-02 -6.719550e-02 -2.639596e-02 -5.602213e-03 1.196404e-02 1.470195e-01 -1.937581e-02 -5.048544e-02 1.145224e-01 1.691552e-02 -2.064979e-02 -1.253571e-01
<VARIANCE> 25
 3.555411e+00 9.921639e+00 7.753115e+00 5.004402e+00 7.837792e+00 1.861985e+01 1.208034e+01 7.762246e+00 8.483184e+00 1.306447e+01 8.538664e+00 9.799716e+00 1.963344e-01 3.294786e-01 2.676694e-01 5.586988e-01 6.034527e-01 1.031941e+00 9.417522e-01 9.648968e-01 7.093148e-01 8.236072e-01 6.920630e-01 9.520869e-01 1.487632e-01
<GCONST> 6.375969e+01
<TRANSP> 5
 0.000000e+00 1.000000e+00 0.000000e+00 0.000000e+00 0.000000e+00
 0.000000e+00 5.105733e-01 4.894267e-01 0.000000e+00 0.000000e+00
 0.000000e+00 0.000000e+00 5.902873e-01 4.097127e-01 0.000000e+00
 0.000000e+00 0.000000e+00 0.000000e+00 9.467826e-01 5.321739e-02
 0.000000e+00 0.000000e+00 0.000000e+00 0.000000e+00 0.000000e+00
<ENDHMM>
~h "r"
<BEGINHMM>
<NUMSTATES> 5
<STATE> 2
<MEAN> 25
 2.606726e+00 2.552583e-01 2.456026e+00 2.194462e+00 2.083146e+00 -2.600085e+00 -6.320448e+00 -4.781676e+00 -3.062373e+00 -1.103154e+00 1.326248e+00 2.001254e+00 -2.970646e-01 1.503885e-01 -9.980014e-01 -3.072388e-01 2.028736e-01 5.782986e-01 1.493765e-01 2.350621e-01 6.157550e-01 -3.835929e-02 2.949651e-02 6.054967e-01 -7.870232e-01
<VARIANCE> 25
 1.566862e+01 3.083633e+01 2.350737e+01 4.361072e+01 9.357601e+01 3.890748e+01 9.283919e+01 7.081925e+01 2.901990e+01 2.597258e+01 1.516846e+01 2.054415e+01 1.054383e+00 2.440921e+00 2.429358e+00 3.691399e+00 2.272273e+00 5.033455e+00 5.150013e+00 2.778609e+00 3.738590e+00 4.057598e+00 2.032107e+00 3.247651e+00 1.012081e+00
<GCONST> 1.012728e+02
<STATE> 3
<MEAN> 25
 1.209615e+00 8.192499e-01 -3.644859e-02 2.393810e+00 1.653544e+00 -1.556339e-01 -4.709765e+00 -4.102013e+00 -6.767974e-01 -3.611870e-01 1.168224e+00 2.127454e+00 -4.268509e-01 2.659574e-01 -3.297485e-01 4.356954e-02 -4.270691e-01 7.178027e-01 8.444607e-01 4.645110e-01 3.516428e-01 1.701570e-01 -6.435852e-02 8.375571e-02 -9.273520e-01
<VARIANCE> 25
 2.171553e+01 4.113240e+01 1.694843e+01 2.149261e+01 7.165151e+01 6.277237e+01 4.906933e+01 5.125301e+01 3.807553e+01 3.436252e+01 1.670029e+01 1.603771e+01 1.486387e+00 3.613167e+00 2.427476e+00 2.130025e+00 3.411145e+00 7.342136e+00 4.038632e+00 1.988016e+00 6.174597e+00 1.896286e+00 2.107834e+00 1.827879e+00 1.412917e+00
<GCONST> 1.004303e+02
<STATE> 4
<MEAN> 25
 -3.613279e-02 3.379017e+00 -9.872788e-02 3.522037e+00 9.964571e-01 2.171068e+00 -1.708218e+00 -3.169235e+00 -1.871038e+00 1.922804e-02 1.220179e+00 1.798416e+00 -5.060610e-01 5.119582e-01 1.576527e-03 2.944015e-01 -2.119292e-02 1.758617e-01 4.108302e-01 9.642287e-02 9.661848e-02 5.159931e-01 1.127208e-03 -2.152286e-01 -6.877490e-01
<VARIANCE> 25
 2.612958e+01 2.172372e+01 1.831393e+01 1.846645e+01 3.805599e+01 5.747072e+01 3.127660e+01 2.564307e+01 3.312648e+01 2.501193e+01 1.320743e+01 1.580416e+01 8.710660e-01 1.548474e+00 1.019318e+00 1.372042e+00 1.266211e+00 2.626643e+00 1.785445e+00 1.276825e+00 1.736937e+00 1.449365e+00 1.456943e+00 1.504010e+00 4.762108e-01
<GCONST> 8.817651e+01
<TRANSP> 5
 0.000000e+00 1.000000e+00 0.000000e+00 0.000000e+00 0.000000e+00
 0.000000e+00 6.431613e-01 3.568387e-01 0.000000e+00 0.000000e+00
 0.000000e+00 0.000000e+00 6.985502e-01 3.014498e-01 0.000000e+00
 0.000000e+00 0.000000e+00 0.000000e+00 8.077143e-01 1.922857e-01
 0.000000e+00 0.000000e+00 0.000000e+00 0.000000e+00 0.000000e+00
<ENDHMM>
~h "s"
<BEGINHMM>
<NUMSTATES> 5
<STATE> 2
<MEAN> 25
 -1.019055e+01 5.857299e-01 6.821437e+00 -5.196791e+00 3.665543e-01 5.063876e+00 2.564733e+00 -4.529628e+00 4.128712e+00 2.014575e+00 7.363983e-01 6.218500e-01 -8.469491e-01 -1.199317e-01 3.054420e-01 -6.002575e-01 -6.813554e-02 -1.574652e-01 4.665812e-01 -4.817951e-01 1.722571e-02 -2.633702e-01 2.617344e-01 -4.468505e-02 2.058498e-01
<VARIANCE> 25
 1.269358e+02 1.699269e+02 1.210828e+02 6.361810e+01 4.366512e+01 8.123556e+01 4.289162e+01 4.217051e+01 5.498434e+01 6.582027e+01 2.962106e+01 1.481206e+01 1.295479e+01 1.322449e+01 7.379188e+00 6.485565e+00 6.302858e+00 4.848835e+00 3.977931e+00 6.188752e+00 4.923185e+00 7.736828e+00 4.266401e+00 1.884071e+00 1.592356e+00
<GCONST> 1.166519e+02
<STATE> 3
<MEAN> 25
 -5.049348e+00 -2.305091e+00 6.815615e+00 -6.240000e+00 -8.427234e-01 3.361370e+00 1.402379e+00 -4.614962e+00 3.211981e-02 1.660893e+00 -5.215889e-01 8.240216e-01 1.951827e+00 6.042889e-01 -1.210185e+00 7.385450e-01 -1.644540e-01 -4.334480e-01 -5.261403e-01 1.585623e-01 -6.034265e-01 -5.682940e-01 -3.589574e-01 -3.635758e-02 -1.394241e-01
<VARIANCE> 25
 1.095641e+02 9.987091e+01 8.506461e+01 4.030719e+01 3.119641e+01 7.274552e+01 3.530257e+01 4.108235e+01 4.657460e+01 6.311179e+01 2.443616e+01 1.522648e+01 7.052154e+00 6.892539e+00 4.326300e+00 3.906757e+00 3.011824e+00 5.648384e+00 3.878072e+00 5.379144e+00 4.210365e+00 1.016562e+01 4.593705e+00 2.481376e+00 2.340447e+00
<GCONST> 1.119225e+02
<STATE> 4
<MEAN> 25
 2.209496e+00 -1.526323e+00 2.225813e+00 -3.633062e+00 -7.387252e-01 6.437465e-01 -8.463117e-01 -2.397420e+00 -1.779059e-01 -4.849534e-01 -1.306844e+00 1.150388e+00 1.302265e+00 -1.028878e-01 -7.401191e-01 9.178053e-01 -1.787287e-01 -3.016061e-01 -8.508615e-01 3.231303e-01 1.920909e-01 -6.782314e-01 -2.984198e-01 -1.972357e-01 2.170356e-02
<VARIANCE> 25
 1.238715e+02 7.667464e+01 7.769364e+01 3.521267e+01 4.018596e+01 7.264366e+01 2.755463e+01 4.676167e+01 3.327011e+01 7.319595e+01 3.493538e+01 2.765656e+01 3.056572e+00 6.793024e+00 4.587374e+00 3.421508e+00 3.341054e+00 5.848887e+00 3.599401e+00 4.061718e+00 2.762130e+00 5.981694e+00 3.998595e+00 3.148064e+00 2.677790e+00
<GCONST> 1.105953e+02
<TRANSP> 5
 0.000000e+00 1.000000e+00 0.000000e+00 0.000000e+00 0.000000e+00
 0.000000e+00 8.003740e-01 1.996260e-01 0.000000e+00 0.000000e+00
 0.000000e+00 0.000000e+00 6.236094e-01 3.763906e-01 0.000000e+00
 0.000000e+00 0.000000e+00 0.000000e+00 4.111938e-01 5.888061e-01
 0.000000e+00 0.000000e+00 0.000000e+00 0.000000e+00 0.000000e+00
<ENDHMM>
~h "t"
<BEGINHMM>
<NUMSTATES> 5
<STATE> 2
<MEAN> 25
 -1.766374e+00 2.542259e+00 6.086407e-01 1.135038e+00 8.523805e-01 2.288853e+00 8.516437e-01 -2.005611e+00 -2.275972e+00 8.759093e-01 -9.339072e-01 -6.410073e-01 1.081972e+00 -5.254377e-01 1.843187e-01 -3.461081e-01 -4.660551e-01 -5.359742e-01 -1.281960e+00 2.692701e-01 1.970825e-01 -4.725801e-01 -1.764206e-01 -5.121866e-02 7.470751e-01
<VARIANCE> 25
 5.531641e+01 4.303241e+01 3.619668e+01 2.761555e+01 1.943645e+01 4.536517e+01 4.178400e+01 3.013904e+01 4.042576e+01 3.702634e+01 2.428500e+01 1.964442e+01 5.246808e+00 2.956969e+00 2.771044e+00 2.557930e+00 2.421449e+00 4.731142e+00 5.109910e+00 3.192850e+00 4.476208e+00 5.754067e+00 3.525630e+00 2.406434e+00 5.952512e+00
<GCONST> 1.051298e+02
<STATE> 3
<MEAN> 25
 7.489461e-01 1.871928e+00 1.055255e+00 5.113099e-01 1.308919e-01 2.328731e-01 -1.211889e+00 -7.894290e-01 -1.688776e+00 2.811465e-02 -1.404181e+00 -2.738891e-01 4.781739e-01 -6.675090e-01 9.549043e-02 1.557096e-01 -2.966932e-01 -5.165660e-01 -6.327478e-01 2.088273e-01 2.410520e-01 -8.191912e-02 3.664785e-01 -8.152098e-03 5.175679e-01
<VARIANCE> 25
 4.151427e+01 4.657550e+01 4.185049e+01 3.476291e+01 1.767059e+01 3.180519e+01 4.759983e+01 1.859217e+01 4.016892e+01 3.879126e+01 2.265076e+01 2.468287e+01 2.682186e+00 3.355433e+00 2.232655e+00 2.303346e+00 2.117691e+00 3.564544e+00 3.135507e+00 2.661102e+00 2.754496e+00 3.141222e+00 1.836004e+00 1.725610e+00 3.380262e+00
<GCONST> 1.000980e+02
<STATE> 4
<MEAN> 25
 1.796059e+00 -1.290765e+00 1.149082e+00 -3.627355e-02 -9.533489e-01 1.060039e+00 -2.593457e+00 -9.226958e-01 1.060911e+00 -4.199294e-01 -7.995804e-02 -1.209439e+00 1.364310e-01 -3.147541e-01 -1.395199e-03 1.755589e-01 8.824157e-02 -1.748204e-01 -2.140455e-02 -1.913408e-01 -5.908525e-02 1.458164e-01 2.728344e-01 -1.566621e-02 2.341054e-01
<VARIANCE> 25
 2.942493e+01 4.226652e+01 2.978118e+01 2.477300e+01 1.558696e+01 2.102140e+01 3.820219e+01 1.507234e+01 3.504860e+01 3.957191e+01 1.811255e+01 1.800751e+01 1.302949e+00 1.472275e+00 9.937201e-01 9.983995e-01 1.250698e+00 1.500194e+00 1.892602e+00 1.636829e+00 1.575575e+00 1.658003e+00 1.145470e+00 1.080148e+00 1.485673e+00
<GCONST> 8.881893e+01
<TRANSP> 5
 0.000000e+00 1.000000e+00 0.000000e+00 0.000000e+00 0.000000e+00
 0.000000e+00 4.457192e-01 5.542808e-01 0.000000e+00 0.000000e+00
 0.000000e+00 0.000000e+00 3.336829e-01 6.663171e-01 0.000000e+00
 0.000000e+00 0.000000e+00 0.000000e+00 6.357896e-01 3.642104e-01
 0.000000e+00 0.000000e+00 0.000000e+00 0.000000e+00 0.000000e+00
<ENDHMM>
~h "u"
<BEGINHMM>
<NUMSTATES> 5
<STATE> 2
<MEAN> 25
 4.726809e+00 9.107032e-01 9.510844e-01 1.798983e+00 -5.988582e-01 -5.926757e-01 -4.875686e-01 -2.149069e+00 -2.244259e+00 -3.089752e+00 -2.398157e+00 7.282276e-02 -8.457997e-02 -1.629039e-01 2.671778e-01 -4.585584e-02 -2.031815e-01 5.328563e-03 8.630240e-01 -3.106497e-02 -5.026434e-02 -2.714338e-01 -3.589137e-01 4.137039e-01 8.161587e-02
<VARIANCE> 25
 1.196927e+02 6.302829e+01 4.646504e+01 4.519445e+01 6.241675e+01 4.605456e+01 6.282794e+01 5.318433e+01 5.916755e+01 1.032611e+02 3.858251e+01 3.506262e+01 4.627897e+00 8.104962e+00 3.716077e+00 5.856711e+00 6.834604e+00 4.661702e+00 7.646113e+00 5.750889e+00 5.828662e+00 9.510103e+00 4.263268e+00 2.943100e+00 1.095274e+01
<GCONST> 1.174185e+02
<STATE> 3
<MEAN> 25
 2.620754e+00 5.495878e-01 6.841562e-01 6.611741e-01 -4.462296e-01 -3.554711e-01 1.571369e+00 -1.515990e+00 -3.040460e+00 -2.303948e+00 -2.498955e+00 1.534932e+00 2.409807e-01 -1.421431e-01 4.659354e-01 -5.092509e-01 -1.168696e-01 -3.910119e-01 -1.995785e-01 5.760797e-01 2.172783e-01 -3.998803e-01 -2.778189e-01 2.315017e-01 8.254645e-01
<VARIANCE> 25
 1.134333e+02 9.342228e+01 4.969111e+01 4.536775e+01 4.572622e+01 4.738507e+01 6.347931e+01 4.883749e+01 5.937253e+01 8.292641e+01 4.474650e+01 3.240061e+01 4.675885e+00 8.825352e+00 5.056469e+00 6.452035e+00 4.871566e+00 6.601856e+00 1.077351e+01 6.687277e+00 7.475675e+00 1.167641e+01 4.513623e+00 2.916964e+00 1.366028e+01
<GCONST> 1.190516e+02
<STATE> 4
<MEAN> 25
 1.312562e+01 4.387398e+00 4.520858e+00 2.528387e+00 -2.985885e+00 -5.955204e+00 -2.876975e+00 1.411912e+00 -3.920097e-01 -9.148525e+00 -3.821151e+00 1.952190e+00 -3.902088e-01 5.230231e-01 1.815515e-02 -6.002039e-02 -1.824080e-02 2.565344e-01 -1.596971e-02 8.412308e-02 -3.309920e-02 5.623130e-01 9.004378e-02 -2.426184e-01 -6.541187e-01
<VARIANCE> 25
 1.864752e+02 6.530767e+01 4.759261e+01 3.633534e+01 3.802098e+01 1.110829e+02 7.773512e+01 4.374998e+01 6.768305e+01 1.425360e+02 2.809130e+01 3.115604e+01 1.780125e+00 2.666571e+00 2.272512e+00 2.765472e+00 2.283273e+00 5.361272e+00 4.698201e+00 3.933164e+00 3.414774e+00 4.741721e+00 1.571519e+00 1.843792e+00 2.589801e+00
<GCONST> 1.088559e+02
<TRANSP> 5
 0.000000e+00 1.000000e+00 0.000000e+00 0.000000e+00 0.000000e+00
 0.000000e+00 5.167457e-01 4.832543e-01 0.000000e+00 0.000000e+00
 0.000000e+00 0.000000e+00 4.923271e-01 5.076729e-01 0.000000e+00
 0.000000e+00 0.000000e+00 0.000000e+00 6.193105e-01 3.806895e-01
 0.000000e+00 0.000000e+00 0.000000e+00 0.000000e+00 0.000000e+00
<ENDHMM>
~h "w"
<BEGINHMM>
<NUMSTATES> 5
<STATE> 2
<MEAN> 25
 4.072320e+00 -1.425956e+00 6.109223e-01 -3.374433e+00 -4.877090e+00 -7.383180e+00 -1.142663e+00 3.871507e+00 4.062247e+00 -1.211012e+00 -2.259464e+00 4.650474e-01 4.879958e-03 5.146533e-01 7.022092e-01 6.464208e-01 -3.030550e-01 -8.213090e-01 -9.000213e-01 -2.474220e-02 -7.210306e-02 3.406551e-01 9.777331e-02 -4.010594e-01 -2.755983e-01
<VARIANCE> 25
 4.870692e+01 4.381594e+01 4.869788e+01 2.353226e+01 2.671943e+01 3.739969e+01 2.510485e+01 1.442560e+01 5.128520e+01 2.571310e+01 1.911719e+01 1.642752e+01 3.491339e-01 1.415319e+00 1.081619e+00 1.556964e+00 1.000607e+00 1.252676e+00 2.084020e+00 1.167117e+00 1.357808e+00 8.336244e-01 1.080366e+00 5.560697e-01 7.139700e-01
<GCONST> 8.659823e+01
<STATE> 3
<MEAN> 25
 2.714229e+00 -1.161243e+00 3.805957e+00 -5.773535e-01 -5.084270e+00 -6.516255e+00 -5.676707e+00 -1.246627e-01 6.092215e+00 3.395529e+00 1.467950e+00 -3.193353e+00 -2.260497e-02 -6.654880e-02 -6.951664e-02 1.342653e-01 -1.368905e-02 -1.832527e-01 1.035902e-01 -5.649488e-02 6.891127e-03 1.552870e-01 3.255175e-02 -2.195057e-02 4.689863e-02
<VARIANCE> 25
 1.837066e+01 4.430012e+01 1.838600e+01 1.578051e+01 2.899364e+01 3.713187e+01 4.638593e+01 2.831008e+01 4.519297e+01 2.455447e+01 2.503098e+01 1.808119e+01 2.449731e-01 1.024533e+00 6.809923e-01 9.931689e-01 1.396969e+00 1.522535e+00 2.873643e+00 1.344066e+00 8.403372e-01 1.121444e+00 1.474431e+00 1.008683e+00 4.124992e-01
<GCONST> 8.539224e+01
<STATE> 4
<MEAN> 25
 1.679202e+01 5.730057e-01 -6.302145e-01 2.179981e+00 -3.605263e+00 -1.394218e+01 -5.405149e+00 6.275304e+00 7.799341e+00 -4.993228e+00 -1.719552e+00 1.937342e+00 -1.892301e-01 2.298169e-01 1.677829e-01 3.644514e-02 -5.532050e-02 2.528691e-01 2.160576e-01 -9.705022e-02 -1.335333e-01 1.264887e-01 -1.254965e-02 4.423076e-02 -2.945693e-01
<VARIANCE> 25
 1.192152e+02 5.885487e+01 5.308559e+01 1.952322e+01 1.471717e+01 9.769227e+01 4.917579e+01 2.964108e+01 3.673903e+01 4.371844e+01 2.122870e+01 1.477015e+01 4.438952e-01 1.205259e+00 1.798293e+00 1.451711e+00 8.068144e-01 2.215857e+00 2.430757e+00 1.088526e+00 1.040290e+00 1.583622e+00 9.414336e-01 7.624426e-01 4.804888e-01
<GCONST> 9.075421e+01
<TRANSP> 5
 0.000000e+00 1.000000e+00 0.000000e+00 0.000000e+00 0.000000e+00
 0.000000e+00 6.279632e-01 3.720368e-01 0.000000e+00 0.000000e+00
 0.000000e+00 0.000000e+00 8.683538e-01 1.316462e-01 0.000000e+00
 0.000000e+00 0.000000e+00 0.000000e+00 9.156690e-01 8.433105e-02
 0.000000e+00 0.000000e+00 0.000000e+00 0.000000e+00 0.000000e+00
<ENDHMM>
~h "kh"
<BEGINHMM>
<NUMSTATES> 5
<STATE> 2
<MEAN> 25
 -1.513887e-08 8.685321e-09 6.289883e-08 7.186313e-08 3.131923e-08 4.571417e-08 5.014053e-08 1.333485e-08 -7.134006e-08 8.713219e-09 1.011273e-09 4.209684e-08 -6.534437e-03 7.731597e-03 -5.306157e-03 4.609803e-03 -4.191151e-03 8.242088e-03 -6.219152e-03 5.951754e-03 -5.249157e-03 1.868283e-03 2.200403e-03 -1.269434e-03 2.744509e-03
<VARIANCE> 25
 6.716856e+01 2.941401e+01 5.663681e+01 4.741492e+01 4.696264e+01 4.914315e+01 4.999928e+01 4.303569e+01 5.672998e+01 3.222253e+01 2.850756e+01 4.103967e+01 2.100924e+00 1.434693e+00 1.891293e+00 2.194988e+00 2.363979e+00 2.636887e+00 2.464799e+00 2.732278e+00 2.851009e+00 2.222413e+00 2.036798e+00 2.011688e+00 1.909456e+00
<GCONST> 1.015924e+02
<STATE> 3
<MEAN> 25
 -1.513887e-08 8.685321e-09 6.289883e-08 7.186313e-08 3.131923e-08 4.571417e-08 5.014053e-08 1.333485e-08 -7.134006e-08 8.713219e-09 1.011273e-09 4.209684e-08 -6.534437e-03 7.731597e-03 -5.306157e-03 4.609803e-03 -4.191151e-03 8.242088e-03 -6.219152e-03 5.951754e-03 -5.249157e-03 1.868283e-03 2.200403e-03 -1.269434e-03 2.744509e-03
<VARIANCE> 25
 6.716856e+01 2.941401e+01 5.663681e+01 4.741492e+01 4.696264e+01 4.914315e+01 4.999928e+01 4.303569e+01 5.672998e+01 3.222253e+01 2.850756e+01 4.103967e+01 2.100924e+00 1.434693e+00 1.891293e+00 2.194988e+00 2.363979e+00 2.636887e+00 2.464799e+00 2.732278e+00 2.851009e+00 2.222413e+00 2.036798e+00 2.011688e+00 1.909456e+00
<GCONST> 1.015924e+02
<STATE> 4
<MEAN> 25
 -1.513887e-08 8.685321e-09 6.289883e-08 7.186313e-08 3.131923e-08 4.571417e-08 5.014053e-08 1.333485e-08 -7.134006e-08 8.713219e-09 1.011273e-09 4.209684e-08 -6.534437e-03 7.731597e-03 -5.306157e-03 4.609803e-03 -4.191151e-03 8.242088e-03 -6.219152e-03 5.951754e-03 -5.249157e-03 1.868283e-03 2.200403e-03 -1.269434e-03 2.744509e-03
<VARIANCE> 25
 6.716856e+01 2.941401e+01 5.663681e+01 4.741492e+01 4.696264e+01 4.914315e+01 4.999928e+01 4.303569e+01 5.672998e+01 3.222253e+01 2.850756e+01 4.103967e+01 2.100924e+00 1.434693e+00 1.891293e+00 2.194988e+00 2.363979e+00 2.636887e+00 2.464799e+00 2.732278e+00 2.851009e+00 2.222413e+00 2.036798e+00 2.011688e+00 1.909456e+00
<GCONST> 1.015924e+02
<TRANSP> 5
 0.000000e+00 1.000000e+00 0.000000e+00 0.000000e+00 0.000000e+00
 0.000000e+00 6.000000e-01 4.000000e-01 0.000000e+00 0.000000e+00
 0.000000e+00 0.000000e+00 6.000000e-01 4.000000e-01 0.000000e+00
 0.000000e+00 0.000000e+00 0.000000e+00 7.000000e-01 3.000000e-01
 0.000000e+00 0.000000e+00 0.000000e+00 0.000000e+00 0.000000e+00
<ENDHMM>
~h "ny"
<BEGINHMM>
<NUMSTATES> 5
<STATE> 2
<MEAN> 25
 1.642813e+00 1.161804e+00 3.100087e+00 3.905493e+00 3.792372e+00 -2.505012e+00 -5.642246e+00 3.987388e-01 -4.549606e-01 -1.268515e+00 7.243467e-01 -3.326876e+00 6.141589e-03 -5.341815e-01 -1.696085e-01 7.287089e-02 5.665240e-02 -6.151091e-01 6.363890e-02 -7.541810e-02 -1.354466e-01 2.067490e-01 4.646502e-01 1.031915e-01 4.145913e-01
<VARIANCE> 25
 8.817377e+00 3.491774e+01 2.766078e+01 4.016270e+01 5.285143e+01 5.914379e+01 4.946298e+01 2.567044e+01 1.739015e+01 2.220473e+01 2.667235e+01 4.672708e+01 5.359289e-01 1.511646e+00 1.950596e+00 1.934465e+00 2.657654e+00 4.623563e+00 3.003458e+00 1.701492e+00 1.312476e+00 1.315107e+00 1.591335e+00 2.462441e+00 7.192522e-01
<GCONST> 9.380708e+01
<STATE> 3
<MEAN> 25
 2.441723e+00 -2.382597e+00 -1.035731e-02 4.362238e+00 4.202630e+00 -6.182139e+00 -4.316968e+00 -7.271869e-01 -2.588326e+00 -1.767624e-01 4.696996e+00 6.138971e-01 1.796376e-01 1.609011e-02 -7.905375e-01 -2.303085e-01 -3.019498e-01 -2.424329e-02 4.003913e-01 2.509087e-01 -2.114813e-01 -1.353690e-01 4.421206e-01 5.845115e-01 -1.873451e-01
<VARIANCE> 25
 1.044431e+01 2.585942e+01 3.492722e+01 3.632155e+01 3.694191e+01 5.289587e+01 3.947490e+01 3.335633e+01 2.304666e+01 2.054486e+01 4.173483e+01 4.718998e+01 7.766719e-01 9.043461e-01 1.346768e+00 1.873754e+00 2.554104e+00 3.915333e+00 1.290866e+00 1.412300e+00 1.207362e+00 1.195835e+00 1.233094e+00 1.253528e+00 4.767977e-01
<GCONST> 9.073518e+01
<STATE> 4
<MEAN> 25
 2.565326e+00 -2.367553e+00 -1.480571e+00 2.700643e+00 7.984386e-01 -2.858032e+00 -1.691058e+00 -4.682919e-02 -2.697694e+00 -6.596627e-01 6.222825e+00 2.531528e+00 -2.139963e-01 2.151394e-01 -3.462421e-01 -1.229472e-01 -4.703945e-02 5.981321e-01 6.119149e-01 3.656480e-01 3.324356e-02 9.441424e-05 -1.535555e-02 1.989505e-01 -4.652900e-01
<VARIANCE> 25
 1.158249e+01 1.926823e+01 1.730028e+01 2.241610e+01 1.635270e+01 3.021719e+01 2.655360e+01 1.373387e+01 2.201400e+01 1.835175e+01 2.933764e+01 2.098762e+01 4.563004e-01 5.514650e-01 8.064771e-01 9.084414e-01 1.265766e+00 1.486966e+00 9.215764e-01 9.492165e-01 7.704577e-01 1.054204e+00 1.019016e+00 8.535287e-01 3.472463e-01
<GCONST> 7.924391e+01
<TRANSP> 5
 0.000000e+00 1.000000e+00 0.000000e+00 0.000000e+00 0.000000e+00
 0.000000e+00 8.129139e-01 1.870861e-01 0.000000e+00 0.000000e+00
 0.000000e+00 0.000000e+00 7.245361e-01 2.754639e-01 0.000000e+00
 0.000000e+00 0.000000e+00 0.000000e+00 8.332291e-01 1.667709e-01
 0.000000e+00 0.000000e+00 0.000000e+00 0.000000e+00 0.000000e+00
<ENDHMM>
~h "sil"
<BEGINHMM>
<NUMSTATES> 5
<STATE> 2
<MEAN> 25
 -6.306282e+00 3.523902e+00 -2.656343e+00 2.857998e+00 -1.102157e+00 3.825541e+00 2.054754e+00 -1.072473e+00 7.457859e-02 2.257545e+00 3.001331e+00 -6.955510e-02 -1.701395e-01 1.928262e-01 -3.128083e-01 5.270213e-02 3.421714e-01 2.219076e-01 4.816375e-01 1.214059e-01 -4.506789e-02 1.512642e-01 2.663798e-01 2.381749e-01 -2.764662e-01
<VARIANCE> 25
 8.125682e+01 5.583927e+01 3.262157e+01 5.168912e+01 3.296664e+01 5.563456e+01 4.300483e+01 3.325341e+01 4.423445e+01 3.216716e+01 2.153508e+01 2.661590e+01 1.429765e+00 2.454020e+00 1.216380e+00 1.802841e+00 2.032884e+00 3.049363e+00 2.582083e+00 2.262087e+00 2.035994e+00 1.719466e+00 1.747468e+00 1.184745e+00 1.923855e+00
<GCONST> 9.845342e+01
<STATE> 3
<MEAN> 25
 -4.962041e+00 4.109227e+00 -4.083871e+00 2.782136e+00 4.412760e-01 3.584877e+00 4.300854e+00 4.286540e-01 -1.177236e+00 2.055183e+00 3.010165e+00 1.572539e+00 -2.375587e-01 6.132992e-02 -2.900301e-01 -1.927871e-01 1.285958e-01 -2.826052e-03 3.476850e-01 6.812787e-02 -4.497518e-02 1.785841e-01 -1.355921e-01 1.450379e-02 -2.243089e-01
<VARIANCE> 25
 5.657951e+01 5.190994e+01 4.194357e+01 5.396442e+01 3.782932e+01 4.970375e+01 3.967225e+01 3.406439e+01 5.261086e+01 3.278811e+01 2.305082e+01 2.686306e+01 2.634492e+00 3.267498e+00 2.085842e+00 3.432438e+00 1.785330e+00 3.358603e+00 3.393294e+00 2.546605e+00 2.505327e+00 2.594570e+00 2.405231e+00 1.782044e+00 3.140415e+00
<GCONST> 1.028267e+02
<STATE> 4
<MEAN> 25
 -1.144366e+01 7.618418e-01 5.634427e-01 -1.764735e+00 -3.978085e-01 3.496150e+00 2.263774e+00 -1.544983e-01 -5.702164e-01 4.297052e+00 8.336164e-01 -1.018234e+00 6.915518e-02 -2.523180e-02 5.281982e-03 -2.262804e-03 -1.637885e-02 2.341741e-02 2.709164e-02 -2.146009e-02 3.758010e-03 1.917434e-03 -3.975332e-03 -2.528434e-04 7.110447e-02
<VARIANCE> 25
 1.049154e+02 6.779420e+00 9.305864e+00 1.446275e+01 8.678435e+00 1.358232e+01 1.230678e+01 1.101795e+01 9.951937e+00 9.478229e+00 8.537318e+00 7.598132e+00 6.958379e-01 2.598070e-01 3.364498e-01 5.230274e-01 5.201812e-01 6.603686e-01 9.033449e-01 8.365442e-01 7.742459e-01 7.095272e-01 6.766298e-01 6.113203e-01 4.105653e-01
<GCONST> 6.864603e+01
<TRANSP> 5
 0.000000e+00 1.000000e+00 0.000000e+00 0.000000e+00 0.000000e+00
 0.000000e+00 4.419207e-01 5.580794e-01 0.000000e+00 0.000000e+00
 0.000000e+00 0.000000e+00 4.575085e-01 5.424915e-01 0.000000e+00
 0.000000e+00 0.000000e+00 0.000000e+00 9.468365e-01 5.316347e-02
 0.000000e+00 0.000000e+00 0.000000e+00 0.000000e+00 0.000000e+00
<ENDHMM>
