~o
<STREAMINFO> 1 25
<VECSIZE> 25<NULLD><MFCC_D_N_Z_0><DIAGC>
~s "silst"
<MEAN> 25
 -1.542418e+00 3.008993e+00 -4.005620e+00 1.793797e+00 1.023410e+00 1.567994e+00 4.296641e+00 1.249498e+00 -2.013594e+00 1.131374e+00 1.157739e+00 2.090873e+00 4.406434e-01 9.699506e-02 -1.997309e-01 -5.690328e-02 -2.270165e-01 1.687175e-01 1.736861e-01 4.752987e-03 -1.303904e-01 9.312347e-02 -3.623863e-02 -6.605067e-02 1.051796e-02
<VARIANCE> 25
 5.393286e+01 5.966341e+01 5.074791e+01 6.298620e+01 3.871429e+01 4.527246e+01 4.134389e+01 3.432624e+01 5.352575e+01 3.758065e+01 2.967897e+01 2.715411e+01 6.092939e+00 4.164265e+00 3.196858e+00 4.863983e+00 3.065839e+00 5.090775e+00 5.110888e+00 3.143999e+00 3.508877e+00 3.551088e+00 3.522539e+00 2.261250e+00 5.391271e+00
<GCONST> 1.089033e+02
~h "a"
<BEGINHMM>
<NUMSTATES> 5
<STATE> 2
<MEAN> 25
 3.428428e+00 -2.004769e+00 -1.044923e+00 -2.594754e+00 -2.067605e+00 -2.301151e+00 2.961196e-01 2.113375e+00 1.250028e+00 -1.116122e+00 -1.711903e+00 1.111327e+00 2.858502e-02 -2.113118e-01 6.898209e-02 -6.803074e-01 -4.045717e-01 -2.842924e-02 3.205168e-01 2.624315e-01 3.677617e-01 -2.746722e-01 1.425238e-01 6.880707e-01 2.655240e-01
<VARIANCE> 25
 2.938162e+01 3.669671e+01 2.911363e+01 3.891031e+01 5.486361e+01 5.178827e+01 3.753250e+01 3.288590e+01 4.513144e+01 2.756951e+01 3.370879e+01 2.459109e+01 8.818637e-01 1.902589e+00 1.808127e+00 2.274745e+00 2.876825e+00 2.912169e+00 2.140307e+00 2.287572e+00 3.781714e+00 2.070603e+00 2.303941e+00 2.189857e+00 1.092300e+00
<GCONST> 9.828960e+01
<STATE> 3
<MEAN> 25
 3.335256e+00 -2.514791e+00 -7.596430e-01 -3.479969e+00 -1.466310e+00 -1.371339e+00 6.749138e-01 2.103039e+00 1.569494e+00 -1.329462e+00 -1.097054e+00 1.807725e+00 -7.505755e-02 -4.115644e-02 -4.292104e-02 -2.396015e-01 1.982291e-01 4.678684e-01 2.357427e-01 -1.773513e-01 -1.573804e-01 -2.741071e-03 3.142669e-01 1.007480e-01 -6.939266e-02
<VARIANCE> 25
 3.426776e+01 3.412433e+01 3.416200e+01 4.031701e+01 5.473778e+01 5.000660e+01 4.120190e+01 3.713391e+01 4.486892e+01 3.604599e+01 3.114549e+01 2.053713e+01 9.332643e-01 2.034000e+00 1.264150e+00 1.563701e+00 2.408244e+00 3.160556e+00 2.097326e+00 2.355750e+00 2.587008e+00 1.674633e+00 2.329144e+00 1.483030e+00 1.116737e+00
<GCONST> 9.710184e+01
<STATE> 4
<MEAN> 25
 2.125079e+00 -3.207634e+00 3.951489e-02 -3.335979e+00 -8.871020e-01 6.071117e-01 -4.078653e-02 9.447959e-01 1.996591e+00 -1.097225e+00 -5.991534e-02 1.152626e+00 -5.344293e-02 1.877408e-01 -1.302635e-01 2.496426e-01 2.593473e-01 2.575410e-01 3.139412e-03 -3.387507e-01 -2.306670e-01 2.018905e-01 1.998775e-01 -7.379809e-02 -3.234499e-01
<VARIANCE> 25
 2.984940e+01 3.277658e+01 2.969992e+01 3.068681e+01 4.129019e+01 4.341647e+01 3.542390e+01 2.840910e+01 4.585876e+01 3.031347e+01 2.570735e+01 1.838594e+01 8.884793e-01 1.634837e+00 1.119310e+00 1.805125e+00 2.428714e+00 2.409530e+00 2.131566e+00 1.951570e+00 1.977378e+00 1.724859e+00 1.795506e+00 1.469410e+00 1.006838e+00
<GCONST> 9.392167e+01
<TRANSP> 5
 0.000000e+00 1.000000e+00 0.000000e+00 0.000000e+00 0.000000e+00
 0.000000e+00 3.207644e-01 6.792356e-01 0.000000e+00 0.000000e+00
 0.000000e+00 0.000000e+00 1.909541e-01 8.090459e-01 0.000000e+00
 0.000000e+00 0.000000e+00 0.000000e+00 4.990468e-01 5.009531e-01
 0.000000e+00 0.000000e+00 0.000000e+00 0.000000e+00 0.000000e+00
<ENDHMM>
~h "b"
<BEGINHMM>
<NUMSTATES> 5
<STATE> 2
<MEAN> 25
 8.482082e-01 1.071620e+01 7.906596e-01 4.996881e+00 1.203949e+00 -1.346869e+00 4.932019e+00 8.441812e+00 -9.642465e-01 -2.459807e+00 -4.468779e+00 -3.209361e+00 -2.435509e-02 6.510697e-01 -3.790830e-03 1.377052e-01 -1.850756e-01 5.416157e-03 1.095913e-01 7.188322e-01 2.143310e-01 -1.639087e-01 -2.517546e-01 -4.251516e-01 -7.104875e-01
<VARIANCE> 25
 4.973455e+01 9.159680e+01 1.032280e+01 2.866410e+01 4.768036e+01 3.945917e+01 5.110593e+01 1.307202e+02 1.311769e+01 3.829636e+01 1.857097e+01 3.198950e+01 1.138851e+00 1.104365e+01 1.598744e+00 2.334200e+00 4.067914e+00 2.251455e+00 6.922630e+00 1.597779e+01 2.995505e+00 3.356888e+00 1.207798e+00 1.106809e+00 8.502376e+00
<GCONST> 1.045223e+02
<STATE> 3
<MEAN> 25
 4.574821e+00 -1.521558e+00 2.013761e+00 3.635754e+00 -6.865045e+00 -1.632237e+00 -2.986883e+00 -4.825717e+00 -6.481225e+00 9.397395e-01 5.302756e+00 -7.389866e+00 -1.127215e-01 -2.948076e-01 4.799720e-01 -1.181620e+00 1.464705e-01 1.721095e-01 -5.827065e-01 4.516432e-02 -2.957313e-01 -7.607404e-01 -1.090174e-01 5.455046e-01 5.951799e-01
<VARIANCE> 25
 3.107992e+01 1.873524e+01 1.407574e+01 7.275543e+01 6.806707e+01 3.534125e+01 7.514213e+01 5.933733e+01 8.879506e+01 5.207802e+01 6.033681e+01 2.948746e+01 1.093475e+00 5.028178e+00 3.825540e+00 1.174436e+01 8.861213e+00 5.153924e+00 1.046973e+01 1.487919e+01 9.229398e+00 4.442644e+00 3.437771e+00 1.582787e+00 4.434635e+00
<GCONST> 1.126331e+02
<STATE> 4
<MEAN> 25
 1.945823e+01 3.121707e+00 7.299076e-01 6.194729e+00 4.161636e+00 -7.111385e+00 -9.466451e+00 -4.389113e-01 4.500056e+00 -9.039983e+00 -5.264950e+00 -1.986729e+00 1.019275e-01 -1.755192e-02 2.687687e-01 -1.623107e-01 -2.269778e-01 -5.155478e-01 -5.327383e-01 -7.382569e-02 1.961734e-01 1.717324e-01 1.240572e-01 -3.013697e-01 2.672118e-01
<VARIANCE> 25
 1.062210e+02 3.731226e+01 4.829222e+01 3.875542e+01 8.287112e+01 7.888904e+01 5.294118e+01 5.896743e+01 4.914009e+01 1.151459e+02 3.163204e+01 3.094405e+01 8.168188e-01 3.757513e+00 5.635783e+00 3.010180e+00 5.832536e+00 6.465622e+00 3.107317e+00 5.952729e+00 2.966705e+00 7.859928e+00 3.836903e+00 3.696527e+00 1.993799e+00
<GCONST> 1.111165e+02
<TRANSP> 5
 0.000000e+00 1.000000e+00 0.000000e+00 0.000000e+00 0.000000e+00
 0.000000e+00 6.128830e-01 3.871171e-01 0.000000e+00 0.000000e+00
 0.000000e+00 0.000000e+00 7.038172e-01 2.961828e-01 0.000000e+00
 0.000000e+00 0.000000e+00 0.000000e+00 7.645731e-01 2.354269e-01
 0.000000e+00 0.000000e+00 0.000000e+00 0.000000e+00 0.000000e+00
<ENDHMM>
~h "e"
<BEGINHMM>
<NUMSTATES> 5
<STATE> 2
<MEAN> 25
 4.140407e+00 6.738561e-01 3.901972e+00 -2.350847e+00 -3.270552e+00 2.379011e+00 -4.251233e+00 -4.000032e+00 -7.355776e-01 -2.797112e+00 -4.726823e-01 -2.933919e-01 8.360821e-01 -1.029512e+00 -6.979532e-01 8.223833e-01 -1.790598e-01 -1.170043e+00 -7.444705e-01 6.535012e-01 7.115021e-01 -1.501984e-01 -8.897570e-01 -3.429430e-01 8.745100e-01
<VARIANCE> 25
 7.870979e+01 3.373114e+01 4.712618e+01 3.235326e+01 1.998057e+01 4.665604e+01 3.104472e+01 5.622887e+01 3.842868e+01 7.242597e+01 5.437080e+01 2.585318e+01 2.159072e+00 8.221686e+00 9.545135e+00 3.746649e+00 6.680479e+00 8.774649e+00 3.583752e+00 2.541080e+00 3.030505e+00 7.316781e+00 3.689577e+00 1.977026e+00 2.925525e+00
<GCONST> 1.095356e+02
<STATE> 3
<MEAN> 25
 5.076616e+00 -1.166151e+00 1.979024e+00 -2.861630e-01 -3.442406e+00 -1.561888e+00 -3.827769e+00 -2.337508e+00 2.342207e-01 -3.421886e+00 -3.387848e+00 -8.313714e-01 4.440616e-01 -2.606896e-01 -1.302410e+00 8.651119e-01 8.849453e-01 -2.429982e+00 1.800296e-01 1.165955e+00 4.066114e-01 -1.884041e-01 -4.460004e-01 -2.133150e-01 4.656319e-01
<VARIANCE> 25
 6.934624e+01 2.422864e+01 2.662728e+01 3.185763e+01 3.403378e+01 6.833560e+01 3.470826e+01 5.109311e+01 2.700662e+01 6.464354e+01 3.032097e+01 2.492711e+01 9.923880e-01 5.129806e+00 3.094167e+00 4.238863e+00 5.487526e+00 1.024475e+01 3.703827e+00 3.176756e+00 2.828960e+00 6.288083e+00 3.311175e+00 2.826935e+00 1.828023e+00
<GCONST> 1.058560e+02
<STATE> 4
<MEAN> 25
 1.899521e+01 -3.206655e+00 -4.352339e+00 8.020718e+00 5.040898e+00 -1.211675e+01 -8.429863e+00 1.490139e-02 8.877171e-01 -8.729333e+00 7.489275e-01 2.976222e+00 9.905869e-02 -3.736879e-02 -5.477961e-01 -1.606430e-02 4.452761e-01 1.965529e-01 4.150063e-01 1.263960e-01 -2.931159e-01 -7.581458e-02 1.289807e-01 3.808628e-01 -4.870657e-02
<VARIANCE> 25
 1.084502e+02 3.021469e+01 5.492855e+01 8.090049e+01 5.918902e+01 8.430475e+01 6.304847e+01 3.003374e+01 3.162295e+01 6.854413e+01 4.390328e+01 5.688298e+01 4.150081e-01 2.088169e+00 2.503998e+00 3.162740e+00 2.850116e+00 4.856264e+00 2.746335e+00 2.981759e+00 2.001159e+00 2.788720e+00 2.728423e+00 1.993082e+00 7.776534e-01
<GCONST> 1.038244e+02
<TRANSP> 5
 0.000000e+00 1.000000e+00 0.000000e+00 0.000000e+00 0.000000e+00
 0.000000e+00 2.990412e-01 7.009588e-01 0.000000e+00 0.000000e+00
 0.000000e+00 0.000000e+00 2.930613e-01 7.069387e-01 0.000000e+00
 0.000000e+00 0.000000e+00 0.000000e+00 6.955940e-01 3.044059e-01
 0.000000e+00 0.000000e+00 0.000000e+00 0.000000e+00 0.000000e+00
<ENDHMM>
~h "h"
<BEGINHMM>
<NUMSTATES> 5
<STATE> 2
<MEAN> 25
 -3.453333e+00 -3.443777e-01 -4.688571e+00 -7.656372e-01 -1.309164e+00 2.951712e+00 9.157619e+00 1.335717e+00 -1.156603e+00 3.037117e+00 1.545418e+00 1.191416e+00 9.683976e-01 -1.144078e-02 8.397974e-01 -2.048635e-01 9.132667e-01 -1.309394e+00 1.729018e-01 4.164804e-01 -1.172139e-01 4.425122e-01 -5.592721e-01 3.467733e-01 2.083314e+00
<VARIANCE> 25
 6.665966e+01 6.434386e+01 4.631567e+01 7.286245e+01 5.539610e+01 7.660724e+01 4.619575e+01 3.145049e+01 3.529446e+01 3.658268e+01 1.984789e+01 1.898203e+01 5.475113e+00 8.240209e+00 4.739910e+00 3.574100e+00 3.981210e+00 3.963438e+00 5.493817e+00 3.601670e+00 4.615965e+00 3.296219e+00 2.165777e+00 1.600667e+00 5.209222e+00
<GCONST> 1.091628e+02
<STATE> 3
<MEAN> 25
 6.077278e-03 -2.888043e+00 2.761088e-01 -2.563813e+00 -5.376893e-01 -8.964058e-01 4.702273e+00 1.362797e+00 5.411360e-01 3.011197e+00 -3.694619e-01 1.196158e+00 1.419167e+00 -1.031179e+00 6.182107e-01 -2.213067e-01 -8.748334e-01 -1.443625e-02 -1.688715e+00 -3.862221e-03 2.424189e-01 -9.441823e-01 -4.134597e-01 -3.429425e-01 6.351200e-01
<VARIANCE> 25
 3.551363e+01 3.397147e+01 2.896358e+01 4.234761e+01 5.327078e+01 6.964201e+01 3.990118e+01 3.770922e+01 4.613137e+01 2.954399e+01 2.879300e+01 1.745596e+01 2.360081e+00 3.396924e+00 4.019672e+00 2.147874e+00 4.063860e+00 5.498467e+00 4.103356e+00 2.935047e+00 5.004536e+00 1.930518e+00 2.424119e+00 1.688453e+00 1.729022e+00
<GCONST> 1.031839e+02
<STATE> 4
<MEAN> 25
 2.880963e+00 -2.837811e+00 -8.920282e-01 -1.755719e+00 -5.578705e-01 -9.481410e-01 9.625636e-01 5.703487e-01 -1.876191e-01 -1.571846e-01 -1.069947e+00 2.335979e-01 1.885338e-01 6.480098e-02 -1.672179e-01 -4.108179e-02 -7.454535e-02 -7.572967e-01 -5.497241e-01 -3.933509e-02 2.793498e-01 -4.863103e-01 -4.497814e-01 1.587726e-02 1.719106e-02
<VARIANCE> 25
 1.563640e+01 2.543022e+01 2.897931e+01 2.673179e+01 4.519446e+01 5.380866e+01 2.784006e+01 2.613430e+01 4.773561e+01 2.443246e+01 1.738224e+01 1.515771e+01 5.123445e-01 1.085679e+00 1.390534e+00 1.962657e+00 2.164803e+00 2.384572e+00 1.698737e+00 1.890590e+00 2.113655e+00 1.553852e+00 1.717149e+00 1.314327e+00 4.553564e-01
<GCONST> 9.004861e+01
<TRANSP> 5
 0.000000e+00 1.000000e+00 0.000000e+00 0.000000e+00 0.000000e+00
 0.000000e+00 6.904497e-01 3.095504e-01 0.000000e+00 0.000000e+00
 0.000000e+00 0.000000e+00 4.832928e-01 5.167072e-01 0.000000e+00
 0.000000e+00 0.000000e+00 0.000000e+00 7.239163e-01 2.760837e-01
 0.000000e+00 0.000000e+00 0.000000e+00 0.000000e+00 0.000000e+00
<ENDHMM>
~h "i"
<BEGINHMM>
<NUMSTATES> 5
<STATE> 2
<MEAN> 25
 6.992035e+00 -1.047530e+01 6.205175e+00 7.312407e+00 -3.089211e+00 -9.950669e-01 -4.059018e+00 -2.486990e+00 -8.067812e-01 -3.061889e-01 1.998995e+00 -2.417721e+00 6.896435e-01 1.009231e+00 7.313247e-01 1.995252e+00 1.210298e+00 -1.168264e+00 -1.291275e+00 -4.863797e-01 -7.724195e-01 -8.752879e-01 2.840638e-01 -8.988292e-01 1.682837e-01
<VARIANCE> 25
 1.051925e+02 1.179498e+02 5.031129e+01 9.561819e+01 7.419099e+01 7.855935e+01 4.553802e+01 4.901812e+01 2.224073e+01 4.570551e+01 2.200492e+01 2.442664e+01 2.074519e+00 4.939148e+00 4.241765e+00 2.610415e+00 6.007643e+00 6.159905e+00 3.392367e+00 2.377145e+00 3.326267e+00 6.555867e+00 2.469979e+00 1.979996e+00 1.619155e+00
<GCONST> 1.090252e+02
<STATE> 3
<MEAN> 25
 1.544917e+00 -1.650714e+00 1.074367e+01 7.714148e+00 2.086879e+00 -5.320724e+00 -7.235169e+00 -4.268527e+00 -4.937704e+00 -1.456767e+00 -4.119357e-01 -3.373535e+00 3.117622e-01 -6.591144e-02 -8.371873e-01 -1.914851e-01 -4.120630e-02 1.256856e-02 -2.566884e-01 -9.804255e-01 5.247453e-02 1.833983e-01 3.814773e-01 6.222275e-01 1.383466e-01
<VARIANCE> 25
 2.165052e+01 1.330902e+01 3.489239e+01 1.122165e+02 1.224583e+02 1.944780e+01 8.286205e+01 3.044372e+01 1.373219e+01 7.872894e+01 2.745059e+01 4.842667e+01 2.721016e-01 4.909633e-01 1.307638e+00 1.338359e+00 1.296869e+00 1.798195e+00 1.650385e+00 2.243414e+00 1.627050e+00 1.461588e+00 1.452852e+00 1.293837e+00 4.388984e-01
<GCONST> 9.104623e+01
<STATE> 4
<MEAN> 25
 1.904312e+01 7.903270e-01 -4.390625e-01 1.240693e+01 8.865976e+00 -7.404695e+00 -1.265019e+01 -1.013531e+01 -6.148532e+00 -4.704465e+00 4.319697e+00 8.053148e-01 -1.901271e-01 6.592960e-01 -3.955351e-01 -1.047438e+00 -1.532381e-01 9.239836e-01 5.004472e-01 1.930237e-03 2.635990e-01 2.984985e-01 -2.668386e-01 4.526230e-01 -4.663217e-01
<VARIANCE> 25
 7.056152e+01 3.098380e+01 2.992040e+01 1.652777e+02 4.437693e+01 1.444007e+02 5.912644e+01 3.399507e+01 2.024511e+01 3.641849e+01 3.579604e+01 2.166981e+01 8.857794e-01 6.838154e-01 3.260168e+00 3.959684e+00 1.277126e+00 4.047585e+00 3.692153e+00 2.761125e+00 9.889907e-01 2.374217e+00 1.755327e+00 2.942724e+00 9.016938e-01
<GCONST> 1.001843e+02
<TRANSP> 5
 0.000000e+00 1.000000e+00 0.000000e+00 0.000000e+00 0.000000e+00
 0.000000e+00 8.179370e-01 1.820630e-01 0.000000e+00 0.000000e+00
 0.000000e+00 0.000000e+00 8.096125e-01 1.903876e-01 0.000000e+00
 0.000000e+00 0.000000e+00 0.000000e+00 7.935401e-01 2.064599e-01
 0.000000e+00 0.000000e+00 0.000000e+00 0.000000e+00 0.000000e+00
<ENDHMM>
~h "j"
<BEGINHMM>
<NUMSTATES> 5
<STATE> 2
<MEAN> 25
 1.021112e+01 2.933876e+00 7.700943e+00 1.154690e+01 2.410806e+00 -4.987220e+00 -5.557915e+00 -3.687594e+00 -4.188116e+00 -5.966734e+00 2.630285e+00 1.092189e-01 2.043502e-01 -1.764618e-01 -1.524212e-01 4.206348e-01 2.958117e-01 -6.455430e-01 -9.802173e-01 -4.583334e-01 1.029574e-02 3.830461e-02 1.566375e-01 -3.012359e-01 2.740092e-01
<VARIANCE> 25
 1.240073e+02 8.468135e+01 4.149343e+01 8.360283e+01 9.657079e+01 5.493673e+01 6.166837e+01 2.766177e+01 3.050805e+01 7.189745e+01 2.138925e+01 2.948625e+01 5.252144e+00 1.060053e+01 6.695520e+00 7.546922e+00 7.939936e+00 6.063539e+00 8.039462e+00 3.961922e+00 4.183102e+00 4.846598e+00 2.375899e+00 2.135736e+00 4.397994e+00
<GCONST> 1.149082e+02
<STATE> 3
<MEAN> 25
 5.751158e-01 -1.027345e+00 5.825930e+00 8.883161e+00 5.300836e+00 1.450560e+00 -7.059134e+00 -7.229539e+00 -4.534989e+00 -1.742005e+00 2.000186e+00 -2.180882e+00 -3.727059e-01 1.483786e+00 -1.272082e+00 -2.381254e-01 -9.550338e-02 6.063524e-01 5.225850e-01 -6.370451e-02 -2.794904e-01 2.119010e-01 3.405890e-01 5.944833e-01 -1.627628e+00
<VARIANCE> 25
 2.993092e+01 3.584460e+01 2.420636e+01 2.954703e+01 3.666743e+01 5.768382e+01 3.233889e+01 2.266183e+01 1.935628e+01 2.006462e+01 3.451824e+01 2.068215e+01 2.705726e+00 3.759556e+00 2.593861e+00 2.793892e+00 3.186692e+00 3.314314e+00 2.883231e+00 2.753321e+00 2.354944e+00 2.389697e+00 3.005395e+00 2.247607e+00 5.327078e+00
<GCONST> 1.003241e+02
<STATE> 4
<MEAN> 25
 1.604457e+01 -4.182231e-01 -6.447015e+00 8.968146e+00 5.871975e+00 -8.596835e+00 -9.394195e+00 -3.525734e+00 -3.808906e+00 -8.988724e+00 4.818773e+00 7.738621e+00 -1.858112e-01 7.506843e-01 -6.929604e-01 -1.562776e+00 -6.707951e-01 1.338388e+00 1.097176e+00 -9.201892e-02 -4.841837e-01 -7.654954e-02 -1.004214e+00 5.954731e-02 -7.225984e-01
<VARIANCE> 25
 1.735690e+02 5.231656e+01 2.662223e+01 3.746288e+01 6.216457e+01 6.733720e+01 5.116360e+01 2.291446e+01 1.239000e+01 4.080425e+01 2.200058e+01 3.605029e+01 5.385759e-01 9.294431e-01 1.926836e+00 1.913602e+00 1.670813e+00 2.511342e+00 1.826672e+00 2.482193e+00 1.432171e+00 2.219620e+00 1.387973e+00 1.746275e+00 9.758578e-01
<GCONST> 9.584991e+01
<TRANSP> 5
 0.000000e+00 1.000000e+00 0.000000e+00 0.000000e+00 0.000000e+00
 0.000000e+00 8.361115e-01 1.638884e-01 0.000000e+00 0.000000e+00
 0.000000e+00 0.000000e+00 7.974006e-01 2.025994e-01 0.000000e+00
 0.000000e+00 0.000000e+00 0.000000e+00 7.142907e-01 2.857092e-01
 0.000000e+00 0.000000e+00 0.000000e+00 0.000000e+00 0.000000e+00
<ENDHMM>
~h "k"
<BEGINHMM>
<NUMSTATES> 5
<STATE> 2
<MEAN> 25
 -1.513887e-08 8.685321e-09 6.289883e-08 7.186313e-08 3.131923e-08 4.571417e-08 5.014053e-08 1.333485e-08 -7.134006e-08 8.713219e-09 1.011273e-09 4.209684e-08 -6.534437e-03 7.731597e-03 -5.306157e-03 4.609803e-03 -4.191151e-03 8.242088e-03 -6.219152e-03 5.951754e-03 -5.249157e-03 1.868283e-03 2.200403e-03 -1.269434e-03 2.744509e-03
<VARIANCE> 25
 6.716856e+01 2.941401e+01 5.663681e+01 4.741492e+01 4.696264e+01 4.914315e+01 4.999928e+01 4.303569e+01 5.672998e+01 3.222253e+01 2.850756e+01 4.103967e+01 2.100924e+00 1.434693e+00 1.891293e+00 2.194988e+00 2.363979e+00 2.636887e+00 2.464799e+00 2.732278e+00 2.851009e+00 2.222413e+00 2.036798e+00 2.011688e+00 1.909456e+00
<GCONST> 1.015924e+02
<STATE> 3
<MEAN> 25
 -1.513887e-08 8.685321e-09 6.289883e-08 7.186313e-08 3.131923e-08 4.571417e-08 5.014053e-08 1.333485e-08 -7.134006e-08 8.713219e-09 1.011273e-09 4.209684e-08 -6.534437e-03 7.731597e-03 -5.306157e-03 4.609803e-03 -4.191151e-03 8.242088e-03 -6.219152e-03 5.951754e-03 -5.249157e-03 1.868283e-03 2.200403e-03 -1.269434e-03 2.744509e-03
<VARIANCE> 25
 6.716856e+01 2.941401e+01 5.663681e+01 4.741492e+01 4.696264e+01 4.914315e+01 4.999928e+01 4.303569e+01 5.672998e+01 3.222253e+01 2.850756e+01 4.103967e+01 2.100924e+00 1.434693e+00 1.891293e+00 2.194988e+00 2.363979e+00 2.636887e+00 2.464799e+00 2.732278e+00 2.851009e+00 2.222413e+00 2.036798e+00 2.011688e+00 1.909456e+00
<GCONST> 1.015924e+02
<STATE> 4
<MEAN> 25
 -1.513887e-08 8.685321e-09 6.289883e-08 7.186313e-08 3.131923e-08 4.571417e-08 5.014053e-08 1.333485e-08 -7.134006e-08 8.713219e-09 1.011273e-09 4.209684e-08 -6.534437e-03 7.731597e-03 -5.306157e-03 4.609803e-03 -4.191151e-03 8.242088e-03 -6.219152e-03 5.951754e-03 -5.249157e-03 1.868283e-03 2.200403e-03 -1.269434e-03 2.744509e-03
<VARIANCE> 25
 6.716856e+01 2.941401e+01 5.663681e+01 4.741492e+01 4.696264e+01 4.914315e+01 4.999928e+01 4.303569e+01 5.672998e+01 3.222253e+01 2.850756e+01 4.103967e+01 2.100924e+00 1.434693e+00 1.891293e+00 2.194988e+00 2.363979e+00 2.636887e+00 2.464799e+00 2.732278e+00 2.851009e+00 2.222413e+00 2.036798e+00 2.011688e+00 1.909456e+00
<GCONST> 1.015924e+02
<TRANSP> 5
 0.000000e+00 1.000000e+00 0.000000e+00 0.000000e+00 0.000000e+00
 0.000000e+00 6.000000e-01 4.000000e-01 0.000000e+00 0.000000e+00
 0.000000e+00 0.000000e+00 6.000000e-01 4.000000e-01 0.000000e+00
 0.000000e+00 0.000000e+00 0.000000e+00 7.000000e-01 3.000000e-01
 0.000000e+00 0.000000e+00 0.000000e+00 0.000000e+00 0.000000e+00
<ENDHMM>
~h "l"
<BEGINHMM>
<NUMSTATES> 5
<STATE> 2
<MEAN> 25
 4.762030e+00 -2.287318e+00 -2.634673e+00 -3.981532e+00 -2.761302e+00 -4.914392e+00 2.327206e+00 2.268827e+00 6.204569e-01 -1.402427e+00 -1.737016e+00 3.263870e+00 2.301224e-01 4.086838e-01 -9.287228e-02 4.533985e-01 -2.241363e-01 4.234160e-01 -3.608707e-01 -2.333107e-01 2.738764e-01 -4.530383e-03 1.870815e-02 -2.356433e-01 -4.286365e-01
<VARIANCE> 25
 2.311142e+01 1.829546e+01 1.851675e+01 2.241344e+01 5.369719e+01 3.807697e+01 3.902967e+01 3.340575e+01 3.056005e+01 2.417311e+01 2.469772e+01 2.568710e+01 3.904268e-01 1.544320e+00 9.616544e-01 1.992558e+00 3.697959e+00 2.283753e+00 2.656796e+00 1.812824e+00 2.360059e+00 1.979003e+00 2.758459e+00 2.188365e+00 5.747181e-01
<GCONST> 9.251112e+01
<STATE> 3
<MEAN> 25
 4.902031e+00 6.471528e-01 -1.230474e+00 -6.973812e-01 -1.414553e+00 -1.171389e+00 -1.653449e+00 -1.809886e-01 1.993129e+00 -1.372776e+00 -2.241408e+00 -6.882466e-01 -8.157407e-02 8.685033e-01 7.560095e-01 1.909334e+00 4.237332e-01 1.350190e+00 -7.351894e-01 -8.096611e-01 1.577338e-01 -1.037294e-01 -5.418335e-01 -1.341237e+00 -1.061587e+00
<VARIANCE> 25
 2.232193e+01 2.165749e+01 2.112546e+01 3.056669e+01 5.098934e+01 4.746402e+01 3.114278e+01 4.150428e+01 3.166603e+01 2.563764e+01 4.505736e+01 3.519583e+01 6.006072e-01 1.498732e+00 1.916829e+00 3.010231e+00 6.888009e+00 2.900399e+00 2.208913e+00 2.759574e+00 2.854858e+00 2.205642e+00 3.851875e+00 4.242412e+00 5.776374e-01
<GCONST> 9.815701e+01
<STATE> 4
<MEAN> 25
 4.089921e+00 9.840870e-01 -2.427004e-01 2.295314e+00 -2.660243e-01 1.115728e+00 -1.279918e+00 -9.429845e-01 1.487523e+00 -1.690599e+00 -4.110140e+00 -4.726114e+00 -6.052756e-02 9.628473e-02 -6.202173e-02 -1.588019e-02 -1.135332e-01 -1.945253e-01 1.421616e-01 2.047147e-01 -2.032467e-02 9.813944e-02 5.213508e-02 3.146696e-02 -6.101412e-02
<VARIANCE> 25
 1.458061e+01 1.744888e+01 2.163765e+01 2.291780e+01 5.351197e+01 3.645066e+01 3.370564e+01 3.925185e+01 3.527055e+01 2.165774e+01 3.190961e+01 3.126037e+01 3.365974e-01 8.434174e-01 8.607201e-01 2.065509e+00 1.951150e+00 2.665476e+00 1.277637e+00 1.626301e+00 1.303824e+00 1.365353e+00 1.403431e+00 2.461231e+00 6.242340e-01
<GCONST> 8.904087e+01
<TRANSP> 5
 0.000000e+00 1.000000e+00 0.000000e+00 0.000000e+00 0.000000e+00
 0.000000e+00 5.918286e-01 4.081714e-01 0.000000e+00 0.000000e+00
 0.000000e+00 0.000000e+00 4.796203e-01 5.203797e-01 0.000000e+00
 0.000000e+00 0.000000e+00 0.000000e+00 7.033968e-01 2.966033e-01
 0.000000e+00 0.000000e+00 0.000000e+00 0.000000e+00 0.000000e+00
<ENDHMM>
~h "m"
<BEGINHMM>
<NUMSTATES> 5
<STATE> 2
<MEAN> 25
 3.100306e+00 1.768053e+00 4.372500e-01 -6.837735e-01 4.148798e-01 1.702551e+00 -5.506927e-01 2.091413e+00 6.447511e-01 -1.361590e+00 -2.554755e+00 -2.469232e+00 -3.045940e-01 1.102624e+00 -2.210072e-01 5.910675e-01 1.154229e+00 3.092473e-01 4.467974e-01 5.749393e-01 -1.457130e+00 5.157184e-01 -6.690758e-02 -4.306216e-01 -1.055240e+00
<VARIANCE> 25
 1.492494e+01 6.365276e+01 2.414346e+01 2.881630e+01 4.935669e+01 6.197683e+01 5.597081e+01 4.751734e+01 5.231276e+01 2.901602e+01 2.755237e+01 3.066056e+01 9.620156e-01 6.647598e+00 2.716938e+00 3.917797e+00 5.636929e+00 5.336245e+00 5.963572e+00 5.359378e+00 4.861262e+00 2.338868e+00 4.061491e+00 2.900357e+00 4.255446e+00
<GCONST> 1.067588e+02
<STATE> 3
<MEAN> 25
 2.391049e+00 1.271676e+00 1.922128e-01 8.230785e-01 1.878518e+00 2.516512e-01 -3.328833e-01 3.731308e+00 -1.498808e+00 1.005460e-02 -2.311248e+00 -2.764475e+00 -7.581996e-02 -1.667139e+00 1.233652e-01 -4.779822e-01 4.134020e-01 -4.412907e-01 -8.305386e-01 3.858788e-02 9.771264e-01 1.853204e-01 -5.716317e-02 2.186891e-01 1.173305e+00
<VARIANCE> 25
 1.550707e+01 6.932980e+01 3.309935e+01 4.931281e+01 6.045041e+01 5.204588e+01 6.475912e+01 4.232343e+01 5.221727e+01 4.200566e+01 2.437967e+01 2.899371e+01 9.077355e-01 5.813111e+00 2.102030e+00 5.943880e+00 1.022312e+01 4.548872e+00 4.572576e+00 5.287708e+00 6.420682e+00 1.836692e+00 3.744802e+00 3.120264e+00 4.426556e+00
<GCONST> 1.081758e+02
<STATE> 4
<MEAN> 25
 1.815410e+00 -2.153372e+00 -9.923032e-02 -1.803807e-01 4.787782e+00 8.683822e-01 -2.262879e+00 1.276328e+00 2.632131e-01 4.435743e-01 -2.403673e+00 -7.043406e-01 -3.105941e-01 -3.067751e-01 8.501130e-02 -6.456224e-03 5.099828e-02 1.980688e-01 1.975836e-02 -2.618667e-01 -8.884622e-02 9.781010e-03 -3.293157e-03 3.913236e-01 -1.727425e-02
<VARIANCE> 25
 2.361238e+01 4.261774e+01 2.840534e+01 4.486011e+01 6.209082e+01 4.741466e+01 3.770300e+01 4.131335e+01 4.022046e+01 3.858622e+01 3.238440e+01 2.338581e+01 9.979979e-01 1.265909e+00 1.594501e+00 2.682993e+00 2.572239e+00 2.049459e+00 2.351778e+00 2.434570e+00 2.113728e+00 1.667325e+00 2.475917e+00 3.251203e+00 1.481701e+00
<GCONST> 9.815969e+01
<TRANSP> 5
 0.000000e+00 1.000000e+00 0.000000e+00 0.000000e+00 0.000000e+00
 0.000000e+00 5.903288e-01 4.096712e-01 0.000000e+00 0.000000e+00
 0.000000e+00 0.000000e+00 5.210010e-01 4.789989e-01 0.000000e+00
 0.000000e+00 0.000000e+00 0.000000e+00 4.086348e-01 5.913653e-01
 0.000000e+00 0.000000e+00 0.000000e+00 0.000000e+00 0.000000e+00
<ENDHMM>
~h "n"
<BEGINHMM>
<NUMSTATES> 5
<STATE> 2
<MEAN> 25
 -6.495056e-01 6.975234e+00 -2.230546e+00 1.945787e+00 7.275486e+00 4.615682e+00 1.354613e+00 -2.415174e+00 -7.130188e+00 -8.032036e-01 4.392588e-01 7.943449e-01 -6.616066e-01 1.073822e+00 -2.825338e-01 5.258769e-01 2.439800e-01 5.128484e-02 4.775128e-01 2.349065e-01 -2.565284e-01 3.525329e-01 -3.606742e-02 -6.520493e-02 -1.214683e+00
<VARIANCE> 25
 5.448594e+01 8.611469e+01 2.893022e+01 2.622761e+01 4.604984e+01 4.127386e+01 5.361808e+01 2.687454e+01 7.493044e+01 3.152443e+01 3.303683e+01 1.928841e+01 1.963748e+00 6.327464e+00 2.683205e+00 3.080261e+00 5.534434e+00 3.458336e+00 4.389160e+00 2.992134e+00 4.966869e+00 3.333775e+00 3.731414e+00 2.037325e+00 3.164266e+00
<GCONST> 1.062257e+02
<STATE> 3
<MEAN> 25
 -1.244944e+00 1.184046e+00 -1.371343e+00 1.434868e-01 -9.787723e-01 1.239910e+00 3.793192e+00 -1.404362e+00 -1.357618e+00 5.589586e-01 1.788507e+00 1.090520e+00 8.910745e-01 -1.519026e+00 9.982985e-01 -2.084250e-02 -1.514604e+00 -7.438053e-01 -2.355418e-01 4.789701e-01 8.884673e-01 -3.662937e-01 5.790861e-01 1.068887e-01 1.831014e+00
<VARIANCE> 25
 1.329764e+02 5.113354e+01 3.909905e+01 4.280081e+01 5.249236e+01 3.201576e+01 6.815134e+01 4.068236e+01 7.136764e+01 3.313726e+01 2.563680e+01 2.097307e+01 6.450932e+00 8.309199e+00 5.417948e+00 4.825679e+00 6.213237e+00 5.457114e+00 7.176830e+00 7.643973e+00 7.592686e+00 4.213604e+00 3.218398e+00 2.304651e+00 6.180029e+00
<GCONST> 1.136687e+02
<STATE> 4
<MEAN> 25
 2.201903e+01 -1.878520e+00 -5.955273e+00 2.216339e+00 3.425771e+00 -9.143158e+00 -4.347312e+00 3.776500e+00 3.895871e+00 -1.044271e+01 -2.328138e+00 2.277452e+00 -1.304757e-01 -2.286937e-02 3.240665e-01 8.812907e-02 -5.102437e-02 5.498671e-02 -9.712054e-02 -1.308141e-01 7.228275e-02 -9.380104e-02 -9.579908e-02 3.044373e-02 1.783475e-02
<VARIANCE> 25
 9.238099e+01 4.243988e+01 5.657816e+01 5.696278e+01 3.243042e+01 4.821752e+01 3.902429e+01 2.443853e+01 2.615289e+01 4.757050e+01 2.860984e+01 2.909908e+01 1.672001e+00 3.092570e+00 4.195156e+00 5.905095e+00 2.814995e+00 3.679637e+00 3.565336e+00 2.607497e+00 2.469139e+00 3.278724e+00 2.838320e+00 3.164017e+00 2.112287e+00
<GCONST> 1.048191e+02
<TRANSP> 5
 0.000000e+00 1.000000e+00 0.000000e+00 0.000000e+00 0.000000e+00
 0.000000e+00 7.298174e-01 2.701827e-01 0.000000e+00 0.000000e+00
 0.000000e+00 0.000000e+00 5.325212e-01 4.674788e-01 0.000000e+00
 0.000000e+00 0.000000e+00 0.000000e+00 8.532633e-01 1.467367e-01
 0.000000e+00 0.000000e+00 0.000000e+00 0.000000e+00 0.000000e+00
<ENDHMM>
~h "p"
<BEGINHMM>
<NUMSTATES> 5
<STATE> 2
<MEAN> 25
 6.700060e+00 -4.131246e+00 1.502635e+00 -3.933392e+00 -1.034679e+00 -4.947808e+00 -6.773618e+00 1.746971e+00 2.591678e+00 -8.514788e+00 -6.620709e+00 1.128172e+00 4.879224e-01 4.597245e-01 -8.495988e-02 6.378657e-01 -3.318930e-01 -2.618823e-01 -9.720213e-01 9.988323e-01 1.574642e+00 -3.311372e-01 5.599098e-01 2.498384e-01 -3.820322e-01
<VARIANCE> 25
 1.080880e+01 2.399099e+01 1.530559e+01 2.599433e+01 9.902042e+00 3.384261e+01 3.720448e+01 1.652822e+01 4.432559e+01 4.798404e+01 4.703316e+01 2.010682e+01 1.113835e+00 3.749726e+00 1.527827e+00 2.967771e+00 2.567793e+00 4.176089e+00 3.162665e+00 1.235180e+00 4.268155e+00 3.227842e+00 1.974627e+00 1.012318e+00 2.682140e-01
<GCONST> 9.291722e+01
<STATE> 3
<MEAN> 25
 4.788019e+00 -1.358972e+00 1.324989e+00 -5.719485e-01 -2.956996e+00 -3.962019e+00 -4.784074e+00 2.941231e+00 5.064876e+00 -2.165004e+00 2.643106e-01 -9.502566e-02 -4.475878e-01 3.277496e-01 -2.104605e-01 6.051719e-02 -2.072981e-01 8.546173e-02 5.512434e-01 -6.523691e-03 -1.426041e-01 6.725142e-01 5.863265e-01 -8.522768e-02 -6.722047e-01
<VARIANCE> 25
 9.279884e+00 3.465453e+01 2.534430e+01 1.274868e+01 6.860181e+00 4.011172e+01 1.104256e+01 2.361850e+01 2.822354e+01 3.130746e+01 2.479706e+01 1.407874e+01 5.158082e-01 4.848843e-01 3.649414e-01 6.664364e-01 6.737713e-01 2.473481e+00 1.426972e+00 1.727048e+00 1.570207e+00 2.410477e+00 1.789949e+00 1.178226e+00 4.463703e-01
<GCONST> 8.120244e+01
<STATE> 4
<MEAN> 25
 2.983138e+00 -1.099161e+00 -1.248646e+00 7.311418e-01 3.198926e-01 2.902380e+00 2.039859e+00 -6.300732e-01 4.887706e-01 2.392415e+00 7.264753e-01 5.647801e-01 -2.555616e-02 6.649233e-03 -3.606129e-02 -2.109616e-02 -2.627904e-02 -1.133144e-02 4.510763e-02 2.771954e-02 4.996092e-03 3.374833e-02 2.383819e-02 -7.033663e-03 -4.592176e-02
<VARIANCE> 25
 1.529304e+00 3.001272e+00 3.392994e+00 4.848978e+00 4.872261e+00 1.042260e+01 7.915448e+00 6.383937e+00 6.564094e+00 8.945207e+00 6.266434e+00 6.042202e+00 1.169114e-01 1.559683e-01 2.497111e-01 4.357743e-01 4.738210e-01 6.823730e-01 7.512296e-01 7.729434e-01 6.453457e-01 7.305077e-01 6.618464e-01 8.352704e-01 5.300761e-02
<GCONST> 5.365085e+01
<TRANSP> 5
 0.000000e+00 1.000000e+00 0.000000e+00 0.000000e+00 0.000000e+00
 0.000000e+00 5.566583e-01 4.433418e-01 0.000000e+00 0.000000e+00
 0.000000e+00 0.000000e+00 7.495637e-01 2.504363e-01 0.000000e+00
 0.000000e+00 0.000000e+00 0.000000e+00 9.372469e-01 6.275311e-02
 0.000000e+00 0.000000e+00 0.000000e+00 0.000000e+00 0.000000e+00
<ENDHMM>
~h "r"
<BEGINHMM>
<NUMSTATES> 5
<STATE> 2
<MEAN> 25
 3.464409e+00 1.866787e+00 2.700417e+00 1.070722e+00 2.985134e-01 -3.155192e+00 -5.898877e+00 -2.386100e+00 -1.970507e+00 -2.859985e+00 1.399833e+00 3.236505e+00 -4.064554e-01 5.307876e-01 -8.733196e-01 -1.957582e-01 8.014362e-01 3.861440e-01 3.803965e-01 3.371022e-01 3.856390e-01 -3.610344e-01 1.315763e-03 1.054134e+00 -9.859369e-01
<VARIANCE> 25
 1.933600e+01 2.795471e+01 2.226828e+01 2.408366e+01 9.108114e+01 2.707220e+01 8.631818e+01 8.102946e+01 2.377287e+01 1.903469e+01 1.322189e+01 1.227911e+01 1.024658e+00 2.164696e+00 3.307934e+00 4.049704e+00 1.668047e+00 3.438091e+00 5.488643e+00 2.397208e+00 3.498228e+00 4.312249e+00 1.819595e+00 2.444199e+00 9.171105e-01
<GCONST> 9.822655e+01
<STATE> 3
<MEAN> 25
 7.592402e-01 4.218140e-01 -1.256786e+00 2.137354e+00 2.589633e+00 1.376120e+00 -3.447603e+00 -5.312782e+00 -1.307777e+00 2.077549e+00 1.051437e+00 1.307925e+00 -3.795946e-01 3.262758e-01 -4.809594e-01 1.100231e-02 -5.402960e-01 9.519523e-01 9.198261e-01 7.526423e-01 1.692178e-01 3.294194e-01 -7.871192e-03 -5.135038e-02 -1.063638e+00
<VARIANCE> 25
 2.447710e+01 5.769600e+01 2.166180e+01 1.520542e+01 5.150652e+01 6.448000e+01 3.961119e+01 3.163717e+01 4.746234e+01 3.701822e+01 1.824534e+01 1.801161e+01 1.752600e+00 5.271212e+00 2.196757e+00 1.729614e+00 3.852690e+00 8.341302e+00 3.343780e+00 1.758257e+00 8.295170e+00 1.622206e+00 2.247859e+00 1.889061e+00 2.246866e+00
<GCONST> 1.011595e+02
<STATE> 4
<MEAN> 25
 -3.712887e-01 3.981135e+00 -2.653478e-02 3.541351e+00 1.980280e+00 3.215116e+00 -1.590221e+00 -3.501778e+00 -1.880237e+00 9.113772e-01 1.509478e+00 1.899073e+00 -6.661225e-01 4.734521e-01 1.441805e-01 2.557893e-01 -9.146617e-02 1.757386e-01 4.972423e-01 2.736900e-01 2.042315e-01 4.838430e-01 -1.321836e-01 -4.781972e-01 -7.155321e-01
<VARIANCE> 25
 3.683191e+01 1.819203e+01 2.372980e+01 1.810685e+01 3.402815e+01 5.616251e+01 2.958316e+01 1.638971e+01 3.155319e+01 2.417570e+01 1.331476e+01 1.491979e+01 6.251447e-01 8.670217e-01 9.057648e-01 1.556238e+00 1.190751e+00 1.466376e+00 1.655697e+00 1.037629e+00 1.112030e+00 1.358143e+00 1.219661e+00 1.309765e+00 2.714368e-01
<GCONST> 8.459126e+01
<TRANSP> 5
 0.000000e+00 1.000000e+00 0.000000e+00 0.000000e+00 0.000000e+00
 0.000000e+00 6.639948e-01 3.360052e-01 0.000000e+00 0.000000e+00
 0.000000e+00 0.000000e+00 7.410761e-01 2.589239e-01 0.000000e+00
 0.000000e+00 0.000000e+00 0.000000e+00 8.181720e-01 1.818279e-01
 0.000000e+00 0.000000e+00 0.000000e+00 0.000000e+00 0.000000e+00
<ENDHMM>
~h "s"
<BEGINHMM>
<NUMSTATES> 5
<STATE> 2
<MEAN> 25
 -4.391309e+00 7.918603e-01 1.101468e+01 -4.500585e+00 -4.152163e+00 7.913395e+00 1.540010e+00 -6.470351e+00 3.516798e+00 -6.119608e-01 2.146122e+00 -1.137259e-01 -1.660208e+00 -9.237676e-01 1.568349e+00 -1.471405e+00 -5.532069e-01 8.329543e-01 7.232615e-01 -1.022376e+00 -4.396692e-01 4.220037e-01 8.704401e-01 -2.367465e-01 1.541620e-01
<VARIANCE> 25
 2.052614e+02 2.260969e+02 2.319337e+02 6.464090e+01 1.508376e+02 1.290811e+02 5.904087e+01 4.880274e+01 6.677018e+01 5.437566e+01 3.833230e+01 1.599505e+01 1.362400e+01 1.706854e+01 1.566701e+01 6.563654e+00 1.117197e+01 1.077459e+01 7.312390e+00 6.492039e+00 4.547270e+00 7.049331e+00 5.204483e+00 2.515654e+00 1.372179e+00
<GCONST> 1.238547e+02
<STATE> 3
<MEAN> 25
 -9.045232e+00 -8.677417e+00 1.237091e+01 -8.394803e+00 -1.746683e+00 6.082701e+00 9.492146e-01 -6.632644e+00 -1.263642e+00 3.510432e+00 1.357091e-01 7.607564e-01 1.669638e+00 8.708022e-01 -1.529961e+00 9.216003e-01 -3.459694e-02 -8.954880e-01 -2.742752e-01 1.924127e-01 -1.015513e+00 -1.287204e+00 -4.281975e-01 3.946840e-01 5.207778e-03
<VARIANCE> 25
 6.476048e+01 6.491294e+01 6.380232e+01 2.435032e+01 3.136484e+01 5.362371e+01 4.098798e+01 3.043953e+01 3.680829e+01 4.067256e+01 2.050176e+01 1.224034e+01 4.994716e+00 6.185046e+00 3.882667e+00 2.203955e+00 3.449962e+00 3.573955e+00 3.507710e+00 3.139517e+00 3.347715e+00 7.024525e+00 2.190489e+00 1.080405e+00 1.100225e+00
<GCONST> 1.036353e+02
<STATE> 4
<MEAN> 25
 3.658273e+00 1.988775e+00 5.880044e+00 -1.495967e+00 -2.455191e+00 3.674553e+00 1.076301e-02 -4.151495e+00 -2.890111e+00 -1.932366e+00 -4.007932e-01 2.071552e+00 1.268797e+00 1.234061e+00 -1.130137e+00 8.697563e-01 7.981149e-03 -2.239341e-01 -6.172127e-01 9.448572e-01 8.498892e-01 -4.268805e-01 -5.249823e-01 -2.106341e-01 -3.736220e-01
<VARIANCE> 25
 1.146802e+02 1.030753e+02 5.410199e+01 2.356540e+01 3.557775e+01 5.012809e+01 2.299439e+01 5.931373e+01 2.717535e+01 7.039077e+01 2.667815e+01 2.071216e+01 3.576659e+00 1.006908e+01 8.072863e+00 1.626107e+00 6.064501e+00 6.272898e+00 3.007343e+00 3.062134e+00 2.789678e+00 6.371924e+00 2.816053e+00 2.179933e+00 3.333713e+00
<GCONST> 1.089645e+02
<TRANSP> 5
 0.000000e+00 1.000000e+00 0.000000e+00 0.000000e+00 0.000000e+00
 0.000000e+00 8.038674e-01 1.961326e-01 0.000000e+00 0.000000e+00
 0.000000e+00 0.000000e+00 7.584981e-01 2.415019e-01 0.000000e+00
 0.000000e+00 0.000000e+00 0.000000e+00 5.548892e-01 4.451108e-01
 0.000000e+00 0.000000e+00 0.000000e+00 0.000000e+00 0.000000e+00
<ENDHMM>
~h "t"
<BEGINHMM>
<NUMSTATES> 5
<STATE> 2
<MEAN> 25
 -1.925699e+00 3.541222e+00 1.260051e+00 1.402426e+00 1.094872e+00 3.346798e+00 1.497204e+00 -1.933558e+00 -3.480703e+00 1.239176e+00 -2.154997e-01 -4.077734e-01 9.437172e-01 -3.717904e-01 1.748671e-01 -1.296138e-01 -9.554291e-02 -9.145078e-01 -7.106689e-01 2.963358e-01 1.820191e-01 -4.842714e-01 -3.328888e-01 4.455284e-03 1.085657e+00
<VARIANCE> 25
 7.030798e+01 4.745545e+01 3.582561e+01 2.957690e+01 1.759906e+01 4.050774e+01 4.183769e+01 2.964710e+01 3.933735e+01 4.749175e+01 2.796371e+01 2.218688e+01 5.399561e+00 3.566681e+00 2.782409e+00 3.515528e+00 1.679736e+00 4.885780e+00 5.117061e+00 4.372324e+00 3.232469e+00 5.779367e+00 3.354021e+00 2.112225e+00 7.333964e+00
<GCONST> 1.060102e+02
<STATE> 3
<MEAN> 25
 9.767613e-01 3.462940e+00 -9.484425e-01 -1.444550e-01 -5.139040e-03 -1.050833e+00 -7.328330e-01 -1.100735e+00 -4.140154e+00 -1.020754e+00 -2.347246e+00 7.108436e-01 -1.804952e-01 -5.162068e-01 -4.468384e-01 1.384062e-01 -3.929179e-02 -4.289728e-01 -4.647585e-01 -9.514043e-02 7.340679e-01 -8.993549e-02 2.178380e-01 2.163870e-01 -5.576042e-02
<VARIANCE> 25
 4.450172e+01 6.057275e+01 7.015485e+01 3.743567e+01 1.538287e+01 3.764410e+01 3.554554e+01 2.103288e+01 3.970759e+01 3.077032e+01 2.474227e+01 2.697980e+01 1.605661e+00 3.813848e+00 2.196275e+00 1.390190e+00 2.356882e+00 1.728280e+00 3.541178e+00 1.969693e+00 2.717662e+00 2.453660e+00 1.716344e+00 1.736431e+00 2.772703e+00
<GCONST> 9.859404e+01
<STATE> 4
<MEAN> 25
 6.046125e-01 -2.665038e-01 5.844446e-01 5.819936e-01 -4.780883e-01 1.074481e+00 -1.358473e+00 -1.274715e+00 1.008007e+00 -2.084758e-01 -7.058817e-01 -7.007155e-01 -1.123728e-01 -1.735245e-01 -1.284880e-01 1.111552e-01 1.037051e-01 1.621844e-02 -2.347196e-02 -2.155275e-02 1.652095e-01 2.478364e-01 3.227455e-01 7.519151e-02 -6.661515e-02
<VARIANCE> 25
 3.414764e+01 3.746037e+01 2.868577e+01 3.073747e+01 1.633393e+01 2.136715e+01 5.126559e+01 1.527371e+01 3.400196e+01 3.135181e+01 1.879723e+01 1.587355e+01 6.355933e-01 8.964159e-01 1.001015e+00 8.061559e-01 9.475456e-01 1.086225e+00 1.418927e+00 8.810235e-01 1.462974e+00 1.255166e+00 1.021422e+00 1.047075e+00 7.064837e-01
<GCONST> 8.487362e+01
<TRANSP> 5
 0.000000e+00 1.000000e+00 0.000000e+00 0.000000e+00 0.000000e+00
 0.000000e+00 4.534029e-01 5.465971e-01 0.000000e+00 0.000000e+00
 0.000000e+00 0.000000e+00 2.405912e-01 7.594088e-01 0.000000e+00
 0.000000e+00 0.000000e+00 0.000000e+00 6.973287e-01 3.026712e-01
 0.000000e+00 0.000000e+00 0.000000e+00 0.000000e+00 0.000000e+00
<ENDHMM>
~h "u"
<BEGINHMM>
<NUMSTATES> 5
<STATE> 2
<MEAN> 25
 1.774845e+00 2.699892e+00 -9.259038e-01 2.046932e+00 2.870778e-01 1.614137e+00 -2.831019e-01 -1.502045e+00 -1.830307e+00 -1.750283e+00 -8.231903e-01 5.817295e-01 -4.322627e-01 -4.581919e-01 2.270193e-01 -1.100959e-01 -2.723239e-01 -3.564908e-02 1.353891e+00 -3.538052e-01 -3.569226e-01 3.743761e-01 -2.432882e-01 4.095468e-01 -7.996818e-02
<VARIANCE> 25
 5.403201e+01 3.001585e+01 2.704036e+01 4.015634e+01 4.733284e+01 2.783948e+01 5.172125e+01 3.633770e+01 4.779733e+01 5.139647e+01 3.893359e+01 2.523786e+01 2.332803e+00 8.440494e+00 3.908017e+00 5.717475e+00 8.259215e+00 4.548583e+00 5.812388e+00 4.417436e+00 4.518340e+00 6.533041e+00 5.072274e+00 3.661731e+00 8.809704e+00
<GCONST> 1.111884e+02
<STATE> 3
<MEAN> 25
 3.766812e+00 -1.653067e+00 1.429283e+00 2.337965e-01 -1.075240e+00 -7.259966e-01 1.955235e+00 -3.051842e+00 -3.929965e+00 -1.171457e+00 -1.948880e+00 1.170132e+00 9.723110e-01 -5.491663e-01 1.356912e+00 -1.046984e+00 -2.643284e-01 -7.084483e-01 -7.447701e-01 8.066649e-01 1.176698e-02 -1.109653e+00 -6.266134e-01 1.602188e-01 2.218087e+00
<VARIANCE> 25
 1.283039e+02 9.961415e+01 4.848071e+01 4.266657e+01 5.089657e+01 5.639867e+01 5.195789e+01 7.273790e+01 5.555460e+01 8.939959e+01 4.124600e+01 3.666896e+01 7.647017e+00 9.961686e+00 5.394111e+00 7.664374e+00 6.137078e+00 8.866640e+00 1.322679e+01 8.779828e+00 8.721184e+00 1.658368e+01 5.321333e+00 3.455577e+00 1.444285e+01
<GCONST> 1.224311e+02
<STATE> 4
<MEAN> 25
 1.534947e+01 4.313456e+00 5.925976e+00 2.272250e+00 -3.800566e+00 -7.518669e+00 -3.503133e+00 2.354099e+00 -4.011903e-02 -1.112453e+01 -4.348398e+00 2.092562e+00 -5.763025e-01 5.677816e-01 -7.150176e-03 -1.485380e-01 -1.751683e-01 3.256689e-01 2.891918e-01 1.278743e-01 -1.289051e-01 6.379079e-01 8.022131e-02 -2.394361e-01 -9.109626e-01
<VARIANCE> 25
 1.694822e+02 6.665603e+01 4.849967e+01 4.064439e+01 4.175624e+01 1.026712e+02 8.698566e+01 4.365432e+01 6.982786e+01 1.517720e+02 2.642930e+01 3.424569e+01 1.463443e+00 2.957286e+00 2.232166e+00 3.330733e+00 2.455850e+00 5.300886e+00 5.088990e+00 4.266556e+00 3.978670e+00 4.582968e+00 1.518749e+00 2.128636e+00 2.114917e+00
<GCONST> 1.094887e+02
<TRANSP> 5
 0.000000e+00 1.000000e+00 0.000000e+00 0.000000e+00 0.000000e+00
 0.000000e+00 3.562871e-01 6.437129e-01 0.000000e+00 0.000000e+00
 0.000000e+00 0.000000e+00 4.700450e-01 5.299550e-01 0.000000e+00
 0.000000e+00 0.000000e+00 0.000000e+00 6.078340e-01 3.921660e-01
 0.000000e+00 0.000000e+00 0.000000e+00 0.000000e+00 0.000000e+00
<ENDHMM>
~h "w"
<BEGINHMM>
<NUMSTATES> 5
<STATE> 2
<MEAN> 25
 3.316535e+00 -8.934776e-01 -2.372600e-01 -4.012764e+00 -4.691110e+00 -7.359286e+00 -1.875718e-01 3.843566e+00 3.115067e+00 -7.565080e-01 -2.310081e+00 5.513532e-01 3.205157e-04 9.734968e-01 8.954501e-01 5.515082e-01 -4.519349e-01 -9.777249e-01 -1.112190e+00 3.033852e-01 -5.951543e-02 4.512584e-01 1.103942e-01 -7.058429e-01 -5.152425e-01
<VARIANCE> 25
 2.909838e+01 3.536866e+01 3.759984e+01 2.981795e+01 1.972377e+01 2.866368e+01 3.340101e+01 1.093684e+01 3.416296e+01 1.882446e+01 1.592366e+01 1.572947e+01 3.126768e-01 1.252515e+00 8.209652e-01 1.377443e+00 7.147543e-01 1.167504e+00 2.310712e+00 1.556431e+00 1.364478e+00 8.402484e-01 1.185926e+00 6.896251e-01 5.740537e-01
<GCONST> 8.379849e+01
<STATE> 3
<MEAN> 25
 2.513591e+00 -1.844922e+00 3.867166e+00 -7.079896e-01 -4.977397e+00 -5.977535e+00 -5.173556e+00 -8.694667e-02 6.852523e+00 3.603069e+00 9.840962e-01 -3.320875e+00 1.812452e-02 -1.914533e-01 -1.619097e-01 -1.716466e-02 -7.929416e-02 1.721327e-02 2.544703e-01 4.676690e-02 -9.766074e-03 -5.193358e-03 -3.167675e-02 7.397585e-02 9.980815e-02
<VARIANCE> 25
 1.237600e+01 3.944554e+01 1.368800e+01 1.209561e+01 2.534014e+01 3.788231e+01 5.502965e+01 2.500551e+01 3.889701e+01 1.944051e+01 2.208949e+01 1.557033e+01 2.244029e-01 8.782558e-01 4.929858e-01 8.617191e-01 1.232542e+00 1.593043e+00 2.670414e+00 1.242531e+00 5.887381e-01 1.208168e+00 1.373123e+00 9.650832e-01 3.457593e-01
<GCONST> 8.208230e+01
<STATE> 4
<MEAN> 25
 2.270245e+01 -7.733624e-02 -3.145685e+00 3.161015e+00 -3.040866e+00 -1.862348e+01 -6.901350e+00 9.249779e+00 9.467042e+00 -7.963532e+00 -2.020384e+00 3.531820e+00 -1.916711e-01 4.184340e-01 3.779236e-01 1.731808e-02 -1.306542e-01 2.126202e-01 1.704955e-02 -1.361722e-01 -4.343692e-02 1.030930e-01 -8.422510e-02 4.608576e-02 -3.263114e-01
<VARIANCE> 25
 5.921258e+01 4.387614e+01 4.597394e+01 2.169712e+01 1.361409e+01 5.918288e+01 4.137675e+01 1.183515e+01 2.440303e+01 2.738185e+01 2.390115e+01 8.455485e+00 4.477125e-01 1.199820e+00 2.067600e+00 1.506077e+00 5.683068e-01 2.331391e+00 2.464878e+00 8.625274e-01 7.833771e-01 1.653635e+00 8.446639e-01 6.793973e-01 5.134983e-01
<GCONST> 8.600061e+01
<TRANSP> 5
 0.000000e+00 1.000000e+00 0.000000e+00 0.000000e+00 0.000000e+00
 0.000000e+00 7.226015e-01 2.773984e-01 0.000000e+00 0.000000e+00
 0.000000e+00 0.000000e+00 8.976473e-01 1.023526e-01 0.000000e+00
 0.000000e+00 0.000000e+00 0.000000e+00 8.727219e-01 1.272781e-01
 0.000000e+00 0.000000e+00 0.000000e+00 0.000000e+00 0.000000e+00
<ENDHMM>
~h "kh"
<BEGINHMM>
<NUMSTATES> 5
<STATE> 2
<MEAN> 25
 -1.513887e-08 8.685321e-09 6.289883e-08 7.186313e-08 3.131923e-08 4.571417e-08 5.014053e-08 1.333485e-08 -7.134006e-08 8.713219e-09 1.011273e-09 4.209684e-08 -6.534437e-03 7.731597e-03 -5.306157e-03 4.609803e-03 -4.191151e-03 8.242088e-03 -6.219152e-03 5.951754e-03 -5.249157e-03 1.868283e-03 2.200403e-03 -1.269434e-03 2.744509e-03
<VARIANCE> 25
 6.716856e+01 2.941401e+01 5.663681e+01 4.741492e+01 4.696264e+01 4.914315e+01 4.999928e+01 4.303569e+01 5.672998e+01 3.222253e+01 2.850756e+01 4.103967e+01 2.100924e+00 1.434693e+00 1.891293e+00 2.194988e+00 2.363979e+00 2.636887e+00 2.464799e+00 2.732278e+00 2.851009e+00 2.222413e+00 2.036798e+00 2.011688e+00 1.909456e+00
<GCONST> 1.015924e+02
<STATE> 3
<MEAN> 25
 -1.513887e-08 8.685321e-09 6.289883e-08 7.186313e-08 3.131923e-08 4.571417e-08 5.014053e-08 1.333485e-08 -7.134006e-08 8.713219e-09 1.011273e-09 4.209684e-08 -6.534437e-03 7.731597e-03 -5.306157e-03 4.609803e-03 -4.191151e-03 8.242088e-03 -6.219152e-03 5.951754e-03 -5.249157e-03 1.868283e-03 2.200403e-03 -1.269434e-03 2.744509e-03
<VARIANCE> 25
 6.716856e+01 2.941401e+01 5.663681e+01 4.741492e+01 4.696264e+01 4.914315e+01 4.999928e+01 4.303569e+01 5.672998e+01 3.222253e+01 2.850756e+01 4.103967e+01 2.100924e+00 1.434693e+00 1.891293e+00 2.194988e+00 2.363979e+00 2.636887e+00 2.464799e+00 2.732278e+00 2.851009e+00 2.222413e+00 2.036798e+00 2.011688e+00 1.909456e+00
<GCONST> 1.015924e+02
<STATE> 4
<MEAN> 25
 -1.513887e-08 8.685321e-09 6.289883e-08 7.186313e-08 3.131923e-08 4.571417e-08 5.014053e-08 1.333485e-08 -7.134006e-08 8.713219e-09 1.011273e-09 4.209684e-08 -6.534437e-03 7.731597e-03 -5.306157e-03 4.609803e-03 -4.191151e-03 8.242088e-03 -6.219152e-03 5.951754e-03 -5.249157e-03 1.868283e-03 2.200403e-03 -1.269434e-03 2.744509e-03
<VARIANCE> 25
 6.716856e+01 2.941401e+01 5.663681e+01 4.741492e+01 4.696264e+01 4.914315e+01 4.999928e+01 4.303569e+01 5.672998e+01 3.222253e+01 2.850756e+01 4.103967e+01 2.100924e+00 1.434693e+00 1.891293e+00 2.194988e+00 2.363979e+00 2.636887e+00 2.464799e+00 2.732278e+00 2.851009e+00 2.222413e+00 2.036798e+00 2.011688e+00 1.909456e+00
<GCONST> 1.015924e+02
<TRANSP> 5
 0.000000e+00 1.000000e+00 0.000000e+00 0.000000e+00 0.000000e+00
 0.000000e+00 6.000000e-01 4.000000e-01 0.000000e+00 0.000000e+00
 0.000000e+00 0.000000e+00 6.000000e-01 4.000000e-01 0.000000e+00
 0.000000e+00 0.000000e+00 0.000000e+00 7.000000e-01 3.000000e-01
 0.000000e+00 0.000000e+00 0.000000e+00 0.000000e+00 0.000000e+00
<ENDHMM>
~h "ny"
<BEGINHMM>
<NUMSTATES> 5
<STATE> 2
<MEAN> 25
 1.002571e+00 2.579641e+00 3.374517e+00 3.543082e+00 3.664061e+00 -1.056101e+00 -5.755923e+00 1.160511e+00 2.228309e-01 -5.542381e-01 6.855553e-01 -4.786514e+00 -6.404928e-03 -5.939739e-01 5.795821e-02 2.762834e-01 1.180557e-01 -8.141668e-01 -1.781113e-01 -1.564637e-01 -2.303034e-01 2.717435e-01 6.252288e-01 9.758317e-02 4.869443e-01
<VARIANCE> 25
 7.862857e+00 2.941701e+01 2.065637e+01 3.437449e+01 5.278434e+01 5.336090e+01 5.525592e+01 2.003000e+01 2.181820e+01 1.514153e+01 2.319270e+01 4.440591e+01 6.564213e-01 1.506867e+00 1.647951e+00 1.878458e+00 2.601564e+00 5.141069e+00 3.244016e+00 1.757992e+00 1.322256e+00 1.461093e+00 1.517489e+00 2.566972e+00 7.108238e-01
<GCONST> 9.277629e+01
<STATE> 3
<MEAN> 25
 2.406141e+00 -3.394392e+00 2.752448e-01 5.729483e+00 4.918786e+00 -7.601108e+00 -5.234961e+00 -2.384961e+00 -2.687562e+00 9.094251e-01 6.042754e+00 1.670448e+00 3.595721e-01 1.077918e-01 -1.045685e+00 -6.073424e-01 -5.040239e-01 2.597042e-01 4.044766e-01 4.651763e-02 -2.488909e-01 -7.041080e-02 5.000982e-01 7.238920e-01 -1.078322e-01
<VARIANCE> 25
 8.670365e+00 1.859736e+01 2.955435e+01 3.672457e+01 3.141647e+01 4.456377e+01 3.452338e+01 2.700343e+01 1.799531e+01 2.287572e+01 2.701650e+01 2.863991e+01 6.374903e-01 6.652123e-01 1.125664e+00 1.606475e+00 2.420707e+00 3.190187e+00 1.138578e+00 1.300481e+00 1.197662e+00 1.000082e+00 8.969285e-01 9.540749e-01 4.258228e-01
<GCONST> 8.611497e+01
<STATE> 4
<MEAN> 25
 3.683393e+00 -3.316676e+00 -2.255291e+00 1.720638e+00 9.337620e-01 -2.695877e+00 -2.153409e+00 -1.182148e-01 -2.526272e+00 -1.033534e+00 6.508417e+00 3.636292e+00 -2.283309e-01 3.332458e-01 -2.540859e-01 -2.509211e-02 7.880877e-02 6.467552e-01 7.125404e-01 6.042414e-01 -2.616152e-02 -9.140906e-02 -1.035509e-01 9.340433e-02 -5.151870e-01
<VARIANCE> 25
 1.000658e+01 2.378692e+01 1.559639e+01 2.409492e+01 1.548275e+01 2.387374e+01 2.397842e+01 1.261602e+01 2.613327e+01 1.564090e+01 2.461644e+01 1.345945e+01 4.392488e-01 4.970056e-01 8.830073e-01 9.822607e-01 1.310016e+00 1.244296e+00 8.967540e-01 8.389630e-01 7.214227e-01 1.123785e+00 1.039271e+00 7.981747e-01 3.099755e-01
<GCONST> 7.776104e+01
<TRANSP> 5
 0.000000e+00 1.000000e+00 0.000000e+00 0.000000e+00 0.000000e+00
 0.000000e+00 8.111878e-01 1.888122e-01 0.000000e+00 0.000000e+00
 0.000000e+00 0.000000e+00 7.552649e-01 2.447351e-01 0.000000e+00
 0.000000e+00 0.000000e+00 0.000000e+00 8.020152e-01 1.979848e-01
 0.000000e+00 0.000000e+00 0.000000e+00 0.000000e+00 0.000000e+00
<ENDHMM>
~h "sp"
<BEGINHMM>
<NUMSTATES> 3
<STATE> 2
~s "silst"
<TRANSP> 3
 0.000000e+00 2.539839e-01 7.460161e-01
 0.000000e+00 7.758115e-01 2.241885e-01
 0.000000e+00 0.000000e+00 0.000000e+00
<ENDHMM>
~h "sil"
<BEGINHMM>
<NUMSTATES> 5
<STATE> 2
<MEAN> 25
 -7.151824e+00 4.276649e+00 -1.499792e+00 2.446172e+00 -1.458295e+00 4.593685e+00 1.196255e+00 -1.945413e+00 1.051115e+00 3.395212e+00 3.515323e+00 -6.366751e-01 -2.165423e-01 -7.983799e-02 -1.328184e-01 -1.115684e-01 2.046556e-01 2.988044e-01 3.347248e-01 3.619572e-02 5.040275e-02 1.059159e-01 1.097722e-01 7.271006e-02 -8.447083e-02
<VARIANCE> 25
 7.281478e+01 4.290329e+01 3.380623e+01 3.933749e+01 2.901964e+01 4.540841e+01 3.363100e+01 2.369274e+01 2.847371e+01 2.595397e+01 2.101740e+01 2.089173e+01 1.418318e+00 1.394448e+00 1.124615e+00 1.311834e+00 1.572928e+00 1.891359e+00 1.704379e+00 1.757075e+00 1.446906e+00 1.455040e+00 1.280789e+00 1.077203e+00 1.206826e+00
<GCONST> 9.225314e+01
<STATE> 3
~s "silst"
<STATE> 4
<MEAN> 25
 -1.204600e+01 5.518606e-01 8.250013e-01 -1.999593e+00 -4.024260e-01 3.478577e+00 2.280345e+00 -1.180765e-02 -6.249369e-01 4.316250e+00 6.366600e-01 -1.189555e+00 -1.881240e-02 -1.873250e-02 1.409391e-03 -5.169752e-03 2.940473e-03 7.779410e-03 4.195561e-03 -7.631565e-03 5.566376e-03 7.253103e-03 1.495090e-02 9.709568e-03 2.289539e-03
<VARIANCE> 25
 1.075993e+02 4.945845e+00 6.480520e+00 1.284790e+01 7.183961e+00 1.232447e+01 1.157008e+01 1.024393e+01 8.796822e+00 8.904032e+00 7.212803e+00 6.860332e+00 1.225993e-01 1.673684e-01 2.516120e-01 4.210144e-01 4.304479e-01 5.346832e-01 8.169478e-01 7.851325e-01 6.795500e-01 6.301648e-01 6.542249e-01 5.669656e-01 7.622416e-02
<GCONST> 6.170855e+01
<TRANSP> 5
 0.000000e+00 1.000000e+00 0.000000e+00 0.000000e+00 0.000000e+00
 0.000000e+00 6.236813e-01 1.588189e-01 2.174999e-01 0.000000e+00
 0.000000e+00 0.000000e+00 7.031107e-01 2.968893e-01 0.000000e+00
 0.000000e+00 8.989645e-03 0.000000e+00 9.323691e-01 5.864136e-02
 0.000000e+00 0.000000e+00 0.000000e+00 0.000000e+00 0.000000e+00
<ENDHMM>
