~o
<STREAMINFO> 1 25
<VECSIZE> 25<NULLD><MFCC_D_N_Z_0><DIAGC>
~s "silst"
<MEAN> 25
 -1.267124e+00 3.007823e+00 -3.402563e+00 2.364769e+00 7.213863e-01 1.778834e+00 4.502625e+00 1.287138e+00 -1.857781e+00 7.895234e-01 6.970356e-01 1.882096e+00 7.195764e-01 9.158527e-02 -9.975296e-03 -8.514244e-02 -1.195027e-01 9.766933e-02 2.343341e-02 2.573531e-02 -2.381613e-01 1.892631e-01 -6.833111e-02 -1.947380e-02 2.906379e-01
<VARIANCE> 25
 6.386858e+01 5.972029e+01 5.639369e+01 6.500524e+01 4.110591e+01 4.591837e+01 4.785894e+01 3.464867e+01 5.366621e+01 3.871968e+01 3.063683e+01 2.800729e+01 6.669486e+00 4.300379e+00 4.118798e+00 5.205947e+00 3.403564e+00 5.871403e+00 5.566394e+00 3.401503e+00 3.743489e+00 3.688811e+00 3.657840e+00 2.316871e+00 6.913905e+00
<GCONST> 1.108040e+02
~h "a"
<BEGINHMM>
<NUMSTATES> 5
<STATE> 2
<MEAN> 25
 3.264134e+00 -1.810605e+00 -1.023830e+00 -2.523230e+00 -2.242080e+00 -1.999242e+00 4.368944e-01 1.991077e+00 1.107621e+00 -1.104595e+00 -1.796578e+00 1.004869e+00 5.903998e-02 -1.907798e-01 1.052088e-01 -8.009292e-01 -5.272139e-01 -1.014204e-03 3.550283e-01 2.989477e-01 4.226715e-01 -2.923155e-01 2.275121e-01 7.963808e-01 2.941978e-01
<VARIANCE> 25
 2.597587e+01 3.650069e+01 2.824253e+01 3.865519e+01 5.347539e+01 5.111552e+01 3.688433e+01 3.336825e+01 4.533295e+01 2.670360e+01 3.177547e+01 2.352932e+01 9.849982e-01 1.954769e+00 1.796343e+00 2.291433e+00 2.813600e+00 3.038801e+00 2.114384e+00 2.145784e+00 3.784740e+00 2.222710e+00 2.337929e+00 2.332609e+00 1.202656e+00
<GCONST> 9.828019e+01
<STATE> 3
<MEAN> 25
 3.252256e+00 -2.161769e+00 -5.781581e-01 -3.666628e+00 -1.846705e+00 -1.105031e+00 8.712311e-01 2.003577e+00 1.339360e+00 -1.221283e+00 -1.031142e+00 1.767535e+00 -9.631556e-02 -7.809367e-02 4.126984e-03 -3.331619e-01 2.000788e-01 4.961724e-01 2.985718e-01 -1.625067e-01 -1.120339e-01 9.930860e-02 3.820198e-01 2.037284e-01 -2.352654e-02
<VARIANCE> 25
 3.144541e+01 3.645985e+01 3.445176e+01 4.041488e+01 5.245048e+01 4.893972e+01 3.990979e+01 3.768214e+01 4.638936e+01 3.283304e+01 3.064913e+01 1.910324e+01 1.016376e+00 2.139551e+00 1.221464e+00 1.571761e+00 2.601105e+00 3.254057e+00 2.037546e+00 2.325493e+00 2.580208e+00 1.573387e+00 2.338297e+00 1.494337e+00 1.177506e+00
<GCONST> 9.703358e+01
<STATE> 4
<MEAN> 25
 1.891698e+00 -3.422770e+00 3.203891e-01 -3.691084e+00 -9.153271e-01 7.965786e-01 -1.853269e-01 9.118274e-01 2.257431e+00 -8.562706e-01 2.478568e-02 1.190242e+00 -5.352314e-02 1.583343e-01 -1.563999e-01 2.652275e-01 3.570657e-01 2.549923e-01 1.205233e-02 -4.146219e-01 -3.125399e-01 2.181791e-01 2.220656e-01 -5.901514e-02 -2.947212e-01
<VARIANCE> 25
 2.659010e+01 3.487738e+01 2.937127e+01 2.977559e+01 4.356164e+01 3.990499e+01 3.519115e+01 2.714530e+01 4.794466e+01 2.973842e+01 2.531956e+01 1.880524e+01 9.319896e-01 1.714222e+00 1.181625e+00 1.803512e+00 2.637476e+00 2.354857e+00 2.188700e+00 2.034350e+00 2.130779e+00 1.816379e+00 1.877249e+00 1.435817e+00 1.014893e+00
<GCONST> 9.420848e+01
<TRANSP> 5
 0.000000e+00 1.000000e+00 0.000000e+00 0.000000e+00 0.000000e+00
 0.000000e+00 2.987342e-01 7.012658e-01 0.000000e+00 0.000000e+00
 0.000000e+00 0.000000e+00 1.405210e-01 8.594790e-01 0.000000e+00
 0.000000e+00 0.000000e+00 0.000000e+00 5.221568e-01 4.778433e-01
 0.000000e+00 0.000000e+00 0.000000e+00 0.000000e+00 0.000000e+00
<ENDHMM>
~h "b"
<BEGINHMM>
<NUMSTATES> 5
<STATE> 2
<MEAN> 25
 7.817772e-01 1.070999e+01 9.319034e-01 4.975526e+00 1.110477e+00 -1.281931e+00 4.982905e+00 8.571888e+00 -1.002996e+00 -2.681056e+00 -4.383440e+00 -3.111595e+00 -4.029777e-02 4.687323e-01 2.335635e-02 -5.398284e-02 -2.083865e-01 4.574716e-02 7.165673e-02 4.094313e-01 1.956722e-01 1.628895e-02 -1.480685e-01 -3.782346e-01 -4.797440e-01
<VARIANCE> 25
 4.823823e+01 9.013770e+01 1.320022e+01 2.779948e+01 4.480763e+01 3.948136e+01 5.284545e+01 1.279943e+02 1.484086e+01 3.579566e+01 1.899343e+01 2.984185e+01 1.074078e+00 1.214818e+01 1.305011e+00 2.669989e+00 4.075640e+00 2.089794e+00 6.936488e+00 1.809724e+01 2.709827e+00 2.736609e+00 1.017504e+00 1.056035e+00 1.009869e+01
<GCONST> 1.043219e+02
<STATE> 3
<MEAN> 25
 4.479091e+00 -1.531588e+00 2.361518e+00 3.455671e+00 -6.970568e+00 -1.210002e+00 -2.691763e+00 -4.953852e+00 -7.157544e+00 1.218220e+00 5.622491e+00 -7.456595e+00 -8.183967e-02 -2.359149e-01 5.444632e-01 -1.103389e+00 5.771436e-02 2.137566e-01 -5.216222e-01 2.006963e-01 -2.134281e-01 -7.110651e-01 -1.172509e-01 5.716375e-01 5.221578e-01
<VARIANCE> 25
 3.101760e+01 2.083033e+01 1.710707e+01 7.369106e+01 6.712174e+01 3.735891e+01 7.473339e+01 5.858951e+01 8.346735e+01 5.393264e+01 5.427340e+01 2.623397e+01 1.180245e+00 4.347020e+00 4.215110e+00 1.227376e+01 8.852621e+00 5.225301e+00 9.975041e+00 1.320408e+01 9.368503e+00 3.975778e+00 3.463270e+00 1.551759e+00 3.660124e+00
<GCONST> 1.123350e+02
<STATE> 4
<MEAN> 25
 2.057928e+01 3.291648e+00 1.138593e+00 7.853929e+00 3.651371e+00 -9.675436e+00 -1.030637e+01 3.002638e-01 5.321208e+00 -8.469114e+00 -4.129409e+00 -2.834393e+00 8.469425e-02 6.680309e-02 1.971168e-01 1.063030e-01 -7.198871e-02 -4.389839e-01 -4.204539e-01 -1.603251e-01 1.601770e-01 4.976567e-01 1.374879e-01 -3.275151e-01 1.125393e-01
<VARIANCE> 25
 8.382377e+01 3.202227e+01 4.080335e+01 4.543661e+01 6.936038e+01 8.115875e+01 4.663702e+01 5.394307e+01 3.774028e+01 1.148196e+02 3.272832e+01 2.996982e+01 6.843490e-01 2.915930e+00 4.425136e+00 2.735247e+00 5.210083e+00 5.960890e+00 3.464100e+00 4.796934e+00 2.974554e+00 7.130977e+00 3.705801e+00 3.462097e+00 1.603209e+00
<GCONST> 1.086047e+02
<TRANSP> 5
 0.000000e+00 1.000000e+00 0.000000e+00 0.000000e+00 0.000000e+00
 0.000000e+00 6.149477e-01 3.850523e-01 0.000000e+00 0.000000e+00
 0.000000e+00 0.000000e+00 7.082014e-01 2.917985e-01 0.000000e+00
 0.000000e+00 0.000000e+00 0.000000e+00 8.278051e-01 1.721949e-01
 0.000000e+00 0.000000e+00 0.000000e+00 0.000000e+00 0.000000e+00
<ENDHMM>
~h "e"
<BEGINHMM>
<NUMSTATES> 5
<STATE> 2
<MEAN> 25
 4.210845e+00 1.493975e-01 3.950366e+00 -2.339949e+00 -3.542128e+00 2.217485e+00 -4.426243e+00 -3.739154e+00 -6.011942e-01 -2.030004e+00 -8.053163e-01 -3.024857e-01 1.068910e+00 -1.137403e+00 -8.339975e-01 9.928415e-01 -2.941307e-01 -1.335328e+00 -9.148934e-01 6.511880e-01 8.563795e-01 -5.566195e-01 -8.885912e-01 -1.758105e-01 1.061721e+00
<VARIANCE> 25
 7.264146e+01 2.317693e+01 3.900046e+01 4.102477e+01 1.912640e+01 4.426159e+01 2.786548e+01 4.654519e+01 3.830307e+01 5.873307e+01 4.623876e+01 2.735325e+01 2.275378e+00 7.223551e+00 9.088155e+00 4.367990e+00 6.811697e+00 9.183305e+00 3.146430e+00 2.807558e+00 2.847901e+00 8.522747e+00 3.936776e+00 2.436341e+00 2.575587e+00
<GCONST> 1.087152e+02
<STATE> 3
<MEAN> 25
 5.216037e+00 -1.533352e+00 2.022860e+00 2.738828e-01 -3.347596e+00 -2.140462e+00 -3.932366e+00 -2.517603e+00 2.642547e-01 -3.357257e+00 -3.804105e+00 -7.528309e-01 4.250269e-01 -1.890190e-01 -1.309000e+00 8.321085e-01 1.002569e+00 -2.543205e+00 1.876119e-01 1.222787e+00 1.903377e-01 -5.126254e-01 -4.368609e-01 -1.822208e-01 4.450676e-01
<VARIANCE> 25
 6.567439e+01 2.199341e+01 2.638339e+01 4.300562e+01 3.481260e+01 7.140841e+01 3.663370e+01 4.734913e+01 2.899885e+01 5.830793e+01 2.517263e+01 2.689273e+01 8.282170e-01 4.846821e+00 2.954978e+00 3.713854e+00 5.112095e+00 1.015937e+01 3.578798e+00 2.699348e+00 2.612219e+00 4.932566e+00 3.109094e+00 2.884925e+00 1.619724e+00
<GCONST> 1.047195e+02
<STATE> 4
<MEAN> 25
 1.836460e+01 -4.107749e+00 -5.701809e+00 6.677498e+00 5.290089e+00 -1.059839e+01 -7.287825e+00 -3.054013e-01 -5.576040e-01 -9.357911e+00 1.080733e+00 4.821684e+00 6.858964e-02 1.614319e-01 -5.656004e-01 -2.749777e-01 4.462406e-01 5.609890e-01 7.566929e-01 2.255004e-01 -4.153460e-01 -1.162988e-01 1.402994e-01 4.125265e-01 -1.575802e-01
<VARIANCE> 25
 1.184289e+02 2.754356e+01 5.172081e+01 7.932072e+01 6.363514e+01 9.583614e+01 6.809224e+01 2.963662e+01 2.587494e+01 6.487235e+01 4.715688e+01 5.101852e+01 4.381225e-01 2.285151e+00 2.605952e+00 2.953303e+00 2.665731e+00 4.490346e+00 2.654656e+00 3.106515e+00 1.579013e+00 2.380002e+00 2.607884e+00 1.562927e+00 8.023109e-01
<GCONST> 1.030363e+02
<TRANSP> 5
 0.000000e+00 1.000000e+00 0.000000e+00 0.000000e+00 0.000000e+00
 0.000000e+00 2.909522e-01 7.090479e-01 0.000000e+00 0.000000e+00
 0.000000e+00 0.000000e+00 3.104799e-01 6.895201e-01 0.000000e+00
 0.000000e+00 0.000000e+00 0.000000e+00 6.563691e-01 3.436309e-01
 0.000000e+00 0.000000e+00 0.000000e+00 0.000000e+00 0.000000e+00
<ENDHMM>
~h "h"
<BEGINHMM>
<NUMSTATES> 5
<STATE> 2
<MEAN> 25
 -3.667237e+00 -5.397227e-01 -4.724055e+00 -1.105015e+00 -1.828942e+00 2.380779e+00 8.798923e+00 1.811047e+00 -1.019834e+00 2.970420e+00 1.460891e+00 1.230834e+00 5.941544e-01 6.905517e-02 4.497133e-01 -1.256191e-01 7.776655e-01 -1.319048e+00 4.880321e-01 4.582744e-01 2.900378e-02 3.605483e-01 -4.223164e-01 3.633284e-01 1.693551e+00
<VARIANCE> 25
 5.967804e+01 7.075343e+01 4.638953e+01 5.985095e+01 5.004018e+01 7.485819e+01 4.839220e+01 3.171992e+01 3.588570e+01 3.886905e+01 1.946679e+01 2.111274e+01 4.557839e+00 8.393989e+00 3.998975e+00 3.405375e+00 3.653018e+00 4.129224e+00 5.074914e+00 3.348732e+00 3.748953e+00 3.306760e+00 2.035577e+00 1.575792e+00 4.598090e+00
<GCONST> 1.080588e+02
<STATE> 3
<MEAN> 25
 -6.745661e-01 -2.789619e+00 2.990223e-01 -2.027375e+00 -2.435014e-02 -9.922555e-01 4.710833e+00 1.135489e+00 5.439479e-01 2.880984e+00 -2.333316e-01 1.213193e+00 1.464650e+00 -9.275266e-01 5.768514e-01 -1.731575e-01 -8.567705e-01 1.489847e-01 -1.727078e+00 -1.203225e-01 2.184717e-01 -9.457365e-01 -4.452187e-01 -3.052816e-01 5.516957e-01
<VARIANCE> 25
 3.321160e+01 3.434003e+01 2.611577e+01 4.326167e+01 5.547973e+01 6.726023e+01 3.756075e+01 3.729451e+01 4.576000e+01 2.973187e+01 3.030600e+01 1.788030e+01 2.417950e+00 3.276736e+00 4.059805e+00 2.032402e+00 4.016928e+00 4.503222e+00 4.186726e+00 3.164967e+00 5.934949e+00 1.934860e+00 2.645344e+00 1.729702e+00 1.529957e+00
<GCONST> 1.030424e+02
<STATE> 4
<MEAN> 25
 2.941069e+00 -2.787970e+00 -1.332926e+00 -1.724119e+00 -8.267944e-01 -1.148605e+00 7.628404e-01 3.100001e-01 -2.486109e-01 -5.411746e-01 -1.126565e+00 2.336874e-01 1.210846e-01 5.830342e-02 -1.022278e-01 -5.167427e-02 -2.682813e-02 -6.956722e-01 -4.747613e-01 -1.185384e-02 2.665839e-01 -4.560237e-01 -4.722761e-01 7.317655e-03 -4.950676e-03
<VARIANCE> 25
 1.242014e+01 2.529166e+01 2.576078e+01 2.420608e+01 4.586485e+01 5.506032e+01 2.641493e+01 2.692875e+01 4.546215e+01 2.627682e+01 1.750694e+01 1.539829e+01 4.554824e-01 1.052090e+00 1.372248e+00 1.929979e+00 2.062164e+00 2.418238e+00 1.792842e+00 1.784345e+00 2.044031e+00 1.562039e+00 1.738853e+00 1.231400e+00 4.376197e-01
<GCONST> 8.931972e+01
<TRANSP> 5
 0.000000e+00 1.000000e+00 0.000000e+00 0.000000e+00 0.000000e+00
 0.000000e+00 6.657544e-01 3.342456e-01 0.000000e+00 0.000000e+00
 0.000000e+00 0.000000e+00 5.103176e-01 4.896823e-01 0.000000e+00
 0.000000e+00 0.000000e+00 0.000000e+00 7.179953e-01 2.820047e-01
 0.000000e+00 0.000000e+00 0.000000e+00 0.000000e+00 0.000000e+00
<ENDHMM>
~h "i"
<BEGINHMM>
<NUMSTATES> 5
<STATE> 2
<MEAN> 25
 6.621573e+00 -1.041208e+01 6.316785e+00 7.184912e+00 -2.798992e+00 -1.063153e+00 -4.045149e+00 -2.356025e+00 -8.187139e-01 -2.210129e-01 1.938596e+00 -2.380482e+00 6.780415e-01 9.918640e-01 6.971741e-01 1.974759e+00 1.183585e+00 -1.172998e+00 -1.296245e+00 -4.632223e-01 -7.947918e-01 -9.080096e-01 2.528521e-01 -9.241667e-01 1.546233e-01
<VARIANCE> 25
 1.092991e+02 1.137822e+02 4.956571e+01 9.832629e+01 7.428493e+01 7.863332e+01 4.490078e+01 4.768786e+01 2.273440e+01 4.734271e+01 2.218590e+01 2.392626e+01 2.037451e+00 4.833755e+00 4.229208e+00 2.559577e+00 5.863819e+00 5.954907e+00 3.377281e+00 2.318573e+00 3.223310e+00 6.453893e+00 2.465123e+00 1.986624e+00 1.608718e+00
<GCONST> 1.088439e+02
<STATE> 3
<MEAN> 25
 1.728405e+00 -1.815640e+00 1.040574e+01 7.559872e+00 2.629699e+00 -5.371950e+00 -8.017996e+00 -4.664710e+00 -4.698121e+00 -1.541666e+00 -3.880709e-01 -3.173018e+00 3.104835e-01 -2.121250e-02 -8.494996e-01 -2.553340e-01 -5.790332e-02 3.164845e-02 -1.955447e-01 -9.133410e-01 -7.757890e-04 2.256984e-01 4.340775e-01 6.971210e-01 1.140920e-01
<VARIANCE> 25
 2.110764e+01 1.365585e+01 3.467850e+01 1.083757e+02 1.191744e+02 1.867125e+01 8.641618e+01 3.143094e+01 1.477613e+01 7.456999e+01 2.728175e+01 4.719526e+01 2.505275e-01 4.581746e-01 1.173564e+00 1.321562e+00 1.232768e+00 1.809142e+00 1.700219e+00 2.273503e+00 1.662292e+00 1.330057e+00 1.423498e+00 1.307346e+00 4.090467e-01
<GCONST> 9.057122e+01
<STATE> 4
<MEAN> 25
 1.920454e+01 8.550848e-01 -5.303156e-01 1.226893e+01 8.843473e+00 -7.417860e+00 -1.255163e+01 -1.006178e+01 -6.264763e+00 -4.723104e+00 4.389908e+00 9.548860e-01 -1.983075e-01 6.853006e-01 -3.998672e-01 -1.052655e+00 -1.364952e-01 9.865885e-01 5.354512e-01 7.259831e-03 2.756151e-01 2.914510e-01 -3.139934e-01 4.024815e-01 -4.871664e-01
<VARIANCE> 25
 6.815173e+01 3.023327e+01 2.995189e+01 1.678763e+02 4.498004e+01 1.450244e+02 5.809196e+01 3.424430e+01 2.001917e+01 3.667872e+01 3.517328e+01 2.171738e+01 8.900692e-01 6.664193e-01 3.294604e+00 4.033966e+00 1.278114e+00 4.086622e+00 3.755358e+00 2.760436e+00 9.800379e-01 2.409484e+00 1.771105e+00 2.898528e+00 9.038032e-01
<GCONST> 1.001667e+02
<TRANSP> 5
 0.000000e+00 1.000000e+00 0.000000e+00 0.000000e+00 0.000000e+00
 0.000000e+00 8.240394e-01 1.759606e-01 0.000000e+00 0.000000e+00
 0.000000e+00 0.000000e+00 8.194066e-01 1.805934e-01 0.000000e+00
 0.000000e+00 0.000000e+00 0.000000e+00 7.890391e-01 2.109609e-01
 0.000000e+00 0.000000e+00 0.000000e+00 0.000000e+00 0.000000e+00
<ENDHMM>
~h "j"
<BEGINHMM>
<NUMSTATES> 5
<STATE> 2
<MEAN> 25
 1.030202e+01 2.908772e+00 7.569382e+00 1.163962e+01 2.470606e+00 -5.164083e+00 -5.576453e+00 -3.646387e+00 -4.083458e+00 -6.038990e+00 2.755604e+00 8.957620e-02 1.597285e-01 -1.088624e-01 -1.962212e-01 4.036102e-01 3.845199e-01 -5.759278e-01 -8.938648e-01 -5.000740e-01 1.739039e-02 4.269522e-02 1.335365e-01 -2.885869e-01 2.239574e-01
<VARIANCE> 25
 1.245210e+02 8.558031e+01 4.217193e+01 8.508643e+01 9.542710e+01 5.606106e+01 6.317620e+01 2.819633e+01 3.062549e+01 7.254346e+01 2.267198e+01 3.073038e+01 5.153282e+00 1.061713e+01 6.843428e+00 7.551613e+00 7.714672e+00 5.946924e+00 8.230186e+00 4.027206e+00 4.291374e+00 4.776712e+00 2.303319e+00 2.221522e+00 4.470769e+00
<GCONST> 1.151531e+02
<STATE> 3
<MEAN> 25
 5.365892e-01 -1.025209e+00 5.782762e+00 8.775923e+00 5.397642e+00 1.693051e+00 -7.033582e+00 -7.353402e+00 -4.606761e+00 -1.674776e+00 1.886679e+00 -2.064919e+00 -4.123100e-01 1.523880e+00 -1.285921e+00 -2.595110e-01 -1.241943e-01 5.750644e-01 5.263836e-01 -2.175136e-02 -3.242458e-01 2.461398e-01 3.667259e-01 5.945277e-01 -1.661025e+00
<VARIANCE> 25
 3.084817e+01 3.673338e+01 2.489688e+01 2.905075e+01 3.466872e+01 5.612238e+01 3.174847e+01 2.165534e+01 1.953061e+01 2.040259e+01 3.338115e+01 1.971550e+01 2.701056e+00 3.658597e+00 2.536244e+00 2.830103e+00 3.157007e+00 3.275961e+00 2.652655e+00 2.639638e+00 2.259392e+00 2.360253e+00 2.969615e+00 2.142551e+00 5.247897e+00
<GCONST> 9.987329e+01
<STATE> 4
<MEAN> 25
 1.632411e+01 -6.171366e-01 -6.570779e+00 9.314767e+00 6.165628e+00 -9.111371e+00 -9.574681e+00 -3.372040e+00 -3.684862e+00 -9.177160e+00 4.990571e+00 8.039928e+00 -1.589876e-01 7.377810e-01 -7.516943e-01 -1.549054e+00 -6.339720e-01 1.311043e+00 1.060756e+00 -5.084538e-02 -4.654262e-01 -1.723723e-01 -1.032312e+00 1.087580e-01 -7.090437e-01
<VARIANCE> 25
 1.717414e+02 5.272886e+01 2.645452e+01 3.308011e+01 6.132291e+01 6.255590e+01 5.098008e+01 2.274602e+01 1.118554e+01 3.918636e+01 2.172332e+01 3.373643e+01 5.248440e-01 8.543115e-01 1.765596e+00 1.949745e+00 1.582807e+00 2.241753e+00 1.713831e+00 2.519678e+00 1.434694e+00 2.076339e+00 1.275035e+00 1.640938e+00 9.208821e-01
<GCONST> 9.473117e+01
<TRANSP> 5
 0.000000e+00 1.000000e+00 0.000000e+00 0.000000e+00 0.000000e+00
 0.000000e+00 8.362738e-01 1.637262e-01 0.000000e+00 0.000000e+00
 0.000000e+00 0.000000e+00 7.928637e-01 2.071362e-01 0.000000e+00
 0.000000e+00 0.000000e+00 0.000000e+00 7.001201e-01 2.998799e-01
 0.000000e+00 0.000000e+00 0.000000e+00 0.000000e+00 0.000000e+00
<ENDHMM>
~h "k"
<BEGINHMM>
<NUMSTATES> 5
<STATE> 2
<MEAN> 25
 -1.513887e-08 8.685321e-09 6.289883e-08 7.186313e-08 3.131923e-08 4.571417e-08 5.014053e-08 1.333485e-08 -7.134006e-08 8.713219e-09 1.011273e-09 4.209684e-08 -6.534437e-03 7.731597e-03 -5.306157e-03 4.609803e-03 -4.191151e-03 8.242088e-03 -6.219152e-03 5.951754e-03 -5.249157e-03 1.868283e-03 2.200403e-03 -1.269434e-03 2.744509e-03
<VARIANCE> 25
 6.716856e+01 2.941401e+01 5.663681e+01 4.741492e+01 4.696264e+01 4.914315e+01 4.999928e+01 4.303569e+01 5.672998e+01 3.222253e+01 2.850756e+01 4.103967e+01 2.100924e+00 1.434693e+00 1.891293e+00 2.194988e+00 2.363979e+00 2.636887e+00 2.464799e+00 2.732278e+00 2.851009e+00 2.222413e+00 2.036798e+00 2.011688e+00 1.909456e+00
<GCONST> 1.015924e+02
<STATE> 3
<MEAN> 25
 -1.513887e-08 8.685321e-09 6.289883e-08 7.186313e-08 3.131923e-08 4.571417e-08 5.014053e-08 1.333485e-08 -7.134006e-08 8.713219e-09 1.011273e-09 4.209684e-08 -6.534437e-03 7.731597e-03 -5.306157e-03 4.609803e-03 -4.191151e-03 8.242088e-03 -6.219152e-03 5.951754e-03 -5.249157e-03 1.868283e-03 2.200403e-03 -1.269434e-03 2.744509e-03
<VARIANCE> 25
 6.716856e+01 2.941401e+01 5.663681e+01 4.741492e+01 4.696264e+01 4.914315e+01 4.999928e+01 4.303569e+01 5.672998e+01 3.222253e+01 2.850756e+01 4.103967e+01 2.100924e+00 1.434693e+00 1.891293e+00 2.194988e+00 2.363979e+00 2.636887e+00 2.464799e+00 2.732278e+00 2.851009e+00 2.222413e+00 2.036798e+00 2.011688e+00 1.909456e+00
<GCONST> 1.015924e+02
<STATE> 4
<MEAN> 25
 -1.513887e-08 8.685321e-09 6.289883e-08 7.186313e-08 3.131923e-08 4.571417e-08 5.014053e-08 1.333485e-08 -7.134006e-08 8.713219e-09 1.011273e-09 4.209684e-08 -6.534437e-03 7.731597e-03 -5.306157e-03 4.609803e-03 -4.191151e-03 8.242088e-03 -6.219152e-03 5.951754e-03 -5.249157e-03 1.868283e-03 2.200403e-03 -1.269434e-03 2.744509e-03
<VARIANCE> 25
 6.716856e+01 2.941401e+01 5.663681e+01 4.741492e+01 4.696264e+01 4.914315e+01 4.999928e+01 4.303569e+01 5.672998e+01 3.222253e+01 2.850756e+01 4.103967e+01 2.100924e+00 1.434693e+00 1.891293e+00 2.194988e+00 2.363979e+00 2.636887e+00 2.464799e+00 2.732278e+00 2.851009e+00 2.222413e+00 2.036798e+00 2.011688e+00 1.909456e+00
<GCONST> 1.015924e+02
<TRANSP> 5
 0.000000e+00 1.000000e+00 0.000000e+00 0.000000e+00 0.000000e+00
 0.000000e+00 6.000000e-01 4.000000e-01 0.000000e+00 0.000000e+00
 0.000000e+00 0.000000e+00 6.000000e-01 4.000000e-01 0.000000e+00
 0.000000e+00 0.000000e+00 0.000000e+00 7.000000e-01 3.000000e-01
 0.000000e+00 0.000000e+00 0.000000e+00 0.000000e+00 0.000000e+00
<ENDHMM>
~h "l"
<BEGINHMM>
<NUMSTATES> 5
<STATE> 2
<MEAN> 25
 4.664930e+00 -1.988509e+00 -2.719321e+00 -3.954194e+00 -2.760169e+00 -5.156898e+00 3.021281e+00 2.569037e+00 3.213652e-01 -1.307715e+00 -1.654494e+00 3.473890e+00 2.083621e-01 3.791214e-01 -1.517387e-01 4.280940e-01 -1.646546e-01 3.616569e-01 -3.466534e-01 -1.709305e-01 2.159125e-01 4.362300e-02 1.236260e-02 -2.781983e-01 -4.185837e-01
<VARIANCE> 25
 2.172495e+01 1.836554e+01 1.788382e+01 2.151236e+01 5.273845e+01 3.963838e+01 3.680255e+01 3.327899e+01 2.811962e+01 2.056512e+01 2.460982e+01 2.487104e+01 3.829700e-01 1.633177e+00 9.375072e-01 1.930462e+00 3.596029e+00 2.191737e+00 2.543209e+00 1.864047e+00 2.333654e+00 1.920442e+00 2.607394e+00 2.153114e+00 5.456489e-01
<GCONST> 9.178506e+01
<STATE> 3
<MEAN> 25
 4.649704e+00 6.055421e-01 -1.015200e+00 -1.027026e+00 -1.377241e+00 -8.714463e-01 -1.785482e+00 -2.520211e-01 1.573533e+00 -1.090777e+00 -1.833475e+00 -6.294631e-01 -6.392941e-02 8.599073e-01 8.319463e-01 1.992144e+00 3.269944e-01 1.439702e+00 -8.513701e-01 -8.581734e-01 2.600733e-01 -1.283610e-01 -4.804300e-01 -1.326733e+00 -1.094634e+00
<VARIANCE> 25
 1.826927e+01 2.104721e+01 1.984157e+01 3.109106e+01 5.075215e+01 5.007859e+01 3.205124e+01 4.535259e+01 3.252679e+01 2.253814e+01 4.469388e+01 3.097826e+01 6.360489e-01 1.446343e+00 1.847102e+00 2.814474e+00 6.992437e+00 2.627385e+00 2.050956e+00 2.780777e+00 2.879930e+00 2.241139e+00 3.834530e+00 4.200248e+00 5.833963e-01
<GCONST> 9.759824e+01
<STATE> 4
<MEAN> 25
 3.918374e+00 1.027939e+00 -2.447004e-01 2.433565e+00 -6.838071e-02 1.218329e+00 -1.127728e+00 -6.775218e-01 1.860302e+00 -1.570634e+00 -4.293023e+00 -4.882928e+00 -5.055798e-02 7.592558e-02 -6.548822e-02 -6.305432e-02 -1.250812e-01 -2.003962e-01 1.230010e-01 1.846709e-01 -1.628131e-02 7.565102e-02 6.593239e-02 3.366819e-02 -3.357666e-02
<VARIANCE> 25
 1.270604e+01 1.665365e+01 2.034363e+01 2.188222e+01 5.290152e+01 3.694411e+01 3.497241e+01 3.811166e+01 3.378450e+01 2.119084e+01 3.179475e+01 3.066191e+01 3.157483e-01 7.382515e-01 7.617617e-01 2.008128e+00 1.878522e+00 2.565150e+00 1.314876e+00 1.522162e+00 1.281681e+00 1.314260e+00 1.350715e+00 2.440944e+00 5.664062e-01
<GCONST> 8.801009e+01
<TRANSP> 5
 0.000000e+00 1.000000e+00 0.000000e+00 0.000000e+00 0.000000e+00
 0.000000e+00 5.836500e-01 4.163500e-01 0.000000e+00 0.000000e+00
 0.000000e+00 0.000000e+00 4.870332e-01 5.129669e-01 0.000000e+00
 0.000000e+00 0.000000e+00 0.000000e+00 7.087927e-01 2.912073e-01
 0.000000e+00 0.000000e+00 0.000000e+00 0.000000e+00 0.000000e+00
<ENDHMM>
~h "m"
<BEGINHMM>
<NUMSTATES> 5
<STATE> 2
<MEAN> 25
 2.930236e+00 1.776403e+00 5.438699e-01 -8.356054e-01 7.116016e-01 1.850109e+00 -7.347841e-01 1.758709e+00 3.974907e-01 -1.203402e+00 -2.264351e+00 -2.430773e+00 -3.186145e-01 1.101964e+00 -1.868865e-01 6.902437e-01 1.132058e+00 4.187711e-01 3.591293e-01 5.212345e-01 -1.357674e+00 5.947170e-01 -9.803767e-02 -5.491342e-01 -1.104653e+00
<VARIANCE> 25
 1.058810e+01 6.054502e+01 2.427926e+01 3.160737e+01 5.222159e+01 5.889011e+01 5.494075e+01 4.699385e+01 5.068795e+01 2.780560e+01 2.920587e+01 3.131882e+01 9.998891e-01 6.591718e+00 3.023013e+00 3.673289e+00 5.594567e+00 5.177296e+00 6.178733e+00 5.344457e+00 4.976848e+00 2.392165e+00 4.064315e+00 2.768261e+00 4.066587e+00
<GCONST> 1.064666e+02
<STATE> 3
<MEAN> 25
 2.116414e+00 1.287561e+00 -1.205689e-02 9.757005e-01 1.530694e+00 6.868904e-01 -1.308768e-01 3.588510e+00 -1.862458e+00 2.651422e-01 -2.118753e+00 -2.999154e+00 -4.761031e-02 -1.665334e+00 8.079620e-02 -3.845079e-01 3.717401e-01 -4.912936e-01 -8.768524e-01 9.881353e-02 1.052461e+00 1.079905e-01 -1.636919e-01 1.146526e-01 1.148568e+00
<VARIANCE> 25
 9.831856e+00 6.947319e+01 3.374864e+01 4.961194e+01 6.131924e+01 4.856831e+01 6.703107e+01 4.455306e+01 5.210479e+01 3.910722e+01 2.450674e+01 2.861093e+01 1.035020e+00 5.701592e+00 1.991431e+00 5.831648e+00 9.628694e+00 4.485596e+00 4.269919e+00 5.390175e+00 6.109109e+00 1.848912e+00 3.286337e+00 2.863539e+00 4.460298e+00
<GCONST> 1.073604e+02
<STATE> 4
<MEAN> 25
 1.326030e+00 -2.757964e+00 -3.750493e-02 -6.445851e-01 5.110740e+00 5.077590e-01 -2.327085e+00 1.371949e+00 -1.805883e-02 1.240777e+00 -3.069072e+00 -1.178613e+00 -2.447683e-01 -3.015654e-01 9.341290e-02 -1.011619e-01 -4.956237e-04 1.050226e-01 1.640156e-01 -2.552344e-01 -8.420031e-02 -1.432284e-01 -1.973368e-01 3.914859e-01 9.138203e-02
<VARIANCE> 25
 1.519416e+01 4.095473e+01 2.840374e+01 4.849194e+01 6.631226e+01 4.552013e+01 3.843723e+01 4.275448e+01 4.035006e+01 3.660284e+01 3.348322e+01 2.026112e+01 1.390213e+00 1.159414e+00 1.447714e+00 2.755523e+00 2.663315e+00 1.978462e+00 2.190379e+00 2.572915e+00 2.061350e+00 1.597415e+00 2.362424e+00 3.251799e+00 1.548186e+00
<GCONST> 9.776241e+01
<TRANSP> 5
 0.000000e+00 1.000000e+00 0.000000e+00 0.000000e+00 0.000000e+00
 0.000000e+00 6.068758e-01 3.931241e-01 0.000000e+00 0.000000e+00
 0.000000e+00 0.000000e+00 5.202078e-01 4.797922e-01 0.000000e+00
 0.000000e+00 0.000000e+00 0.000000e+00 4.038941e-01 5.961059e-01
 0.000000e+00 0.000000e+00 0.000000e+00 0.000000e+00 0.000000e+00
<ENDHMM>
~h "n"
<BEGINHMM>
<NUMSTATES> 5
<STATE> 2
<MEAN> 25
 -8.209695e-01 7.057415e+00 -2.070061e+00 2.067760e+00 7.152544e+00 4.704496e+00 1.653850e+00 -2.424524e+00 -6.907346e+00 -7.208060e-01 4.770327e-01 7.212780e-01 -6.752120e-01 1.042364e+00 -2.971976e-01 5.529302e-01 2.703035e-01 3.986898e-02 4.600147e-01 2.695773e-01 -2.034243e-01 3.668534e-01 -2.407954e-02 -5.771402e-02 -1.185136e+00
<VARIANCE> 25
 5.247819e+01 8.339904e+01 2.820635e+01 2.599829e+01 4.542174e+01 4.041846e+01 5.487756e+01 2.515227e+01 7.538603e+01 3.048763e+01 3.169595e+01 1.931510e+01 2.122534e+00 6.258149e+00 2.731577e+00 3.196979e+00 5.673273e+00 3.569145e+00 4.689377e+00 3.144882e+00 5.059554e+00 3.400391e+00 3.709793e+00 2.011644e+00 3.248685e+00
<GCONST> 1.063170e+02
<STATE> 3
<MEAN> 25
 -1.188275e+00 1.470174e+00 -1.359627e+00 3.306730e-01 -1.070013e+00 1.083175e+00 4.125637e+00 -1.381858e+00 -1.525469e+00 5.403216e-01 1.926974e+00 1.176103e+00 9.711590e-01 -1.569218e+00 8.924972e-01 -2.636930e-02 -1.515125e+00 -9.167486e-01 -3.474865e-01 4.734684e-01 9.176306e-01 -4.453151e-01 5.182557e-01 1.001520e-01 1.908625e+00
<VARIANCE> 25
 1.461732e+02 5.173418e+01 4.139451e+01 4.417243e+01 5.307110e+01 2.971109e+01 6.606239e+01 4.017085e+01 7.251234e+01 3.157705e+01 2.693620e+01 2.153562e+01 6.185334e+00 8.384965e+00 5.649580e+00 4.749194e+00 5.949039e+00 5.688656e+00 7.290525e+00 7.464146e+00 7.617796e+00 4.070523e+00 3.236915e+00 2.290322e+00 5.945280e+00
<GCONST> 1.137121e+02
<STATE> 4
<MEAN> 25
 2.236847e+01 -2.090757e+00 -6.306144e+00 2.131856e+00 3.453392e+00 -9.622716e+00 -4.398554e+00 4.016912e+00 4.047666e+00 -1.069715e+01 -2.294854e+00 2.456174e+00 -1.231314e-01 -3.009764e-02 3.222928e-01 8.244424e-02 -6.089491e-02 6.290230e-03 -1.394376e-01 -1.097350e-01 8.490580e-02 -1.160836e-01 -1.045184e-01 3.207431e-02 3.341887e-02
<VARIANCE> 25
 8.957906e+01 3.838391e+01 5.408464e+01 5.582353e+01 3.122821e+01 4.523317e+01 3.768589e+01 2.216514e+01 2.354924e+01 4.722192e+01 2.819438e+01 2.834904e+01 1.547311e+00 3.076363e+00 4.095529e+00 5.586859e+00 2.648984e+00 3.391362e+00 3.370549e+00 2.381971e+00 2.325146e+00 3.258904e+00 2.893775e+00 3.071690e+00 2.016027e+00
<GCONST> 1.036611e+02
<TRANSP> 5
 0.000000e+00 1.000000e+00 0.000000e+00 0.000000e+00 0.000000e+00
 0.000000e+00 7.331892e-01 2.668109e-01 0.000000e+00 0.000000e+00
 0.000000e+00 0.000000e+00 5.372493e-01 4.627507e-01 0.000000e+00
 0.000000e+00 0.000000e+00 0.000000e+00 8.556395e-01 1.443605e-01
 0.000000e+00 0.000000e+00 0.000000e+00 0.000000e+00 0.000000e+00
<ENDHMM>
~h "p"
<BEGINHMM>
<NUMSTATES> 5
<STATE> 2
<MEAN> 25
 6.944582e+00 -4.313149e+00 1.269655e+00 -4.011604e+00 -1.142307e+00 -5.293357e+00 -7.012040e+00 1.974474e+00 3.147683e+00 -8.685802e+00 -6.907973e+00 1.346000e+00 4.262080e-01 3.282286e-01 -9.128022e-02 5.634516e-01 -3.466225e-01 -7.332063e-02 -9.553410e-01 9.405410e-01 1.545577e+00 -1.717666e-01 6.490635e-01 2.548857e-01 -3.932381e-01
<VARIANCE> 25
 1.028351e+01 2.214719e+01 1.521364e+01 2.556833e+01 9.945927e+00 3.487719e+01 3.601115e+01 1.680231e+01 4.201469e+01 4.777065e+01 4.538546e+01 1.998491e+01 9.407791e-01 2.888002e+00 1.464733e+00 2.346613e+00 2.604824e+00 3.567587e+00 3.368778e+00 1.132040e+00 4.275121e+00 3.202034e+00 1.987297e+00 1.019132e+00 3.136680e-01
<GCONST> 9.197257e+01
<STATE> 3
<MEAN> 25
 4.691106e+00 -1.479677e+00 1.408525e+00 -4.828782e-01 -2.975451e+00 -3.720376e+00 -4.754349e+00 2.876929e+00 5.069695e+00 -2.019201e+00 4.756052e-01 -1.887822e-01 -4.631050e-01 3.204314e-01 -1.983726e-01 3.306898e-02 -1.730495e-01 5.618843e-02 5.466818e-01 -3.703970e-02 -1.751516e-01 6.628403e-01 5.568819e-01 -8.316430e-02 -6.621762e-01
<VARIANCE> 25
 8.905303e+00 3.631237e+01 2.575265e+01 1.217425e+01 6.989301e+00 3.953998e+01 1.086318e+01 2.359203e+01 2.791732e+01 3.081709e+01 2.429390e+01 1.416288e+01 5.035362e-01 4.606535e-01 3.540343e-01 6.065954e-01 6.369330e-01 2.433395e+00 1.303259e+00 1.721786e+00 1.520859e+00 2.339511e+00 1.771769e+00 1.156140e+00 4.295487e-01
<GCONST> 8.062799e+01
<STATE> 4
<MEAN> 25
 2.981528e+00 -1.085878e+00 -1.260968e+00 7.358662e-01 3.248143e-01 2.904122e+00 2.056334e+00 -6.345350e-01 4.767178e-01 2.400325e+00 7.199805e-01 5.789298e-01 -2.525428e-02 7.178195e-03 -3.732918e-02 -2.450765e-02 -2.570834e-02 -1.193596e-02 4.718726e-02 3.044577e-02 4.293259e-03 3.322224e-02 2.512597e-02 -5.295630e-03 -4.495671e-02
<VARIANCE> 25
 1.529304e+00 2.849369e+00 3.290855e+00 4.861629e+00 4.862353e+00 1.046867e+01 7.779886e+00 6.366827e+00 6.524601e+00 8.952169e+00 6.237339e+00 5.976335e+00 1.156747e-01 1.587358e-01 2.491017e-01 4.352302e-01 4.781559e-01 6.832631e-01 7.501338e-01 7.771913e-01 6.492367e-01 7.315319e-01 6.639582e-01 8.326778e-01 5.255862e-02
<GCONST> 5.354918e+01
<TRANSP> 5
 0.000000e+00 1.000000e+00 0.000000e+00 0.000000e+00 0.000000e+00
 0.000000e+00 5.547997e-01 4.452003e-01 0.000000e+00 0.000000e+00
 0.000000e+00 0.000000e+00 7.449046e-01 2.550954e-01 0.000000e+00
 0.000000e+00 0.000000e+00 0.000000e+00 9.370533e-01 6.294673e-02
 0.000000e+00 0.000000e+00 0.000000e+00 0.000000e+00 0.000000e+00
<ENDHMM>
~h "r"
<BEGINHMM>
<NUMSTATES> 5
<STATE> 2
<MEAN> 25
 3.422181e+00 2.545774e+00 1.890953e+00 7.635321e-01 -1.209057e+00 -3.408409e+00 -4.421986e+00 -1.187933e+00 -1.722191e+00 -3.389485e+00 1.424992e+00 3.577110e+00 -4.774512e-01 3.026670e-01 -7.519017e-01 -4.475085e-02 7.568177e-01 2.000398e-01 2.006548e-01 1.485215e-01 3.776744e-01 -3.360769e-01 -4.856610e-02 1.006659e+00 -9.194357e-01
<VARIANCE> 25
 1.973877e+01 2.414051e+01 2.181989e+01 2.413820e+01 8.338665e+01 2.904605e+01 7.115366e+01 7.955977e+01 2.265721e+01 2.120196e+01 1.212923e+01 1.270633e+01 1.024099e+00 2.517868e+00 3.338554e+00 4.014767e+00 1.664277e+00 3.377160e+00 5.428089e+00 2.692622e+00 3.431681e+00 4.107779e+00 1.623985e+00 2.318348e+00 9.934391e-01
<GCONST> 9.794239e+01
<STATE> 3
<MEAN> 25
 5.782616e-01 3.763551e-01 -1.288324e+00 2.305824e+00 2.789741e+00 1.559692e+00 -3.475923e+00 -5.695113e+00 -1.552520e+00 2.477057e+00 1.061157e+00 1.157423e+00 -3.886666e-01 4.939312e-01 -4.165154e-01 1.036995e-01 -5.174115e-01 1.013416e+00 8.862465e-01 7.754082e-01 1.850515e-01 3.905099e-01 3.358309e-02 -1.367660e-01 -1.133687e+00
<VARIANCE> 25
 2.426523e+01 5.863375e+01 2.266994e+01 1.380062e+01 4.860256e+01 6.654876e+01 3.897906e+01 2.532598e+01 4.789444e+01 3.441165e+01 1.892430e+01 1.808504e+01 1.784023e+00 5.182836e+00 2.276342e+00 1.739028e+00 3.976168e+00 8.459237e+00 3.452400e+00 1.673495e+00 8.407517e+00 1.623681e+00 2.282964e+00 1.935788e+00 2.184051e+00
<GCONST> 1.009231e+02
<STATE> 4
<MEAN> 25
 -3.626077e-01 4.066656e+00 -1.144219e-01 3.655116e+00 2.404040e+00 3.917162e+00 -1.492331e+00 -3.817472e+00 -2.023126e+00 1.312854e+00 1.544704e+00 1.773044e+00 -6.688259e-01 4.893406e-01 1.065277e-01 1.848887e-01 -1.268014e-01 2.244240e-01 6.079098e-01 3.775186e-01 2.604168e-01 4.492088e-01 -1.803370e-01 -5.267437e-01 -7.383488e-01
<VARIANCE> 25
 3.819160e+01 1.951772e+01 2.476834e+01 1.676057e+01 3.211935e+01 4.930579e+01 3.090451e+01 1.544143e+01 3.369246e+01 2.161377e+01 1.350054e+01 1.408103e+01 6.374204e-01 8.241805e-01 9.216039e-01 1.535466e+00 1.196877e+00 1.415377e+00 1.495971e+00 8.886509e-01 1.056957e+00 1.447322e+00 1.257476e+00 1.284427e+00 2.730313e-01
<GCONST> 8.408479e+01
<TRANSP> 5
 0.000000e+00 1.000000e+00 0.000000e+00 0.000000e+00 0.000000e+00
 0.000000e+00 6.845864e-01 3.154136e-01 0.000000e+00 0.000000e+00
 0.000000e+00 0.000000e+00 7.326176e-01 2.673824e-01 0.000000e+00
 0.000000e+00 0.000000e+00 0.000000e+00 8.045980e-01 1.954019e-01
 0.000000e+00 0.000000e+00 0.000000e+00 0.000000e+00 0.000000e+00
<ENDHMM>
~h "s"
<BEGINHMM>
<NUMSTATES> 5
<STATE> 2
<MEAN> 25
 -3.367950e+00 2.463385e+00 9.691678e+00 -3.486439e+00 -3.932009e+00 7.307525e+00 1.504676e+00 -6.485724e+00 3.912760e+00 -1.840698e+00 2.472014e+00 -1.335996e-01 -1.646172e+00 -9.442320e-01 1.747636e+00 -1.608346e+00 -8.246210e-01 1.030380e+00 6.111342e-01 -1.132520e+00 -5.638652e-01 4.953683e-01 1.020348e+00 -3.360491e-01 6.551170e-02
<VARIANCE> 25
 2.178603e+02 2.394034e+02 2.614507e+02 6.356618e+01 1.606188e+02 1.374891e+02 6.536353e+01 5.386330e+01 7.002155e+01 4.963290e+01 4.323477e+01 1.669698e+01 1.482392e+01 1.730917e+01 1.602678e+01 6.669012e+00 1.152272e+01 1.167698e+01 8.265556e+00 7.131163e+00 4.907957e+00 7.225580e+00 5.402325e+00 2.797633e+00 1.391120e+00
<GCONST> 1.252435e+02
<STATE> 3
<MEAN> 25
 -9.759315e+00 -9.219667e+00 1.319763e+01 -9.090552e+00 -1.953046e+00 6.708740e+00 7.179569e-01 -6.809909e+00 -6.493172e-01 4.186704e+00 5.604584e-01 5.082113e-01 1.223284e+00 3.080517e-01 -1.168814e+00 7.315564e-01 -5.572394e-02 -7.350028e-01 -1.798688e-01 7.992589e-02 -9.641732e-01 -1.074514e+00 -3.310845e-01 3.684502e-01 1.695198e-01
<VARIANCE> 25
 5.783099e+01 5.563419e+01 5.742818e+01 2.349982e+01 3.530250e+01 5.487644e+01 4.049248e+01 2.831339e+01 3.522736e+01 3.790595e+01 2.137981e+01 1.198137e+01 5.468166e+00 6.425430e+00 4.370036e+00 2.460190e+00 3.020518e+00 3.303322e+00 3.604183e+00 2.666751e+00 3.085522e+00 7.030416e+00 2.013143e+00 1.015618e+00 9.003189e-01
<GCONST> 1.027717e+02
<STATE> 4
<MEAN> 25
 3.193405e+00 1.195699e+00 6.196252e+00 -1.403258e+00 -2.611426e+00 4.483565e+00 -2.748444e-02 -4.590765e+00 -3.094037e+00 -1.482821e+00 -3.324034e-01 2.286131e+00 1.283975e+00 1.808285e+00 -1.342487e+00 9.454390e-01 3.797855e-01 -4.266522e-01 -3.643027e-01 1.035369e+00 7.788149e-01 -3.686665e-01 -8.164463e-01 -2.448803e-01 -5.845277e-01
<VARIANCE> 25
 1.223123e+02 9.812445e+01 4.809644e+01 2.150185e+01 3.573578e+01 5.187724e+01 2.377215e+01 5.739862e+01 2.918048e+01 6.757272e+01 2.319861e+01 1.522909e+01 4.284112e+00 1.093213e+01 8.775849e+00 1.489162e+00 7.197152e+00 6.354917e+00 3.401934e+00 3.050490e+00 2.899476e+00 6.383604e+00 2.489510e+00 1.789449e+00 3.391573e+00
<GCONST> 1.086916e+02
<TRANSP> 5
 0.000000e+00 1.000000e+00 0.000000e+00 0.000000e+00 0.000000e+00
 0.000000e+00 7.827171e-01 2.172829e-01 0.000000e+00 0.000000e+00
 0.000000e+00 0.000000e+00 7.728222e-01 2.271778e-01 0.000000e+00
 0.000000e+00 0.000000e+00 0.000000e+00 5.948934e-01 4.051066e-01
 0.000000e+00 0.000000e+00 0.000000e+00 0.000000e+00 0.000000e+00
<ENDHMM>
~h "t"
<BEGINHMM>
<NUMSTATES> 5
<STATE> 2
<MEAN> 25
 -1.175538e+00 3.734025e+00 1.155450e+00 1.294812e+00 8.632168e-01 3.267810e+00 8.123638e-01 -2.359171e+00 -3.823010e+00 1.224228e+00 -1.401884e-01 -2.839595e-01 8.006375e-01 -6.446499e-01 3.053727e-01 6.886759e-02 8.769993e-03 -8.534740e-01 -4.116229e-01 4.145000e-01 2.142349e-01 -6.383924e-01 -2.248335e-01 8.240660e-02 1.111662e+00
<VARIANCE> 25
 7.505627e+01 4.957280e+01 3.680175e+01 3.335247e+01 1.784808e+01 4.055943e+01 4.218165e+01 2.691160e+01 3.782525e+01 5.097898e+01 2.860941e+01 2.401176e+01 5.454185e+00 4.579111e+00 3.060133e+00 3.587851e+00 1.423561e+00 4.906678e+00 3.665118e+00 4.637650e+00 3.396620e+00 5.690715e+00 3.575174e+00 2.084329e+00 8.072924e+00
<GCONST> 1.064465e+02
<STATE> 3
<MEAN> 25
 7.693475e-01 3.764016e+00 -1.189934e+00 -5.336053e-01 -7.169211e-03 -6.711287e-01 -6.048569e-01 -1.239979e+00 -4.473754e+00 -9.155095e-01 -2.494175e+00 1.022768e+00 -3.579647e-01 -3.232813e-01 -4.446031e-01 1.161617e-01 2.844253e-02 -3.154515e-01 -2.340305e-01 -7.258637e-02 6.958750e-01 -8.966386e-02 1.753569e-01 3.132661e-01 -2.286361e-01
<VARIANCE> 25
 4.801759e+01 6.430908e+01 7.573853e+01 3.875267e+01 1.479127e+01 3.744727e+01 3.824903e+01 2.146624e+01 4.136713e+01 3.338483e+01 2.779471e+01 2.617332e+01 1.229124e+00 2.525153e+00 2.056318e+00 1.181905e+00 2.225261e+00 1.416458e+00 2.888435e+00 1.776318e+00 2.478369e+00 2.296099e+00 1.622474e+00 1.638273e+00 1.874697e+00
<GCONST> 9.696322e+01
<STATE> 4
<MEAN> 25
 4.618385e-01 -2.951489e-01 6.888887e-01 9.460062e-01 -1.739522e-01 1.029508e+00 -6.712624e-01 -1.212438e+00 9.217950e-01 -4.845609e-01 -7.647312e-01 -5.703833e-01 -1.648641e-01 -1.707543e-01 -1.941702e-01 9.147947e-02 7.181185e-02 -3.160020e-02 4.659473e-02 -2.513719e-02 1.871282e-01 2.422594e-01 2.421589e-01 8.955060e-02 -1.130402e-01
<VARIANCE> 25
 3.510756e+01 3.817107e+01 2.929920e+01 3.055116e+01 1.644922e+01 2.178653e+01 4.904646e+01 1.622293e+01 3.420175e+01 3.006111e+01 1.886184e+01 1.537855e+01 5.813327e-01 7.188506e-01 8.552899e-01 7.535647e-01 7.803950e-01 9.468654e-01 1.484591e+00 8.489516e-01 1.449208e+00 1.304250e+00 9.827507e-01 1.024233e+00 6.187463e-01
<GCONST> 8.389095e+01
<TRANSP> 5
 0.000000e+00 1.000000e+00 0.000000e+00 0.000000e+00 0.000000e+00
 0.000000e+00 4.271197e-01 5.728803e-01 0.000000e+00 0.000000e+00
 0.000000e+00 0.000000e+00 2.628324e-01 7.371675e-01 0.000000e+00
 0.000000e+00 0.000000e+00 0.000000e+00 6.874625e-01 3.125375e-01
 0.000000e+00 0.000000e+00 0.000000e+00 0.000000e+00 0.000000e+00
<ENDHMM>
~h "u"
<BEGINHMM>
<NUMSTATES> 5
<STATE> 2
<MEAN> 25
 1.579519e+00 2.883058e+00 -9.810149e-01 2.144454e+00 2.839233e-01 1.747603e+00 -2.023144e-01 -1.402812e+00 -1.853726e+00 -1.845578e+00 -5.593182e-01 6.976281e-01 -5.123408e-01 -4.791618e-01 1.145841e-01 -1.290713e-01 -2.119498e-01 -9.851898e-02 1.232998e+00 -2.786239e-01 -3.382081e-01 4.059219e-01 -2.102987e-01 4.339974e-01 -1.465279e-01
<VARIANCE> 25
 5.317003e+01 3.069658e+01 2.651752e+01 3.841439e+01 4.726686e+01 3.024991e+01 5.144884e+01 3.502062e+01 5.098716e+01 5.240856e+01 3.670522e+01 2.591666e+01 1.815306e+00 9.123574e+00 3.995937e+00 5.698949e+00 8.184664e+00 4.326539e+00 5.558556e+00 4.006546e+00 4.245464e+00 6.151225e+00 5.171713e+00 3.789398e+00 8.789282e+00
<GCONST> 1.107955e+02
<STATE> 3
<MEAN> 25
 3.907024e+00 -2.122885e+00 1.582916e+00 4.919384e-02 -1.198483e+00 -5.221784e-01 1.786141e+00 -3.359651e+00 -3.920798e+00 -1.087368e+00 -1.878878e+00 8.264352e-01 1.138403e+00 -5.918778e-01 1.382319e+00 -9.636886e-01 -2.955305e-01 -7.641296e-01 -7.997602e-01 6.765130e-01 -3.880423e-02 -1.120994e+00 -6.692941e-01 5.137397e-02 2.367230e+00
<VARIANCE> 25
 1.253814e+02 9.495783e+01 4.405659e+01 4.303879e+01 4.983303e+01 5.851006e+01 5.387176e+01 7.255376e+01 5.459146e+01 8.898669e+01 3.967440e+01 3.497055e+01 7.647524e+00 9.452416e+00 5.173388e+00 7.737399e+00 6.088754e+00 8.722895e+00 1.261877e+01 9.161501e+00 8.913080e+00 1.673713e+01 5.406211e+00 3.216406e+00 1.367701e+01
<GCONST> 1.220212e+02
<STATE> 4
<MEAN> 25
 1.516847e+01 4.365585e+00 5.917352e+00 2.297260e+00 -3.756595e+00 -7.532677e+00 -3.328164e+00 2.387018e+00 -4.340347e-02 -1.102966e+01 -4.351729e+00 2.089430e+00 -5.874971e-01 5.571626e-01 -4.851620e-02 -1.719779e-01 -2.040846e-01 2.891435e-01 2.649678e-01 1.516282e-01 -1.174058e-01 6.253793e-01 4.317734e-02 -2.381223e-01 -9.306498e-01
<VARIANCE> 25
 1.672599e+02 6.387578e+01 4.807901e+01 4.043345e+01 4.169975e+01 1.025129e+02 8.756619e+01 4.366341e+01 6.919233e+01 1.506029e+02 2.559473e+01 3.352414e+01 1.455072e+00 3.053147e+00 2.213264e+00 3.510952e+00 2.596579e+00 5.339271e+00 5.058134e+00 4.307241e+00 3.968680e+00 4.453473e+00 1.551572e+00 2.209823e+00 2.069692e+00
<GCONST> 1.094954e+02
<TRANSP> 5
 0.000000e+00 1.000000e+00 0.000000e+00 0.000000e+00 0.000000e+00
 0.000000e+00 3.506717e-01 6.493282e-01 0.000000e+00 0.000000e+00
 0.000000e+00 0.000000e+00 4.697689e-01 5.302311e-01 0.000000e+00
 0.000000e+00 0.000000e+00 0.000000e+00 6.122904e-01 3.877095e-01
 0.000000e+00 0.000000e+00 0.000000e+00 0.000000e+00 0.000000e+00
<ENDHMM>
~h "w"
<BEGINHMM>
<NUMSTATES> 5
<STATE> 2
<MEAN> 25
 3.368616e+00 -8.273816e-01 -7.122942e-01 -3.815087e+00 -4.483810e+00 -7.358722e+00 1.042250e-01 3.564385e+00 2.930184e+00 -7.282879e-01 -2.252391e+00 8.323387e-01 3.167745e-02 1.022635e+00 8.618082e-01 5.118296e-01 -4.937766e-01 -9.300001e-01 -1.135332e+00 4.068655e-01 -3.909728e-02 4.544093e-01 1.492756e-01 -7.579323e-01 -5.550789e-01
<VARIANCE> 25
 2.790020e+01 3.336097e+01 3.742052e+01 3.198902e+01 1.965064e+01 2.780097e+01 3.445449e+01 1.200479e+01 3.073013e+01 1.804954e+01 1.622733e+01 1.561808e+01 3.312204e-01 1.197852e+00 8.271784e-01 1.383506e+00 7.134436e-01 1.171305e+00 2.403813e+00 1.694172e+00 1.344350e+00 8.057980e-01 1.182024e+00 8.127891e-01 5.535212e-01
<GCONST> 8.393582e+01
<STATE> 3
<MEAN> 25
 2.492544e+00 -1.934504e+00 4.023486e+00 -6.966677e-01 -4.882376e+00 -5.854925e+00 -5.455405e+00 -2.352669e-01 6.991716e+00 3.710016e+00 1.111115e+00 -3.558212e+00 2.016728e-02 -2.118296e-01 -1.249700e-01 -2.024684e-02 -9.507638e-02 6.254107e-03 2.026398e-01 5.389492e-02 2.212738e-02 -6.813601e-03 -1.673276e-02 7.084710e-02 1.231728e-01
<VARIANCE> 25
 1.273506e+01 4.117581e+01 1.384467e+01 1.255128e+01 2.565655e+01 3.847302e+01 5.361922e+01 2.538095e+01 3.874351e+01 1.977830e+01 2.247733e+01 1.488389e+01 2.189664e-01 8.699281e-01 4.781169e-01 8.573554e-01 1.249155e+00 1.623683e+00 2.659695e+00 1.273226e+00 5.763435e-01 1.231442e+00 1.409782e+00 9.999175e-01 3.339489e-01
<GCONST> 8.221252e+01
<STATE> 4
<MEAN> 25
 2.288434e+01 -8.878275e-01 -3.689871e+00 3.311804e+00 -2.884539e+00 -1.935741e+01 -7.383522e+00 9.494797e+00 9.759314e+00 -8.310356e+00 -1.973452e+00 3.755040e+00 -1.290389e-01 4.144051e-01 3.494389e-01 1.400090e-02 -1.492377e-01 1.520047e-01 4.698606e-02 -9.461171e-02 -3.823840e-02 -1.379906e-02 -1.621562e-01 5.893420e-02 -2.719024e-01
<VARIANCE> 25
 5.985013e+01 3.139860e+01 3.988770e+01 2.171702e+01 1.367264e+01 4.635803e+01 3.604090e+01 1.080130e+01 2.251051e+01 2.444396e+01 2.458834e+01 7.556560e+00 3.633914e-01 1.217833e+00 2.098105e+00 1.545801e+00 5.832376e-01 2.204787e+00 2.455282e+00 8.472407e-01 7.176580e-01 1.275231e+00 7.621312e-01 6.386166e-01 4.918377e-01
<GCONST> 8.402784e+01
<TRANSP> 5
 0.000000e+00 1.000000e+00 0.000000e+00 0.000000e+00 0.000000e+00
 0.000000e+00 7.335027e-01 2.664973e-01 0.000000e+00 0.000000e+00
 0.000000e+00 0.000000e+00 8.927208e-01 1.072792e-01 0.000000e+00
 0.000000e+00 0.000000e+00 0.000000e+00 8.677677e-01 1.322322e-01
 0.000000e+00 0.000000e+00 0.000000e+00 0.000000e+00 0.000000e+00
<ENDHMM>
~h "kh"
<BEGINHMM>
<NUMSTATES> 5
<STATE> 2
<MEAN> 25
 -1.513887e-08 8.685321e-09 6.289883e-08 7.186313e-08 3.131923e-08 4.571417e-08 5.014053e-08 1.333485e-08 -7.134006e-08 8.713219e-09 1.011273e-09 4.209684e-08 -6.534437e-03 7.731597e-03 -5.306157e-03 4.609803e-03 -4.191151e-03 8.242088e-03 -6.219152e-03 5.951754e-03 -5.249157e-03 1.868283e-03 2.200403e-03 -1.269434e-03 2.744509e-03
<VARIANCE> 25
 6.716856e+01 2.941401e+01 5.663681e+01 4.741492e+01 4.696264e+01 4.914315e+01 4.999928e+01 4.303569e+01 5.672998e+01 3.222253e+01 2.850756e+01 4.103967e+01 2.100924e+00 1.434693e+00 1.891293e+00 2.194988e+00 2.363979e+00 2.636887e+00 2.464799e+00 2.732278e+00 2.851009e+00 2.222413e+00 2.036798e+00 2.011688e+00 1.909456e+00
<GCONST> 1.015924e+02
<STATE> 3
<MEAN> 25
 -1.513887e-08 8.685321e-09 6.289883e-08 7.186313e-08 3.131923e-08 4.571417e-08 5.014053e-08 1.333485e-08 -7.134006e-08 8.713219e-09 1.011273e-09 4.209684e-08 -6.534437e-03 7.731597e-03 -5.306157e-03 4.609803e-03 -4.191151e-03 8.242088e-03 -6.219152e-03 5.951754e-03 -5.249157e-03 1.868283e-03 2.200403e-03 -1.269434e-03 2.744509e-03
<VARIANCE> 25
 6.716856e+01 2.941401e+01 5.663681e+01 4.741492e+01 4.696264e+01 4.914315e+01 4.999928e+01 4.303569e+01 5.672998e+01 3.222253e+01 2.850756e+01 4.103967e+01 2.100924e+00 1.434693e+00 1.891293e+00 2.194988e+00 2.363979e+00 2.636887e+00 2.464799e+00 2.732278e+00 2.851009e+00 2.222413e+00 2.036798e+00 2.011688e+00 1.909456e+00
<GCONST> 1.015924e+02
<STATE> 4
<MEAN> 25
 -1.513887e-08 8.685321e-09 6.289883e-08 7.186313e-08 3.131923e-08 4.571417e-08 5.014053e-08 1.333485e-08 -7.134006e-08 8.713219e-09 1.011273e-09 4.209684e-08 -6.534437e-03 7.731597e-03 -5.306157e-03 4.609803e-03 -4.191151e-03 8.242088e-03 -6.219152e-03 5.951754e-03 -5.249157e-03 1.868283e-03 2.200403e-03 -1.269434e-03 2.744509e-03
<VARIANCE> 25
 6.716856e+01 2.941401e+01 5.663681e+01 4.741492e+01 4.696264e+01 4.914315e+01 4.999928e+01 4.303569e+01 5.672998e+01 3.222253e+01 2.850756e+01 4.103967e+01 2.100924e+00 1.434693e+00 1.891293e+00 2.194988e+00 2.363979e+00 2.636887e+00 2.464799e+00 2.732278e+00 2.851009e+00 2.222413e+00 2.036798e+00 2.011688e+00 1.909456e+00
<GCONST> 1.015924e+02
<TRANSP> 5
 0.000000e+00 1.000000e+00 0.000000e+00 0.000000e+00 0.000000e+00
 0.000000e+00 6.000000e-01 4.000000e-01 0.000000e+00 0.000000e+00
 0.000000e+00 0.000000e+00 6.000000e-01 4.000000e-01 0.000000e+00
 0.000000e+00 0.000000e+00 0.000000e+00 7.000000e-01 3.000000e-01
 0.000000e+00 0.000000e+00 0.000000e+00 0.000000e+00 0.000000e+00
<ENDHMM>
~h "ny"
<BEGINHMM>
<NUMSTATES> 5
<STATE> 2
<MEAN> 25
 7.146486e-01 2.690309e+00 3.321678e+00 3.434701e+00 3.530504e+00 -6.952485e-01 -5.627429e+00 1.090399e+00 3.815107e-01 -3.177730e-01 6.561796e-01 -4.686735e+00 4.403629e-02 -5.217614e-01 1.383950e-01 3.113768e-01 8.706718e-02 -8.335488e-01 -2.039284e-01 -1.560540e-01 -2.734207e-01 2.198296e-01 6.357775e-01 5.786552e-02 5.173960e-01
<VARIANCE> 25
 7.512671e+00 2.953736e+01 2.036484e+01 3.402387e+01 5.399990e+01 5.116157e+01 5.457759e+01 1.891499e+01 2.143883e+01 1.468398e+01 2.211638e+01 4.330197e+01 7.859972e-01 1.646662e+00 1.732171e+00 1.978983e+00 2.834711e+00 5.248977e+00 3.325434e+00 1.757258e+00 1.310689e+00 1.471464e+00 1.483084e+00 2.528170e+00 7.297013e-01
<GCONST> 9.298863e+01
<STATE> 3
<MEAN> 25
 2.336486e+00 -3.322877e+00 2.624021e-01 5.653101e+00 4.703400e+00 -7.626689e+00 -5.218607e+00 -2.368184e+00 -2.665417e+00 1.026296e+00 6.155274e+00 1.458760e+00 3.525911e-01 1.213626e-01 -1.004519e+00 -5.814892e-01 -4.738508e-01 2.924893e-01 4.416639e-01 4.757688e-02 -2.623477e-01 -8.134525e-02 4.775962e-01 7.209738e-01 -1.065659e-01
<VARIANCE> 25
 7.324762e+00 1.771615e+01 2.864217e+01 3.469724e+01 3.178388e+01 4.217444e+01 3.241300e+01 2.571079e+01 1.717721e+01 2.223003e+01 2.731282e+01 2.826509e+01 6.019141e-01 6.240224e-01 1.197934e+00 1.622876e+00 2.362173e+00 3.061770e+00 1.166928e+00 1.293943e+00 1.132395e+00 9.692349e-01 8.878730e-01 9.388415e-01 4.024382e-01
<GCONST> 8.531153e+01
<STATE> 4
<MEAN> 25
 3.712374e+00 -3.413877e+00 -2.333951e+00 1.655534e+00 9.433097e-01 -2.699266e+00 -2.068812e+00 3.859681e-02 -2.564376e+00 -1.329056e+00 6.342329e+00 3.693811e+00 -2.403575e-01 3.669734e-01 -2.185545e-01 3.694835e-02 1.368128e-01 6.548573e-01 6.920105e-01 6.292000e-01 -4.830773e-02 -8.071079e-02 -1.136261e-01 5.210529e-02 -5.397773e-01
<VARIANCE> 25
 9.620361e+00 2.396140e+01 1.563713e+01 2.379745e+01 1.549874e+01 2.269698e+01 2.355239e+01 1.200280e+01 2.711862e+01 1.476593e+01 2.634770e+01 1.302257e+01 4.358385e-01 4.895595e-01 8.696691e-01 8.935953e-01 1.243116e+00 1.232915e+00 9.313858e-01 8.513682e-01 7.312998e-01 1.163421e+00 1.034234e+00 7.557712e-01 3.097746e-01
<GCONST> 7.746274e+01
<TRANSP> 5
 0.000000e+00 1.000000e+00 0.000000e+00 0.000000e+00 0.000000e+00
 0.000000e+00 8.119134e-01 1.880866e-01 0.000000e+00 0.000000e+00
 0.000000e+00 0.000000e+00 7.678555e-01 2.321446e-01 0.000000e+00
 0.000000e+00 0.000000e+00 0.000000e+00 7.907717e-01 2.092283e-01
 0.000000e+00 0.000000e+00 0.000000e+00 0.000000e+00 0.000000e+00
<ENDHMM>
~h "sp"
<BEGINHMM>
<NUMSTATES> 3
<STATE> 2
~s "silst"
<TRANSP> 3
 0.000000e+00 2.189655e-01 7.810345e-01
 0.000000e+00 7.903579e-01 2.096421e-01
 0.000000e+00 0.000000e+00 0.000000e+00
<ENDHMM>
~h "sil"
<BEGINHMM>
<NUMSTATES> 5
<STATE> 2
<MEAN> 25
 -6.784651e+00 4.160309e+00 -1.803793e+00 2.217418e+00 -1.165986e+00 4.430298e+00 1.370190e+00 -1.789269e+00 9.928676e-01 3.515606e+00 3.506935e+00 -3.871239e-01 -2.488327e-01 -1.221532e-01 -1.065582e-01 -1.291531e-01 1.525706e-01 2.487018e-01 2.969302e-01 -3.008543e-03 1.154462e-01 1.351535e-01 7.477628e-02 5.377420e-02 -6.406118e-02
<VARIANCE> 25
 6.793523e+01 4.007508e+01 3.577361e+01 3.860530e+01 2.751157e+01 4.583924e+01 3.217690e+01 2.220451e+01 2.650467e+01 2.468133e+01 2.089158e+01 1.968184e+01 1.321906e+00 1.338590e+00 1.039574e+00 1.227011e+00 1.498471e+00 1.645709e+00 1.695141e+00 1.695066e+00 1.392663e+00 1.375986e+00 1.229062e+00 1.078832e+00 1.194180e+00
<GCONST> 9.118271e+01
<STATE> 3
~s "silst"
<STATE> 4
<MEAN> 25
 -1.212280e+01 5.185077e-01 8.906724e-01 -2.065021e+00 -3.790162e-01 3.434644e+00 2.214613e+00 -7.240656e-03 -6.586336e-01 4.338739e+00 5.982090e-01 -1.220162e+00 -1.723236e-02 -1.254237e-02 -7.198841e-06 -3.749038e-03 4.230470e-03 5.463049e-03 2.846818e-03 -4.205026e-03 -3.303369e-03 -2.095527e-03 1.184213e-02 5.676189e-03 -4.008630e-03
<VARIANCE> 25
 1.087768e+02 4.697016e+00 5.926770e+00 1.274244e+01 7.208808e+00 1.214560e+01 1.143417e+01 1.049484e+01 8.840309e+00 8.663444e+00 7.061502e+00 6.794384e+00 1.010725e-01 1.616038e-01 2.497690e-01 4.200009e-01 4.332833e-01 5.377924e-01 8.096094e-01 7.726269e-01 6.744949e-01 6.275143e-01 6.507536e-01 5.622748e-01 5.125716e-02
<GCONST> 6.084539e+01
<TRANSP> 5
 0.000000e+00 1.000000e+00 0.000000e+00 0.000000e+00 0.000000e+00
 0.000000e+00 6.817640e-01 1.188722e-01 1.993639e-01 0.000000e+00
 0.000000e+00 0.000000e+00 7.653078e-01 2.346922e-01 0.000000e+00
 0.000000e+00 5.175858e-03 0.000000e+00 9.351686e-01 5.965562e-02
 0.000000e+00 0.000000e+00 0.000000e+00 0.000000e+00 0.000000e+00
<ENDHMM>
