~o
<STREAMINFO> 1 25
<VECSIZE> 25<NULLD><MFCC_D_N_Z_0><DIAGC>
~t "T_a"
<TRANSP> 5
 0.000000e+00 1.000000e+00 0.000000e+00 0.000000e+00 0.000000e+00
 0.000000e+00 3.196332e-01 6.803668e-01 0.000000e+00 0.000000e+00
 0.000000e+00 0.000000e+00 1.062111e-01 8.937889e-01 0.000000e+00
 0.000000e+00 0.000000e+00 0.000000e+00 5.919090e-01 4.080910e-01
 0.000000e+00 0.000000e+00 0.000000e+00 0.000000e+00 0.000000e+00
~t "T_b"
<TRANSP> 5
 0.000000e+00 1.000000e+00 0.000000e+00 0.000000e+00 0.000000e+00
 0.000000e+00 6.610917e-01 3.389083e-01 0.000000e+00 0.000000e+00
 0.000000e+00 0.000000e+00 7.050310e-01 2.949690e-01 0.000000e+00
 0.000000e+00 0.000000e+00 0.000000e+00 8.285757e-01 1.714243e-01
 0.000000e+00 0.000000e+00 0.000000e+00 0.000000e+00 0.000000e+00
~t "T_e"
<TRANSP> 5
 0.000000e+00 1.000000e+00 0.000000e+00 0.000000e+00 0.000000e+00
 0.000000e+00 4.563763e-01 5.436237e-01 0.000000e+00 0.000000e+00
 0.000000e+00 0.000000e+00 3.797535e-01 6.202465e-01 0.000000e+00
 0.000000e+00 0.000000e+00 0.000000e+00 6.359243e-01 3.640757e-01
 0.000000e+00 0.000000e+00 0.000000e+00 0.000000e+00 0.000000e+00
~t "T_h"
<TRANSP> 5
 0.000000e+00 1.000000e+00 0.000000e+00 0.000000e+00 0.000000e+00
 0.000000e+00 6.726917e-01 3.273083e-01 0.000000e+00 0.000000e+00
 0.000000e+00 0.000000e+00 5.249031e-01 4.750969e-01 0.000000e+00
 0.000000e+00 0.000000e+00 0.000000e+00 6.920310e-01 3.079690e-01
 0.000000e+00 0.000000e+00 0.000000e+00 0.000000e+00 0.000000e+00
~t "T_i"
<TRANSP> 5
 0.000000e+00 1.000000e+00 0.000000e+00 0.000000e+00 0.000000e+00
 0.000000e+00 8.195275e-01 1.804725e-01 0.000000e+00 0.000000e+00
 0.000000e+00 0.000000e+00 8.164150e-01 1.835850e-01 0.000000e+00
 0.000000e+00 0.000000e+00 0.000000e+00 7.875979e-01 2.124021e-01
 0.000000e+00 0.000000e+00 0.000000e+00 0.000000e+00 0.000000e+00
~t "T_j"
<TRANSP> 5
 0.000000e+00 1.000000e+00 0.000000e+00 0.000000e+00 0.000000e+00
 0.000000e+00 8.312099e-01 1.687901e-01 0.000000e+00 0.000000e+00
 0.000000e+00 0.000000e+00 7.766223e-01 2.233777e-01 0.000000e+00
 0.000000e+00 0.000000e+00 0.000000e+00 6.679415e-01 3.320585e-01
 0.000000e+00 0.000000e+00 0.000000e+00 0.000000e+00 0.000000e+00
~t "T_k"
<TRANSP> 5
 0.000000e+00 1.000000e+00 0.000000e+00 0.000000e+00 0.000000e+00
 0.000000e+00 6.000000e-01 4.000000e-01 0.000000e+00 0.000000e+00
 0.000000e+00 0.000000e+00 6.000000e-01 4.000000e-01 0.000000e+00
 0.000000e+00 0.000000e+00 0.000000e+00 7.000000e-01 3.000000e-01
 0.000000e+00 0.000000e+00 0.000000e+00 0.000000e+00 0.000000e+00
~t "T_l"
<TRANSP> 5
 0.000000e+00 1.000000e+00 0.000000e+00 0.000000e+00 0.000000e+00
 0.000000e+00 6.125627e-01 3.874373e-01 0.000000e+00 0.000000e+00
 0.000000e+00 0.000000e+00 5.097192e-01 4.902808e-01 0.000000e+00
 0.000000e+00 0.000000e+00 0.000000e+00 6.558181e-01 3.441819e-01
 0.000000e+00 0.000000e+00 0.000000e+00 0.000000e+00 0.000000e+00
~t "T_m"
<TRANSP> 5
 0.000000e+00 1.000000e+00 0.000000e+00 0.000000e+00 0.000000e+00
 0.000000e+00 6.030233e-01 3.969767e-01 0.000000e+00 0.000000e+00
 0.000000e+00 0.000000e+00 5.756838e-01 4.243162e-01 0.000000e+00
 0.000000e+00 0.000000e+00 0.000000e+00 5.399455e-01 4.600545e-01
 0.000000e+00 0.000000e+00 0.000000e+00 0.000000e+00 0.000000e+00
~t "T_n"
<TRANSP> 5
 0.000000e+00 1.000000e+00 0.000000e+00 0.000000e+00 0.000000e+00
 0.000000e+00 7.093816e-01 2.906184e-01 0.000000e+00 0.000000e+00
 0.000000e+00 0.000000e+00 5.037177e-01 4.962823e-01 0.000000e+00
 0.000000e+00 0.000000e+00 0.000000e+00 8.552855e-01 1.447145e-01
 0.000000e+00 0.000000e+00 0.000000e+00 0.000000e+00 0.000000e+00
~t "T_p"
<TRANSP> 5
 0.000000e+00 1.000000e+00 0.000000e+00 0.000000e+00 0.000000e+00
 0.000000e+00 5.443066e-01 4.556934e-01 0.000000e+00 0.000000e+00
 0.000000e+00 0.000000e+00 7.267216e-01 2.732784e-01 0.000000e+00
 0.000000e+00 0.000000e+00 0.000000e+00 9.370207e-01 6.297933e-02
 0.000000e+00 0.000000e+00 0.000000e+00 0.000000e+00 0.000000e+00
~t "T_r"
<TRANSP> 5
 0.000000e+00 1.000000e+00 0.000000e+00 0.000000e+00 0.000000e+00
 0.000000e+00 6.718780e-01 3.281220e-01 0.000000e+00 0.000000e+00
 0.000000e+00 0.000000e+00 7.529190e-01 2.470810e-01 0.000000e+00
 0.000000e+00 0.000000e+00 0.000000e+00 7.974036e-01 2.025964e-01
 0.000000e+00 0.000000e+00 0.000000e+00 0.000000e+00 0.000000e+00
~t "T_s"
<TRANSP> 5
 0.000000e+00 1.000000e+00 0.000000e+00 0.000000e+00 0.000000e+00
 0.000000e+00 7.430717e-01 2.569283e-01 0.000000e+00 0.000000e+00
 0.000000e+00 0.000000e+00 7.711900e-01 2.288100e-01 0.000000e+00
 0.000000e+00 0.000000e+00 0.000000e+00 6.191036e-01 3.808964e-01
 0.000000e+00 0.000000e+00 0.000000e+00 0.000000e+00 0.000000e+00
~t "T_t"
<TRANSP> 5
 0.000000e+00 1.000000e+00 0.000000e+00 0.000000e+00 0.000000e+00
 0.000000e+00 3.857087e-01 6.142913e-01 0.000000e+00 0.000000e+00
 0.000000e+00 0.000000e+00 4.321052e-01 5.678948e-01 0.000000e+00
 0.000000e+00 0.000000e+00 0.000000e+00 6.416953e-01 3.583047e-01
 0.000000e+00 0.000000e+00 0.000000e+00 0.000000e+00 0.000000e+00
~t "T_u"
<TRANSP> 5
 0.000000e+00 1.000000e+00 0.000000e+00 0.000000e+00 0.000000e+00
 0.000000e+00 4.191172e-01 5.808828e-01 0.000000e+00 0.000000e+00
 0.000000e+00 0.000000e+00 4.884576e-01 5.115424e-01 0.000000e+00
 0.000000e+00 0.000000e+00 0.000000e+00 6.332098e-01 3.667903e-01
 0.000000e+00 0.000000e+00 0.000000e+00 0.000000e+00 0.000000e+00
~t "T_w"
<TRANSP> 5
 0.000000e+00 1.000000e+00 0.000000e+00 0.000000e+00 0.000000e+00
 0.000000e+00 7.382172e-01 2.617828e-01 0.000000e+00 0.000000e+00
 0.000000e+00 0.000000e+00 8.636284e-01 1.363716e-01 0.000000e+00
 0.000000e+00 0.000000e+00 0.000000e+00 8.618032e-01 1.381968e-01
 0.000000e+00 0.000000e+00 0.000000e+00 0.000000e+00 0.000000e+00
~t "T_kh"
<TRANSP> 5
 0.000000e+00 1.000000e+00 0.000000e+00 0.000000e+00 0.000000e+00
 0.000000e+00 3.536374e-01 6.463626e-01 0.000000e+00 0.000000e+00
 0.000000e+00 0.000000e+00 4.233699e-01 5.766301e-01 0.000000e+00
 0.000000e+00 0.000000e+00 0.000000e+00 4.181528e-01 5.818472e-01
 0.000000e+00 0.000000e+00 0.000000e+00 0.000000e+00 0.000000e+00
~t "T_ny"
<TRANSP> 5
 0.000000e+00 1.000000e+00 0.000000e+00 0.000000e+00 0.000000e+00
 0.000000e+00 8.030938e-01 1.969061e-01 0.000000e+00 0.000000e+00
 0.000000e+00 0.000000e+00 7.862861e-01 2.137139e-01 0.000000e+00
 0.000000e+00 0.000000e+00 0.000000e+00 7.627466e-01 2.372534e-01
 0.000000e+00 0.000000e+00 0.000000e+00 0.000000e+00 0.000000e+00
~s "ST_kh_2_1"
<MEAN> 25
 -4.912728e+00 -2.659762e+00 4.799667e+00 2.001864e+00 -1.704914e+00 1.367722e+00 -3.773180e-02 3.201937e+00 -4.375196e-01 3.335512e+00 9.169024e+00 2.984209e-01 -3.463049e-01 1.540898e-01 -2.237572e-01 1.089025e+00 -1.187366e-01 -1.079408e+00 -1.806430e-01 1.114342e+00 6.279764e-01 9.953092e-01 2.696251e-02 1.014666e-01 -1.471739e-01
<VARIANCE> 25
 1.633980e+01 3.026908e+01 3.671174e+01 7.434800e+01 5.916082e+01 1.103701e+02 1.165125e+01 5.703705e+01 2.623237e+01 8.072982e+01 2.067164e+01 1.098992e+01 2.904143e-01 1.030850e+00 9.995152e-01 2.065640e+00 4.198953e+00 1.287592e+00 4.460966e-01 2.278845e+00 3.234813e+00 8.880519e-01 3.473450e+00 5.264403e-01 1.432067e+00
<GCONST> 9.167040e+01
~s "ST_kh_3_1"
<MEAN> 25
 -4.898974e+00 -1.323978e+00 5.882402e+00 4.082344e+00 -3.302142e+00 -1.366148e+00 1.704560e+00 7.473575e+00 4.972169e-02 2.412138e+00 4.915296e+00 1.269435e+00 1.265541e-01 -6.446911e-02 3.345564e-01 -4.980987e-01 -2.312709e-01 -1.825919e-03 8.608118e-01 9.762876e-01 4.537923e-01 5.715506e-02 -2.091929e+00 1.556441e-01 -2.689039e-01
<VARIANCE> 25
 1.287799e+01 3.452285e+01 1.333488e+01 3.781928e+01 3.430611e+01 9.159312e+01 5.185442e+00 7.811935e+01 4.204644e+01 7.265164e+01 1.114371e+01 1.481122e+01 1.294431e+00 1.429239e+00 9.154661e-01 2.351094e+00 5.048221e+00 9.813178e-01 1.232472e+00 2.843070e+00 3.269223e-01 8.376663e-01 1.419900e+00 1.587965e+00 4.130859e-01
<GCONST> 8.832437e+01
~s "ST_kh_4_1"
<MEAN> 25
 -1.833560e+00 -2.552565e+00 6.440577e+00 -1.655195e+00 -5.190598e+00 -2.655000e+00 3.612682e+00 5.189161e+00 -2.957346e+00 4.438078e+00 1.366036e-01 1.475399e+00 1.276709e+00 -8.174062e-02 5.146856e-01 -7.638968e-01 -1.382141e+00 -7.575879e-01 -7.145177e-01 -1.274456e+00 -1.043506e+00 9.993241e-02 -2.439712e+00 -1.388118e+00 6.379187e-01
<VARIANCE> 25
 1.981308e+01 5.017274e+01 1.060103e+01 3.654210e+01 3.074397e+01 4.929555e+01 2.257720e+00 6.728232e+01 3.435976e+01 6.910303e+01 3.181526e+01 6.944602e+00 1.212530e+00 1.383952e+00 1.531743e+00 7.147630e+00 8.612745e+00 1.618938e+00 4.442101e+00 2.046711e+00 2.770866e+00 5.347350e+00 6.218278e-01 2.352655e+00 1.286574e+00
<GCONST> 9.540675e+01
~s "ST_s_2_1"
<MEAN> 25
 -2.410370e+00 5.667226e+00 6.581140e+00 -1.801336e+00 -2.037125e+00 5.539209e+00 2.106018e+00 -6.099237e+00 4.586667e+00 -3.079005e+00 2.838010e+00 3.471994e-01 -1.679087e+00 -1.177887e+00 2.371872e+00 -1.834497e+00 -1.237934e+00 1.323206e+00 2.854402e-01 -1.282628e+00 -8.782802e-01 6.601785e-01 1.090881e+00 -5.599881e-01 2.810116e-02
<VARIANCE> 25
 2.440653e+02 2.230909e+02 2.736339e+02 5.279007e+01 1.485573e+02 1.411728e+02 6.794916e+01 5.889299e+01 6.946330e+01 4.894184e+01 5.035091e+01 1.597956e+01 1.612339e+01 1.722738e+01 1.545207e+01 6.463031e+00 1.227140e+01 1.349968e+01 9.570930e+00 7.834552e+00 4.939387e+00 7.382630e+00 5.753797e+00 2.772757e+00 1.564985e+00
<GCONST> 1.259690e+02
~s "ST_s_3_1"
<MEAN> 25
 -1.066117e+01 -9.581914e+00 1.388517e+01 -9.763084e+00 -2.489095e+00 8.002103e+00 -6.405542e-01 -6.595202e+00 8.717853e-01 5.129956e+00 6.097761e-01 -3.150633e-02 -1.091902e-01 -7.869666e-01 -4.867166e-02 -2.079485e-02 -3.481684e-02 -3.182540e-01 2.993352e-01 -2.733797e-01 -5.149257e-01 -6.805937e-02 7.394336e-02 2.329559e-01 4.271995e-01
<VARIANCE> 25
 4.977277e+01 4.373701e+01 5.419531e+01 2.733301e+01 4.539230e+01 5.863549e+01 4.114064e+01 2.661533e+01 2.213199e+01 3.266831e+01 2.125547e+01 1.240242e+01 4.022984e+00 4.903632e+00 4.076678e+00 2.755802e+00 1.923380e+00 2.913463e+00 3.378949e+00 1.666025e+00 2.544046e+00 3.898488e+00 1.826913e+00 8.860753e-01 6.025005e-01
<GCONST> 9.909814e+01
~s "ST_s_4_1"
<MEAN> 25
 2.182110e+00 -2.976407e+00 1.117774e+01 -3.879237e+00 -4.180869e+00 5.764087e+00 2.917300e-01 -7.000926e+00 -3.541156e+00 9.075914e-02 9.810263e-01 1.657906e+00 2.365509e+00 2.546691e+00 -2.438768e+00 1.606096e+00 8.128842e-01 -1.341972e+00 -1.215225e-01 1.270331e+00 -1.443032e-01 -1.584342e+00 -1.231791e+00 2.727763e-01 -4.019169e-01
<VARIANCE> 25
 1.442164e+02 1.457831e+02 8.072753e+01 3.168825e+01 7.625414e+01 6.239582e+01 3.774770e+01 5.795817e+01 3.785804e+01 5.114746e+01 2.808141e+01 1.659245e+01 5.197228e+00 1.103032e+01 8.804953e+00 2.103659e+00 9.155602e+00 5.391146e+00 4.078206e+00 3.110265e+00 4.098962e+00 7.950251e+00 2.163733e+00 2.190967e+00 2.761882e+00
<GCONST> 1.130815e+02
~s "ST_i_2_1"
<MEAN> 25
 7.013803e+00 -1.000914e+01 6.428649e+00 7.787264e+00 -2.422854e+00 -1.437311e+00 -4.321953e+00 -2.472831e+00 -1.092671e+00 -4.993966e-01 2.006891e+00 -2.699652e+00 7.041587e-01 9.449844e-01 6.360217e-01 1.983504e+00 1.291806e+00 -1.205930e+00 -1.259854e+00 -5.067018e-01 -8.574688e-01 -9.433071e-01 2.702245e-01 -8.824106e-01 2.066505e-01
<VARIANCE> 25
 1.056324e+02 1.171920e+02 5.292309e+01 9.833480e+01 7.931137e+01 7.896967e+01 4.805824e+01 4.763612e+01 2.308707e+01 4.692645e+01 2.211953e+01 2.562576e+01 2.075262e+00 4.963713e+00 4.350666e+00 2.619364e+00 5.856125e+00 6.099775e+00 3.353183e+00 2.415893e+00 3.135444e+00 6.281804e+00 2.412146e+00 1.940110e+00 1.622012e+00
<GCONST> 1.091749e+02
~s "ST_i_3_1"
<MEAN> 25
 1.867948e+00 -1.916538e+00 1.019737e+01 7.464362e+00 2.725305e+00 -5.472063e+00 -8.213972e+00 -4.914096e+00 -4.634601e+00 -1.595999e+00 -3.650313e-01 -3.010910e+00 3.212941e-01 6.542797e-03 -8.988225e-01 -2.953959e-01 -1.299414e-01 1.224208e-01 -1.723386e-01 -9.073907e-01 1.838030e-02 2.429399e-01 4.699483e-01 7.592807e-01 6.904990e-02
<VARIANCE> 25
 2.124840e+01 1.393395e+01 3.435267e+01 1.081680e+02 1.172032e+02 1.846723e+01 8.616703e+01 3.184706e+01 1.459384e+01 7.382209e+01 2.765115e+01 4.598368e+01 2.002280e-01 4.197324e-01 1.091055e+00 1.243518e+00 1.094398e+00 1.738725e+00 1.739568e+00 2.249405e+00 1.724143e+00 1.281489e+00 1.368119e+00 1.334272e+00 3.840279e-01
<GCONST> 8.985910e+01
~s "ST_i_4_1"
<MEAN> 25
 1.903564e+01 7.461838e-01 -5.382412e-01 1.214847e+01 8.580991e+00 -7.557826e+00 -1.256883e+01 -9.831850e+00 -6.296871e+00 -4.719379e+00 4.389230e+00 1.103240e+00 -1.697467e-01 6.947307e-01 -4.687222e-01 -1.049985e+00 -7.786849e-02 1.021933e+00 5.078197e-01 8.540663e-03 2.906152e-01 2.347315e-01 -3.548101e-01 3.118768e-01 -4.820423e-01
<VARIANCE> 25
 7.014764e+01 2.874895e+01 2.993775e+01 1.711921e+02 5.240735e+01 1.407355e+02 5.926024e+01 3.821700e+01 2.005869e+01 3.716872e+01 3.543283e+01 2.186692e+01 8.509273e-01 6.768576e-01 3.278172e+00 4.089859e+00 1.295099e+00 4.174133e+00 3.666794e+00 2.737335e+00 9.435995e-01 2.703214e+00 1.777875e+00 2.767679e+00 8.918622e-01
<GCONST> 1.004492e+02
~s "ST_l_2_1"
<MEAN> 25
 4.390179e+00 -1.603661e+00 -2.425107e+00 -3.315750e+00 -3.669204e+00 -5.803610e+00 4.016274e+00 2.721239e+00 -3.797122e-02 -1.039686e+00 -1.443467e+00 3.256022e+00 1.450248e-01 3.910105e-01 -6.269520e-02 4.085673e-01 -1.136057e-01 4.379892e-01 -3.980915e-01 -8.658271e-02 1.772050e-01 -1.003032e-01 4.286795e-02 -1.894097e-01 -4.448201e-01
<VARIANCE> 25
 2.045078e+01 1.622861e+01 1.840889e+01 2.375427e+01 3.961992e+01 4.128490e+01 3.363097e+01 2.972097e+01 2.252263e+01 1.922436e+01 2.319094e+01 2.187233e+01 3.747052e-01 1.472295e+00 9.678460e-01 1.870200e+00 3.177885e+00 1.849867e+00 2.355575e+00 1.978992e+00 1.897176e+00 1.643360e+00 2.294858e+00 1.669895e+00 5.183761e-01
<GCONST> 8.957189e+01
~s "ST_l_3_1"
<MEAN> 25
 4.762606e+00 5.970189e-01 -1.027433e+00 -8.140813e-01 -1.070865e+00 -9.222322e-01 -1.822718e+00 -3.271586e-01 1.092138e+00 -9.746381e-01 -1.477696e+00 -5.661477e-01 -6.225688e-02 8.287608e-01 8.412844e-01 1.930152e+00 3.287318e-01 1.614707e+00 -8.904335e-01 -8.337861e-01 2.791891e-01 -5.720349e-02 -4.501864e-01 -1.279292e+00 -1.090552e+00
<VARIANCE> 25
 2.488508e+01 2.102467e+01 2.129586e+01 3.178541e+01 5.087423e+01 5.368609e+01 3.252232e+01 5.018407e+01 3.444959e+01 2.671786e+01 4.431889e+01 3.112450e+01 6.153156e-01 1.461740e+00 1.652968e+00 2.833153e+00 6.685934e+00 2.676090e+00 1.878328e+00 2.750654e+00 2.677588e+00 2.383619e+00 3.812840e+00 4.248228e+00 5.737020e-01
<GCONST> 9.813610e+01
~s "ST_l_4_1"
<MEAN> 25
 3.821568e+00 1.999664e+00 3.219148e-01 2.994431e+00 3.216304e-02 1.887542e+00 -1.279031e+00 -1.383629e-01 2.337479e+00 -1.946032e+00 -4.613953e+00 -4.998973e+00 -8.511912e-02 1.767697e-01 3.259428e-02 -7.122984e-02 -6.854863e-02 -6.787903e-02 1.116160e-01 5.338842e-02 2.126837e-02 5.702433e-02 2.194091e-02 -2.681031e-02 -1.149954e-01
<VARIANCE> 25
 1.500344e+01 1.856092e+01 1.968992e+01 1.928151e+01 5.884046e+01 3.296837e+01 3.155590e+01 4.115818e+01 3.068079e+01 2.082515e+01 3.995470e+01 3.384526e+01 3.726312e-01 6.675481e-01 4.908426e-01 1.667846e+00 1.927416e+00 2.714540e+00 1.318204e+00 1.245987e+00 1.141828e+00 1.321902e+00 1.445825e+00 1.836201e+00 5.697383e-01
<GCONST> 8.730951e+01
~s "ST_b_2_1"
<MEAN> 25
 6.855647e-01 9.429864e+00 1.384956e+00 4.004015e+00 6.508386e-01 -5.719966e-01 4.661500e+00 6.672525e+00 -1.735761e+00 -2.901076e+00 -4.753222e+00 -3.428944e+00 -2.797255e-01 7.851468e-02 3.378385e-01 -2.345374e-01 -4.887826e-01 7.098166e-01 -1.011991e-01 -4.134833e-01 7.199593e-01 5.200567e-01 -6.609565e-03 -2.028583e-01 -2.592243e-01
<VARIANCE> 25
 4.222817e+01 9.305918e+01 1.319323e+01 2.557502e+01 4.584624e+01 3.844611e+01 5.049871e+01 1.423830e+02 1.507687e+01 2.970386e+01 1.685371e+01 2.740426e+01 1.462546e+00 1.404606e+01 1.196568e+00 3.145236e+00 4.313642e+00 2.688235e+00 6.542953e+00 1.915112e+01 3.190289e+00 4.434670e+00 1.628408e+00 9.733355e-01 1.260305e+01
<GCONST> 1.059127e+02
~s "ST_b_3_1"
<MEAN> 25
 3.914100e+00 -1.412397e+00 3.309446e+00 2.223166e+00 -6.381514e+00 -1.233813e+00 -2.724696e+00 -3.962270e+00 -7.756740e+00 6.145395e-01 6.056722e+00 -6.834458e+00 -3.815218e-01 2.157106e-01 7.379711e-01 -9.330352e-01 2.911467e-02 5.063602e-01 -1.656848e-01 5.705986e-01 -9.941380e-02 -2.543432e-01 2.156176e-01 7.404825e-01 -1.244594e-02
<VARIANCE> 25
 3.505233e+01 1.760975e+01 2.677095e+01 8.156198e+01 6.835204e+01 4.127113e+01 7.677873e+01 6.372300e+01 8.100689e+01 5.280310e+01 5.392025e+01 2.742795e+01 8.096321e-01 2.076393e+00 5.078028e+00 1.365089e+01 8.699002e+00 3.980728e+00 9.311379e+00 9.901862e+00 9.470848e+00 3.943153e+00 3.668943e+00 1.396852e+00 1.757952e+00
<GCONST> 1.108067e+02
~s "ST_b_4_1"
<MEAN> 25
 2.043460e+01 3.262021e+00 1.436003e+00 7.909925e+00 3.546541e+00 -9.214048e+00 -1.006104e+01 6.400765e-02 5.372473e+00 -8.084957e+00 -3.850752e+00 -2.803457e+00 1.290766e-02 1.472091e-01 8.937486e-02 2.504503e-01 -1.063987e-01 -2.901787e-01 -2.442653e-01 -1.954581e-01 1.792247e-01 7.046508e-01 2.857323e-01 -2.288357e-01 -9.880094e-02
<VARIANCE> 25
 9.069595e+01 3.195542e+01 4.611101e+01 4.909566e+01 6.926023e+01 9.701136e+01 5.157143e+01 5.551611e+01 3.575517e+01 1.191809e+02 3.035560e+01 2.966745e+01 3.798670e-01 2.756203e+00 3.644158e+00 1.941978e+00 5.160043e+00 4.810020e+00 3.258142e+00 4.438516e+00 2.934851e+00 6.434689e+00 3.232261e+00 3.337778e+00 1.005009e+00
<GCONST> 1.067840e+02
~s "ST_e_2_1"
<MEAN> 25
 3.797324e+00 6.505622e-01 3.152380e+00 -1.225730e+00 -3.799494e+00 2.335798e+00 -3.147028e+00 -3.259815e+00 -3.267532e-01 -1.564517e+00 -1.468000e+00 -4.626352e-02 1.715232e+00 -7.651080e-01 -1.334160e+00 1.130900e+00 -9.506172e-02 -2.024677e+00 -1.343501e+00 9.299178e-01 5.782252e-01 -1.540123e+00 -1.058520e+00 -2.162186e-01 1.144119e+00
<VARIANCE> 25
 7.632534e+01 2.372195e+01 2.825137e+01 3.637255e+01 2.230724e+01 4.885072e+01 2.936786e+01 3.668411e+01 4.281650e+01 6.584740e+01 2.580408e+01 2.533014e+01 2.482447e+00 6.339319e+00 6.931959e+00 4.195113e+00 5.762935e+00 9.022155e+00 2.867304e+00 3.081583e+00 2.817708e+00 8.224253e+00 3.713146e+00 2.502813e+00 2.318271e+00
<GCONST> 1.072552e+02
~s "ST_e_3_1"
<MEAN> 25
 5.405427e+00 -2.220833e+00 2.260386e+00 1.325519e+00 -3.161012e+00 -3.664518e+00 -4.553779e+00 -2.339128e+00 -3.702456e-01 -3.705876e+00 -3.340287e+00 -6.191262e-02 4.487461e-01 2.508240e-03 -1.367849e+00 7.157773e-01 8.934731e-01 -2.338539e+00 1.572578e-01 1.177999e+00 1.410952e-02 -5.866143e-01 -4.585875e-01 -2.130942e-01 2.943867e-01
<VARIANCE> 25
 6.918319e+01 1.845184e+01 2.656054e+01 6.815041e+01 3.793701e+01 9.196848e+01 4.500282e+01 4.088669e+01 3.836015e+01 6.035498e+01 2.524194e+01 2.847346e+01 7.825661e-01 4.733025e+00 2.476248e+00 3.074893e+00 4.757593e+00 8.339516e+00 3.356298e+00 2.771984e+00 2.290007e+00 3.668302e+00 2.813519e+00 3.033612e+00 1.665177e+00
<GCONST> 1.046326e+02
~s "ST_e_4_1"
<MEAN> 25
 1.822689e+01 -4.257010e+00 -6.094249e+00 6.258283e+00 5.301973e+00 -1.026632e+01 -6.869278e+00 -3.225141e-01 -1.129139e+00 -9.646773e+00 8.524244e-01 4.856428e+00 1.490924e-02 3.444358e-01 -5.499133e-01 -5.202526e-01 3.918050e-01 8.281724e-01 9.833623e-01 3.222415e-01 -3.726901e-01 -8.827011e-02 1.304926e-01 3.147483e-01 -2.460782e-01
<VARIANCE> 25
 1.179471e+02 2.658066e+01 4.612849e+01 7.615246e+01 6.592709e+01 8.505999e+01 6.773231e+01 3.086596e+01 2.103857e+01 6.128066e+01 4.827105e+01 5.212115e+01 5.415780e-01 2.144248e+00 2.712659e+00 2.274832e+00 2.462313e+00 3.210687e+00 2.290756e+00 3.164487e+00 2.009537e+00 2.500879e+00 2.256850e+00 1.374227e+00 9.481577e-01
<GCONST> 1.021419e+02
~s "ST_r_2_1"
<MEAN> 25
 3.737800e+00 3.238532e+00 1.825106e+00 1.207251e+00 -2.862752e+00 -4.577353e+00 -3.667414e+00 -2.008977e-01 -2.171110e+00 -4.474907e+00 1.694530e+00 3.806235e+00 -5.292270e-01 3.977548e-01 -3.998595e-01 2.512966e-01 7.286959e-01 7.425460e-02 -1.154485e-01 -7.839043e-02 3.569967e-01 -2.060288e-01 7.080292e-02 7.895761e-01 -8.885884e-01
<VARIANCE> 25
 2.064191e+01 2.036412e+01 2.182451e+01 2.195702e+01 6.531760e+01 3.313060e+01 5.831005e+01 7.133983e+01 1.978370e+01 1.554117e+01 1.061780e+01 1.497961e+01 9.757543e-01 2.247006e+00 3.497666e+00 3.684663e+00 1.480196e+00 3.214775e+00 4.930507e+00 2.889128e+00 3.314795e+00 3.322183e+00 1.671686e+00 2.999821e+00 1.002304e+00
<GCONST> 9.654202e+01
~s "ST_r_3_1"
<MEAN> 25
 4.429386e-01 4.455269e-01 -1.252513e+00 2.160032e+00 3.432956e+00 1.650839e+00 -3.947861e+00 -6.102408e+00 -1.451336e+00 2.708950e+00 1.026588e+00 1.100398e+00 -4.239247e-01 4.520983e-01 -5.042900e-01 -7.237915e-03 -4.061296e-01 1.146085e+00 1.115676e+00 8.992843e-01 2.617304e-01 4.492062e-01 -7.913126e-03 -4.393648e-02 -1.128029e+00
<VARIANCE> 25
 2.359894e+01 5.763596e+01 2.343133e+01 1.449103e+01 4.979443e+01 6.087907e+01 4.382983e+01 2.423895e+01 4.840214e+01 3.167126e+01 1.913960e+01 1.573041e+01 1.720574e+00 5.084098e+00 2.290812e+00 2.017933e+00 4.031569e+00 7.868003e+00 3.413862e+00 1.385958e+00 7.962905e+00 2.094081e+00 2.121602e+00 2.227298e+00 2.078964e+00
<GCONST> 1.008269e+02
~s "ST_r_4_1"
<MEAN> 25
 5.598659e-01 4.765092e+00 -9.531069e-01 3.424123e+00 3.122892e+00 4.996057e+00 -9.240522e-01 -4.279352e+00 -2.924160e+00 2.260900e+00 1.197335e+00 1.439285e+00 -6.883609e-01 5.217711e-01 -2.937655e-03 -1.297093e-02 -1.750235e-01 1.509536e-01 6.022102e-01 4.118391e-01 1.839016e-01 2.849299e-01 -1.591730e-01 -4.145341e-01 -8.144589e-01
<VARIANCE> 25
 4.277066e+01 2.603072e+01 3.074948e+01 1.527302e+01 2.695999e+01 4.155182e+01 3.352053e+01 1.586185e+01 3.984865e+01 2.293341e+01 1.315080e+01 1.446602e+01 7.214808e-01 1.025328e+00 9.610876e-01 1.675597e+00 1.241329e+00 1.336181e+00 1.826787e+00 7.908045e-01 1.186994e+00 1.683083e+00 1.292326e+00 1.075414e+00 2.369019e-01
<GCONST> 8.510735e+01
~s "ST_ny_2_1"
<MEAN> 25
 6.226439e-01 2.698382e+00 3.527429e+00 3.313648e+00 3.600251e+00 -5.593439e-01 -5.853328e+00 8.496742e-01 3.337346e-01 -2.049364e-01 9.015136e-01 -4.325428e+00 8.844555e-02 -5.500675e-01 1.214202e-01 2.744692e-01 -3.248537e-03 -9.353385e-01 -2.014618e-01 -1.152668e-01 -3.154543e-01 1.567975e-01 7.170419e-01 1.176645e-01 5.707150e-01
<VARIANCE> 25
 7.285408e+00 3.114419e+01 1.973562e+01 3.162419e+01 5.585383e+01 5.195224e+01 5.452924e+01 1.868705e+01 2.130298e+01 1.444888e+01 2.159334e+01 4.211482e+01 7.808523e-01 1.725835e+00 1.716220e+00 1.990098e+00 2.669084e+00 5.115765e+00 3.394427e+00 1.818816e+00 1.223767e+00 1.382495e+00 1.363228e+00 2.541433e+00 6.970658e-01
<GCONST> 9.261822e+01
~s "ST_ny_3_1"
<MEAN> 25
 2.393777e+00 -3.447007e+00 3.867471e-01 5.240749e+00 4.362416e+00 -7.322814e+00 -5.420959e+00 -2.582726e+00 -2.488239e+00 1.098489e+00 6.452488e+00 1.638518e+00 3.207933e-01 6.269592e-02 -9.687555e-01 -6.722673e-01 -4.973155e-01 3.612577e-01 4.593559e-01 7.037088e-02 -2.353495e-01 -1.681285e-01 4.295696e-01 7.812722e-01 -7.381573e-02
<VARIANCE> 25
 7.319842e+00 1.824915e+01 2.725936e+01 3.450808e+01 3.118488e+01 3.996508e+01 3.066287e+01 2.329499e+01 1.624623e+01 2.173475e+01 2.553908e+01 2.830107e+01 5.686492e-01 5.709575e-01 1.029955e+00 1.411557e+00 2.176234e+00 2.891168e+00 1.199667e+00 1.255147e+00 9.789152e-01 9.621959e-01 9.143069e-01 8.289863e-01 3.421862e-01
<GCONST> 8.392578e+01
~s "ST_ny_4_1"
<MEAN> 25
 3.975227e+00 -3.900348e+00 -2.678717e+00 1.306494e+00 1.076149e+00 -3.010394e+00 -2.141135e+00 6.130539e-01 -3.048814e+00 -2.017810e+00 5.835454e+00 3.276998e+00 -2.107998e-01 3.651855e-01 -2.786175e-01 1.487897e-01 1.722099e-01 5.226261e-01 7.484455e-01 6.588575e-01 -1.928947e-01 -5.760776e-02 -1.685874e-01 -1.418265e-01 -5.452237e-01
<VARIANCE> 25
 1.063197e+01 2.288906e+01 1.506388e+01 2.578275e+01 1.711707e+01 2.219986e+01 2.332444e+01 1.392247e+01 2.826028e+01 1.207077e+01 3.013917e+01 1.371684e+01 4.396046e-01 5.939759e-01 9.627860e-01 8.720127e-01 1.237794e+00 1.226417e+00 9.347559e-01 8.926392e-01 8.195918e-01 1.117488e+00 1.008498e+00 6.746184e-01 2.791769e-01
<GCONST> 7.795310e+01
~s "ST_h_2_1"
<MEAN> 25
 -2.566274e+00 -1.552155e+00 -3.676055e+00 -2.676924e+00 -3.034835e+00 3.423505e+00 7.819349e+00 1.762453e+00 -7.493494e-01 4.221171e+00 1.726067e+00 7.319358e-01 4.508182e-01 1.682595e-01 4.675946e-01 1.817347e-03 6.429825e-01 -1.380329e+00 4.324116e-01 4.232312e-01 5.629389e-02 1.199130e-01 -2.205681e-01 2.831078e-01 1.377227e+00
<VARIANCE> 25
 3.434568e+01 5.335594e+01 3.603701e+01 4.766200e+01 3.991324e+01 6.581525e+01 4.891682e+01 2.456089e+01 2.610554e+01 2.503513e+01 1.522424e+01 1.896176e+01 2.813980e+00 7.175708e+00 2.753531e+00 2.759058e+00 3.618044e+00 4.408451e+00 4.155954e+00 2.836283e+00 1.968535e+00 2.528858e+00 1.353942e+00 1.307507e+00 3.376244e+00
<GCONST> 1.016842e+02
~s "ST_h_3_1"
<MEAN> 25
 -1.460764e+00 -2.509006e+00 3.728768e-01 -1.308291e+00 2.137342e+00 -8.974029e-01 4.055468e+00 6.112412e-01 1.336665e+00 1.973700e+00 2.222334e-01 9.109772e-01 1.103411e+00 -9.960306e-01 1.002389e-01 6.531276e-02 -5.115909e-01 3.425611e-02 -1.606224e+00 -2.670089e-01 2.140257e-01 -8.734588e-01 -5.951278e-01 -1.862653e-01 4.651227e-01
<VARIANCE> 25
 4.225884e+01 3.748349e+01 2.494988e+01 4.670315e+01 5.433662e+01 7.074224e+01 4.048373e+01 3.716286e+01 4.917251e+01 2.689887e+01 2.954931e+01 1.927060e+01 2.607039e+00 2.794515e+00 3.872234e+00 1.614947e+00 3.735417e+00 3.423568e+00 3.686862e+00 2.960705e+00 5.974354e+00 1.832468e+00 2.950371e+00 1.449034e+00 1.235669e+00
<GCONST> 1.022932e+02
~s "ST_h_4_1"
<MEAN> 25
 3.098782e+00 -2.735525e+00 -9.945289e-01 -1.069926e+00 -1.692775e+00 -1.882008e+00 2.433943e-01 -6.750910e-02 -1.673188e-01 -1.297393e+00 -1.428108e+00 4.504006e-01 8.876385e-02 1.357803e-01 -1.997893e-01 1.746974e-01 5.488656e-02 -6.885697e-01 -2.618777e-01 -2.046226e-01 -1.330710e-02 -3.694817e-01 -5.312247e-01 2.577059e-02 -1.560537e-02
<VARIANCE> 25
 1.276543e+01 2.767919e+01 2.211436e+01 2.007426e+01 4.025081e+01 5.144933e+01 2.828154e+01 2.480492e+01 4.367152e+01 2.780479e+01 1.870271e+01 1.498363e+01 4.096674e-01 9.373399e-01 1.220896e+00 1.641089e+00 1.630617e+00 2.401309e+00 1.953976e+00 1.377215e+00 1.244958e+00 1.523402e+00 1.735753e+00 1.120960e+00 3.421918e-01
<GCONST> 8.716254e+01
~s "ST_u_2_1"
<MEAN> 25
 1.211550e+00 3.247346e+00 -1.283849e+00 2.447665e+00 7.627894e-01 1.735044e+00 -2.663652e-02 -1.161444e+00 -2.012058e+00 -1.757002e+00 -5.942845e-01 9.386986e-01 -5.701060e-01 -3.799382e-01 5.472473e-02 -3.297783e-01 -2.543913e-01 -1.079476e-01 1.292859e+00 -3.461259e-01 -4.332875e-01 4.630785e-01 -3.227690e-01 4.169542e-01 -1.608902e-01
<VARIANCE> 25
 5.744532e+01 3.427298e+01 2.716304e+01 3.672195e+01 4.492778e+01 2.833903e+01 5.493093e+01 3.645985e+01 4.861594e+01 5.378665e+01 4.036998e+01 2.935247e+01 1.800411e+00 9.776310e+00 3.760086e+00 5.311454e+00 7.685173e+00 4.799068e+00 5.161073e+00 4.199645e+00 4.369233e+00 5.566941e+00 5.051713e+00 3.647089e+00 9.110631e+00
<GCONST> 1.109960e+02
~s "ST_u_3_1"
<MEAN> 25
 3.904884e+00 -2.361785e+00 1.843132e+00 -3.375909e-01 -1.158009e+00 -7.004955e-01 1.603683e+00 -3.974301e+00 -3.740476e+00 -1.105959e+00 -2.369372e+00 4.293641e-01 1.326390e+00 -6.212990e-01 1.507717e+00 -7.926056e-01 -5.178382e-01 -6.551595e-01 -8.716010e-01 6.296509e-01 1.284274e-01 -1.263916e+00 -6.083966e-01 -5.366921e-02 2.406331e+00
<VARIANCE> 25
 1.223046e+02 8.785506e+01 4.258025e+01 4.087345e+01 5.133690e+01 5.819930e+01 5.531242e+01 6.521242e+01 5.374173e+01 8.663342e+01 4.064600e+01 3.466485e+01 6.947379e+00 8.548142e+00 4.636369e+00 7.764445e+00 5.743819e+00 8.667654e+00 1.225731e+01 8.473354e+00 8.600130e+00 1.648095e+01 4.943926e+00 3.024158e+00 1.191917e+01
<GCONST> 1.209357e+02
~s "ST_u_4_1"
<MEAN> 25
 1.442901e+01 4.304815e+00 5.400803e+00 2.071661e+00 -4.069839e+00 -6.473419e+00 -2.731039e+00 2.327125e+00 -2.518001e-01 -1.067810e+01 -3.910304e+00 1.942810e+00 -5.625082e-01 5.132704e-01 -8.567299e-02 -2.137977e-01 -2.529251e-01 2.812439e-01 2.059622e-01 2.314058e-01 -3.390072e-02 6.216272e-01 1.516445e-01 -2.415370e-01 -9.150765e-01
<VARIANCE> 25
 1.707483e+02 6.058371e+01 4.966896e+01 4.142016e+01 3.885912e+01 1.166407e+02 8.904390e+01 3.848854e+01 6.803809e+01 1.434249e+02 2.562292e+01 3.231078e+01 1.530669e+00 2.979510e+00 2.028795e+00 3.365626e+00 2.429754e+00 5.382163e+00 4.712632e+00 4.136191e+00 3.720456e+00 3.969141e+00 1.572732e+00 2.198495e+00 2.009900e+00
<GCONST> 1.088941e+02
~s "ST_k_2_1"
<MEAN> 25
 -1.513887e-08 8.685321e-09 6.289883e-08 7.186313e-08 3.131923e-08 4.571417e-08 5.014053e-08 1.333485e-08 -7.134007e-08 8.713219e-09 1.011273e-09 4.209684e-08 -6.534437e-03 7.731597e-03 -5.306157e-03 4.609803e-03 -4.191151e-03 8.242088e-03 -6.219152e-03 5.951754e-03 -5.249157e-03 1.868283e-03 2.200403e-03 -1.269434e-03 2.744509e-03
<VARIANCE> 25
 6.716856e+01 2.941401e+01 5.663681e+01 4.741492e+01 4.696264e+01 4.914315e+01 4.999928e+01 4.303569e+01 5.672998e+01 3.222253e+01 2.850756e+01 4.103967e+01 2.100924e+00 1.434693e+00 1.891293e+00 2.194988e+00 2.363979e+00 2.636887e+00 2.464799e+00 2.732278e+00 2.851009e+00 2.222413e+00 2.036798e+00 2.011688e+00 1.909456e+00
<GCONST> 1.015924e+02
~s "ST_k_3_1"
<MEAN> 25
 -1.513887e-08 8.685321e-09 6.289883e-08 7.186313e-08 3.131923e-08 4.571417e-08 5.014053e-08 1.333485e-08 -7.134006e-08 8.713219e-09 1.011273e-09 4.209684e-08 -6.534438e-03 7.731596e-03 -5.306157e-03 4.609803e-03 -4.191151e-03 8.242088e-03 -6.219152e-03 5.951754e-03 -5.249158e-03 1.868283e-03 2.200403e-03 -1.269434e-03 2.744509e-03
<VARIANCE> 25
 6.716856e+01 2.941401e+01 5.663681e+01 4.741492e+01 4.696264e+01 4.914315e+01 4.999928e+01 4.303569e+01 5.672998e+01 3.222253e+01 2.850756e+01 4.103967e+01 2.100924e+00 1.434693e+00 1.891293e+00 2.194988e+00 2.363979e+00 2.636887e+00 2.464799e+00 2.732278e+00 2.851009e+00 2.222413e+00 2.036798e+00 2.011688e+00 1.909456e+00
<GCONST> 1.015924e+02
~s "ST_k_4_1"
<MEAN> 25
 -1.513887e-08 8.685321e-09 6.289883e-08 7.186313e-08 3.131923e-08 4.571417e-08 5.014053e-08 1.333485e-08 -7.134006e-08 8.713219e-09 1.011273e-09 4.209684e-08 -6.534437e-03 7.731597e-03 -5.306157e-03 4.609803e-03 -4.191151e-03 8.242088e-03 -6.219152e-03 5.951754e-03 -5.249157e-03 1.868283e-03 2.200403e-03 -1.269434e-03 2.744509e-03
<VARIANCE> 25
 6.716856e+01 2.941401e+01 5.663681e+01 4.741492e+01 4.696264e+01 4.914315e+01 4.999928e+01 4.303569e+01 5.672998e+01 3.222253e+01 2.850756e+01 4.103967e+01 2.100924e+00 1.434693e+00 1.891293e+00 2.194988e+00 2.363979e+00 2.636887e+00 2.464799e+00 2.732278e+00 2.851009e+00 2.222413e+00 2.036798e+00 2.011688e+00 1.909456e+00
<GCONST> 1.015924e+02
~s "ST_a_2_1"
<MEAN> 25
 3.369507e+00 -1.922704e+00 -1.531225e+00 -2.014753e+00 -1.418656e+00 -1.899803e+00 4.040845e-01 1.202880e+00 7.405582e-01 -9.870759e-01 -1.859704e+00 6.990995e-01 1.207539e-01 -1.174762e-01 -4.274427e-02 -8.840335e-01 -6.033981e-01 -1.301934e-01 3.754220e-01 3.634962e-01 6.502625e-01 -2.998690e-01 2.708575e-01 8.200150e-01 2.712411e-01
<VARIANCE> 25
 2.416044e+01 3.179908e+01 2.717767e+01 3.377906e+01 5.891751e+01 5.343297e+01 3.442173e+01 3.341912e+01 4.334628e+01 2.631137e+01 3.364163e+01 2.380124e+01 1.141968e+00 1.994868e+00 1.748281e+00 2.779603e+00 2.559147e+00 3.298514e+00 2.090179e+00 2.220890e+00 3.622098e+00 2.545937e+00 2.453765e+00 2.726912e+00 1.566865e+00
<GCONST> 9.888441e+01
~s "ST_a_3_1"
<MEAN> 25
 4.009730e+00 -1.287253e+00 -6.478817e-01 -3.171639e+00 -2.141492e+00 -8.156402e-01 1.009427e+00 1.587198e+00 1.170547e+00 -1.229159e+00 -9.267216e-01 1.563103e+00 -1.935484e-01 -1.180278e-01 3.396444e-02 -4.535653e-01 5.090017e-02 6.038712e-01 4.448649e-01 2.779171e-02 1.129132e-01 2.029989e-01 4.816085e-01 3.636944e-01 -1.018376e-01
<VARIANCE> 25
 3.821191e+01 4.243489e+01 3.421811e+01 3.694416e+01 4.656271e+01 5.372997e+01 3.967445e+01 3.823318e+01 4.341080e+01 3.197840e+01 2.937529e+01 1.784112e+01 1.262271e+00 2.487830e+00 1.668085e+00 2.361726e+00 2.880025e+00 3.812672e+00 2.241422e+00 2.673202e+00 2.906336e+00 2.011297e+00 2.615695e+00 1.946928e+00 1.648944e+00
<GCONST> 9.972232e+01
~s "ST_a_4_1"
<MEAN> 25
 1.538847e+00 -3.159900e+00 -3.796428e-01 -3.858584e+00 -6.973532e-01 6.471645e-01 -9.216894e-02 1.208883e+00 2.306834e+00 -6.095230e-01 4.131344e-01 1.677774e+00 -1.863069e-01 1.293153e-01 -1.960797e-01 1.831765e-01 4.788392e-01 2.069013e-01 5.721277e-02 -3.012288e-01 -4.105397e-01 2.294115e-01 2.851186e-01 -4.836293e-02 -2.845821e-01
<VARIANCE> 25
 2.472010e+01 3.416958e+01 2.760685e+01 3.110495e+01 4.579447e+01 4.011279e+01 3.483638e+01 2.569152e+01 4.818180e+01 3.102919e+01 2.524033e+01 2.155514e+01 9.003218e-01 1.752271e+00 1.256831e+00 1.869665e+00 2.923491e+00 2.314615e+00 2.175560e+00 2.105859e+00 2.399079e+00 1.838347e+00 2.028632e+00 1.582698e+00 1.100366e+00
<GCONST> 9.485332e+01
~s "ST_n_2_1"
<MEAN> 25
 -1.194484e+00 7.917495e+00 -2.267370e+00 2.214074e+00 7.067040e+00 5.262421e+00 2.102648e+00 -2.287887e+00 -7.377826e+00 -2.892162e-01 6.200089e-01 8.640685e-01 -6.585632e-01 9.990132e-01 -3.924214e-01 3.857926e-01 1.521178e-01 3.804061e-02 4.951269e-01 2.685032e-01 -2.173448e-01 4.935157e-01 -1.067547e-01 1.501200e-02 -1.108783e+00
<VARIANCE> 25
 5.683327e+01 7.819872e+01 2.965392e+01 2.656525e+01 4.287764e+01 3.757239e+01 5.705407e+01 2.595514e+01 7.661507e+01 2.913395e+01 2.810988e+01 1.763696e+01 2.304498e+00 6.959066e+00 2.885343e+00 3.101407e+00 5.666475e+00 3.648719e+00 4.980090e+00 3.270956e+00 4.986586e+00 2.934969e+00 3.146812e+00 1.951804e+00 3.542113e+00
<GCONST> 1.061665e+02
~s "ST_n_3_1"
<MEAN> 25
 -1.248565e-01 1.418468e+00 -1.851097e+00 4.916328e-01 -9.494299e-01 1.198834e+00 3.997288e+00 -8.321245e-01 -2.070678e+00 8.108765e-01 2.038968e+00 1.344696e+00 1.102533e+00 -1.707392e+00 6.931009e-01 -8.127259e-02 -1.498580e+00 -1.016626e+00 -3.991358e-01 4.177448e-01 1.010460e+00 -5.568365e-01 4.590559e-01 -6.711320e-04 2.006073e+00
<VARIANCE> 25
 1.503867e+02 5.376281e+01 4.395650e+01 4.533047e+01 4.871643e+01 2.742237e+01 6.311671e+01 3.970786e+01 6.611597e+01 2.976422e+01 2.922172e+01 2.300109e+01 5.820160e+00 8.793440e+00 5.864363e+00 4.681260e+00 5.957697e+00 5.718110e+00 6.833241e+00 7.651181e+00 7.306307e+00 4.323036e+00 3.235809e+00 2.288983e+00 6.025676e+00
<GCONST> 1.136449e+02
~s "ST_n_4_1"
<MEAN> 25
 2.222307e+01 -2.294862e+00 -6.415612e+00 2.207798e+00 3.536716e+00 -9.624384e+00 -4.332821e+00 3.961194e+00 4.088063e+00 -1.072499e+01 -2.246085e+00 2.419295e+00 -8.311573e-02 -4.617322e-02 2.562327e-01 1.110392e-01 7.539819e-03 -5.334553e-02 -2.111568e-01 -1.436430e-01 1.087438e-01 -1.578044e-01 -1.222410e-01 2.917771e-02 7.101227e-02
<VARIANCE> 25
 9.501348e+01 3.620611e+01 5.301792e+01 5.606998e+01 3.112087e+01 4.500067e+01 3.758651e+01 2.314305e+01 2.404463e+01 4.546395e+01 2.786381e+01 2.932580e+01 1.523641e+00 3.345316e+00 3.970276e+00 5.565598e+00 2.672596e+00 3.293226e+00 3.264061e+00 2.295602e+00 2.150068e+00 3.189931e+00 2.904114e+00 3.078849e+00 2.044912e+00
<GCONST> 1.035475e+02
~s "ST_t_2_1"
<MEAN> 25
 -7.320952e-01 2.773609e+00 1.361035e+00 1.640486e+00 1.022158e+00 2.662784e+00 5.424781e-01 -2.032856e+00 -3.542410e+00 1.147463e+00 2.985757e-01 -2.933455e-01 7.730055e-01 -6.935385e-01 1.696357e-01 2.113875e-01 -2.410946e-02 -1.091005e+00 -5.732185e-01 4.209217e-01 2.647769e-01 -6.721957e-01 -1.894818e-01 1.774685e-01 1.056933e+00
<VARIANCE> 25
 6.669047e+01 4.875866e+01 3.819860e+01 3.414164e+01 1.880857e+01 4.035661e+01 4.288841e+01 2.907342e+01 3.795572e+01 5.133065e+01 2.672612e+01 2.419456e+01 5.690188e+00 4.785375e+00 3.608108e+00 3.674837e+00 1.413642e+00 4.315781e+00 3.773177e+00 4.955515e+00 3.566495e+00 5.917993e+00 4.158129e+00 2.241764e+00 8.968590e+00
<GCONST> 1.071157e+02
~s "ST_t_3_1"
<MEAN> 25
 2.292986e+00 4.567796e+00 -2.458084e-01 -5.861216e-01 -3.666293e-01 -1.473182e-01 -1.941296e-01 -1.897043e+00 -5.328925e+00 -1.665020e+00 -2.738009e+00 1.172610e+00 -5.419130e-01 -4.165545e-01 -3.345665e-01 8.442846e-02 7.969524e-02 -1.915630e-01 -1.780890e-02 -1.183762e-02 5.666045e-01 -4.817203e-03 7.307383e-02 2.236379e-01 -2.787953e-01
<VARIANCE> 25
 5.940229e+01 5.657946e+01 6.968332e+01 3.392969e+01 1.386285e+01 3.346265e+01 3.872405e+01 2.340499e+01 4.075590e+01 3.727788e+01 2.534269e+01 2.619643e+01 1.167450e+00 1.940289e+00 1.665794e+00 1.033776e+00 1.867244e+00 1.373619e+00 2.536132e+00 1.650812e+00 2.350488e+00 2.203866e+00 1.131041e+00 1.476942e+00 1.197821e+00
<GCONST> 9.468179e+01
~s "ST_t_4_1"
<MEAN> 25
 -6.828099e-02 -9.811935e-01 6.460251e-01 9.538658e-01 -1.959515e-01 1.000765e+00 -8.522141e-01 -1.096081e+00 1.841234e+00 -3.304452e-01 -7.674263e-01 -8.319408e-01 -6.969904e-02 -1.008619e-01 -1.766408e-01 1.059722e-01 5.774527e-02 -5.557993e-02 2.021702e-02 -5.668044e-02 1.344589e-01 2.075212e-01 2.058094e-01 5.578541e-02 -7.807523e-02
<VARIANCE> 25
 2.922567e+01 3.668764e+01 2.900663e+01 3.156020e+01 1.807667e+01 2.363643e+01 4.880255e+01 1.491300e+01 2.639041e+01 2.835288e+01 1.787829e+01 1.345375e+01 4.965195e-01 5.655458e-01 7.871577e-01 7.745665e-01 7.735234e-01 9.257926e-01 1.535055e+00 7.664227e-01 1.448655e+00 1.292555e+00 1.083899e+00 1.008509e+00 5.797960e-01
<GCONST> 8.272682e+01
~s "ST_sil_2_1"
<MEAN> 25
 -7.520845e+00 4.372448e+00 -2.032144e+00 2.097347e+00 -1.134545e+00 4.585427e+00 1.623518e+00 -1.678563e+00 1.040039e+00 3.376648e+00 3.314503e+00 -3.834933e-01 -1.566430e-01 -1.581340e-01 -1.653497e-01 -1.409878e-01 1.021226e-01 2.139240e-01 2.731752e-01 -8.905699e-03 5.300369e-02 3.491769e-02 -3.367494e-02 2.156482e-02 -2.978680e-02
<VARIANCE> 25
 6.673730e+01 4.269585e+01 3.775390e+01 4.154448e+01 2.929286e+01 4.420630e+01 3.470392e+01 2.367679e+01 2.867087e+01 2.750485e+01 2.173748e+01 2.144398e+01 1.295067e+00 1.272644e+00 1.182508e+00 1.341660e+00 1.472994e+00 1.686398e+00 1.811561e+00 1.746196e+00 1.405950e+00 1.332406e+00 1.271631e+00 1.146498e+00 1.045809e+00
<GCONST> 9.202417e+01
~s "silst"
<MEAN> 25
 -1.610566e+00 2.085984e+00 -3.473557e+00 2.229810e+00 6.805155e-02 1.241183e+00 5.326366e+00 9.036818e-01 -1.101172e+00 6.611057e-01 1.100589e-01 1.669186e+00 1.139697e+00 4.021930e-02 3.655009e-01 -8.224348e-02 -2.009972e-01 -7.662021e-03 -1.904403e-01 1.504390e-01 -2.202063e-01 2.418430e-01 -5.405740e-02 -3.507616e-03 7.427784e-01
<VARIANCE> 25
 7.381641e+01 6.256233e+01 5.591258e+01 6.730418e+01 4.579632e+01 5.208936e+01 5.934863e+01 3.519059e+01 6.271207e+01 4.033797e+01 3.154206e+01 2.744267e+01 7.147011e+00 5.461534e+00 4.781549e+00 5.516045e+00 3.888805e+00 6.145974e+00 7.142023e+00 3.648536e+00 5.391504e+00 4.140371e+00 3.977221e+00 2.644859e+00 7.546762e+00
<GCONST> 1.134893e+02
~s "ST_sil_3_1"
<MEAN> 25
 -1.610566e+00 2.085984e+00 -3.473557e+00 2.229810e+00 6.805155e-02 1.241183e+00 5.326366e+00 9.036818e-01 -1.101172e+00 6.611057e-01 1.100589e-01 1.669186e+00 1.139697e+00 4.021930e-02 3.655009e-01 -8.224348e-02 -2.009972e-01 -7.662021e-03 -1.904403e-01 1.504390e-01 -2.202063e-01 2.418430e-01 -5.405740e-02 -3.507616e-03 7.427784e-01
<VARIANCE> 25
 7.381641e+01 6.256233e+01 5.591258e+01 6.730418e+01 4.579632e+01 5.208936e+01 5.934863e+01 3.519059e+01 6.271207e+01 4.033797e+01 3.154206e+01 2.744267e+01 7.147011e+00 5.461534e+00 4.781549e+00 5.516045e+00 3.888805e+00 6.145974e+00 7.142023e+00 3.648536e+00 5.391504e+00 4.140371e+00 3.977221e+00 2.644859e+00 7.546762e+00
<GCONST> 1.134893e+02
~s "ST_sil_4_1"
<MEAN> 25
 -1.211879e+01 5.102791e-01 9.245519e-01 -2.078490e+00 -3.710888e-01 3.427590e+00 2.196865e+00 2.074386e-02 -6.511034e-01 4.352131e+00 5.897226e-01 -1.214291e+00 -1.718589e-02 -1.369978e-02 3.909168e-04 -5.808487e-03 5.281307e-03 3.412315e-03 -2.000821e-04 -3.534301e-03 -3.495176e-03 -4.556819e-03 1.349931e-02 3.924767e-03 -6.422328e-03
<VARIANCE> 25
 1.093244e+02 4.318743e+00 5.664696e+00 1.265711e+01 7.211757e+00 1.215974e+01 1.125496e+01 1.049621e+01 8.809037e+00 8.493936e+00 6.909917e+00 6.765040e+00 9.566511e-02 1.574564e-01 2.461431e-01 4.223789e-01 4.406753e-01 5.364867e-01 8.073294e-01 7.745364e-01 6.721503e-01 6.283991e-01 6.563492e-01 5.608959e-01 4.735491e-02
<GCONST> 6.050011e+01
~s "ST_j_2_1"
<MEAN> 25
 1.087372e+01 3.418487e+00 7.137613e+00 1.213754e+01 2.418562e+00 -5.342131e+00 -6.112162e+00 -4.001154e+00 -4.093086e+00 -6.389207e+00 2.943354e+00 -2.800893e-01 1.571405e-01 2.630368e-02 -2.438049e-01 1.628087e-01 2.363085e-01 -4.644662e-01 -6.994098e-01 -4.506073e-01 1.684916e-02 8.331843e-02 1.154822e-01 -2.377632e-01 1.349419e-01
<VARIANCE> 25
 1.110248e+02 8.175050e+01 4.513148e+01 8.291998e+01 9.810392e+01 6.280156e+01 6.637235e+01 2.844519e+01 3.214670e+01 7.287878e+01 2.549125e+01 3.121067e+01 5.246680e+00 9.871266e+00 7.275101e+00 6.802327e+00 7.260952e+00 6.178980e+00 8.692642e+00 3.966427e+00 4.519346e+00 4.718370e+00 2.370447e+00 2.734120e+00 4.772886e+00
<GCONST> 1.156799e+02
~s "ST_j_3_1"
<MEAN> 25
 6.750263e-01 -1.025494e+00 5.806302e+00 8.725614e+00 5.463921e+00 1.936660e+00 -6.949004e+00 -7.340169e+00 -4.792559e+00 -1.647386e+00 1.943899e+00 -1.764510e+00 -5.409622e-01 1.604274e+00 -1.264893e+00 -3.841008e-01 -2.012911e-01 5.700430e-01 5.833107e-01 8.747276e-02 -3.070370e-01 3.535626e-01 3.295888e-01 6.759447e-01 -1.778306e+00
<VARIANCE> 25
 3.058884e+01 3.818495e+01 2.699472e+01 2.431615e+01 3.621765e+01 5.647027e+01 3.154690e+01 2.332248e+01 1.811517e+01 1.827348e+01 3.428990e+01 2.204235e+01 2.515992e+00 3.437109e+00 2.311709e+00 2.975970e+00 3.036235e+00 3.193793e+00 2.192713e+00 2.494979e+00 2.125186e+00 2.338384e+00 3.037061e+00 1.873536e+00 5.200039e+00
<GCONST> 9.919877e+01
~s "ST_j_4_1"
<MEAN> 25
 1.686095e+01 -1.046424e+00 -6.564009e+00 9.343306e+00 7.067976e+00 -9.657608e+00 -1.012350e+01 -3.230196e+00 -3.569816e+00 -9.037112e+00 4.666372e+00 8.225794e+00 -1.616496e-01 7.296043e-01 -7.592030e-01 -1.477992e+00 -5.960656e-01 1.118282e+00 9.485827e-01 2.271993e-01 -3.994723e-01 -3.541369e-01 -9.866577e-01 3.785276e-02 -6.695942e-01
<VARIANCE> 25
 1.754629e+02 4.897300e+01 2.716842e+01 3.090001e+01 4.883989e+01 5.508290e+01 4.086255e+01 2.271624e+01 9.561862e+00 4.342231e+01 2.135637e+01 3.219382e+01 5.073062e-01 7.598794e-01 1.480883e+00 2.048458e+00 1.591050e+00 1.958481e+00 1.699088e+00 2.008827e+00 1.225457e+00 1.969633e+00 1.163223e+00 1.084818e+00 7.151012e-01
<GCONST> 9.233012e+01
~s "ST_w_2_1"
<MEAN> 25
 3.470415e+00 -4.591728e-01 -9.642940e-01 -3.175913e+00 -4.441242e+00 -7.582708e+00 6.990565e-02 3.519901e+00 2.995732e+00 -7.509615e-01 -1.925206e+00 1.070537e+00 4.978999e-02 1.074087e+00 8.104805e-01 5.112656e-01 -5.076129e-01 -8.901599e-01 -1.163540e+00 3.657830e-01 -4.857012e-02 4.795254e-01 1.730234e-01 -7.677747e-01 -6.000382e-01
<VARIANCE> 25
 2.718382e+01 3.494935e+01 3.716105e+01 3.115273e+01 1.795128e+01 3.000015e+01 3.596270e+01 1.317514e+01 2.805289e+01 1.736320e+01 1.519213e+01 1.552703e+01 3.100509e-01 1.073910e+00 7.797346e-01 1.381881e+00 7.413335e-01 1.219293e+00 2.251218e+00 1.710879e+00 1.338520e+00 8.319373e-01 1.147185e+00 8.213040e-01 4.735368e-01
<GCONST> 8.348197e+01
~s "ST_w_3_1"
<MEAN> 25
 2.657290e+00 -2.811689e+00 4.854750e+00 -9.194691e-01 -3.937171e+00 -4.299988e+00 -7.847884e+00 -4.746161e-01 8.549837e+00 3.467858e+00 2.102205e+00 -4.460970e+00 2.042687e-02 -6.272575e-02 -3.026908e-02 1.196329e-01 -1.366283e-01 -1.126603e-01 -6.411306e-02 2.953276e-02 6.346320e-02 2.660949e-02 -1.205680e-02 3.688992e-03 1.122568e-02
<VARIANCE> 25
 1.483584e+01 4.344936e+01 1.159125e+01 1.391310e+01 2.494851e+01 2.829364e+01 2.806811e+01 3.011876e+01 3.829868e+01 2.155026e+01 2.167361e+01 1.339635e+01 2.260044e-01 7.251206e-01 3.495937e-01 7.233357e-01 1.323799e+00 1.457718e+00 2.126224e+00 1.414574e+00 6.245608e-01 1.286425e+00 1.425525e+00 1.188242e+00 2.188088e-01
<GCONST> 8.054845e+01
~s "ST_w_4_1"
<MEAN> 25
 2.279893e+01 -9.661826e-01 -3.708260e+00 3.511619e+00 -2.860829e+00 -1.986907e+01 -7.944084e+00 9.369529e+00 9.835444e+00 -8.073400e+00 -1.710123e+00 3.642380e+00 -8.842377e-02 2.755412e-01 2.698512e-01 5.780906e-02 -1.581188e-01 -2.679451e-02 -1.001867e-02 -4.326976e-02 2.351545e-02 -4.727641e-02 -2.257749e-01 1.282411e-01 -1.603765e-01
<VARIANCE> 25
 6.345906e+01 2.711680e+01 3.936080e+01 2.224301e+01 1.279244e+01 4.166389e+01 3.099705e+01 1.168392e+01 2.401756e+01 2.669265e+01 2.424737e+01 8.394041e+00 3.325101e-01 1.210520e+00 2.053881e+00 1.503844e+00 5.921950e-01 1.474839e+00 2.218463e+00 6.919467e-01 5.162620e-01 1.022115e+00 7.983654e-01 3.869529e-01 4.577195e-01
<GCONST> 8.203738e+01
~s "ST_m_2_1"
<MEAN> 25
 3.099974e+00 2.692573e-01 6.562713e-01 -7.599375e-01 -4.735627e-01 -6.862412e-01 -1.764026e+00 1.476969e+00 1.004768e+00 -9.951198e-01 -2.270821e+00 -1.675067e+00 -3.832509e-01 1.402815e+00 1.313076e-01 9.333708e-01 9.770068e-01 3.692611e-01 2.753125e-01 5.104771e-01 -1.244901e+00 6.068910e-01 1.070872e-04 -5.671651e-01 -1.332064e+00
<VARIANCE> 25
 8.380211e+00 4.733970e+01 3.045456e+01 3.909182e+01 6.222978e+01 4.181185e+01 5.246226e+01 4.417455e+01 5.091861e+01 2.884580e+01 2.624477e+01 2.590067e+01 9.193472e-01 6.196616e+00 3.464835e+00 3.340297e+00 6.696733e+00 4.987241e+00 6.511936e+00 5.820210e+00 6.124656e+00 2.595513e+00 4.246455e+00 2.871798e+00 3.673218e+00
<GCONST> 1.063388e+02
~s "ST_m_3_1"
<MEAN> 25
 1.790016e+00 2.614109e+00 -2.137301e-01 8.540914e-01 2.226975e+00 2.238149e+00 4.649153e-01 3.989580e+00 -2.387782e+00 -5.218765e-01 -1.648782e+00 -3.638570e+00 -7.845066e-02 -1.572966e+00 8.051135e-02 -1.290695e-01 5.437108e-01 -3.176070e-01 -8.630765e-01 3.581583e-02 8.771020e-01 1.630504e-01 -2.097625e-01 -4.714294e-02 1.011099e+00
<VARIANCE> 25
 8.092793e+00 7.859083e+01 2.816349e+01 4.168039e+01 5.411805e+01 6.116616e+01 6.301020e+01 3.862661e+01 4.776520e+01 3.743059e+01 2.093172e+01 3.244025e+01 8.825564e-01 4.875287e+00 1.903902e+00 4.893633e+00 7.895197e+00 4.525267e+00 3.788613e+00 4.459183e+00 5.738138e+00 1.641314e+00 2.676620e+00 2.545462e+00 3.970828e+00
<GCONST> 1.050161e+02
~s "ST_m_4_1"
<MEAN> 25
 1.659516e+00 -2.966603e+00 -4.860550e-01 -1.293409e-01 5.526702e+00 5.086992e-01 -1.564102e+00 6.488037e-01 -2.856451e-01 1.911541e+00 -3.463086e+00 -2.008101e+00 -1.411225e-01 -5.745276e-02 1.290540e-01 1.727677e-01 1.633968e-01 4.101158e-01 3.132319e-01 -5.596688e-01 -1.821682e-02 -5.729251e-02 -3.367877e-01 2.462121e-01 -3.771485e-02
<VARIANCE> 25
 1.091324e+01 3.472262e+01 2.732623e+01 5.559021e+01 5.497746e+01 3.585532e+01 3.449172e+01 4.199583e+01 3.834356e+01 3.060738e+01 3.371293e+01 2.149305e+01 1.182152e+00 9.757997e-01 1.101974e+00 2.045612e+00 2.306525e+00 1.747426e+00 2.093989e+00 2.483321e+00 1.688329e+00 1.599872e+00 1.737065e+00 2.613201e+00 1.128719e+00
<GCONST> 9.435400e+01
~s "ST_p_2_1"
<MEAN> 25
 7.421910e+00 -4.240677e+00 7.470790e-01 -4.359066e+00 -1.323354e+00 -6.253847e+00 -7.657349e+00 2.524738e+00 3.940608e+00 -8.978027e+00 -7.449936e+00 2.005971e+00 1.335728e-01 4.008931e-01 -2.205655e-01 3.190394e-01 -3.187497e-02 -6.700643e-02 -7.365705e-01 8.632261e-01 1.184834e+00 1.749399e-01 7.020565e-01 3.274975e-01 -3.701068e-01
<VARIANCE> 25
 1.038397e+01 1.907493e+01 1.585967e+01 2.334295e+01 9.933261e+00 3.552986e+01 3.234153e+01 1.608012e+01 4.178633e+01 4.740492e+01 4.364615e+01 1.837774e+01 4.219694e-01 1.038127e+00 1.103876e+00 1.592264e+00 1.404208e+00 2.591203e+00 3.047721e+00 9.862206e-01 4.462198e+00 2.402827e+00 1.799453e+00 8.914176e-01 3.329273e-01
<GCONST> 8.742407e+01
~s "ST_p_3_1"
<MEAN> 25
 4.442444e+00 -1.244793e+00 1.471990e+00 -4.843037e-01 -2.881912e+00 -3.375467e+00 -4.617030e+00 2.886655e+00 4.869053e+00 -1.613516e+00 9.133966e-01 -3.524928e-01 -4.922817e-01 3.040692e-01 -2.141861e-01 3.757880e-02 -1.571700e-01 7.192475e-02 5.912661e-01 -8.496884e-02 -1.630239e-01 7.319773e-01 5.415771e-01 -1.187561e-01 -6.759483e-01
<VARIANCE> 25
 7.930166e+00 3.678432e+01 2.598009e+01 1.286551e+01 7.152628e+00 3.889003e+01 1.116547e+01 2.499650e+01 2.913206e+01 2.972027e+01 2.175364e+01 1.387755e+01 5.184929e-01 4.633981e-01 3.639352e-01 6.161014e-01 6.325268e-01 2.507643e+00 1.227293e+00 1.770778e+00 1.561223e+00 2.344252e+00 1.817574e+00 1.159615e+00 4.401507e-01
<GCONST> 8.070687e+01
~s "ST_p_4_1"
<MEAN> 25
 2.983633e+00 -1.083643e+00 -1.262903e+00 7.369651e-01 3.245693e-01 2.906084e+00 2.053617e+00 -6.335409e-01 4.752385e-01 2.402430e+00 7.249240e-01 5.761858e-01 -2.447408e-02 6.602284e-03 -3.894192e-02 -2.279178e-02 -2.502695e-02 -1.192346e-02 4.831499e-02 2.974405e-02 4.005990e-03 3.335381e-02 2.529705e-02 -4.633879e-03 -4.531876e-02
<VARIANCE> 25
 1.529304e+00 2.857445e+00 3.273819e+00 4.863024e+00 4.867432e+00 1.045207e+01 7.836765e+00 6.385005e+00 6.524144e+00 8.917052e+00 6.246360e+00 6.011346e+00 1.167367e-01 1.575135e-01 2.496083e-01 4.365036e-01 4.779303e-01 6.837185e-01 7.492161e-01 7.748112e-01 6.485006e-01 7.325006e-01 6.645605e-01 8.333288e-01 5.372562e-02
<GCONST> 5.358608e+01
~h "a"
<BEGINHMM>
<NUMSTATES> 5
<STATE> 2
~s "ST_a_2_1"
<STATE> 3
~s "ST_a_3_1"
<STATE> 4
~s "ST_a_4_1"
~t "T_a"
<ENDHMM>
~h "b"
<BEGINHMM>
<NUMSTATES> 5
<STATE> 2
~s "ST_b_2_1"
<STATE> 3
~s "ST_b_3_1"
<STATE> 4
~s "ST_b_4_1"
~t "T_b"
<ENDHMM>
~h "e"
<BEGINHMM>
<NUMSTATES> 5
<STATE> 2
~s "ST_e_2_1"
<STATE> 3
~s "ST_e_3_1"
<STATE> 4
~s "ST_e_4_1"
~t "T_e"
<ENDHMM>
~h "h"
<BEGINHMM>
<NUMSTATES> 5
<STATE> 2
~s "ST_h_2_1"
<STATE> 3
~s "ST_h_3_1"
<STATE> 4
~s "ST_h_4_1"
~t "T_h"
<ENDHMM>
~h "i"
<BEGINHMM>
<NUMSTATES> 5
<STATE> 2
~s "ST_i_2_1"
<STATE> 3
~s "ST_i_3_1"
<STATE> 4
~s "ST_i_4_1"
~t "T_i"
<ENDHMM>
~h "j"
<BEGINHMM>
<NUMSTATES> 5
<STATE> 2
~s "ST_j_2_1"
<STATE> 3
~s "ST_j_3_1"
<STATE> 4
~s "ST_j_4_1"
~t "T_j"
<ENDHMM>
~h "k"
<BEGINHMM>
<NUMSTATES> 5
<STATE> 2
~s "ST_k_2_1"
<STATE> 3
~s "ST_k_3_1"
<STATE> 4
~s "ST_k_4_1"
~t "T_k"
<ENDHMM>
~h "l"
<BEGINHMM>
<NUMSTATES> 5
<STATE> 2
~s "ST_l_2_1"
<STATE> 3
~s "ST_l_3_1"
<STATE> 4
~s "ST_l_4_1"
~t "T_l"
<ENDHMM>
~h "m"
<BEGINHMM>
<NUMSTATES> 5
<STATE> 2
~s "ST_m_2_1"
<STATE> 3
~s "ST_m_3_1"
<STATE> 4
~s "ST_m_4_1"
~t "T_m"
<ENDHMM>
~h "n"
<BEGINHMM>
<NUMSTATES> 5
<STATE> 2
~s "ST_n_2_1"
<STATE> 3
~s "ST_n_3_1"
<STATE> 4
~s "ST_n_4_1"
~t "T_n"
<ENDHMM>
~h "p"
<BEGINHMM>
<NUMSTATES> 5
<STATE> 2
~s "ST_p_2_1"
<STATE> 3
~s "ST_p_3_1"
<STATE> 4
~s "ST_p_4_1"
~t "T_p"
<ENDHMM>
~h "r"
<BEGINHMM>
<NUMSTATES> 5
<STATE> 2
~s "ST_r_2_1"
<STATE> 3
~s "ST_r_3_1"
<STATE> 4
~s "ST_r_4_1"
~t "T_r"
<ENDHMM>
~h "s"
<BEGINHMM>
<NUMSTATES> 5
<STATE> 2
~s "ST_s_2_1"
<STATE> 3
~s "ST_s_3_1"
<STATE> 4
~s "ST_s_4_1"
~t "T_s"
<ENDHMM>
~h "t"
<BEGINHMM>
<NUMSTATES> 5
<STATE> 2
~s "ST_t_2_1"
<STATE> 3
~s "ST_t_3_1"
<STATE> 4
~s "ST_t_4_1"
~t "T_t"
<ENDHMM>
~h "u"
<BEGINHMM>
<NUMSTATES> 5
<STATE> 2
~s "ST_u_2_1"
<STATE> 3
~s "ST_u_3_1"
<STATE> 4
~s "ST_u_4_1"
~t "T_u"
<ENDHMM>
~h "w"
<BEGINHMM>
<NUMSTATES> 5
<STATE> 2
~s "ST_w_2_1"
<STATE> 3
~s "ST_w_3_1"
<STATE> 4
~s "ST_w_4_1"
~t "T_w"
<ENDHMM>
~h "kh"
<BEGINHMM>
<NUMSTATES> 5
<STATE> 2
~s "ST_kh_2_1"
<STATE> 3
~s "ST_kh_3_1"
<STATE> 4
~s "ST_kh_4_1"
~t "T_kh"
<ENDHMM>
~h "ny"
<BEGINHMM>
<NUMSTATES> 5
<STATE> 2
~s "ST_ny_2_1"
<STATE> 3
~s "ST_ny_3_1"
<STATE> 4
~s "ST_ny_4_1"
~t "T_ny"
<ENDHMM>
~h "sp"
<BEGINHMM>
<NUMSTATES> 3
<STATE> 2
~s "ST_sil_3_1"
<TRANSP> 3
 0.000000e+00 1.584306e-01 8.415694e-01
 0.000000e+00 7.754835e-01 2.245165e-01
 0.000000e+00 0.000000e+00 0.000000e+00
<ENDHMM>
~h "sil"
<BEGINHMM>
<NUMSTATES> 5
<STATE> 2
~s "ST_sil_2_1"
<STATE> 3
~s "ST_sil_3_1"
<STATE> 4
~s "ST_sil_4_1"
<TRANSP> 5
 0.000000e+00 1.000000e+00 0.000000e+00 0.000000e+00 0.000000e+00
 0.000000e+00 6.718256e-01 1.157452e-01 2.124292e-01 0.000000e+00
 0.000000e+00 0.000000e+00 7.978298e-01 2.021702e-01 0.000000e+00
 0.000000e+00 4.878628e-03 0.000000e+00 9.352325e-01 5.988885e-02
 0.000000e+00 0.000000e+00 0.000000e+00 0.000000e+00 0.000000e+00
<ENDHMM>
