~o
<STREAMINFO> 1 25
<VECSIZE> 25<NULLD><MFCC_D_N_Z_0><DIAGC>
~s "silst"
<MEAN> 25
 -1.502152e+00 2.395263e+00 -3.420355e+00 2.315601e+00 4.651278e-01 1.664274e+00 4.939344e+00 1.224320e+00 -1.483249e+00 9.848499e-01 6.263142e-01 1.907811e+00 9.003307e-01 1.320815e-01 1.110094e-01 -5.489733e-02 -1.537985e-01 9.912871e-02 -9.696054e-02 2.626922e-02 -2.088289e-01 2.276617e-01 -1.162290e-01 -1.709824e-02 4.165664e-01
<VARIANCE> 25
 6.667434e+01 6.077866e+01 5.430204e+01 6.750877e+01 4.221217e+01 4.902995e+01 5.292522e+01 3.440061e+01 5.800599e+01 4.063820e+01 3.136669e+01 2.835668e+01 6.800357e+00 4.656582e+00 4.395481e+00 5.204509e+00 3.696722e+00 6.286808e+00 6.299900e+00 3.553697e+00 4.573238e+00 4.022483e+00 3.923342e+00 2.560988e+00 7.137754e+00
<GCONST> 1.121834e+02
~h "a"
<BEGINHMM>
<NUMSTATES> 5
<STATE> 2
<MEAN> 25
 3.372600e+00 -1.832823e+00 -1.160352e+00 -2.444568e+00 -2.301732e+00 -1.996889e+00 2.856611e-01 1.865587e+00 1.188932e+00 -1.113600e+00 -1.866935e+00 8.863662e-01 7.930285e-02 -1.575229e-01 9.494846e-02 -8.438931e-01 -5.783905e-01 1.769360e-02 3.764918e-01 3.110978e-01 4.635198e-01 -3.000895e-01 2.603445e-01 8.598846e-01 2.880546e-01
<VARIANCE> 25
 2.629113e+01 3.516874e+01 2.757358e+01 3.573407e+01 5.318649e+01 5.174810e+01 3.659164e+01 3.317786e+01 4.306599e+01 2.713415e+01 3.134695e+01 2.336442e+01 1.101392e+00 2.070008e+00 1.856707e+00 2.442141e+00 2.684625e+00 3.252601e+00 2.182595e+00 2.087627e+00 3.805439e+00 2.365376e+00 2.346630e+00 2.563755e+00 1.331092e+00
<GCONST> 9.864822e+01
<STATE> 3
<MEAN> 25
 3.450821e+00 -1.819369e+00 -5.325578e-01 -3.615535e+00 -2.039221e+00 -9.108002e-01 8.524776e-01 1.824977e+00 1.236132e+00 -1.198418e+00 -1.062132e+00 1.700723e+00 -1.245403e-01 -7.262748e-02 2.788389e-02 -3.657010e-01 1.656942e-01 4.851658e-01 3.544267e-01 -1.137334e-01 -3.388343e-02 1.664194e-01 4.089120e-01 2.905453e-01 -4.203470e-02
<VARIANCE> 25
 3.397486e+01 3.896468e+01 3.500574e+01 4.073175e+01 4.965792e+01 5.034492e+01 3.979840e+01 3.853533e+01 4.727312e+01 3.194639e+01 3.115960e+01 1.831328e+01 1.076488e+00 2.273398e+00 1.289969e+00 1.727514e+00 2.689929e+00 3.427480e+00 2.043048e+00 2.237897e+00 2.628811e+00 1.623796e+00 2.328672e+00 1.595031e+00 1.296330e+00
<GCONST> 9.768456e+01
<STATE> 4
<MEAN> 25
 1.972750e+00 -3.666084e+00 1.408272e-01 -4.111612e+00 -8.523666e-01 6.777870e-01 -3.427876e-01 9.806319e-01 2.549037e+00 -8.646057e-01 5.631592e-02 1.363705e+00 -5.951730e-02 1.486704e-01 -1.570025e-01 2.777905e-01 4.542302e-01 2.446914e-01 3.163474e-02 -4.218988e-01 -3.877193e-01 1.873942e-01 2.557012e-01 -4.890025e-02 -2.653446e-01
<VARIANCE> 25
 2.668702e+01 3.456437e+01 2.876612e+01 2.941006e+01 4.671047e+01 3.973292e+01 3.594353e+01 2.730382e+01 4.946140e+01 3.037596e+01 2.493650e+01 1.949239e+01 9.298003e-01 1.744377e+00 1.204275e+00 1.873727e+00 2.870191e+00 2.400812e+00 2.230437e+00 2.147257e+00 2.269578e+00 1.911241e+00 2.009980e+00 1.470415e+00 1.060265e+00
<GCONST> 9.483432e+01
<TRANSP> 5
 0.000000e+00 1.000000e+00 0.000000e+00 0.000000e+00 0.000000e+00
 0.000000e+00 2.805898e-01 7.194101e-01 0.000000e+00 0.000000e+00
 0.000000e+00 0.000000e+00 1.044047e-01 8.955953e-01 0.000000e+00
 0.000000e+00 0.000000e+00 0.000000e+00 5.226029e-01 4.773971e-01
 0.000000e+00 0.000000e+00 0.000000e+00 0.000000e+00 0.000000e+00
<ENDHMM>
~h "b"
<BEGINHMM>
<NUMSTATES> 5
<STATE> 2
<MEAN> 25
 7.762792e-01 1.036082e+01 9.904309e-01 4.838407e+00 9.420235e-01 -1.218424e+00 4.823604e+00 8.114347e+00 -1.127347e+00 -2.776909e+00 -4.425884e+00 -3.116543e+00 -1.832699e-02 2.740602e-01 5.863371e-02 -1.231586e-01 -2.821874e-01 9.918484e-02 4.956472e-03 1.951674e-01 2.082641e-01 5.887251e-02 -1.547042e-01 -3.481239e-01 -3.101722e-01
<VARIANCE> 25
 4.668004e+01 9.139394e+01 1.321731e+01 2.736861e+01 4.482851e+01 3.912974e+01 5.364281e+01 1.312527e+02 1.564059e+01 3.372308e+01 1.864742e+01 2.915173e+01 1.150397e+00 1.328261e+01 1.230284e+00 2.735160e+00 4.371797e+00 2.084341e+00 6.995244e+00 1.912043e+01 2.668826e+00 2.827707e+00 1.097915e+00 1.052102e+00 1.096963e+01
<GCONST> 1.046979e+02
<STATE> 3
<MEAN> 25
 4.417773e+00 -1.493220e+00 2.559098e+00 3.278751e+00 -6.886240e+00 -1.310259e+00 -2.806374e+00 -4.819581e+00 -7.321946e+00 1.084226e+00 5.703838e+00 -7.447265e+00 -1.507562e-01 -1.165059e-01 6.271628e-01 -1.160037e+00 9.991459e-02 2.396959e-01 -4.711899e-01 3.542583e-01 -1.816507e-01 -6.204082e-01 -8.390390e-02 6.030902e-01 4.408512e-01
<VARIANCE> 25
 3.158572e+01 2.109168e+01 1.878433e+01 7.664643e+01 6.842736e+01 3.796935e+01 7.546475e+01 6.069568e+01 8.219962e+01 5.635289e+01 5.404972e+01 2.591517e+01 1.174130e+00 3.396392e+00 4.824327e+00 1.266422e+01 8.529529e+00 5.310596e+00 9.753439e+00 1.205322e+01 9.393491e+00 4.026016e+00 3.464258e+00 1.554325e+00 3.080751e+00
<GCONST> 1.122157e+02
<STATE> 4
<MEAN> 25
 2.060356e+01 3.290337e+00 1.273815e+00 7.908842e+00 3.606781e+00 -9.664044e+00 -1.028230e+01 2.502638e-01 5.325354e+00 -8.315712e+00 -4.022926e+00 -2.818638e+00 8.756378e-02 5.303109e-02 1.784210e-01 1.481689e-01 -9.695213e-02 -4.419288e-01 -3.915689e-01 -1.522766e-01 1.876651e-01 5.069479e-01 1.268562e-01 -3.025194e-01 9.876818e-02
<VARIANCE> 25
 8.400807e+01 3.205771e+01 4.301826e+01 4.758319e+01 6.906240e+01 8.126131e+01 4.649363e+01 5.374378e+01 3.729227e+01 1.149267e+02 3.273331e+01 3.013812e+01 6.336507e-01 2.888495e+00 4.212476e+00 2.432899e+00 5.252078e+00 5.875927e+00 3.413204e+00 4.675371e+00 2.991671e+00 7.017114e+00 3.762689e+00 3.515160e+00 1.507812e+00
<GCONST> 1.083511e+02
<TRANSP> 5
 0.000000e+00 1.000000e+00 0.000000e+00 0.000000e+00 0.000000e+00
 0.000000e+00 6.270218e-01 3.729782e-01 0.000000e+00 0.000000e+00
 0.000000e+00 0.000000e+00 7.081378e-01 2.918622e-01 0.000000e+00
 0.000000e+00 0.000000e+00 0.000000e+00 8.291586e-01 1.708414e-01
 0.000000e+00 0.000000e+00 0.000000e+00 0.000000e+00 0.000000e+00
<ENDHMM>
~h "e"
<BEGINHMM>
<NUMSTATES> 5
<STATE> 2
<MEAN> 25
 4.208518e+00 1.535069e-01 3.571454e+00 -2.057643e+00 -3.429608e+00 1.779778e+00 -4.213546e+00 -3.601667e+00 -4.321327e-01 -1.650651e+00 -1.026942e+00 -3.163344e-01 1.233041e+00 -1.078969e+00 -9.364837e-01 1.086117e+00 -2.787115e-01 -1.417201e+00 -1.092734e+00 6.808286e-01 8.756716e-01 -8.518938e-01 -8.080181e-01 -6.130407e-02 1.079340e+00
<VARIANCE> 25
 7.037582e+01 2.187348e+01 3.514976e+01 3.881447e+01 1.944192e+01 4.687045e+01 2.920418e+01 4.329333e+01 3.992823e+01 6.150615e+01 4.068646e+01 2.814440e+01 2.238492e+00 6.693371e+00 8.267554e+00 4.248889e+00 6.412131e+00 9.214539e+00 3.090285e+00 2.952668e+00 2.785541e+00 8.842386e+00 3.927812e+00 2.612562e+00 2.595002e+00
<GCONST> 1.083529e+02
<STATE> 3
<MEAN> 25
 5.327013e+00 -1.780660e+00 2.082628e+00 3.179206e-01 -3.386564e+00 -2.354863e+00 -3.996345e+00 -2.482430e+00 1.489516e-01 -3.580716e+00 -3.804408e+00 -5.576267e-01 4.238641e-01 -1.480071e-01 -1.328982e+00 8.370512e-01 1.002211e+00 -2.517003e+00 2.217632e-01 1.239272e+00 1.149437e-01 -5.482501e-01 -4.627390e-01 -2.010590e-01 4.040586e-01
<VARIANCE> 25
 6.734096e+01 2.169447e+01 2.756554e+01 4.551833e+01 3.525520e+01 7.458871e+01 3.631715e+01 4.752123e+01 2.904662e+01 5.925130e+01 2.400457e+01 2.517290e+01 7.853317e-01 4.684412e+00 2.857136e+00 3.525978e+00 4.975672e+00 1.003048e+01 3.474247e+00 2.642298e+00 2.488319e+00 4.288320e+00 2.985647e+00 2.884684e+00 1.587086e+00
<GCONST> 1.042736e+02
<STATE> 4
<MEAN> 25
 1.841915e+01 -4.058877e+00 -5.825805e+00 6.517148e+00 5.315922e+00 -1.028425e+01 -7.019568e+00 -3.077141e-01 -8.030499e-01 -9.351389e+00 1.252105e+00 5.042712e+00 5.268059e-02 2.193907e-01 -5.444520e-01 -3.177797e-01 4.473830e-01 6.415656e-01 8.225511e-01 2.093096e-01 -4.526875e-01 -1.223655e-01 1.114577e-01 3.770405e-01 -1.832609e-01
<VARIANCE> 25
 1.174694e+02 2.851881e+01 4.977308e+01 7.941463e+01 6.403416e+01 1.010513e+02 7.197169e+01 3.006520e+01 2.466256e+01 6.399287e+01 4.649920e+01 5.071980e+01 4.483246e-01 2.200298e+00 2.587685e+00 2.874781e+00 2.625626e+00 4.051786e+00 2.582131e+00 3.019016e+00 1.525952e+00 2.286363e+00 2.619873e+00 1.514610e+00 7.885092e-01
<GCONST> 1.027317e+02
<TRANSP> 5
 0.000000e+00 1.000000e+00 0.000000e+00 0.000000e+00 0.000000e+00
 0.000000e+00 3.093307e-01 6.906693e-01 0.000000e+00 0.000000e+00
 0.000000e+00 0.000000e+00 3.338982e-01 6.661018e-01 0.000000e+00
 0.000000e+00 0.000000e+00 0.000000e+00 6.528820e-01 3.471180e-01
 0.000000e+00 0.000000e+00 0.000000e+00 0.000000e+00 0.000000e+00
<ENDHMM>
~h "h"
<BEGINHMM>
<NUMSTATES> 5
<STATE> 2
<MEAN> 25
 -3.261306e+00 -7.212409e-01 -4.620077e+00 -1.562296e+00 -2.153407e+00 2.754116e+00 8.402999e+00 1.934083e+00 -7.807325e-01 3.030893e+00 1.245388e+00 1.025224e+00 5.056289e-01 1.430820e-02 3.766948e-01 -1.244445e-01 7.664737e-01 -1.400982e+00 5.042002e-01 4.917169e-01 3.696484e-02 1.667846e-01 -2.561652e-01 3.008926e-01 1.669593e+00
<VARIANCE> 25
 5.736096e+01 6.779456e+01 4.372024e+01 5.255783e+01 4.769154e+01 7.128654e+01 4.910103e+01 2.880654e+01 3.489874e+01 3.634515e+01 1.675260e+01 2.116868e+01 4.134766e+00 8.296131e+00 3.860239e+00 3.357223e+00 3.597786e+00 4.111499e+00 4.658611e+00 3.179109e+00 2.825799e+00 3.018731e+00 1.502591e+00 1.436424e+00 4.436295e+00
<GCONST> 1.062443e+02
<STATE> 3
<MEAN> 25
 -8.095871e-01 -2.652791e+00 2.382107e-01 -1.942114e+00 7.298049e-01 -9.156529e-01 4.645137e+00 8.651802e-01 5.601828e-01 2.207803e+00 -3.177214e-02 1.039997e+00 1.453555e+00 -8.997000e-01 4.084623e-01 -7.895765e-02 -6.637483e-01 7.422732e-03 -1.636842e+00 -2.738904e-01 9.539394e-02 -9.386266e-01 -4.920649e-01 -1.884852e-01 5.607412e-01
<VARIANCE> 25
 3.650497e+01 3.589448e+01 2.550615e+01 4.476292e+01 5.560382e+01 6.569967e+01 3.900190e+01 3.387027e+01 4.321133e+01 2.541755e+01 3.078168e+01 1.779396e+01 2.310804e+00 3.155374e+00 4.173317e+00 1.838223e+00 3.729806e+00 3.826424e+00 3.689696e+00 3.114556e+00 5.749075e+00 1.707101e+00 2.655437e+00 1.471001e+00 1.421130e+00
<GCONST> 1.019840e+02
<STATE> 4
<MEAN> 25
 3.136032e+00 -2.925135e+00 -1.570627e+00 -1.591071e+00 -1.028588e+00 -1.517306e+00 6.189434e-01 2.246569e-01 -2.232437e-01 -1.085227e+00 -1.243146e+00 2.059402e-01 9.139957e-02 8.214091e-02 -1.283044e-01 -2.016947e-02 -1.246478e-02 -6.670231e-01 -3.974687e-01 -2.827488e-02 2.229443e-01 -4.259390e-01 -4.712896e-01 3.618781e-02 -3.168339e-03
<VARIANCE> 25
 1.102855e+01 2.520422e+01 2.288427e+01 2.218397e+01 4.597217e+01 5.469471e+01 2.646070e+01 2.478353e+01 4.290205e+01 2.657327e+01 1.739867e+01 1.469434e+01 4.409721e-01 1.007170e+00 1.299478e+00 1.802862e+00 1.771420e+00 2.435935e+00 1.810104e+00 1.684114e+00 1.932399e+00 1.511946e+00 1.782128e+00 1.140328e+00 3.889046e-01
<GCONST> 8.815588e+01
<TRANSP> 5
 0.000000e+00 1.000000e+00 0.000000e+00 0.000000e+00 0.000000e+00
 0.000000e+00 6.722841e-01 3.277160e-01 0.000000e+00 0.000000e+00
 0.000000e+00 0.000000e+00 4.979974e-01 5.020025e-01 0.000000e+00
 0.000000e+00 0.000000e+00 0.000000e+00 7.271107e-01 2.728893e-01
 0.000000e+00 0.000000e+00 0.000000e+00 0.000000e+00 0.000000e+00
<ENDHMM>
~h "i"
<BEGINHMM>
<NUMSTATES> 5
<STATE> 2
<MEAN> 25
 6.349709e+00 -1.035608e+01 6.434554e+00 7.099086e+00 -2.581481e+00 -1.107597e+00 -4.020326e+00 -2.297086e+00 -8.487735e-01 -2.162606e-01 1.849613e+00 -2.337922e+00 6.570942e-01 9.624472e-01 6.941403e-01 1.956245e+00 1.161924e+00 -1.168260e+00 -1.291450e+00 -4.450186e-01 -7.890397e-01 -9.244708e-01 2.345982e-01 -9.211907e-01 1.499446e-01
<VARIANCE> 25
 1.109222e+02 1.118709e+02 4.969687e+01 9.895723e+01 7.531779e+01 7.774924e+01 4.452504e+01 4.684585e+01 2.332347e+01 4.774154e+01 2.250383e+01 2.425089e+01 2.040093e+00 4.784894e+00 4.164416e+00 2.546715e+00 5.783394e+00 5.824151e+00 3.367627e+00 2.307667e+00 3.165323e+00 6.342235e+00 2.447286e+00 1.977921e+00 1.604341e+00
<GCONST> 1.087658e+02
<STATE> 3
<MEAN> 25
 1.810661e+00 -1.862441e+00 1.023487e+01 7.497961e+00 2.751970e+00 -5.389449e+00 -8.215824e+00 -4.792943e+00 -4.651389e+00 -1.546186e+00 -3.452481e-01 -3.115421e+00 3.187372e-01 -2.609633e-03 -8.752295e-01 -2.792716e-01 -7.555540e-02 6.478628e-02 -1.898034e-01 -9.137429e-01 -7.284714e-03 2.399258e-01 4.556845e-01 7.371033e-01 9.679558e-02
<VARIANCE> 25
 2.093491e+01 1.372930e+01 3.454955e+01 1.074073e+02 1.180010e+02 1.845591e+01 8.635516e+01 3.164682e+01 1.455471e+01 7.332326e+01 2.734343e+01 4.660872e+01 2.355285e-01 4.305094e-01 1.134637e+00 1.299367e+00 1.217266e+00 1.829760e+00 1.750641e+00 2.230536e+00 1.700451e+00 1.284244e+00 1.401217e+00 1.319312e+00 4.004744e-01
<GCONST> 9.029203e+01
<STATE> 4
<MEAN> 25
 1.919082e+01 8.518851e-01 -5.419188e-01 1.220556e+01 8.843890e+00 -7.410937e+00 -1.259322e+01 -1.006036e+01 -6.303105e+00 -4.728801e+00 4.410351e+00 1.004337e+00 -2.034262e-01 6.998197e-01 -4.044474e-01 -1.061238e+00 -1.177186e-01 1.013865e+00 5.423855e-01 9.409716e-03 2.901517e-01 2.944773e-01 -3.374526e-01 3.850663e-01 -4.964763e-01
<VARIANCE> 25
 6.825772e+01 2.983808e+01 3.001942e+01 1.686357e+02 4.506636e+01 1.445705e+02 5.798715e+01 3.412645e+01 1.999835e+01 3.675423e+01 3.506333e+01 2.177447e+01 8.780185e-01 6.613270e-01 3.276438e+00 4.062631e+00 1.285647e+00 4.151665e+00 3.740585e+00 2.745704e+00 9.641623e-01 2.428511e+00 1.785554e+00 2.859449e+00 9.067453e-01
<GCONST> 1.001379e+02
<TRANSP> 5
 0.000000e+00 1.000000e+00 0.000000e+00 0.000000e+00 0.000000e+00
 0.000000e+00 8.283042e-01 1.716959e-01 0.000000e+00 0.000000e+00
 0.000000e+00 0.000000e+00 8.206790e-01 1.793210e-01 0.000000e+00
 0.000000e+00 0.000000e+00 0.000000e+00 7.883922e-01 2.116078e-01
 0.000000e+00 0.000000e+00 0.000000e+00 0.000000e+00 0.000000e+00
<ENDHMM>
~h "j"
<BEGINHMM>
<NUMSTATES> 5
<STATE> 2
<MEAN> 25
 1.033382e+01 2.847943e+00 7.518955e+00 1.168527e+01 2.519554e+00 -5.226998e+00 -5.625600e+00 -3.659136e+00 -4.054163e+00 -6.085926e+00 2.793239e+00 7.202794e-02 1.479261e-01 -9.071079e-02 -2.149233e-01 3.959644e-01 4.142186e-01 -5.351631e-01 -8.668870e-01 -5.267099e-01 1.223795e-02 3.916940e-02 1.251209e-01 -2.805672e-01 2.097113e-01
<VARIANCE> 25
 1.247276e+02 8.636703e+01 4.239557e+01 8.572257e+01 9.476746e+01 5.692689e+01 6.414764e+01 2.827805e+01 3.081190e+01 7.238771e+01 2.316893e+01 3.111779e+01 5.113996e+00 1.060913e+01 6.890679e+00 7.545351e+00 7.643013e+00 5.924093e+00 8.277795e+00 4.058826e+00 4.320642e+00 4.764947e+00 2.290900e+00 2.273616e+00 4.491234e+00
<GCONST> 1.152661e+02
<STATE> 3
<MEAN> 25
 4.859375e-01 -9.536865e-01 5.706749e+00 8.694105e+00 5.402491e+00 1.751044e+00 -6.944987e+00 -7.388437e+00 -4.657917e+00 -1.582785e+00 1.853717e+00 -1.994995e+00 -4.296945e-01 1.547816e+00 -1.301403e+00 -2.695318e-01 -1.352231e-01 5.560309e-01 5.425831e-01 7.270151e-03 -3.227705e-01 2.685671e-01 3.635134e-01 5.953525e-01 -1.685104e+00
<VARIANCE> 25
 3.121926e+01 3.711884e+01 2.541532e+01 2.874753e+01 3.474561e+01 5.582998e+01 3.111683e+01 2.156305e+01 1.933789e+01 2.057086e+01 3.315747e+01 1.973627e+01 2.682142e+00 3.581919e+00 2.528684e+00 2.860024e+00 3.127484e+00 3.275410e+00 2.568900e+00 2.583298e+00 2.210916e+00 2.331487e+00 2.957479e+00 2.101680e+00 5.198503e+00
<GCONST> 9.972036e+01
<STATE> 4
<MEAN> 25
 1.641495e+01 -6.388044e-01 -6.622379e+00 9.337034e+00 6.141171e+00 -9.108034e+00 -9.591747e+00 -3.343274e+00 -3.664490e+00 -9.273205e+00 4.979566e+00 8.066043e+00 -1.575013e-01 7.410454e-01 -7.415691e-01 -1.540634e+00 -6.407940e-01 1.312508e+00 1.057703e+00 -2.560097e-02 -4.473860e-01 -1.860709e-01 -1.034119e+00 1.043933e-01 -7.088766e-01
<VARIANCE> 25
 1.707512e+02 5.233460e+01 2.639482e+01 3.214512e+01 6.077266e+01 6.221810e+01 5.017305e+01 2.282771e+01 1.101843e+01 3.762346e+01 2.160681e+01 3.373652e+01 5.221490e-01 8.466814e-01 1.722184e+00 1.964892e+00 1.569984e+00 2.187879e+00 1.719671e+00 2.510471e+00 1.421571e+00 2.072058e+00 1.273456e+00 1.600178e+00 9.015900e-01
<GCONST> 9.447620e+01
<TRANSP> 5
 0.000000e+00 1.000000e+00 0.000000e+00 0.000000e+00 0.000000e+00
 0.000000e+00 8.367926e-01 1.632074e-01 0.000000e+00 0.000000e+00
 0.000000e+00 0.000000e+00 7.910000e-01 2.089999e-01 0.000000e+00
 0.000000e+00 0.000000e+00 0.000000e+00 6.963583e-01 3.036418e-01
 0.000000e+00 0.000000e+00 0.000000e+00 0.000000e+00 0.000000e+00
<ENDHMM>
~h "k"
<BEGINHMM>
<NUMSTATES> 5
<STATE> 2
<MEAN> 25
 -1.513887e-08 8.685321e-09 6.289883e-08 7.186313e-08 3.131923e-08 4.571417e-08 5.014053e-08 1.333485e-08 -7.134006e-08 8.713219e-09 1.011273e-09 4.209684e-08 -6.534437e-03 7.731597e-03 -5.306157e-03 4.609803e-03 -4.191151e-03 8.242088e-03 -6.219152e-03 5.951754e-03 -5.249157e-03 1.868283e-03 2.200403e-03 -1.269434e-03 2.744509e-03
<VARIANCE> 25
 6.716856e+01 2.941401e+01 5.663681e+01 4.741492e+01 4.696264e+01 4.914315e+01 4.999928e+01 4.303569e+01 5.672998e+01 3.222253e+01 2.850756e+01 4.103967e+01 2.100924e+00 1.434693e+00 1.891293e+00 2.194988e+00 2.363979e+00 2.636887e+00 2.464799e+00 2.732278e+00 2.851009e+00 2.222413e+00 2.036798e+00 2.011688e+00 1.909456e+00
<GCONST> 1.015924e+02
<STATE> 3
<MEAN> 25
 -1.513887e-08 8.685321e-09 6.289883e-08 7.186313e-08 3.131923e-08 4.571417e-08 5.014053e-08 1.333485e-08 -7.134006e-08 8.713219e-09 1.011273e-09 4.209684e-08 -6.534437e-03 7.731597e-03 -5.306157e-03 4.609803e-03 -4.191151e-03 8.242088e-03 -6.219152e-03 5.951754e-03 -5.249157e-03 1.868283e-03 2.200403e-03 -1.269434e-03 2.744509e-03
<VARIANCE> 25
 6.716856e+01 2.941401e+01 5.663681e+01 4.741492e+01 4.696264e+01 4.914315e+01 4.999928e+01 4.303569e+01 5.672998e+01 3.222253e+01 2.850756e+01 4.103967e+01 2.100924e+00 1.434693e+00 1.891293e+00 2.194988e+00 2.363979e+00 2.636887e+00 2.464799e+00 2.732278e+00 2.851009e+00 2.222413e+00 2.036798e+00 2.011688e+00 1.909456e+00
<GCONST> 1.015924e+02
<STATE> 4
<MEAN> 25
 -1.513887e-08 8.685321e-09 6.289883e-08 7.186313e-08 3.131923e-08 4.571417e-08 5.014053e-08 1.333485e-08 -7.134006e-08 8.713219e-09 1.011273e-09 4.209684e-08 -6.534437e-03 7.731597e-03 -5.306157e-03 4.609803e-03 -4.191151e-03 8.242088e-03 -6.219152e-03 5.951754e-03 -5.249157e-03 1.868283e-03 2.200403e-03 -1.269434e-03 2.744509e-03
<VARIANCE> 25
 6.716856e+01 2.941401e+01 5.663681e+01 4.741492e+01 4.696264e+01 4.914315e+01 4.999928e+01 4.303569e+01 5.672998e+01 3.222253e+01 2.850756e+01 4.103967e+01 2.100924e+00 1.434693e+00 1.891293e+00 2.194988e+00 2.363979e+00 2.636887e+00 2.464799e+00 2.732278e+00 2.851009e+00 2.222413e+00 2.036798e+00 2.011688e+00 1.909456e+00
<GCONST> 1.015924e+02
<TRANSP> 5
 0.000000e+00 1.000000e+00 0.000000e+00 0.000000e+00 0.000000e+00
 0.000000e+00 6.000000e-01 4.000000e-01 0.000000e+00 0.000000e+00
 0.000000e+00 0.000000e+00 6.000000e-01 4.000000e-01 0.000000e+00
 0.000000e+00 0.000000e+00 0.000000e+00 7.000000e-01 3.000000e-01
 0.000000e+00 0.000000e+00 0.000000e+00 0.000000e+00 0.000000e+00
<ENDHMM>
~h "l"
<BEGINHMM>
<NUMSTATES> 5
<STATE> 2
<MEAN> 25
 4.667073e+00 -1.714890e+00 -2.852079e+00 -3.880758e+00 -2.810519e+00 -5.527127e+00 3.449697e+00 2.724323e+00 8.055092e-02 -1.212658e+00 -1.595285e+00 3.575743e+00 1.898796e-01 3.366609e-01 -1.292204e-01 4.245210e-01 -1.599192e-01 3.366368e-01 -3.537076e-01 -1.144505e-01 2.062776e-01 1.183823e-02 1.811080e-02 -2.849715e-01 -4.017445e-01
<VARIANCE> 25
 2.245089e+01 1.771602e+01 1.757690e+01 2.102725e+01 5.016813e+01 4.036950e+01 3.534884e+01 3.258095e+01 2.555383e+01 1.945172e+01 2.402776e+01 2.326561e+01 3.710105e-01 1.601681e+00 9.292400e-01 1.866475e+00 3.513503e+00 1.967198e+00 2.411234e+00 1.943689e+00 2.157830e+00 1.840124e+00 2.542228e+00 2.061695e+00 5.289528e-01
<GCONST> 9.094928e+01
<STATE> 3
<MEAN> 25
 4.599914e+00 5.705459e-01 -9.085258e-01 -1.077865e+00 -1.339259e+00 -9.021440e-01 -1.848948e+00 -1.969864e-01 1.370844e+00 -1.063670e+00 -1.655687e+00 -6.337376e-01 -5.420544e-02 8.291193e-01 8.487537e-01 2.003550e+00 2.917799e-01 1.497178e+00 -9.082717e-01 -8.505856e-01 3.158968e-01 -1.258738e-01 -4.597564e-01 -1.331446e+00 -1.086882e+00
<VARIANCE> 25
 1.808461e+01 2.076524e+01 1.968847e+01 3.167307e+01 5.107824e+01 5.113698e+01 3.164224e+01 4.763471e+01 3.334622e+01 2.292995e+01 4.403009e+01 3.032297e+01 6.412345e-01 1.454021e+00 1.798275e+00 2.721101e+00 6.923632e+00 2.537455e+00 1.908395e+00 2.753740e+00 2.773780e+00 2.305131e+00 3.788177e+00 4.139093e+00 5.777257e-01
<GCONST> 9.743509e+01
<STATE> 4
<MEAN> 25
 3.940063e+00 1.162481e+00 -2.747155e-01 2.667786e+00 1.474321e-01 1.284832e+00 -9.855772e-01 -4.684743e-01 2.060628e+00 -1.669936e+00 -4.539843e+00 -5.003911e+00 -4.441907e-02 8.840508e-02 -5.233538e-02 -9.743974e-02 -1.329299e-01 -1.743579e-01 1.134258e-01 1.454131e-01 -1.294124e-02 5.547704e-02 8.980727e-02 5.671512e-02 -2.659748e-02
<VARIANCE> 25
 1.279213e+01 1.609709e+01 2.031124e+01 2.090490e+01 5.375548e+01 3.654236e+01 3.492198e+01 3.827195e+01 3.219777e+01 2.097000e+01 3.311135e+01 3.072944e+01 3.086326e-01 6.887875e-01 6.931279e-01 2.008742e+00 1.862879e+00 2.569768e+00 1.362240e+00 1.453897e+00 1.270659e+00 1.277059e+00 1.322918e+00 2.338048e+00 5.499924e-01
<GCONST> 8.759364e+01
<TRANSP> 5
 0.000000e+00 1.000000e+00 0.000000e+00 0.000000e+00 0.000000e+00
 0.000000e+00 5.867466e-01 4.132533e-01 0.000000e+00 0.000000e+00
 0.000000e+00 0.000000e+00 4.936415e-01 5.063584e-01 0.000000e+00
 0.000000e+00 0.000000e+00 0.000000e+00 7.025111e-01 2.974889e-01
 0.000000e+00 0.000000e+00 0.000000e+00 0.000000e+00 0.000000e+00
<ENDHMM>
~h "m"
<BEGINHMM>
<NUMSTATES> 5
<STATE> 2
<MEAN> 25
 2.950232e+00 1.628688e+00 5.496587e-01 -1.067250e+00 8.091435e-01 1.529778e+00 -9.185141e-01 1.613340e+00 3.362715e-01 -1.261120e+00 -2.157648e+00 -2.245146e+00 -3.331880e-01 1.141944e+00 -1.559717e-01 7.694733e-01 1.151558e+00 4.909936e-01 3.003634e-01 5.087567e-01 -1.318842e+00 6.465958e-01 -7.358143e-02 -6.408799e-01 -1.168830e+00
<VARIANCE> 25
 9.856394e+00 5.780025e+01 2.410893e+01 3.194613e+01 5.308414e+01 5.812122e+01 5.382164e+01 4.640166e+01 4.933101e+01 2.841168e+01 2.970557e+01 3.217097e+01 9.617129e-01 6.578732e+00 3.108955e+00 3.472923e+00 5.490510e+00 5.124850e+00 6.330500e+00 5.437576e+00 5.031933e+00 2.426618e+00 4.058904e+00 2.690349e+00 3.934727e+00
<GCONST> 1.062665e+02
<STATE> 3
<MEAN> 25
 2.055013e+00 1.489880e+00 -1.363145e-01 1.114304e+00 1.483288e+00 1.020505e+00 1.200973e-01 3.630725e+00 -2.150858e+00 1.532577e-01 -1.987740e+00 -3.113001e+00 -6.281679e-02 -1.644410e+00 9.448767e-02 -2.865617e-01 3.947896e-01 -4.887809e-01 -9.144678e-01 8.858187e-02 1.040945e+00 1.323488e-01 -2.109959e-01 1.769098e-02 1.097984e+00
<VARIANCE> 25
 9.015063e+00 7.096689e+01 3.334277e+01 4.911688e+01 5.964760e+01 4.777408e+01 6.803166e+01 4.337217e+01 5.005444e+01 3.852840e+01 2.441755e+01 2.932499e+01 1.035654e+00 5.528061e+00 2.015637e+00 5.569817e+00 9.160825e+00 4.552579e+00 4.104080e+00 5.375302e+00 5.890862e+00 1.803077e+00 2.975157e+00 2.652232e+00 4.394093e+00
<GCONST> 1.067885e+02
<STATE> 4
<MEAN> 25
 1.213932e+00 -3.261054e+00 -8.067790e-02 -9.649035e-01 5.571845e+00 2.033722e-01 -2.326789e+00 1.169940e+00 -4.230082e-01 1.805863e+00 -3.229802e+00 -1.392527e+00 -1.787843e-01 -2.423676e-01 1.069217e-01 -7.086188e-02 -2.884817e-02 1.683956e-01 2.360350e-01 -3.040217e-01 -8.675356e-02 -1.558984e-01 -2.933912e-01 3.533418e-01 1.092985e-01
<VARIANCE> 25
 1.296971e+01 3.726194e+01 2.851936e+01 4.878669e+01 6.587756e+01 4.297844e+01 3.637970e+01 4.178988e+01 4.133346e+01 3.590935e+01 3.348878e+01 2.011160e+01 1.503417e+00 1.171354e+00 1.351722e+00 2.581046e+00 2.576185e+00 1.916763e+00 2.143436e+00 2.698569e+00 2.032521e+00 1.563500e+00 2.242146e+00 3.111957e+00 1.508029e+00
<GCONST> 9.713314e+01
<TRANSP> 5
 0.000000e+00 1.000000e+00 0.000000e+00 0.000000e+00 0.000000e+00
 0.000000e+00 6.075953e-01 3.924047e-01 0.000000e+00 0.000000e+00
 0.000000e+00 0.000000e+00 5.312369e-01 4.687631e-01 0.000000e+00
 0.000000e+00 0.000000e+00 0.000000e+00 4.164967e-01 5.835034e-01
 0.000000e+00 0.000000e+00 0.000000e+00 0.000000e+00 0.000000e+00
<ENDHMM>
~h "n"
<BEGINHMM>
<NUMSTATES> 5
<STATE> 2
<MEAN> 25
 -9.081818e-01 7.205503e+00 -1.991562e+00 2.029799e+00 7.138435e+00 4.795648e+00 1.886691e+00 -2.357038e+00 -6.913657e+00 -6.667776e-01 4.708440e-01 7.911813e-01 -6.905727e-01 1.023801e+00 -3.259086e-01 5.235493e-01 2.546231e-01 3.934858e-02 4.660586e-01 2.623171e-01 -2.188730e-01 3.754342e-01 -7.017819e-03 -5.173508e-02 -1.171409e+00
<VARIANCE> 25
 5.300736e+01 8.319173e+01 2.864373e+01 2.615316e+01 4.492645e+01 4.042347e+01 5.565455e+01 2.559284e+01 7.715008e+01 3.039435e+01 3.114402e+01 1.874602e+01 2.176257e+00 6.437726e+00 2.762198e+00 3.269984e+00 5.749135e+00 3.662508e+00 4.830618e+00 3.283251e+00 5.133273e+00 3.417702e+00 3.739393e+00 2.000902e+00 3.327354e+00
<GCONST> 1.065839e+02
<STATE> 3
<MEAN> 25
 -1.127583e+00 1.518076e+00 -1.449189e+00 4.134622e-01 -1.173294e+00 1.008867e+00 4.222738e+00 -1.359411e+00 -1.585456e+00 5.273286e-01 2.007734e+00 1.264918e+00 1.040495e+00 -1.593773e+00 8.611884e-01 -6.584940e-02 -1.556532e+00 -9.681197e-01 -4.274451e-01 4.397995e-01 9.119983e-01 -4.784550e-01 4.664588e-01 5.214956e-02 1.940420e+00
<VARIANCE> 25
 1.512380e+02 5.233049e+01 4.358414e+01 4.403886e+01 5.295967e+01 2.891541e+01 6.552577e+01 3.988677e+01 7.348253e+01 3.162762e+01 2.808050e+01 2.210968e+01 6.013348e+00 8.443234e+00 5.736876e+00 4.662271e+00 5.704852e+00 5.586739e+00 7.130846e+00 7.434568e+00 7.630332e+00 3.972865e+00 3.267143e+00 2.255133e+00 5.921825e+00
<GCONST> 1.137011e+02
<STATE> 4
<MEAN> 25
 2.243176e+01 -2.202402e+00 -6.412045e+00 2.103512e+00 3.512259e+00 -9.684267e+00 -4.414463e+00 4.045092e+00 4.092655e+00 -1.075242e+01 -2.319432e+00 2.475001e+00 -1.063288e-01 -3.442867e-02 3.073695e-01 7.830388e-02 -6.051497e-02 -2.794769e-02 -1.696416e-01 -1.031841e-01 1.015297e-01 -1.275108e-01 -1.196343e-01 2.825661e-02 4.649127e-02
<VARIANCE> 25
 8.904584e+01 3.646536e+01 5.305877e+01 5.639949e+01 3.135215e+01 4.506546e+01 3.749255e+01 2.229529e+01 2.313136e+01 4.708426e+01 2.806409e+01 2.860743e+01 1.524741e+00 3.085471e+00 4.086276e+00 5.590684e+00 2.607205e+00 3.293990e+00 3.297177e+00 2.335118e+00 2.299838e+00 3.229339e+00 2.880148e+00 3.078912e+00 2.003785e+00
<GCONST> 1.034508e+02
<TRANSP> 5
 0.000000e+00 1.000000e+00 0.000000e+00 0.000000e+00 0.000000e+00
 0.000000e+00 7.279701e-01 2.720299e-01 0.000000e+00 0.000000e+00
 0.000000e+00 0.000000e+00 5.316823e-01 4.683177e-01 0.000000e+00
 0.000000e+00 0.000000e+00 0.000000e+00 8.540982e-01 1.459018e-01
 0.000000e+00 0.000000e+00 0.000000e+00 0.000000e+00 0.000000e+00
<ENDHMM>
~h "p"
<BEGINHMM>
<NUMSTATES> 5
<STATE> 2
<MEAN> 25
 7.104591e+00 -4.465974e+00 1.155904e+00 -4.161137e+00 -1.156544e+00 -5.448523e+00 -7.244116e+00 2.167679e+00 3.537785e+00 -8.759349e+00 -7.151117e+00 1.499513e+00 3.641755e-01 2.317457e-01 -9.228195e-02 4.585197e-01 -3.180224e-01 7.004130e-02 -9.737647e-01 8.834726e-01 1.489901e+00 -5.802467e-02 7.037335e-01 2.362600e-01 -4.003637e-01
<VARIANCE> 25
 1.016861e+01 2.143938e+01 1.543027e+01 2.497537e+01 1.006471e+01 3.541504e+01 3.543921e+01 1.673304e+01 4.055433e+01 4.846988e+01 4.473607e+01 2.019649e+01 8.480877e-01 2.401704e+00 1.463177e+00 1.882636e+00 2.605705e+00 3.052218e+00 3.457225e+00 1.040030e+00 4.345745e+00 3.134810e+00 1.987018e+00 1.030005e+00 3.416847e-01
<GCONST> 9.126901e+01
<STATE> 3
<MEAN> 25
 4.654607e+00 -1.500739e+00 1.428706e+00 -4.406647e-01 -2.965841e+00 -3.656420e+00 -4.723592e+00 2.840226e+00 5.033678e+00 -1.951699e+00 5.421389e-01 -2.359540e-01 -4.681608e-01 3.116696e-01 -1.929614e-01 1.970567e-02 -1.656948e-01 4.600316e-02 5.406858e-01 -4.663424e-02 -1.796968e-01 6.530986e-01 5.485966e-01 -8.203590e-02 -6.542715e-01
<VARIANCE> 25
 8.646304e+00 3.666045e+01 2.595890e+01 1.191635e+01 7.025283e+00 3.949076e+01 1.085754e+01 2.374452e+01 2.805074e+01 3.066663e+01 2.392827e+01 1.424596e+01 4.994239e-01 4.538886e-01 3.543698e-01 5.869947e-01 6.327257e-01 2.436054e+00 1.255325e+00 1.743867e+00 1.544697e+00 2.323190e+00 1.774255e+00 1.149327e+00 4.243265e-01
<GCONST> 8.050159e+01
<STATE> 4
<MEAN> 25
 2.981067e+00 -1.086912e+00 -1.260290e+00 7.358955e-01 3.258304e-01 2.904240e+00 2.058476e+00 -6.355926e-01 4.754236e-01 2.399582e+00 7.201594e-01 5.831063e-01 -2.545249e-02 7.446880e-03 -3.715158e-02 -2.543880e-02 -2.537008e-02 -1.046382e-02 4.772555e-02 3.157549e-02 4.944412e-03 3.296078e-02 2.533815e-02 -3.966127e-03 -4.462240e-02
<VARIANCE> 25
 1.529304e+00 2.847568e+00 3.300885e+00 4.870360e+00 4.853332e+00 1.048218e+01 7.742693e+00 6.351937e+00 6.523726e+00 8.975885e+00 6.250467e+00 5.949430e+00 1.155373e-01 1.596431e-01 2.484171e-01 4.325406e-01 4.785561e-01 6.836405e-01 7.496993e-01 7.795650e-01 6.493899e-01 7.312587e-01 6.643701e-01 8.303940e-01 5.192756e-02
<GCONST> 5.353087e+01
<TRANSP> 5
 0.000000e+00 1.000000e+00 0.000000e+00 0.000000e+00 0.000000e+00
 0.000000e+00 5.456399e-01 4.543601e-01 0.000000e+00 0.000000e+00
 0.000000e+00 0.000000e+00 7.415631e-01 2.584369e-01 0.000000e+00
 0.000000e+00 0.000000e+00 0.000000e+00 9.370320e-01 6.296802e-02
 0.000000e+00 0.000000e+00 0.000000e+00 0.000000e+00 0.000000e+00
<ENDHMM>
~h "r"
<BEGINHMM>
<NUMSTATES> 5
<STATE> 2
<MEAN> 25
 3.422987e+00 2.788788e+00 1.760647e+00 8.316656e-01 -1.934402e+00 -3.862047e+00 -3.967002e+00 -7.845318e-01 -1.750400e+00 -3.666833e+00 1.425906e+00 3.847732e+00 -5.282231e-01 2.994507e-01 -6.228927e-01 8.450084e-02 7.561172e-01 1.207799e-01 8.787241e-02 4.992266e-02 3.299326e-01 -2.634705e-01 1.657358e-02 9.232008e-01 -9.064115e-01
<VARIANCE> 25
 1.922353e+01 2.218264e+01 2.117682e+01 2.323766e+01 7.784317e+01 3.136730e+01 6.436972e+01 7.583958e+01 2.141422e+01 2.161002e+01 1.179839e+01 1.359546e+01 1.009633e+00 2.461444e+00 3.402955e+00 3.966144e+00 1.614506e+00 3.186273e+00 5.303860e+00 2.840739e+00 3.475008e+00 4.024731e+00 1.600948e+00 2.406072e+00 9.749526e-01
<GCONST> 9.753413e+01
<STATE> 3
<MEAN> 25
 4.870466e-01 4.851554e-01 -1.342008e+00 2.327072e+00 2.924346e+00 1.589174e+00 -3.506305e+00 -5.780300e+00 -1.674963e+00 2.685272e+00 1.133252e+00 1.094656e+00 -3.830985e-01 5.029540e-01 -4.400757e-01 8.067597e-02 -5.057467e-01 1.092441e+00 9.522643e-01 8.303656e-01 2.273007e-01 3.964766e-01 2.057656e-02 -1.731002e-01 -1.132320e+00
<VARIANCE> 25
 2.398730e+01 5.910933e+01 2.383247e+01 1.370544e+01 4.896638e+01 6.569370e+01 4.029257e+01 2.419410e+01 4.888194e+01 3.248695e+01 1.910251e+01 1.702964e+01 1.767079e+00 5.147223e+00 2.266124e+00 1.687394e+00 3.947260e+00 8.299887e+00 3.329190e+00 1.492441e+00 8.202337e+00 1.716968e+00 2.236489e+00 2.096023e+00 2.172612e+00
<GCONST> 1.007134e+02
<STATE> 4
<MEAN> 25
 -2.067208e-01 4.171124e+00 -3.185488e-01 3.603120e+00 2.753029e+00 4.579638e+00 -1.293255e+00 -4.009038e+00 -2.190797e+00 1.629851e+00 1.442637e+00 1.603651e+00 -6.683124e-01 4.908370e-01 6.919809e-02 1.306693e-01 -1.516792e-01 1.812702e-01 6.422318e-01 4.160292e-01 2.659513e-01 3.993058e-01 -2.172544e-01 -5.049642e-01 -7.584437e-01
<VARIANCE> 25
 3.981651e+01 2.127735e+01 2.610030e+01 1.625430e+01 3.036432e+01 4.266513e+01 3.194101e+01 1.540188e+01 3.617546e+01 2.114837e+01 1.357442e+01 1.361025e+01 6.803092e-01 8.753464e-01 9.394210e-01 1.594079e+00 1.210891e+00 1.382119e+00 1.540512e+00 8.456466e-01 1.058389e+00 1.512355e+00 1.284324e+00 1.178061e+00 2.671574e-01
<GCONST> 8.419262e+01
<TRANSP> 5
 0.000000e+00 1.000000e+00 0.000000e+00 0.000000e+00 0.000000e+00
 0.000000e+00 6.913121e-01 3.086879e-01 0.000000e+00 0.000000e+00
 0.000000e+00 0.000000e+00 7.357458e-01 2.642541e-01 0.000000e+00
 0.000000e+00 0.000000e+00 0.000000e+00 7.965345e-01 2.034655e-01
 0.000000e+00 0.000000e+00 0.000000e+00 0.000000e+00 0.000000e+00
<ENDHMM>
~h "s"
<BEGINHMM>
<NUMSTATES> 5
<STATE> 2
<MEAN> 25
 -2.672948e+00 3.207976e+00 8.976991e+00 -2.891045e+00 -3.807892e+00 6.874203e+00 1.418402e+00 -6.388319e+00 3.958687e+00 -2.504216e+00 2.616826e+00 -1.319228e-01 -1.594239e+00 -8.727394e-01 1.818954e+00 -1.602515e+00 -8.849994e-01 1.098114e+00 5.497238e-01 -1.162433e+00 -6.469592e-01 4.945704e-01 1.045785e+00 -3.508270e-01 1.397880e-02
<VARIANCE> 25
 2.247331e+02 2.449691e+02 2.742261e+02 6.222484e+01 1.662863e+02 1.408362e+02 6.915176e+01 5.601399e+01 7.259764e+01 4.579177e+01 4.483464e+01 1.732581e+01 1.545449e+01 1.772326e+01 1.664772e+01 6.861549e+00 1.199563e+01 1.236165e+01 8.867769e+00 7.441066e+00 5.093169e+00 7.452907e+00 5.545858e+00 2.882219e+00 1.418762e+00
<GCONST> 1.259926e+02
<STATE> 3
<MEAN> 25
 -1.017179e+01 -9.189248e+00 1.360250e+01 -9.421443e+00 -2.081985e+00 7.246596e+00 6.034024e-01 -6.909427e+00 -1.862165e-01 4.617985e+00 7.205085e-01 3.673152e-01 8.957608e-01 -7.381933e-02 -8.612667e-01 5.367287e-01 -1.049842e-01 -6.095605e-01 -6.320759e-02 -4.099997e-02 -8.581614e-01 -8.795074e-01 -2.192015e-01 3.109290e-01 3.016460e-01
<VARIANCE> 25
 5.585595e+01 5.238905e+01 5.474603e+01 2.401477e+01 3.683431e+01 5.576863e+01 3.940171e+01 2.799756e+01 3.243185e+01 3.660099e+01 2.117833e+01 1.163571e+01 5.851922e+00 6.581370e+00 4.680167e+00 2.701158e+00 2.878495e+00 3.150498e+00 3.572922e+00 2.382952e+00 3.008026e+00 6.728484e+00 2.042141e+00 1.077762e+00 7.124539e-01
<GCONST> 1.023217e+02
<STATE> 4
<MEAN> 25
 2.725923e+00 2.957502e-01 6.598083e+00 -1.781921e+00 -2.833163e+00 4.677174e+00 -1.683769e-01 -4.870331e+00 -3.082776e+00 -1.308482e+00 -3.338540e-01 2.294127e+00 1.363874e+00 2.067419e+00 -1.575203e+00 1.018713e+00 4.914631e-01 -5.720118e-01 -2.066482e-01 1.131638e+00 6.121693e-01 -3.775917e-01 -8.857543e-01 -2.271295e-01 -7.149703e-01
<VARIANCE> 25
 1.240568e+02 1.032075e+02 4.576248e+01 2.195006e+01 3.555295e+01 4.923255e+01 2.718538e+01 5.443185e+01 3.268654e+01 6.351300e+01 2.487058e+01 1.436930e+01 4.599889e+00 1.054304e+01 8.547104e+00 1.510051e+00 7.427245e+00 6.346470e+00 3.303980e+00 3.067045e+00 3.157886e+00 6.860978e+00 2.429474e+00 1.553214e+00 3.213032e+00
<GCONST> 1.087799e+02
<TRANSP> 5
 0.000000e+00 1.000000e+00 0.000000e+00 0.000000e+00 0.000000e+00
 0.000000e+00 7.719523e-01 2.280477e-01 0.000000e+00 0.000000e+00
 0.000000e+00 0.000000e+00 7.767230e-01 2.232770e-01 0.000000e+00
 0.000000e+00 0.000000e+00 0.000000e+00 6.105104e-01 3.894896e-01
 0.000000e+00 0.000000e+00 0.000000e+00 0.000000e+00 0.000000e+00
<ENDHMM>
~h "t"
<BEGINHMM>
<NUMSTATES> 5
<STATE> 2
<MEAN> 25
 -9.804941e-01 3.658292e+00 1.167433e+00 1.214447e+00 8.382134e-01 3.165940e+00 6.932638e-01 -2.341442e+00 -3.851463e+00 1.125627e+00 -3.900032e-02 -2.260637e-01 7.661358e-01 -6.938841e-01 3.261219e-01 8.562405e-02 2.010105e-02 -8.531962e-01 -3.860839e-01 4.465479e-01 2.248608e-01 -6.609311e-01 -2.097304e-01 1.260098e-01 1.118966e+00
<VARIANCE> 25
 7.553600e+01 4.940384e+01 3.627905e+01 3.447454e+01 1.780105e+01 4.017891e+01 4.158628e+01 2.687125e+01 3.685420e+01 5.055603e+01 2.797480e+01 2.475423e+01 5.521453e+00 4.676359e+00 3.075653e+00 3.562009e+00 1.419980e+00 4.871295e+00 3.754479e+00 4.636963e+00 3.468487e+00 5.606481e+00 3.646939e+00 2.117623e+00 8.105391e+00
<GCONST> 1.065052e+02
<STATE> 3
<MEAN> 25
 9.199916e-01 4.052858e+00 -1.103023e+00 -6.025629e-01 -1.841814e-02 -4.068257e-01 -3.524182e-01 -1.379051e+00 -4.788318e+00 -1.062667e+00 -2.648665e+00 1.187289e+00 -4.049042e-01 -2.828421e-01 -4.264116e-01 1.286888e-01 4.149280e-02 -2.490779e-01 -1.312719e-01 -5.237805e-02 6.528465e-01 -6.141250e-02 1.212678e-01 2.833219e-01 -2.917240e-01
<VARIANCE> 25
 5.092599e+01 6.293672e+01 7.531564e+01 3.726152e+01 1.425027e+01 3.748376e+01 3.744444e+01 2.174672e+01 4.201054e+01 3.496028e+01 2.762249e+01 2.568821e+01 1.151695e+00 2.204810e+00 1.995872e+00 1.154417e+00 2.150855e+00 1.385892e+00 2.813015e+00 1.750727e+00 2.412704e+00 2.209187e+00 1.479810e+00 1.582138e+00 1.584398e+00
<GCONST> 9.623618e+01
<STATE> 4
<MEAN> 25
 3.766334e-01 -5.116743e-01 7.129724e-01 1.000596e+00 -1.750649e-01 9.876969e-01 -5.877367e-01 -1.143326e+00 1.109562e+00 -4.928013e-01 -7.325446e-01 -5.689852e-01 -1.491017e-01 -1.546506e-01 -2.080063e-01 8.985993e-02 5.263392e-02 -5.098542e-02 5.150319e-02 -4.168127e-02 1.756503e-01 2.250012e-01 2.177100e-01 8.837564e-02 -1.158126e-01
<VARIANCE> 25
 3.363398e+01 3.726681e+01 2.903843e+01 3.069598e+01 1.676740e+01 2.176487e+01 4.985524e+01 1.599359e+01 3.328548e+01 2.985050e+01 1.867941e+01 1.491090e+01 5.593169e-01 6.735044e-01 7.944380e-01 7.502908e-01 7.366819e-01 9.376190e-01 1.508017e+00 8.272640e-01 1.431027e+00 1.329822e+00 1.005070e+00 1.014524e+00 6.091285e-01
<GCONST> 8.350983e+01
<TRANSP> 5
 0.000000e+00 1.000000e+00 0.000000e+00 0.000000e+00 0.000000e+00
 0.000000e+00 4.342168e-01 5.657833e-01 0.000000e+00 0.000000e+00
 0.000000e+00 0.000000e+00 3.115031e-01 6.884969e-01 0.000000e+00
 0.000000e+00 0.000000e+00 0.000000e+00 6.742524e-01 3.257476e-01
 0.000000e+00 0.000000e+00 0.000000e+00 0.000000e+00 0.000000e+00
<ENDHMM>
~h "u"
<BEGINHMM>
<NUMSTATES> 5
<STATE> 2
<MEAN> 25
 1.545544e+00 2.908979e+00 -1.033869e+00 2.272747e+00 3.485024e-01 1.788670e+00 -3.083663e-02 -1.249304e+00 -1.791642e+00 -1.876288e+00 -4.638622e-01 7.762918e-01 -5.414240e-01 -4.159745e-01 7.251712e-02 -1.287576e-01 -1.952347e-01 -9.400122e-02 1.237073e+00 -2.356231e-01 -3.304526e-01 4.306575e-01 -2.058333e-01 4.608787e-01 -2.073269e-01
<VARIANCE> 25
 5.298600e+01 3.161453e+01 2.669448e+01 3.767429e+01 4.753928e+01 3.088731e+01 5.366432e+01 3.437282e+01 5.178461e+01 5.285680e+01 3.495977e+01 2.647373e+01 1.811923e+00 9.638983e+00 4.076527e+00 5.635900e+00 8.121819e+00 4.402577e+00 5.562781e+00 4.133768e+00 4.297601e+00 6.048107e+00 5.206606e+00 3.818095e+00 9.081027e+00
<GCONST> 1.110013e+02
<STATE> 3
<MEAN> 25
 3.916099e+00 -2.280654e+00 1.643532e+00 -5.724706e-02 -1.320124e+00 -4.987940e-01 1.640442e+00 -3.485153e+00 -3.957083e+00 -1.051570e+00 -1.833156e+00 6.370967e-01 1.195314e+00 -5.932269e-01 1.422353e+00 -9.232816e-01 -3.045252e-01 -7.884456e-01 -8.337743e-01 6.215567e-01 -3.382007e-02 -1.146559e+00 -6.843671e-01 2.892595e-03 2.424198e+00
<VARIANCE> 25
 1.245027e+02 9.282783e+01 4.256020e+01 4.339135e+01 4.906671e+01 5.691376e+01 5.298235e+01 7.152097e+01 5.372021e+01 8.839542e+01 3.898443e+01 3.364372e+01 7.478911e+00 9.236481e+00 4.959074e+00 7.961743e+00 6.067247e+00 8.724769e+00 1.237024e+01 9.097397e+00 8.863817e+00 1.678584e+01 5.368679e+00 3.081751e+00 1.302120e+01
<GCONST> 1.216211e+02
<STATE> 4
<MEAN> 25
 1.516478e+01 4.434305e+00 5.977440e+00 2.444052e+00 -3.767568e+00 -7.532247e+00 -3.328224e+00 2.328378e+00 -3.126220e-02 -1.102930e+01 -4.331678e+00 2.037850e+00 -5.948844e-01 5.431266e-01 -7.692672e-02 -1.988519e-01 -2.071800e-01 2.833964e-01 2.455835e-01 1.536549e-01 -1.067808e-01 6.320145e-01 4.073045e-02 -2.388934e-01 -9.343771e-01
<VARIANCE> 25
 1.655937e+02 6.312397e+01 4.734980e+01 3.910873e+01 4.152271e+01 1.031196e+02 8.770208e+01 4.420412e+01 6.860275e+01 1.490814e+02 2.513086e+01 3.328450e+01 1.448768e+00 3.029722e+00 2.198393e+00 3.522789e+00 2.656973e+00 5.395837e+00 5.082900e+00 4.308206e+00 3.962756e+00 4.347431e+00 1.518985e+00 2.241594e+00 2.048832e+00
<GCONST> 1.093768e+02
<TRANSP> 5
 0.000000e+00 1.000000e+00 0.000000e+00 0.000000e+00 0.000000e+00
 0.000000e+00 3.554804e-01 6.445196e-01 0.000000e+00 0.000000e+00
 0.000000e+00 0.000000e+00 4.719613e-01 5.280387e-01 0.000000e+00
 0.000000e+00 0.000000e+00 0.000000e+00 6.142684e-01 3.857316e-01
 0.000000e+00 0.000000e+00 0.000000e+00 0.000000e+00 0.000000e+00
<ENDHMM>
~h "w"
<BEGINHMM>
<NUMSTATES> 5
<STATE> 2
<MEAN> 25
 3.395557e+00 -8.354434e-01 -9.095798e-01 -3.626566e+00 -4.378996e+00 -7.383208e+00 2.209019e-01 3.478421e+00 2.918554e+00 -7.406859e-01 -2.182171e+00 9.898871e-01 4.539360e-02 1.035183e+00 8.437592e-01 5.034719e-01 -5.069991e-01 -9.129528e-01 -1.135790e+00 4.125715e-01 -3.413326e-02 4.639539e-01 1.602744e-01 -7.516261e-01 -5.658752e-01
<VARIANCE> 25
 2.746750e+01 3.324421e+01 3.807326e+01 3.223857e+01 1.971621e+01 2.759556e+01 3.496443e+01 1.235374e+01 2.967194e+01 1.778655e+01 1.615528e+01 1.556301e+01 3.260456e-01 1.153703e+00 8.122538e-01 1.375743e+00 7.302862e-01 1.193313e+00 2.367886e+00 1.684023e+00 1.341296e+00 7.989711e-01 1.158547e+00 8.444600e-01 5.350642e-01
<GCONST> 8.384052e+01
<STATE> 3
<MEAN> 25
 2.535431e+00 -2.072442e+00 4.232261e+00 -7.265514e-01 -4.745988e+00 -5.534894e+00 -5.906934e+00 -3.773004e-01 7.228656e+00 3.716567e+00 1.323073e+00 -3.802793e+00 2.664710e-02 -2.117991e-01 -8.565854e-02 2.076234e-02 -1.223025e-01 2.460795e-03 1.342527e-01 4.410758e-02 5.147051e-02 -1.053885e-02 -1.031065e-02 5.659703e-02 1.221582e-01
<VARIANCE> 25
 1.314624e+01 4.206153e+01 1.346134e+01 1.283060e+01 2.575931e+01 3.609621e+01 5.037299e+01 2.609811e+01 3.918037e+01 2.014764e+01 2.271038e+01 1.455641e+01 2.172344e-01 8.523300e-01 4.489995e-01 8.099352e-01 1.266826e+00 1.635161e+00 2.584535e+00 1.292705e+00 5.702460e-01 1.241148e+00 1.439278e+00 1.044247e+00 3.124499e-01
<GCONST> 8.203719e+01
<STATE> 4
<MEAN> 25
 2.291589e+01 -1.086550e+00 -3.792475e+00 3.393926e+00 -2.877018e+00 -1.951474e+01 -7.556224e+00 9.487298e+00 9.836834e+00 -8.308516e+00 -1.879172e+00 3.758645e+00 -1.180582e-01 3.759114e-01 3.194965e-01 2.399393e-02 -1.448675e-01 6.342772e-02 2.968310e-02 -7.460096e-02 -3.112458e-03 -3.221048e-02 -1.885926e-01 8.923305e-02 -2.308826e-01
<VARIANCE> 25
 6.023692e+01 2.868588e+01 3.921858e+01 2.174474e+01 1.430337e+01 4.509397e+01 3.454340e+01 1.113412e+01 2.196223e+01 2.433269e+01 2.420235e+01 7.563072e+00 3.405067e-01 1.196847e+00 2.066059e+00 1.553020e+00 5.849553e-01 1.895794e+00 2.363016e+00 7.988632e-01 6.329612e-01 1.148606e+00 7.564102e-01 5.262799e-01 4.770919e-01
<GCONST> 8.308955e+01
<TRANSP> 5
 0.000000e+00 1.000000e+00 0.000000e+00 0.000000e+00 0.000000e+00
 0.000000e+00 7.376642e-01 2.623359e-01 0.000000e+00 0.000000e+00
 0.000000e+00 0.000000e+00 8.862095e-01 1.137905e-01 0.000000e+00
 0.000000e+00 0.000000e+00 0.000000e+00 8.661197e-01 1.338803e-01
 0.000000e+00 0.000000e+00 0.000000e+00 0.000000e+00 0.000000e+00
<ENDHMM>
~h "kh"
<BEGINHMM>
<NUMSTATES> 5
<STATE> 2
<MEAN> 25
 -4.719821e+00 -2.051362e+00 5.777490e+00 2.839001e+00 -2.650134e+00 -1.839124e+00 1.712421e-01 5.372739e+00 -1.295071e+00 2.477647e+00 8.950469e+00 5.416475e-01 -1.072562e-01 1.850678e-01 -1.417164e-01 3.453739e-01 -1.570880e-01 -6.841621e-01 3.295453e-01 1.212414e+00 4.597400e-01 7.675055e-01 -5.365913e-01 2.895625e-01 -7.897893e-02
<VARIANCE> 25
 1.591681e+01 3.914767e+01 3.432462e+01 7.441291e+01 5.974266e+01 9.429569e+01 1.180585e+01 6.575231e+01 2.521103e+01 7.867123e+01 2.346693e+01 1.311902e+01 6.600547e-01 1.056373e+00 1.067402e+00 2.595897e+00 4.065782e+00 1.585875e+00 1.037965e+00 2.881431e+00 2.345713e+00 6.677099e-01 3.966661e+00 6.600981e-01 1.207851e+00
<GCONST> 9.405828e+01
<STATE> 3
<MEAN> 25
 -3.666975e+00 -1.307467e+00 5.921018e+00 2.837443e+00 -3.395962e+00 -1.515830e+00 2.242549e+00 7.178047e+00 -1.240486e+00 2.293515e+00 4.943106e+00 2.243865e+00 3.548397e-01 -6.359313e-02 1.758931e-01 -5.560986e-01 -2.757969e-01 -1.424550e-01 6.402878e-01 4.546863e-01 1.843764e-01 4.212953e-01 -2.106742e+00 1.275800e-02 -1.267425e-01
<VARIANCE> 25
 1.608280e+01 3.697389e+01 1.697282e+01 4.243750e+01 4.524049e+01 8.119868e+01 5.582360e+00 8.547845e+01 3.649125e+01 7.270865e+01 1.448898e+01 1.089503e+01 1.831434e+00 1.232102e+00 9.601672e-01 3.544325e+00 7.305611e+00 1.331201e+00 1.058525e+00 4.233654e+00 1.735486e+00 1.148975e+00 2.191786e+00 1.414557e+00 8.199024e-01
<GCONST> 9.367282e+01
<STATE> 4
<MEAN> 25
 -2.214746e+00 -1.536035e+00 6.619595e+00 -1.738005e-01 -5.316646e+00 -2.054314e+00 3.300769e+00 5.867696e+00 -2.202128e+00 3.580546e+00 1.199241e-02 8.357171e-01 8.478881e-01 -4.539323e-01 4.488584e-01 -9.811938e-01 -1.549310e+00 -5.170273e-01 -4.360958e-02 -8.509098e-01 -5.517782e-01 4.670654e-01 -2.209598e+00 -7.817647e-01 4.860773e-01
<VARIANCE> 25
 2.157197e+01 3.835757e+01 1.195280e+01 3.483450e+01 3.117639e+01 6.984953e+01 3.872400e+00 7.373499e+01 4.872432e+01 5.966164e+01 3.434067e+01 9.739451e+00 1.604926e+00 1.339682e+00 1.643431e+00 5.470385e+00 8.166816e+00 1.421266e+00 2.280332e+00 2.494527e+00 2.950009e+00 3.903132e+00 7.344590e-01 1.836702e+00 1.443232e+00
<GCONST> 9.608611e+01
<TRANSP> 5
 0.000000e+00 1.000000e+00 0.000000e+00 0.000000e+00 0.000000e+00
 0.000000e+00 2.939882e-01 7.060118e-01 0.000000e+00 0.000000e+00
 0.000000e+00 0.000000e+00 2.939882e-01 7.060118e-01 0.000000e+00
 0.000000e+00 0.000000e+00 0.000000e+00 3.550001e-01 6.449998e-01
 0.000000e+00 0.000000e+00 0.000000e+00 0.000000e+00 0.000000e+00
<ENDHMM>
~h "ny"
<BEGINHMM>
<NUMSTATES> 5
<STATE> 2
<MEAN> 25
 6.425462e-01 2.735875e+00 3.325785e+00 3.396884e+00 3.586778e+00 -5.356017e-01 -5.679249e+00 1.001015e+00 4.409537e-01 -2.454957e-01 6.363866e-01 -4.620933e+00 5.618097e-02 -5.154903e-01 1.608042e-01 3.121768e-01 7.518083e-02 -8.290433e-01 -1.986940e-01 -1.450226e-01 -2.753023e-01 2.106268e-01 6.674267e-01 4.504168e-02 5.291674e-01
<VARIANCE> 25
 7.670838e+00 2.968878e+01 2.051737e+01 3.429655e+01 5.380138e+01 5.126257e+01 5.404302e+01 1.886249e+01 2.114852e+01 1.478687e+01 2.165722e+01 4.325706e+01 7.928321e-01 1.680892e+00 1.775095e+00 2.000205e+00 2.811513e+00 5.251009e+00 3.314182e+00 1.766851e+00 1.311407e+00 1.467505e+00 1.462214e+00 2.517655e+00 7.277294e-01
<GCONST> 9.302240e+01
<STATE> 3
<MEAN> 25
 2.353525e+00 -3.267711e+00 2.678757e-01 5.572219e+00 4.551638e+00 -7.595013e+00 -5.167680e+00 -2.309378e+00 -2.644789e+00 1.077607e+00 6.305694e+00 1.390607e+00 3.458109e-01 1.201535e-01 -9.845865e-01 -5.846498e-01 -4.688767e-01 3.279510e-01 4.610191e-01 6.326213e-02 -2.641282e-01 -1.020582e-01 4.551924e-01 7.257034e-01 -1.072403e-01
<VARIANCE> 25
 7.175602e+00 1.767265e+01 2.857445e+01 3.401595e+01 3.209351e+01 4.182104e+01 3.183878e+01 2.460708e+01 1.649431e+01 2.163516e+01 2.679591e+01 2.866121e+01 5.818838e-01 6.059442e-01 1.189902e+00 1.606392e+00 2.318547e+00 3.008574e+00 1.167904e+00 1.291553e+00 1.096782e+00 9.426934e-01 8.989033e-01 9.422300e-01 3.863145e-01
<GCONST> 8.493092e+01
<STATE> 4
<MEAN> 25
 3.760323e+00 -3.479548e+00 -2.437372e+00 1.632072e+00 9.382427e-01 -2.807621e+00 -1.979095e+00 2.117829e-01 -2.679132e+00 -1.543417e+00 6.240042e+00 3.688869e+00 -2.490160e-01 3.863637e-01 -2.191072e-01 6.763044e-02 1.465713e-01 6.379403e-01 6.883520e-01 6.363342e-01 -7.037956e-02 -7.530648e-02 -1.311852e-01 1.963108e-03 -5.611106e-01
<VARIANCE> 25
 9.745479e+00 2.393864e+01 1.583196e+01 2.404206e+01 1.579467e+01 2.171626e+01 2.367308e+01 1.203180e+01 2.782442e+01 1.413210e+01 2.700820e+01 1.293246e+01 4.389892e-01 5.136150e-01 8.748036e-01 8.555984e-01 1.219209e+00 1.284301e+00 9.397371e-01 8.654578e-01 7.566110e-01 1.190183e+00 1.035062e+00 7.062396e-01 3.188627e-01
<GCONST> 7.756229e+01
<TRANSP> 5
 0.000000e+00 1.000000e+00 0.000000e+00 0.000000e+00 0.000000e+00
 0.000000e+00 8.104196e-01 1.895804e-01 0.000000e+00 0.000000e+00
 0.000000e+00 0.000000e+00 7.754706e-01 2.245294e-01 0.000000e+00
 0.000000e+00 0.000000e+00 0.000000e+00 7.847944e-01 2.152056e-01
 0.000000e+00 0.000000e+00 0.000000e+00 0.000000e+00 0.000000e+00
<ENDHMM>
~h "sp"
<BEGINHMM>
<NUMSTATES> 3
<STATE> 2
~s "silst"
<TRANSP> 3
 0.000000e+00 1.848554e-01 8.151446e-01
 0.000000e+00 7.977965e-01 2.022035e-01
 0.000000e+00 0.000000e+00 0.000000e+00
<ENDHMM>
~h "sil"
<BEGINHMM>
<NUMSTATES> 5
<STATE> 2
<MEAN> 25
 -6.569363e+00 4.156602e+00 -2.046332e+00 2.083854e+00 -1.080761e+00 4.287370e+00 1.382613e+00 -1.667660e+00 8.520933e-01 3.515217e+00 3.475297e+00 -2.538612e-01 -2.667060e-01 -1.187152e-01 -1.143536e-01 -1.573889e-01 1.317829e-01 2.529156e-01 2.850541e-01 3.818473e-04 1.199193e-01 1.301870e-01 5.726379e-02 4.505736e-02 -9.147391e-02
<VARIANCE> 25
 6.729105e+01 4.025126e+01 3.627645e+01 3.858543e+01 2.729456e+01 4.611906e+01 3.161249e+01 2.245744e+01 2.681816e+01 2.460888e+01 2.111911e+01 1.990225e+01 1.288413e+00 1.294078e+00 1.016852e+00 1.241402e+00 1.479043e+00 1.621617e+00 1.712090e+00 1.663814e+00 1.404592e+00 1.354484e+00 1.229494e+00 1.072138e+00 1.183109e+00
<GCONST> 9.108478e+01
<STATE> 3
~s "silst"
<STATE> 4
<MEAN> 25
 -1.211263e+01 5.194113e-01 9.132881e-01 -2.071790e+00 -3.850071e-01 3.437108e+00 2.194606e+00 -6.865042e-04 -6.555781e-01 4.348520e+00 5.862980e-01 -1.222737e+00 -1.718281e-02 -1.345314e-02 4.174696e-04 -5.112746e-03 4.608184e-03 4.279435e-03 -2.829841e-04 -4.036307e-03 -3.041398e-03 -3.672217e-03 1.232673e-02 2.705450e-03 -6.134188e-03
<VARIANCE> 25
 1.090601e+02 4.474546e+00 5.681481e+00 1.268557e+01 7.275722e+00 1.206436e+01 1.128195e+01 1.051610e+01 8.902155e+00 8.550314e+00 6.921809e+00 6.781830e+00 9.705754e-02 1.583498e-01 2.503571e-01 4.240023e-01 4.357595e-01 5.380927e-01 8.104193e-01 7.735421e-01 6.729072e-01 6.274527e-01 6.546940e-01 5.628495e-01 4.846838e-02
<GCONST> 6.062394e+01
<TRANSP> 5
 0.000000e+00 1.000000e+00 0.000000e+00 0.000000e+00 0.000000e+00
 0.000000e+00 6.949681e-01 1.099117e-01 1.951203e-01 0.000000e+00
 0.000000e+00 0.000000e+00 7.880425e-01 2.119575e-01 0.000000e+00
 0.000000e+00 4.870587e-03 0.000000e+00 9.353849e-01 5.974458e-02
 0.000000e+00 0.000000e+00 0.000000e+00 0.000000e+00 0.000000e+00
<ENDHMM>
