~o
<STREAMINFO> 1 25
<VECSIZE> 25<NULLD><MFCC_D_N_Z_0><DIAGC>
~t "T_a"
<TRANSP> 5
 0.000000e+00 1.000000e+00 0.000000e+00 0.000000e+00 0.000000e+00
 0.000000e+00 2.852274e-01 7.147727e-01 0.000000e+00 0.000000e+00
 0.000000e+00 0.000000e+00 5.809664e-02 9.419034e-01 0.000000e+00
 0.000000e+00 0.000000e+00 0.000000e+00 5.473559e-01 4.526440e-01
 0.000000e+00 0.000000e+00 0.000000e+00 0.000000e+00 0.000000e+00
~t "T_b"
<TRANSP> 5
 0.000000e+00 1.000000e+00 0.000000e+00 0.000000e+00 0.000000e+00
 0.000000e+00 6.634480e-01 3.365521e-01 0.000000e+00 0.000000e+00
 0.000000e+00 0.000000e+00 7.026617e-01 2.973383e-01 0.000000e+00
 0.000000e+00 0.000000e+00 0.000000e+00 8.291075e-01 1.708925e-01
 0.000000e+00 0.000000e+00 0.000000e+00 0.000000e+00 0.000000e+00
~t "T_e"
<TRANSP> 5
 0.000000e+00 1.000000e+00 0.000000e+00 0.000000e+00 0.000000e+00
 0.000000e+00 5.176664e-01 4.823336e-01 0.000000e+00 0.000000e+00
 0.000000e+00 0.000000e+00 3.667243e-01 6.332757e-01 0.000000e+00
 0.000000e+00 0.000000e+00 0.000000e+00 6.426611e-01 3.573389e-01
 0.000000e+00 0.000000e+00 0.000000e+00 0.000000e+00 0.000000e+00
~t "T_h"
<TRANSP> 5
 0.000000e+00 1.000000e+00 0.000000e+00 0.000000e+00 0.000000e+00
 0.000000e+00 6.975496e-01 3.024504e-01 0.000000e+00 0.000000e+00
 0.000000e+00 0.000000e+00 5.172926e-01 4.827074e-01 0.000000e+00
 0.000000e+00 0.000000e+00 0.000000e+00 7.038190e-01 2.961810e-01
 0.000000e+00 0.000000e+00 0.000000e+00 0.000000e+00 0.000000e+00
~t "T_i"
<TRANSP> 5
 0.000000e+00 1.000000e+00 0.000000e+00 0.000000e+00 0.000000e+00
 0.000000e+00 8.280325e-01 1.719675e-01 0.000000e+00 0.000000e+00
 0.000000e+00 0.000000e+00 8.184244e-01 1.815756e-01 0.000000e+00
 0.000000e+00 0.000000e+00 0.000000e+00 7.854449e-01 2.145551e-01
 0.000000e+00 0.000000e+00 0.000000e+00 0.000000e+00 0.000000e+00
~t "T_j"
<TRANSP> 5
 0.000000e+00 1.000000e+00 0.000000e+00 0.000000e+00 0.000000e+00
 0.000000e+00 8.415059e-01 1.584941e-01 0.000000e+00 0.000000e+00
 0.000000e+00 0.000000e+00 7.858091e-01 2.141910e-01 0.000000e+00
 0.000000e+00 0.000000e+00 0.000000e+00 6.615840e-01 3.384160e-01
 0.000000e+00 0.000000e+00 0.000000e+00 0.000000e+00 0.000000e+00
~t "T_k"
<TRANSP> 5
 0.000000e+00 1.000000e+00 0.000000e+00 0.000000e+00 0.000000e+00
 0.000000e+00 6.000000e-01 4.000000e-01 0.000000e+00 0.000000e+00
 0.000000e+00 0.000000e+00 6.000000e-01 4.000000e-01 0.000000e+00
 0.000000e+00 0.000000e+00 0.000000e+00 7.000000e-01 3.000000e-01
 0.000000e+00 0.000000e+00 0.000000e+00 0.000000e+00 0.000000e+00
~t "T_l"
<TRANSP> 5
 0.000000e+00 1.000000e+00 0.000000e+00 0.000000e+00 0.000000e+00
 0.000000e+00 6.226195e-01 3.773806e-01 0.000000e+00 0.000000e+00
 0.000000e+00 0.000000e+00 5.166105e-01 4.833895e-01 0.000000e+00
 0.000000e+00 0.000000e+00 0.000000e+00 6.489626e-01 3.510374e-01
 0.000000e+00 0.000000e+00 0.000000e+00 0.000000e+00 0.000000e+00
~t "T_m"
<TRANSP> 5
 0.000000e+00 1.000000e+00 0.000000e+00 0.000000e+00 0.000000e+00
 0.000000e+00 5.710622e-01 4.289378e-01 0.000000e+00 0.000000e+00
 0.000000e+00 0.000000e+00 5.902302e-01 4.097698e-01 0.000000e+00
 0.000000e+00 0.000000e+00 0.000000e+00 5.576140e-01 4.423860e-01
 0.000000e+00 0.000000e+00 0.000000e+00 0.000000e+00 0.000000e+00
~t "T_n"
<TRANSP> 5
 0.000000e+00 1.000000e+00 0.000000e+00 0.000000e+00 0.000000e+00
 0.000000e+00 7.108220e-01 2.891780e-01 0.000000e+00 0.000000e+00
 0.000000e+00 0.000000e+00 4.888147e-01 5.111852e-01 0.000000e+00
 0.000000e+00 0.000000e+00 0.000000e+00 8.534840e-01 1.465160e-01
 0.000000e+00 0.000000e+00 0.000000e+00 0.000000e+00 0.000000e+00
~t "T_p"
<TRANSP> 5
 0.000000e+00 1.000000e+00 0.000000e+00 0.000000e+00 0.000000e+00
 0.000000e+00 5.810653e-01 4.189347e-01 0.000000e+00 0.000000e+00
 0.000000e+00 0.000000e+00 7.145491e-01 2.854509e-01 0.000000e+00
 0.000000e+00 0.000000e+00 0.000000e+00 9.369958e-01 6.300423e-02
 0.000000e+00 0.000000e+00 0.000000e+00 0.000000e+00 0.000000e+00
~t "T_r"
<TRANSP> 5
 0.000000e+00 1.000000e+00 0.000000e+00 0.000000e+00 0.000000e+00
 0.000000e+00 6.733282e-01 3.266718e-01 0.000000e+00 0.000000e+00
 0.000000e+00 0.000000e+00 7.524943e-01 2.475058e-01 0.000000e+00
 0.000000e+00 0.000000e+00 0.000000e+00 8.040332e-01 1.959669e-01
 0.000000e+00 0.000000e+00 0.000000e+00 0.000000e+00 0.000000e+00
~t "T_s"
<TRANSP> 5
 0.000000e+00 1.000000e+00 0.000000e+00 0.000000e+00 0.000000e+00
 0.000000e+00 7.300251e-01 2.699749e-01 0.000000e+00 0.000000e+00
 0.000000e+00 0.000000e+00 7.658451e-01 2.341549e-01 0.000000e+00
 0.000000e+00 0.000000e+00 0.000000e+00 6.507070e-01 3.492930e-01
 0.000000e+00 0.000000e+00 0.000000e+00 0.000000e+00 0.000000e+00
~t "T_t"
<TRANSP> 5
 0.000000e+00 1.000000e+00 0.000000e+00 0.000000e+00 0.000000e+00
 0.000000e+00 4.202734e-01 5.797266e-01 0.000000e+00 0.000000e+00
 0.000000e+00 0.000000e+00 4.561578e-01 5.438423e-01 0.000000e+00
 0.000000e+00 0.000000e+00 0.000000e+00 6.477086e-01 3.522914e-01
 0.000000e+00 0.000000e+00 0.000000e+00 0.000000e+00 0.000000e+00
~t "T_u"
<TRANSP> 5
 0.000000e+00 1.000000e+00 0.000000e+00 0.000000e+00 0.000000e+00
 0.000000e+00 3.777101e-01 6.222899e-01 0.000000e+00 0.000000e+00
 0.000000e+00 0.000000e+00 4.816999e-01 5.183001e-01 0.000000e+00
 0.000000e+00 0.000000e+00 0.000000e+00 6.141511e-01 3.858489e-01
 0.000000e+00 0.000000e+00 0.000000e+00 0.000000e+00 0.000000e+00
~t "T_w"
<TRANSP> 5
 0.000000e+00 1.000000e+00 0.000000e+00 0.000000e+00 0.000000e+00
 0.000000e+00 7.406265e-01 2.593735e-01 0.000000e+00 0.000000e+00
 0.000000e+00 0.000000e+00 8.523951e-01 1.476049e-01 0.000000e+00
 0.000000e+00 0.000000e+00 0.000000e+00 8.617694e-01 1.382306e-01
 0.000000e+00 0.000000e+00 0.000000e+00 0.000000e+00 0.000000e+00
~t "T_kh"
<TRANSP> 5
 0.000000e+00 1.000000e+00 0.000000e+00 0.000000e+00 0.000000e+00
 0.000000e+00 4.661099e-01 5.338901e-01 0.000000e+00 0.000000e+00
 0.000000e+00 0.000000e+00 3.965979e-01 6.034021e-01 0.000000e+00
 0.000000e+00 0.000000e+00 0.000000e+00 4.466223e-01 5.533777e-01
 0.000000e+00 0.000000e+00 0.000000e+00 0.000000e+00 0.000000e+00
~t "T_ny"
<TRANSP> 5
 0.000000e+00 1.000000e+00 0.000000e+00 0.000000e+00 0.000000e+00
 0.000000e+00 8.029674e-01 1.970326e-01 0.000000e+00 0.000000e+00
 0.000000e+00 0.000000e+00 7.783944e-01 2.216056e-01 0.000000e+00
 0.000000e+00 0.000000e+00 0.000000e+00 8.037588e-01 1.962412e-01
 0.000000e+00 0.000000e+00 0.000000e+00 0.000000e+00 0.000000e+00
~s "ST_kh_2_1"
<MEAN> 25
 -4.943524e+00 -3.237972e+00 4.640379e+00 2.811673e-01 -2.094867e+00 4.085110e+00 3.521950e-01 1.826571e+00 -6.460977e-01 3.348040e+00 8.582623e+00 5.812871e-01 -3.907395e-01 2.917851e-01 -3.802617e-01 1.278083e+00 5.584130e-02 -7.661267e-01 -3.131701e-01 6.670961e-01 6.530563e-01 1.222628e+00 1.364851e-01 -2.333623e-01 -4.369769e-01
<VARIANCE> 25
 1.329193e+01 2.804245e+01 3.143629e+01 7.438495e+01 4.955330e+01 1.275122e+02 1.102447e+01 5.417376e+01 2.249931e+01 6.850645e+01 1.865944e+01 1.034440e+01 2.779033e-01 1.081962e+00 9.846780e-01 1.887989e+00 3.637602e+00 1.668888e+00 5.073128e-01 2.755631e+00 2.639826e+00 1.033636e+00 2.945273e+00 9.881626e-01 1.553024e+00
<GCONST> 9.144096e+01
~s "ST_kh_3_1"
<MEAN> 25
 -4.752306e+00 -1.479196e+00 6.002923e+00 4.044763e+00 -3.364342e+00 -1.460540e+00 1.545064e+00 7.388652e+00 -1.346254e-01 2.673369e+00 5.173864e+00 1.193821e+00 5.347417e-02 -6.720776e-02 3.282002e-01 -4.661968e-01 -2.183235e-01 -1.191836e-02 8.891125e-01 1.091960e+00 5.017024e-01 7.209352e-02 -2.016637e+00 1.647849e-01 -2.727091e-01
<VARIANCE> 25
 1.324172e+01 3.508769e+01 1.419961e+01 3.853351e+01 3.683304e+01 9.335593e+01 4.976385e+00 7.844417e+01 4.365494e+01 6.968505e+01 1.199292e+01 1.612530e+01 1.161341e+00 1.460638e+00 9.450739e-01 2.230492e+00 5.162552e+00 9.541328e-01 1.112232e+00 2.620346e+00 2.917296e-01 8.406312e-01 1.506804e+00 1.504823e+00 4.544203e-01
<GCONST> 8.835054e+01
~s "ST_kh_4_1"
<MEAN> 25
 -2.042412e+00 -2.483933e+00 6.371444e+00 -1.528318e+00 -4.997479e+00 -2.646910e+00 3.680261e+00 5.330793e+00 -2.829262e+00 4.197789e+00 2.298615e-01 1.572520e+00 1.285469e+00 -3.962726e-02 4.875991e-01 -7.942204e-01 -1.332743e+00 -6.951092e-01 -6.599381e-01 -1.266030e+00 -1.026108e+00 9.561275e-02 -2.459326e+00 -1.321316e+00 5.805623e-01
<VARIANCE> 25
 2.009408e+01 5.054707e+01 1.026768e+01 3.837738e+01 3.151970e+01 4.646568e+01 2.290716e+00 6.648878e+01 3.365431e+01 7.427336e+01 3.092181e+01 6.860534e+00 1.231910e+00 1.360122e+00 1.455978e+00 6.933874e+00 8.340454e+00 1.678728e+00 4.431920e+00 2.105799e+00 2.598764e+00 5.117276e+00 6.365889e-01 2.468357e+00 1.303714e+00
<GCONST> 9.534880e+01
~s "ST_s_2_1"
<MEAN> 25
 -2.619487e+00 7.446724e+00 4.710698e+00 -1.155409e+00 -4.069343e-01 4.468844e+00 2.634130e+00 -5.778700e+00 5.129422e+00 -3.029724e+00 2.686927e+00 8.268516e-01 -1.741699e+00 -1.194477e+00 2.679007e+00 -1.944027e+00 -1.349579e+00 1.588586e+00 3.200760e-01 -1.354069e+00 -9.232927e-01 7.085304e-01 1.167307e+00 -6.657686e-01 4.909779e-02
<VARIANCE> 25
 2.568290e+02 1.856157e+02 2.418078e+02 4.650758e+01 1.186766e+02 1.348823e+02 6.037495e+01 5.983460e+01 6.709480e+01 5.494526e+01 5.176123e+01 1.330629e+01 1.677293e+01 1.826626e+01 1.507300e+01 6.432424e+00 1.275878e+01 1.330080e+01 9.814053e+00 8.034194e+00 5.203990e+00 7.532356e+00 5.757579e+00 2.804179e+00 1.794951e+00
<GCONST> 1.255029e+02
~s "ST_s_3_1"
<MEAN> 25
 -1.032146e+01 -9.456910e+00 1.360003e+01 -9.491881e+00 -2.892818e+00 7.909489e+00 -1.200806e+00 -6.246603e+00 1.044145e+00 4.481081e+00 5.426294e-01 -7.413091e-02 -4.777074e-01 -1.147473e+00 1.734115e-01 -1.942710e-01 -7.399146e-02 -2.188285e-01 2.317698e-01 -3.512817e-01 -3.411395e-01 1.772734e-01 1.758364e-01 1.513461e-01 4.367853e-01
<VARIANCE> 25
 4.937528e+01 4.314698e+01 5.971618e+01 2.910520e+01 4.773410e+01 5.957309e+01 4.329633e+01 2.395169e+01 2.003473e+01 3.160997e+01 2.308722e+01 1.379744e+01 2.769860e+00 3.704280e+00 3.511142e+00 2.445768e+00 1.793355e+00 2.749298e+00 3.400684e+00 1.606091e+00 2.037095e+00 2.938027e+00 1.634786e+00 7.772380e-01 6.043215e-01
<GCONST> 9.748009e+01
~s "ST_s_4_1"
<MEAN> 25
 1.665749e+00 -4.880828e+00 1.385746e+01 -5.478491e+00 -5.736375e+00 7.250109e+00 -4.519054e-02 -8.351980e+00 -3.423119e+00 1.283934e+00 1.473697e+00 4.862079e-01 2.507259e+00 2.479104e+00 -2.609975e+00 1.729138e+00 8.209289e-01 -1.691317e+00 -6.138427e-02 1.186563e+00 -4.586981e-01 -1.782533e+00 -1.217397e+00 4.730467e-01 -2.798806e-01
<VARIANCE> 25
 1.502526e+02 1.575557e+02 9.833298e+01 3.670367e+01 1.022306e+02 7.244437e+01 4.594190e+01 5.217553e+01 3.782225e+01 5.495252e+01 2.773834e+01 1.517154e+01 5.271141e+00 1.033802e+01 7.707628e+00 2.073665e+00 8.591853e+00 4.642382e+00 4.084324e+00 3.106438e+00 4.687962e+00 7.935489e+00 2.445874e+00 2.204229e+00 2.433947e+00
<GCONST> 1.137708e+02
~s "ST_i_2_1"
<MEAN> 25
 6.402565e+00 -1.024200e+01 6.554239e+00 7.301839e+00 -2.442469e+00 -1.203815e+00 -4.165378e+00 -2.247863e+00 -9.768550e-01 -4.588807e-01 1.814629e+00 -2.407538e+00 6.526069e-01 9.441030e-01 6.819080e-01 1.932878e+00 1.169800e+00 -1.166556e+00 -1.249493e+00 -4.556396e-01 -7.911734e-01 -8.921944e-01 2.836567e-01 -8.715485e-01 1.628486e-01
<VARIANCE> 25
 1.101779e+02 1.134454e+02 5.087959e+01 9.741665e+01 7.814839e+01 7.699477e+01 4.492252e+01 4.713634e+01 2.343834e+01 4.476772e+01 2.260366e+01 2.617720e+01 2.063250e+00 4.817678e+00 4.177408e+00 2.587149e+00 5.820951e+00 5.802862e+00 3.228712e+00 2.328742e+00 3.138906e+00 6.275269e+00 2.344632e+00 1.874988e+00 1.615512e+00
<GCONST> 1.087429e+02
~s "ST_i_3_1"
<MEAN> 25
 1.867280e+00 -1.903238e+00 1.014423e+01 7.467041e+00 2.758992e+00 -5.439001e+00 -8.255776e+00 -4.902386e+00 -4.646467e+00 -1.567077e+00 -3.337765e-01 -3.032602e+00 3.250415e-01 6.517787e-04 -9.072285e-01 -2.899488e-01 -9.477331e-02 9.653398e-02 -2.028809e-01 -9.094149e-01 1.274995e-02 2.379898e-01 4.767264e-01 7.599694e-01 7.665457e-02
<VARIANCE> 25
 2.101132e+01 1.379064e+01 3.450503e+01 1.078604e+02 1.171115e+02 1.853189e+01 8.669471e+01 3.183411e+01 1.438324e+01 7.331831e+01 2.754599e+01 4.568616e+01 2.031635e-01 4.104369e-01 1.092988e+00 1.232327e+00 1.200883e+00 1.833874e+00 1.782109e+00 2.236613e+00 1.724265e+00 1.281438e+00 1.375729e+00 1.315371e+00 3.788171e-01
<GCONST> 8.994297e+01
~s "ST_i_4_1"
<MEAN> 25
 1.914501e+01 7.176975e-01 -4.726760e-01 1.234765e+01 8.865724e+00 -7.655390e+00 -1.282595e+01 -1.000815e+01 -6.363377e+00 -4.889870e+00 4.510039e+00 1.035400e+00 -1.823317e-01 7.100403e-01 -4.278690e-01 -1.100985e+00 -8.658353e-02 1.033111e+00 4.989312e-01 -2.179747e-02 2.896288e-01 2.823269e-01 -3.582801e-01 3.360938e-01 -4.779947e-01
<VARIANCE> 25
 6.958040e+01 2.891895e+01 3.102793e+01 1.688206e+02 4.569781e+01 1.410176e+02 5.560998e+01 3.503802e+01 2.011212e+01 3.591521e+01 3.517936e+01 2.185620e+01 8.364291e-01 6.546227e-01 3.195563e+00 4.036201e+00 1.299910e+00 4.212201e+00 3.708879e+00 2.684297e+00 9.617599e-01 2.472696e+00 1.794638e+00 2.742134e+00 8.917218e-01
<GCONST> 9.998924e+01
~s "ST_l_2_1"
<MEAN> 25
 3.900261e+00 -1.552687e+00 -2.220695e+00 -3.262968e+00 -4.049592e+00 -5.967049e+00 4.090064e+00 2.415013e+00 -5.105880e-02 -6.065434e-01 -1.333497e+00 2.821034e+00 1.317082e-01 3.876336e-01 -5.929191e-02 3.776245e-01 -6.877480e-02 4.692653e-01 -3.133386e-01 -3.212747e-02 1.387941e-01 -8.244545e-02 4.454854e-03 -2.075416e-01 -4.495272e-01
<VARIANCE> 25
 1.936289e+01 1.588231e+01 1.707521e+01 2.438237e+01 4.031917e+01 4.084885e+01 3.191465e+01 2.453795e+01 2.112697e+01 1.932387e+01 2.048012e+01 1.914459e+01 3.707105e-01 1.427638e+00 8.932230e-01 1.755434e+00 2.968805e+00 1.796555e+00 2.386779e+00 1.833477e+00 1.902813e+00 1.630566e+00 2.197574e+00 1.579411e+00 4.899871e-01
<GCONST> 8.838729e+01
~s "ST_l_3_1"
<MEAN> 25
 4.489905e+00 6.397979e-01 -7.885626e-01 -1.074324e+00 -1.182138e+00 -7.988415e-01 -1.695924e+00 -7.265856e-02 1.100275e+00 -9.251555e-01 -1.501132e+00 -6.477592e-01 -6.998346e-02 8.304937e-01 8.566428e-01 1.945821e+00 2.976972e-01 1.570378e+00 -9.296708e-01 -8.355194e-01 3.272101e-01 -6.583237e-02 -4.065171e-01 -1.300710e+00 -1.092596e+00
<VARIANCE> 25
 1.919248e+01 2.265388e+01 2.057229e+01 3.184480e+01 5.110666e+01 5.283020e+01 3.163988e+01 5.055281e+01 3.290513e+01 2.380601e+01 4.354995e+01 2.957872e+01 6.480972e-01 1.447777e+00 1.702225e+00 2.836442e+00 6.704129e+00 2.740624e+00 1.889995e+00 2.757020e+00 2.721676e+00 2.479383e+00 3.816650e+00 4.218828e+00 5.817441e-01
<GCONST> 9.782848e+01
~s "ST_l_4_1"
<MEAN> 25
 3.945368e+00 1.627202e+00 3.295963e-01 2.788160e+00 1.741493e-01 1.861264e+00 -1.350611e+00 -1.136523e-01 2.576507e+00 -2.112286e+00 -5.122475e+00 -5.340191e+00 -1.118147e-02 1.388612e-01 -1.969301e-03 -1.073767e-01 -1.210372e-01 -1.376986e-01 1.300062e-01 6.594412e-02 -3.120666e-02 1.284857e-02 3.978087e-02 1.467789e-02 -3.452090e-02
<VARIANCE> 25
 1.377861e+01 1.699972e+01 1.979556e+01 1.949930e+01 6.121854e+01 3.378401e+01 3.290216e+01 4.255341e+01 3.132434e+01 2.122085e+01 3.761082e+01 3.262176e+01 3.042513e-01 5.970312e-01 4.920765e-01 1.787736e+00 1.830524e+00 2.779797e+00 1.393155e+00 1.317985e+00 1.180516e+00 1.198946e+00 1.283586e+00 1.895925e+00 4.985259e-01
<GCONST> 8.679091e+01
~s "ST_b_2_1"
<MEAN> 25
 6.332352e-01 9.311484e+00 1.680262e+00 4.173301e+00 5.136286e-01 -5.334113e-01 4.830641e+00 6.370338e+00 -1.753971e+00 -2.884267e+00 -4.841531e+00 -3.333580e+00 -2.805752e-01 1.459774e-01 3.543562e-01 -2.571488e-01 -6.142731e-01 7.632356e-01 -1.817555e-01 -4.866867e-01 8.066454e-01 5.592527e-01 5.697611e-02 -1.862729e-01 -3.010281e-01
<VARIANCE> 25
 4.294711e+01 9.365703e+01 1.194014e+01 2.454379e+01 4.738890e+01 3.851952e+01 4.957082e+01 1.472945e+02 1.323875e+01 2.941312e+01 1.586616e+01 2.729841e+01 1.458739e+00 1.416156e+01 1.141901e+00 3.155906e+00 4.282336e+00 2.641479e+00 6.487139e+00 1.913591e+01 3.281993e+00 4.588518e+00 1.648946e+00 1.195431e+00 1.261453e+01
<GCONST> 1.058507e+02
~s "ST_b_3_1"
<MEAN> 25
 3.832352e+00 -1.415950e+00 3.592739e+00 2.121729e+00 -6.345925e+00 -1.095922e+00 -2.732427e+00 -3.976417e+00 -7.860115e+00 5.417885e-01 6.152067e+00 -6.705077e+00 -3.946242e-01 2.704416e-01 6.968800e-01 -9.473890e-01 2.279790e-02 4.736088e-01 -2.000919e-01 6.003250e-01 -8.656849e-02 -1.158739e-01 3.015738e-01 7.041536e-01 -6.420350e-02
<VARIANCE> 25
 3.571210e+01 1.710155e+01 2.405792e+01 7.900814e+01 6.905883e+01 4.159055e+01 7.753826e+01 6.183609e+01 8.018300e+01 5.170985e+01 5.339013e+01 2.625560e+01 8.080567e-01 2.107029e+00 5.230311e+00 1.376055e+01 8.686962e+00 3.987659e+00 9.448751e+00 9.898506e+00 9.136959e+00 4.114322e+00 3.657586e+00 1.349002e+00 1.787823e+00
<GCONST> 1.106208e+02
~s "ST_b_4_1"
<MEAN> 25
 2.041793e+01 3.218967e+00 1.582264e+00 7.997635e+00 3.455447e+00 -9.143072e+00 -1.006366e+01 7.660711e-02 5.369834e+00 -8.054770e+00 -3.687317e+00 -2.747776e+00 1.488005e-02 1.701351e-01 2.601160e-02 2.322517e-01 -1.374076e-01 -2.862407e-01 -2.577589e-01 -1.798762e-01 2.175032e-01 7.330629e-01 3.075696e-01 -2.341457e-01 -1.362934e-01
<VARIANCE> 25
 9.027846e+01 3.213750e+01 4.474909e+01 4.663192e+01 6.993877e+01 9.782172e+01 5.111687e+01 5.515243e+01 3.560545e+01 1.192767e+02 3.066023e+01 3.003140e+01 3.719861e-01 2.749252e+00 3.623956e+00 1.953754e+00 5.160080e+00 4.798185e+00 3.275236e+00 4.378277e+00 2.716042e+00 6.304196e+00 3.224297e+00 3.317078e+00 9.506270e-01
<GCONST> 1.065289e+02
~s "ST_e_2_1"
<MEAN> 25
 2.383824e+00 6.257322e-01 2.546125e+00 -1.394026e+00 -3.861260e+00 2.585564e+00 -2.709590e+00 -3.309785e+00 -3.258102e-01 -1.005953e+00 -1.399177e+00 5.600478e-01 1.608268e+00 -5.830599e-01 -1.207030e+00 9.718058e-01 -5.702801e-02 -1.681430e+00 -1.104913e+00 8.661199e-01 4.581832e-01 -1.539526e+00 -1.108864e+00 -1.591761e-01 1.006231e+00
<VARIANCE> 25
 7.052065e+01 2.778017e+01 3.113315e+01 3.590335e+01 2.290556e+01 4.198682e+01 2.633012e+01 3.751100e+01 4.130730e+01 6.002639e+01 2.255656e+01 2.708097e+01 2.439136e+00 5.848027e+00 6.250873e+00 3.890114e+00 4.816104e+00 8.291231e+00 2.988064e+00 2.993009e+00 3.052574e+00 7.208270e+00 3.320910e+00 2.302162e+00 2.290827e+00
<GCONST> 1.062222e+02
~s "ST_e_3_1"
<MEAN> 25
 6.827766e+00 -2.454206e+00 2.110583e+00 1.492191e+00 -2.443412e+00 -4.965582e+00 -4.585549e+00 -1.227867e+00 -7.484956e-01 -4.976328e+00 -3.856610e+00 -4.599657e-01 5.231758e-01 -3.825966e-02 -1.486215e+00 8.675063e-01 1.042220e+00 -2.576114e+00 1.460527e-01 1.362979e+00 -2.471279e-03 -7.063164e-01 -3.738835e-01 -1.504133e-01 3.493763e-01
<VARIANCE> 25
 7.015681e+01 1.765086e+01 2.856999e+01 6.967806e+01 3.716065e+01 9.064667e+01 4.884755e+01 4.221843e+01 4.274149e+01 6.231565e+01 2.596492e+01 3.089756e+01 7.948576e-01 5.288758e+00 2.606362e+00 2.969315e+00 4.933220e+00 8.844597e+00 3.554020e+00 2.646823e+00 2.409607e+00 3.627211e+00 2.957216e+00 3.242232e+00 1.732415e+00
<GCONST> 1.054707e+02
~s "ST_e_4_1"
<MEAN> 25
 1.852511e+01 -4.357819e+00 -6.029617e+00 6.184841e+00 5.400183e+00 -1.000860e+01 -6.639071e+00 -2.735259e-01 -1.382807e+00 -9.831939e+00 1.153156e+00 5.249082e+00 -1.435400e-02 4.240164e-01 -4.643869e-01 -5.465975e-01 4.034823e-01 9.611982e-01 9.193881e-01 1.653542e-01 -3.618880e-01 -2.598349e-02 9.256735e-02 3.033132e-01 -2.832308e-01
<VARIANCE> 25
 1.126551e+02 2.638982e+01 4.674782e+01 7.634610e+01 6.368074e+01 8.966249e+01 7.045988e+01 3.038139e+01 2.094228e+01 5.802355e+01 4.840046e+01 5.265762e+01 5.325267e-01 2.220876e+00 2.649604e+00 2.185944e+00 2.573272e+00 2.779490e+00 2.435861e+00 3.149474e+00 1.904518e+00 2.506419e+00 2.281972e+00 1.316070e+00 9.595415e-01
<GCONST> 1.019397e+02
~s "ST_r_2_1"
<MEAN> 25
 3.800001e+00 3.278890e+00 1.655214e+00 1.111811e+00 -3.258214e+00 -4.528296e+00 -3.420699e+00 1.192434e-01 -2.067848e+00 -4.341363e+00 1.552032e+00 3.867145e+00 -4.969484e-01 3.801953e-01 -4.466503e-01 3.349255e-01 7.301369e-01 4.258594e-02 -1.328443e-01 -5.254654e-02 3.459928e-01 -3.062093e-01 7.537290e-02 7.279081e-01 -8.775965e-01
<VARIANCE> 25
 2.045269e+01 2.016087e+01 2.100193e+01 2.364289e+01 6.615845e+01 3.295275e+01 5.812430e+01 7.154376e+01 1.907817e+01 1.694718e+01 1.057089e+01 1.473966e+01 9.945925e-01 2.207008e+00 3.580300e+00 3.545600e+00 1.402451e+00 3.177060e+00 4.797678e+00 2.971955e+00 3.181880e+00 3.462113e+00 1.651281e+00 3.080302e+00 1.006637e+00
<GCONST> 9.653522e+01
~s "ST_r_3_1"
<MEAN> 25
 4.527161e-01 3.322074e-01 -1.063742e+00 2.169400e+00 3.457610e+00 1.610222e+00 -4.133653e+00 -6.173265e+00 -1.311725e+00 2.578699e+00 1.010525e+00 1.166787e+00 -4.142191e-01 4.732254e-01 -4.990606e-01 -1.247577e-02 -3.949510e-01 1.140323e+00 1.130594e+00 9.081364e-01 2.924537e-01 5.040715e-01 -4.089896e-03 -4.452372e-02 -1.125712e+00
<VARIANCE> 25
 2.376034e+01 5.660331e+01 2.163375e+01 1.475774e+01 4.941080e+01 6.234607e+01 4.303820e+01 2.456772e+01 4.697624e+01 3.108731e+01 1.916251e+01 1.579048e+01 1.721299e+00 5.122896e+00 2.349649e+00 2.094512e+00 4.083140e+00 7.838952e+00 3.429550e+00 1.407963e+00 7.998829e+00 2.118258e+00 2.144053e+00 2.238783e+00 2.085638e+00
<GCONST> 1.008567e+02
~s "ST_r_4_1"
<MEAN> 25
 8.083080e-01 5.306087e+00 -1.563993e+00 3.295395e+00 3.131996e+00 4.666019e+00 -7.149709e-01 -4.416723e+00 -3.689615e+00 2.446018e+00 1.190625e+00 1.348324e+00 -7.098046e-01 5.675192e-01 -3.151479e-02 -4.640049e-02 -9.300997e-02 2.354398e-01 6.666466e-01 4.069043e-01 5.310911e-02 2.025988e-01 -1.382265e-01 -3.552905e-01 -8.549881e-01
<VARIANCE> 25
 4.075446e+01 3.175568e+01 3.574828e+01 1.441765e+01 2.666694e+01 4.106833e+01 3.330382e+01 1.585922e+01 4.713964e+01 2.317328e+01 1.261431e+01 1.424638e+01 6.957757e-01 1.096457e+00 9.643744e-01 1.684995e+00 1.338361e+00 1.449476e+00 1.889587e+00 7.539622e-01 1.482534e+00 1.765283e+00 1.274790e+00 1.116665e+00 2.456615e-01
<GCONST> 8.595587e+01
~s "ST_ny_2_1"
<MEAN> 25
 6.364024e-01 2.626483e+00 3.416373e+00 3.214161e+00 3.570534e+00 -5.491355e-01 -5.876260e+00 8.931271e-01 3.279579e-01 -1.003831e-01 1.000756e+00 -4.411152e+00 1.048738e-01 -5.362405e-01 1.427183e-01 3.080629e-01 1.651931e-02 -9.346210e-01 -1.991561e-01 -1.095526e-01 -3.156863e-01 1.556074e-01 7.200773e-01 7.389135e-02 5.857322e-01
<VARIANCE> 25
 7.446951e+00 3.146311e+01 2.047340e+01 3.215628e+01 5.565677e+01 5.391328e+01 5.436367e+01 1.894934e+01 2.080865e+01 1.441514e+01 2.007575e+01 4.223140e+01 7.645619e-01 1.744200e+00 1.832355e+00 2.026104e+00 2.734686e+00 5.126590e+00 3.439846e+00 1.817244e+00 1.245298e+00 1.412882e+00 1.397209e+00 2.556968e+00 6.909298e-01
<GCONST> 9.282500e+01
~s "ST_ny_3_1"
<MEAN> 25
 2.376870e+00 -3.316592e+00 3.768095e-01 5.178201e+00 4.176408e+00 -7.389074e+00 -5.414527e+00 -2.543944e+00 -2.542574e+00 9.987066e-01 6.527409e+00 1.465445e+00 3.292157e-01 1.409142e-02 -8.880204e-01 -6.363533e-01 -5.525457e-01 5.428137e-01 4.413577e-01 1.291257e-02 -1.674994e-01 -1.924100e-01 4.640167e-01 8.414955e-01 -6.318418e-02
<VARIANCE> 25
 7.219970e+00 1.807557e+01 2.760054e+01 3.580076e+01 3.277168e+01 3.937059e+01 3.005586e+01 2.398648e+01 1.685376e+01 2.258752e+01 2.731737e+01 2.913311e+01 5.753456e-01 4.309451e-01 1.065938e+00 1.500490e+00 2.116882e+00 2.411984e+00 1.042399e+00 1.132573e+00 9.131944e-01 9.925901e-01 8.572521e-01 7.224432e-01 3.243997e-01
<GCONST> 8.324698e+01
~s "ST_ny_4_1"
<MEAN> 25
 3.906747e+00 -3.343488e+00 -2.865597e+00 1.833976e+00 1.295075e+00 -2.779310e+00 -1.497880e+00 9.700913e-01 -3.033562e+00 -1.691957e+00 5.821380e+00 3.425034e+00 -2.851471e-01 5.721437e-01 -2.932485e-01 1.775669e-01 2.207504e-01 4.347569e-01 7.019984e-01 6.718781e-01 -1.444703e-01 7.576371e-02 -1.417540e-01 -1.165236e-01 -7.328458e-01
<VARIANCE> 25
 9.951951e+00 2.271409e+01 1.507382e+01 2.316189e+01 1.642561e+01 2.281087e+01 2.301909e+01 1.341368e+01 2.743555e+01 1.235875e+01 2.631609e+01 1.281979e+01 4.834473e-01 7.409085e-01 1.038144e+00 8.780875e-01 1.260662e+00 2.046522e+00 1.042834e+00 1.122449e+00 1.052527e+00 1.197207e+00 1.059262e+00 6.478455e-01 4.449202e-01
<GCONST> 7.955994e+01
~s "ST_h_2_1"
<MEAN> 25
 -1.465626e+00 -2.190578e+00 -3.600482e+00 -3.559692e+00 -2.612384e+00 2.568749e+00 6.695703e+00 1.832132e+00 -1.138150e+00 3.776154e+00 1.869897e+00 1.564624e+00 3.479995e-01 1.366231e-01 3.340777e-01 -7.645798e-02 5.782807e-01 -1.185745e+00 3.500185e-01 3.405217e-01 8.491154e-02 -3.020713e-02 -1.913940e-01 1.655008e-01 1.218698e+00
<VARIANCE> 25
 3.877068e+01 4.899162e+01 3.926588e+01 3.184813e+01 3.862269e+01 6.552715e+01 4.428139e+01 2.584961e+01 2.239604e+01 2.854222e+01 1.589570e+01 1.817276e+01 3.284025e+00 6.778000e+00 3.368588e+00 2.792184e+00 3.840314e+00 4.720705e+00 3.812186e+00 2.983711e+00 1.688678e+00 2.677123e+00 1.340303e+00 1.322994e+00 3.916926e+00
<GCONST> 1.017527e+02
~s "ST_h_3_1"
<MEAN> 25
 -1.220311e+00 -2.217335e+00 3.833987e-01 -1.302860e+00 2.091054e+00 -9.577858e-01 3.942362e+00 6.922746e-01 1.257458e+00 1.990807e+00 1.954090e-01 8.450435e-01 1.103805e+00 -9.945136e-01 9.832785e-02 2.072376e-02 -5.931354e-01 3.744818e-02 -1.596375e+00 -3.077784e-01 1.941009e-01 -8.317055e-01 -5.364819e-01 -2.030637e-01 4.382983e-01
<VARIANCE> 25
 4.467548e+01 3.871918e+01 2.709048e+01 4.921011e+01 5.780474e+01 7.069517e+01 3.916153e+01 3.829523e+01 5.072858e+01 2.687865e+01 2.947942e+01 1.907235e+01 2.625813e+00 2.677278e+00 3.773410e+00 1.711530e+00 3.887902e+00 3.357147e+00 3.667965e+00 3.187133e+00 6.023881e+00 1.960171e+00 2.941271e+00 1.438292e+00 1.113100e+00
<GCONST> 1.026377e+02
~s "ST_h_4_1"
<MEAN> 25
 3.316488e+00 -2.894419e+00 -1.104777e+00 -1.433078e+00 -1.895055e+00 -2.141564e+00 1.068431e-01 4.693599e-02 5.022313e-01 -1.420994e+00 -1.685873e+00 4.707181e-01 8.208229e-02 9.901201e-02 -1.726560e-01 1.362624e-01 5.062335e-02 -6.066020e-01 -2.304967e-01 -1.954632e-01 -1.930484e-02 -3.648176e-01 -5.064472e-01 3.763992e-02 -6.991992e-03
<VARIANCE> 25
 1.147141e+01 2.664874e+01 2.172032e+01 2.179626e+01 4.215866e+01 4.943004e+01 2.844374e+01 2.585997e+01 4.875187e+01 2.746010e+01 1.831534e+01 1.521765e+01 3.840819e-01 8.974022e-01 1.154489e+00 1.507369e+00 1.634994e+00 2.366726e+00 1.872480e+00 1.439239e+00 1.215904e+00 1.448529e+00 1.741151e+00 1.089936e+00 3.043589e-01
<GCONST> 8.675237e+01
~s "ST_u_2_1"
<MEAN> 25
 1.458975e+00 3.039675e+00 -1.060032e+00 2.462824e+00 5.822436e-01 1.581792e+00 2.837560e-01 -7.976527e-01 -1.619476e+00 -1.978872e+00 -4.807135e-01 1.135408e+00 -6.127053e-01 -2.806331e-01 5.062125e-02 -1.835811e-01 -1.161066e-01 -1.314098e-01 1.313959e+00 -1.967964e-01 -3.611805e-01 5.100659e-01 -2.785622e-01 5.265620e-01 -2.799422e-01
<VARIANCE> 25
 5.259634e+01 3.613985e+01 2.827277e+01 3.591577e+01 4.729771e+01 3.131204e+01 5.746459e+01 3.843828e+01 5.084088e+01 5.265585e+01 3.888193e+01 2.985965e+01 1.863127e+00 9.990079e+00 4.282828e+00 5.881349e+00 8.021232e+00 4.656766e+00 5.338509e+00 4.235461e+00 4.466688e+00 5.929933e+00 5.409940e+00 3.671737e+00 9.326758e+00
<GCONST> 1.117578e+02
~s "ST_u_3_1"
<MEAN> 25
 3.785856e+00 -2.520042e+00 1.701591e+00 -1.451742e-01 -1.059160e+00 -8.921447e-01 1.725783e+00 -3.726470e+00 -3.723973e+00 -9.122025e-01 -2.143700e+00 5.280073e-01 1.313173e+00 -6.355340e-01 1.476797e+00 -7.949821e-01 -4.272376e-01 -7.051585e-01 -9.931614e-01 5.372753e-01 1.817537e-02 -1.261461e+00 -6.054510e-01 -1.215244e-01 2.428842e+00
<VARIANCE> 25
 1.238459e+02 8.590022e+01 4.119372e+01 4.124912e+01 5.068089e+01 5.759874e+01 5.245576e+01 6.345581e+01 5.317390e+01 8.532424e+01 3.944566e+01 3.284967e+01 7.049398e+00 9.155277e+00 4.563926e+00 7.815584e+00 5.946663e+00 8.864800e+00 1.180633e+01 8.997068e+00 9.046659e+00 1.658555e+01 5.181365e+00 2.967903e+00 1.226061e+01
<GCONST> 1.209556e+02
~s "ST_u_4_1"
<MEAN> 25
 1.523616e+01 4.271488e+00 5.905661e+00 2.526649e+00 -3.922678e+00 -7.196802e+00 -3.364898e+00 2.512637e+00 9.490143e-02 -1.117700e+01 -4.093943e+00 2.072499e+00 -5.767871e-01 5.478148e-01 -9.482108e-02 -2.211201e-01 -2.876495e-01 3.242578e-01 2.064411e-01 1.310917e-01 -1.161833e-01 6.355632e-01 1.005638e-01 -2.649600e-01 -9.611886e-01
<VARIANCE> 25
 1.625556e+02 6.352533e+01 4.802069e+01 3.827720e+01 3.901145e+01 1.082477e+02 8.717834e+01 4.267981e+01 6.858553e+01 1.469699e+02 2.602140e+01 3.322597e+01 1.435262e+00 2.975335e+00 2.128252e+00 3.518942e+00 2.726382e+00 5.431306e+00 5.009974e+00 4.300122e+00 3.906308e+00 4.154643e+00 1.581657e+00 2.239819e+00 2.039769e+00
<GCONST> 1.092513e+02
~s "ST_k_2_1"
<MEAN> 25
 -1.513887e-08 8.685321e-09 6.289883e-08 7.186313e-08 3.131923e-08 4.571417e-08 5.014053e-08 1.333485e-08 -7.134007e-08 8.713219e-09 1.011273e-09 4.209684e-08 -6.534437e-03 7.731597e-03 -5.306157e-03 4.609803e-03 -4.191151e-03 8.242088e-03 -6.219152e-03 5.951754e-03 -5.249157e-03 1.868283e-03 2.200403e-03 -1.269434e-03 2.744509e-03
<VARIANCE> 25
 6.716856e+01 2.941401e+01 5.663681e+01 4.741492e+01 4.696264e+01 4.914315e+01 4.999928e+01 4.303569e+01 5.672998e+01 3.222253e+01 2.850756e+01 4.103967e+01 2.100924e+00 1.434693e+00 1.891293e+00 2.194988e+00 2.363979e+00 2.636887e+00 2.464799e+00 2.732278e+00 2.851009e+00 2.222413e+00 2.036798e+00 2.011688e+00 1.909456e+00
<GCONST> 1.015924e+02
~s "ST_k_3_1"
<MEAN> 25
 -1.513887e-08 8.685321e-09 6.289883e-08 7.186313e-08 3.131923e-08 4.571417e-08 5.014053e-08 1.333485e-08 -7.134006e-08 8.713219e-09 1.011273e-09 4.209684e-08 -6.534438e-03 7.731596e-03 -5.306157e-03 4.609803e-03 -4.191151e-03 8.242088e-03 -6.219152e-03 5.951754e-03 -5.249158e-03 1.868283e-03 2.200403e-03 -1.269434e-03 2.744509e-03
<VARIANCE> 25
 6.716856e+01 2.941401e+01 5.663681e+01 4.741492e+01 4.696264e+01 4.914315e+01 4.999928e+01 4.303569e+01 5.672998e+01 3.222253e+01 2.850756e+01 4.103967e+01 2.100924e+00 1.434693e+00 1.891293e+00 2.194988e+00 2.363979e+00 2.636887e+00 2.464799e+00 2.732278e+00 2.851009e+00 2.222413e+00 2.036798e+00 2.011688e+00 1.909456e+00
<GCONST> 1.015924e+02
~s "ST_k_4_1"
<MEAN> 25
 -1.513887e-08 8.685321e-09 6.289883e-08 7.186313e-08 3.131923e-08 4.571417e-08 5.014053e-08 1.333485e-08 -7.134006e-08 8.713219e-09 1.011273e-09 4.209684e-08 -6.534437e-03 7.731597e-03 -5.306157e-03 4.609803e-03 -4.191151e-03 8.242088e-03 -6.219152e-03 5.951754e-03 -5.249157e-03 1.868283e-03 2.200403e-03 -1.269434e-03 2.744509e-03
<VARIANCE> 25
 6.716856e+01 2.941401e+01 5.663681e+01 4.741492e+01 4.696264e+01 4.914315e+01 4.999928e+01 4.303569e+01 5.672998e+01 3.222253e+01 2.850756e+01 4.103967e+01 2.100924e+00 1.434693e+00 1.891293e+00 2.194988e+00 2.363979e+00 2.636887e+00 2.464799e+00 2.732278e+00 2.851009e+00 2.222413e+00 2.036798e+00 2.011688e+00 1.909456e+00
<GCONST> 1.015924e+02
~s "ST_a_2_1"
<MEAN> 25
 3.473793e+00 -1.728715e+00 -1.431221e+00 -1.908940e+00 -1.590351e+00 -1.901116e+00 3.835193e-02 1.241959e+00 8.574690e-01 -1.019066e+00 -2.106648e+00 4.367141e-01 9.927181e-02 -1.450061e-01 -1.895885e-02 -8.011999e-01 -6.638310e-01 -1.300684e-01 3.824165e-01 3.632219e-01 5.932919e-01 -3.463235e-01 3.366740e-01 8.943156e-01 2.620565e-01
<VARIANCE> 25
 2.579830e+01 3.390954e+01 2.884724e+01 3.371642e+01 5.845678e+01 5.335436e+01 3.513718e+01 3.505935e+01 4.225492e+01 2.570166e+01 3.247284e+01 2.375151e+01 1.182897e+00 2.105533e+00 1.815585e+00 2.866729e+00 2.593474e+00 3.338833e+00 2.152429e+00 2.241387e+00 3.661761e+00 2.553137e+00 2.467882e+00 2.947113e+00 1.542817e+00
<GCONST> 9.934830e+01
~s "ST_a_3_1"
<MEAN> 25
 3.786885e+00 -1.253895e+00 -5.430788e-01 -2.733358e+00 -2.044481e+00 -1.101125e+00 7.546511e-01 1.540665e+00 1.257859e+00 -1.251039e+00 -1.005397e+00 1.502118e+00 -1.865416e-01 -1.513045e-01 1.531675e-02 -4.866167e-01 -2.102390e-02 4.483897e-01 4.827169e-01 6.165083e-02 1.531188e-01 1.821506e-01 5.096571e-01 3.737629e-01 -4.621460e-02
<VARIANCE> 25
 3.882153e+01 4.397043e+01 3.621016e+01 3.748665e+01 4.861736e+01 5.527978e+01 3.921203e+01 4.043851e+01 4.487580e+01 3.210608e+01 3.023298e+01 1.968570e+01 1.286571e+00 2.502380e+00 1.595716e+00 2.540340e+00 2.936414e+00 3.613049e+00 2.309272e+00 2.494064e+00 2.942567e+00 2.077602e+00 2.653761e+00 1.970570e+00 1.639938e+00
<GCONST> 1.001706e+02
~s "ST_a_4_1"
<MEAN> 25
 1.956895e+00 -3.544799e+00 -2.059613e-01 -4.447267e+00 -9.036034e-01 4.152069e-01 -2.508157e-02 1.218762e+00 2.527914e+00 -9.689909e-01 8.156620e-02 1.641956e+00 -1.358100e-01 6.570601e-02 -1.444357e-01 1.688392e-01 5.140772e-01 2.681306e-01 1.016763e-01 -3.161953e-01 -4.371982e-01 2.349987e-01 3.011499e-01 -5.273396e-02 -1.926737e-01
<VARIANCE> 25
 2.516806e+01 3.290261e+01 2.731262e+01 3.085643e+01 4.946453e+01 4.128730e+01 3.740741e+01 2.651285e+01 4.750388e+01 3.261769e+01 2.321710e+01 2.150599e+01 8.839598e-01 1.875070e+00 1.293569e+00 2.018729e+00 3.120971e+00 2.457152e+00 2.293334e+00 2.160778e+00 2.604904e+00 1.909889e+00 2.172855e+00 1.551106e+00 1.078761e+00
<GCONST> 9.548100e+01
~s "ST_n_2_1"
<MEAN> 25
 -1.200204e+00 7.876498e+00 -2.166950e+00 2.272388e+00 7.084517e+00 5.341062e+00 2.098417e+00 -2.221917e+00 -7.310923e+00 -2.601870e-01 6.925560e-01 8.985371e-01 -6.621615e-01 1.014123e+00 -3.664242e-01 3.751533e-01 1.679662e-01 4.777287e-02 4.582984e-01 2.547489e-01 -2.342373e-01 4.436527e-01 -1.078835e-01 1.018933e-02 -1.112131e+00
<VARIANCE> 25
 5.638784e+01 7.931222e+01 2.926628e+01 2.625994e+01 4.236623e+01 3.498967e+01 5.456412e+01 2.611857e+01 7.621292e+01 2.943506e+01 2.820149e+01 1.750777e+01 2.262918e+00 7.118260e+00 2.893149e+00 3.113909e+00 5.786807e+00 3.841696e+00 4.886310e+00 3.294078e+00 4.943066e+00 2.869405e+00 3.096888e+00 1.924306e+00 3.640986e+00
<GCONST> 1.060651e+02
~s "ST_n_3_1"
<MEAN> 25
 -9.052831e-03 1.204203e+00 -1.777501e+00 4.505076e-01 -1.032231e+00 1.393949e+00 3.773019e+00 -7.799612e-01 -2.241107e+00 7.184076e-01 2.050416e+00 1.201321e+00 1.097927e+00 -1.682028e+00 7.102095e-01 -5.386055e-02 -1.466927e+00 -9.874706e-01 -4.309681e-01 3.885426e-01 1.093022e+00 -6.203523e-01 4.385101e-01 2.443446e-03 2.025085e+00
<VARIANCE> 25
 1.510158e+02 5.355418e+01 4.390063e+01 4.562519e+01 4.988760e+01 2.646330e+01 6.044079e+01 3.859337e+01 6.521095e+01 2.952924e+01 2.887383e+01 2.233251e+01 5.615091e+00 8.829261e+00 5.751861e+00 4.574108e+00 5.942265e+00 5.759612e+00 6.830551e+00 7.830153e+00 7.319489e+00 4.367252e+00 3.207356e+00 2.245621e+00 6.265065e+00
<GCONST> 1.134796e+02
~s "ST_n_4_1"
<MEAN> 25
 2.246914e+01 -2.192114e+00 -6.608510e+00 2.106644e+00 3.579153e+00 -9.678120e+00 -4.355241e+00 4.025125e+00 4.176034e+00 -1.084690e+01 -2.292705e+00 2.419108e+00 -9.526195e-02 -1.304757e-02 2.599921e-01 4.836211e-02 -3.541358e-02 -7.337426e-02 -1.638872e-01 -9.918588e-02 1.191389e-01 -1.463224e-01 -1.360987e-01 3.561852e-02 6.053137e-02
<VARIANCE> 25
 8.944925e+01 3.625615e+01 5.022158e+01 5.586511e+01 3.015383e+01 4.578094e+01 3.747292e+01 2.291217e+01 2.357902e+01 4.429714e+01 2.783311e+01 2.945039e+01 1.544354e+00 3.080915e+00 3.937951e+00 5.481270e+00 2.540699e+00 3.246382e+00 3.169980e+00 2.224628e+00 2.175738e+00 3.226751e+00 2.927296e+00 3.075536e+00 1.993805e+00
<GCONST> 1.031479e+02
~s "ST_t_2_1"
<MEAN> 25
 -1.169548e+00 3.416763e+00 1.261933e+00 1.346336e+00 9.435628e-01 2.987564e+00 2.859166e-01 -2.414909e+00 -3.969194e+00 1.018935e+00 -1.625920e-02 -4.563525e-01 8.642291e-01 -6.828497e-01 2.742452e-01 -2.454543e-02 -2.627792e-02 -8.846237e-01 -4.123572e-01 4.274338e-01 2.489627e-01 -6.457841e-01 -1.356996e-01 1.947345e-01 1.199647e+00
<VARIANCE> 25
 7.438033e+01 5.123269e+01 3.711700e+01 3.484219e+01 1.801377e+01 4.107502e+01 3.918029e+01 2.914454e+01 3.750659e+01 5.399362e+01 2.888419e+01 2.313847e+01 5.359913e+00 4.758034e+00 3.152469e+00 3.649184e+00 1.429295e+00 4.953059e+00 3.921817e+00 4.759090e+00 3.507307e+00 5.732331e+00 3.744383e+00 2.120030e+00 8.118444e+00
<GCONST> 1.068546e+02
~s "ST_t_3_1"
<MEAN> 25
 2.692408e+00 4.502542e+00 -4.419404e-01 -8.541713e-01 -3.671641e-01 9.552453e-02 -9.384090e-02 -2.040811e+00 -5.576707e+00 -1.786288e+00 -2.526934e+00 1.408070e+00 -6.180425e-01 -4.107132e-01 -3.299325e-01 1.379661e-01 6.472173e-02 -1.485182e-01 5.507849e-02 3.377280e-03 5.505184e-01 6.017755e-03 1.135806e-02 2.072647e-01 -3.939128e-01
<VARIANCE> 25
 6.142447e+01 5.635656e+01 6.571822e+01 3.461568e+01 1.361417e+01 3.572173e+01 3.715185e+01 2.271804e+01 3.985443e+01 3.576688e+01 2.517053e+01 2.654448e+01 1.217163e+00 1.915582e+00 1.847105e+00 9.536752e-01 1.851648e+00 1.348758e+00 2.573086e+00 1.664353e+00 2.337111e+00 1.889707e+00 1.198951e+00 1.444721e+00 1.250499e+00
<GCONST> 9.455871e+01
~s "ST_t_4_1"
<MEAN> 25
 -1.091676e-01 -9.347493e-01 5.835779e-01 9.498938e-01 -2.177298e-01 9.770089e-01 -7.688333e-01 -1.034674e+00 1.853445e+00 -2.262325e-01 -7.277604e-01 -7.715607e-01 -7.987702e-02 -1.034916e-01 -1.737982e-01 9.696816e-02 4.308529e-02 -8.958961e-02 2.406547e-02 -6.069491e-02 1.626929e-01 2.053320e-01 1.763489e-01 6.301168e-02 -8.293513e-02
<VARIANCE> 25
 2.970839e+01 3.609775e+01 2.912816e+01 3.160037e+01 1.766012e+01 2.225294e+01 5.086563e+01 1.479848e+01 2.679581e+01 2.871440e+01 1.756684e+01 1.324119e+01 4.614728e-01 5.738941e-01 7.858015e-01 7.702007e-01 7.265327e-01 9.484128e-01 1.657744e+00 7.580183e-01 1.341623e+00 1.370327e+00 1.093775e+00 1.057278e+00 5.987248e-01
<GCONST> 8.270842e+01
~s "ST_sil_2_1"
<MEAN> 25
 -7.231985e+00 4.770203e+00 -1.984091e+00 2.465459e+00 -1.165890e+00 4.831003e+00 1.695426e+00 -1.526093e+00 1.072981e+00 3.185877e+00 3.470203e+00 -1.845152e-01 -2.235095e-01 -1.003109e-01 -1.795068e-01 -8.926743e-02 1.188284e-01 2.100715e-01 2.648116e-01 -7.919445e-03 8.774124e-02 8.613728e-02 -1.768201e-02 4.042886e-02 -1.275795e-01
<VARIANCE> 25
 6.828011e+01 4.091322e+01 3.881277e+01 3.955888e+01 2.858543e+01 4.053004e+01 3.382960e+01 2.356339e+01 2.777847e+01 2.758814e+01 2.193034e+01 2.234587e+01 1.347832e+00 1.263759e+00 1.171454e+00 1.240508e+00 1.442385e+00 1.680425e+00 1.671409e+00 1.681244e+00 1.407227e+00 1.345825e+00 1.257667e+00 1.106638e+00 1.100864e+00
<GCONST> 9.168087e+01
~s "silst"
<MEAN> 25
 -1.610566e+00 2.085984e+00 -3.473557e+00 2.229810e+00 6.805155e-02 1.241183e+00 5.326366e+00 9.036818e-01 -1.101172e+00 6.611057e-01 1.100589e-01 1.669186e+00 1.139697e+00 4.021930e-02 3.655009e-01 -8.224348e-02 -2.009972e-01 -7.662021e-03 -1.904403e-01 1.504390e-01 -2.202063e-01 2.418430e-01 -5.405740e-02 -3.507616e-03 7.427784e-01
<VARIANCE> 25
 7.381641e+01 6.256233e+01 5.591258e+01 6.730418e+01 4.579632e+01 5.208936e+01 5.934863e+01 3.519059e+01 6.271207e+01 4.033797e+01 3.154206e+01 2.744267e+01 7.147011e+00 5.461534e+00 4.781549e+00 5.516045e+00 3.888805e+00 6.145974e+00 7.142023e+00 3.648536e+00 5.391504e+00 4.140371e+00 3.977221e+00 2.644859e+00 7.546762e+00
<GCONST> 1.134893e+02
~s "ST_sil_3_1"
<MEAN> 25
 -1.717429e+00 1.978048e+00 -3.609754e+00 2.499617e+00 6.273502e-02 9.911478e-01 5.692275e+00 1.102535e+00 -1.101299e+00 7.456648e-01 -9.858602e-02 1.552091e+00 1.260389e+00 -3.008298e-02 3.431914e-01 -1.744515e-01 -1.964748e-01 -1.224754e-01 -1.864369e-01 1.612716e-01 -2.493768e-01 2.830919e-01 -1.302261e-01 3.193654e-02 8.924325e-01
<VARIANCE> 25
 7.396342e+01 5.870273e+01 5.511674e+01 6.795100e+01 4.480551e+01 5.285360e+01 6.343721e+01 3.550857e+01 6.279301e+01 4.003379e+01 3.146371e+01 2.759164e+01 6.885169e+00 5.370384e+00 4.901469e+00 5.590407e+00 3.755200e+00 5.916215e+00 7.173203e+00 3.724714e+00 5.360424e+00 4.136896e+00 3.994738e+00 2.651736e+00 7.421402e+00
<GCONST> 1.134074e+02
~s "ST_sil_4_1"
<MEAN> 25
 -1.209532e+01 5.066242e-01 9.242514e-01 -2.079589e+00 -3.692849e-01 3.417527e+00 2.193295e+00 1.956060e-02 -6.503282e-01 4.351435e+00 5.815947e-01 -1.205268e+00 -1.741893e-02 -1.291637e-02 -4.153791e-04 -6.052652e-03 5.724417e-03 2.145063e-03 -3.688741e-03 -3.066633e-03 -2.112283e-03 -3.970840e-03 1.561206e-02 5.846174e-03 -7.343410e-03
<VARIANCE> 25
 1.095704e+02 4.264349e+00 5.611833e+00 1.253829e+01 7.188877e+00 1.216683e+01 1.119616e+01 1.048956e+01 8.808760e+00 8.457761e+00 6.958562e+00 6.806126e+00 9.605716e-02 1.569436e-01 2.477322e-01 4.221056e-01 4.415036e-01 5.356307e-01 8.130178e-01 7.789769e-01 6.730908e-01 6.295906e-01 6.567182e-01 5.637228e-01 4.708798e-02
<GCONST> 6.049403e+01
~s "ST_j_2_1"
<MEAN> 25
 1.031388e+01 2.748918e+00 7.272841e+00 1.185621e+01 2.501848e+00 -5.383728e+00 -5.757732e+00 -3.729066e+00 -3.925203e+00 -6.149178e+00 2.959486e+00 2.655163e-02 1.824596e-01 -5.597590e-02 -3.215750e-01 3.655273e-01 4.070990e-01 -4.520284e-01 -7.849814e-01 -5.617995e-01 -1.434818e-02 1.430499e-02 1.532831e-01 -1.811307e-01 1.519515e-01
<VARIANCE> 25
 1.239703e+02 8.648625e+01 4.360649e+01 8.634985e+01 9.506204e+01 5.918891e+01 6.701215e+01 2.819252e+01 3.171629e+01 7.126783e+01 2.422740e+01 3.151015e+01 5.074623e+00 1.049902e+01 7.139933e+00 7.371740e+00 7.597665e+00 6.064560e+00 8.567162e+00 4.026794e+00 4.332080e+00 4.697561e+00 2.312810e+00 2.721914e+00 4.642853e+00
<GCONST> 1.156991e+02
~s "ST_j_3_1"
<MEAN> 25
 3.990110e-01 -8.078376e-01 5.558539e+00 8.387354e+00 5.322501e+00 1.968710e+00 -6.740345e+00 -7.318900e+00 -4.759877e+00 -1.450140e+00 1.900494e+00 -1.614876e+00 -5.170080e-01 1.581695e+00 -1.276978e+00 -3.517033e-01 -1.774615e-01 5.298316e-01 5.900575e-01 6.678035e-02 -3.091327e-01 3.461875e-01 3.056741e-01 5.945129e-01 -1.731790e+00
<VARIANCE> 25
 3.106349e+01 3.756884e+01 2.871577e+01 2.495295e+01 3.650233e+01 5.514693e+01 3.209591e+01 2.300402e+01 1.788056e+01 1.903136e+01 3.353279e+01 2.147945e+01 2.424366e+00 3.340137e+00 2.299348e+00 2.967236e+00 2.951718e+00 3.098133e+00 2.067528e+00 2.469930e+00 2.023114e+00 2.265229e+00 2.962803e+00 1.928976e+00 5.012385e+00
<GCONST> 9.893768e+01
~s "ST_j_4_1"
<MEAN> 25
 1.662959e+01 -1.105655e+00 -6.696540e+00 9.661814e+00 6.670846e+00 -9.530182e+00 -1.015568e+01 -3.160216e+00 -3.557204e+00 -9.235016e+00 4.758714e+00 7.958819e+00 -1.222378e-01 6.755005e-01 -7.646850e-01 -1.433535e+00 -6.405882e-01 1.127823e+00 9.666511e-01 2.673893e-01 -2.403107e-01 -3.094807e-01 -1.015733e+00 6.303419e-02 -6.251786e-01
<VARIANCE> 25
 1.785211e+02 5.009648e+01 2.822165e+01 2.826323e+01 5.387618e+01 5.863396e+01 4.157545e+01 2.206385e+01 9.547745e+00 3.908024e+01 2.199971e+01 3.734361e+01 4.505279e-01 7.078974e-01 1.293627e+00 1.935150e+00 1.626547e+00 1.920183e+00 1.796263e+00 1.853168e+00 9.422933e-01 2.022492e+00 1.352048e+00 9.258941e-01 6.638627e-01
<GCONST> 9.181595e+01
~s "ST_w_2_1"
<MEAN> 25
 3.368832e+00 -6.082180e-01 -9.017783e-01 -3.364060e+00 -4.511784e+00 -7.556792e+00 1.328599e-01 3.495819e+00 2.993418e+00 -6.240716e-01 -1.869415e+00 9.454717e-01 4.500833e-02 1.077103e+00 8.279322e-01 5.286105e-01 -5.213537e-01 -8.840030e-01 -1.180224e+00 3.709400e-01 -4.090470e-02 4.447616e-01 1.399643e-01 -7.437281e-01 -6.056785e-01
<VARIANCE> 25
 2.709754e+01 3.440779e+01 3.714209e+01 3.178636e+01 1.851719e+01 2.961726e+01 3.557235e+01 1.308947e+01 2.831236e+01 1.765560e+01 1.642809e+01 1.566993e+01 3.140676e-01 1.077792e+00 7.815115e-01 1.346590e+00 7.538519e-01 1.238612e+00 2.258521e+00 1.696197e+00 1.330404e+00 8.167926e-01 1.153145e+00 8.439121e-01 4.754493e-01
<GCONST> 8.362872e+01
~s "ST_w_3_1"
<MEAN> 25
 2.749156e+00 -3.293846e+00 5.018684e+00 -9.697667e-01 -3.540043e+00 -3.812724e+00 -8.408447e+00 -7.224827e-01 8.926574e+00 3.424191e+00 2.391270e+00 -4.713429e+00 1.191321e-02 3.140199e-02 1.492616e-02 1.336417e-01 -1.196920e-01 -1.492390e-01 -1.746254e-01 4.667219e-03 7.941359e-02 3.744756e-02 1.739025e-02 -3.245347e-02 -3.008758e-02
<VARIANCE> 25
 1.593530e+01 4.229247e+01 1.188217e+01 1.438848e+01 2.415205e+01 2.593523e+01 2.436163e+01 3.147728e+01 3.813510e+01 2.311522e+01 2.175581e+01 1.348112e+01 2.282898e-01 5.870985e-01 3.236066e-01 7.268610e-01 1.385543e+00 1.549301e+00 1.950350e+00 1.479511e+00 6.078317e-01 1.317075e+00 1.420575e+00 1.258156e+00 1.801677e-01
<GCONST> 8.015763e+01
~s "ST_w_4_1"
<MEAN> 25
 2.277566e+01 -8.395147e-01 -3.660491e+00 3.539740e+00 -2.786525e+00 -1.994811e+01 -8.049602e+00 9.328699e+00 9.855616e+00 -8.056849e+00 -1.743128e+00 3.625453e+00 -9.188375e-02 2.892668e-01 2.693545e-01 4.310891e-02 -1.428438e-01 -6.034440e-02 5.695117e-03 -4.459692e-02 3.007329e-02 -3.419575e-02 -2.519044e-01 1.280705e-01 -1.569470e-01
<VARIANCE> 25
 6.411948e+01 2.836355e+01 3.953760e+01 2.216392e+01 1.179625e+01 4.001957e+01 2.988621e+01 1.230603e+01 2.394751e+01 2.700030e+01 2.420007e+01 8.491491e+00 3.315229e-01 1.159206e+00 2.071749e+00 1.493313e+00 5.575404e-01 1.448253e+00 2.247461e+00 6.941224e-01 5.067795e-01 1.039726e+00 8.861980e-01 3.851459e-01 4.686847e-01
<GCONST> 8.202066e+01
~s "ST_m_2_1"
<MEAN> 25
 3.282225e+00 -1.062520e-01 7.047157e-01 -1.173734e+00 -3.910714e-01 -6.329762e-01 -1.810977e+00 1.235808e+00 1.188223e+00 -8.239276e-01 -2.293616e+00 -1.636696e+00 -3.424773e-01 1.341291e+00 1.871327e-02 8.499055e-01 1.082520e+00 3.815113e-01 2.810451e-01 5.058492e-01 -1.376342e+00 7.380903e-01 3.865815e-02 -5.992016e-01 -1.301972e+00
<VARIANCE> 25
 8.652490e+00 4.744871e+01 3.067821e+01 3.988919e+01 5.539454e+01 3.679253e+01 5.515711e+01 4.742363e+01 5.238886e+01 3.052781e+01 2.770591e+01 2.693257e+01 1.015922e+00 6.855823e+00 3.424999e+00 3.674494e+00 7.005555e+00 4.885888e+00 6.983107e+00 6.322720e+00 5.922333e+00 2.467250e+00 4.499344e+00 2.816989e+00 4.050285e+00
<GCONST> 1.069698e+02
~s "ST_m_3_1"
<MEAN> 25
 1.842800e+00 2.760404e+00 -3.784395e-01 6.478222e-01 2.358430e+00 2.392239e+00 6.425493e-01 4.155414e+00 -2.356648e+00 -7.537631e-01 -1.709847e+00 -3.703578e+00 -1.091108e-01 -1.501218e+00 5.903595e-02 -5.894482e-02 6.003234e-01 -1.936088e-01 -8.336878e-01 -3.370037e-02 8.523080e-01 1.838709e-01 -3.053000e-01 -1.387773e-01 9.191294e-01
<VARIANCE> 25
 8.228753e+00 7.697161e+01 2.687521e+01 4.218884e+01 5.401043e+01 6.178139e+01 6.315480e+01 3.546562e+01 4.682800e+01 3.640191e+01 2.137391e+01 3.188351e+01 8.790095e-01 4.929141e+00 1.860732e+00 4.818676e+00 7.430746e+00 4.966198e+00 3.757439e+00 4.340101e+00 5.529768e+00 1.623187e+00 2.576966e+00 2.766649e+00 4.062642e+00
<GCONST> 1.048439e+02
~s "ST_m_4_1"
<MEAN> 25
 1.573245e+00 -2.859808e+00 -4.717818e-01 1.124458e-01 5.670348e+00 7.011980e-01 -1.799827e+00 -4.167182e-02 -7.944192e-01 1.941581e+00 -3.320494e+00 -1.839866e+00 -1.534686e-01 -2.516856e-02 1.263603e-01 1.900066e-01 3.009858e-02 3.673273e-01 2.655379e-01 -5.119489e-01 -4.857398e-02 -8.055171e-02 -2.547974e-01 1.752508e-01 -9.180637e-02
<VARIANCE> 25
 1.080041e+01 3.384879e+01 2.738507e+01 5.508257e+01 5.460765e+01 3.616753e+01 3.651354e+01 4.104863e+01 3.719765e+01 2.961250e+01 3.204860e+01 2.121288e+01 1.148727e+00 8.994601e-01 9.833904e-01 1.952342e+00 2.053282e+00 1.666962e+00 1.998445e+00 2.521847e+00 1.700783e+00 1.450423e+00 1.670351e+00 2.454846e+00 1.084304e+00
<GCONST> 9.352210e+01
~s "ST_p_2_1"
<MEAN> 25
 7.535248e+00 -3.982769e+00 5.039717e-01 -4.123833e+00 -1.498696e+00 -6.893294e+00 -7.511175e+00 2.687153e+00 4.055897e+00 -9.120636e+00 -7.487911e+00 2.151020e+00 1.108126e-01 4.582237e-01 -2.171310e-01 3.118384e-01 -3.771161e-02 -4.123142e-02 -5.770133e-01 8.437394e-01 9.994416e-01 2.008282e-01 7.891459e-01 2.653527e-01 -4.109337e-01
<VARIANCE> 25
 1.007654e+01 1.849813e+01 1.571230e+01 2.250846e+01 9.652165e+00 3.745689e+01 3.015279e+01 1.503699e+01 3.853402e+01 4.406253e+01 4.075565e+01 1.732130e+01 3.884343e-01 9.681194e-01 1.011594e+00 1.467654e+00 1.305259e+00 2.553386e+00 3.208194e+00 9.460958e-01 4.642837e+00 2.312611e+00 1.959467e+00 9.041423e-01 3.390470e-01
<GCONST> 8.664226e+01
~s "ST_p_3_1"
<MEAN> 25
 4.157405e+00 -1.232228e+00 1.660959e+00 -4.199319e-01 -2.824301e+00 -2.764141e+00 -4.537589e+00 2.778739e+00 4.838263e+00 -1.073042e+00 1.440020e+00 -5.490692e-01 -5.167537e-01 2.586712e-01 -2.118427e-01 2.828361e-02 -1.537424e-01 5.917609e-02 5.502934e-01 -1.187663e-01 -1.022391e-01 7.454456e-01 4.608886e-01 -9.970462e-02 -6.642474e-01
<VARIANCE> 25
 7.205737e+00 3.880181e+01 2.614507e+01 1.330532e+01 7.429470e+00 3.395547e+01 1.150248e+01 2.603073e+01 3.036151e+01 2.671336e+01 1.820793e+01 1.334312e+01 5.434024e-01 4.559326e-01 3.867575e-01 6.408796e-01 6.481245e-01 2.506488e+00 1.194866e+00 1.809243e+00 1.513909e+00 2.384416e+00 1.672606e+00 1.185087e+00 4.492712e-01
<GCONST> 8.048934e+01
~s "ST_p_4_1"
<MEAN> 25
 2.981934e+00 -1.083708e+00 -1.261934e+00 7.361275e-01 3.234230e-01 2.905153e+00 2.052398e+00 -6.359711e-01 4.732097e-01 2.402243e+00 7.212562e-01 5.731408e-01 -2.372607e-02 6.836126e-03 -3.889843e-02 -2.463418e-02 -2.715016e-02 -1.291623e-02 4.824380e-02 2.943994e-02 2.956442e-03 3.295997e-02 2.511386e-02 -6.335421e-03 -4.490259e-02
<VARIANCE> 25
 1.529304e+00 2.860943e+00 3.280233e+00 4.862957e+00 4.872518e+00 1.046257e+01 7.855772e+00 6.376353e+00 6.506893e+00 8.920826e+00 6.231594e+00 6.030283e+00 1.154332e-01 1.572833e-01 2.484496e-01 4.387539e-01 4.791422e-01 6.839427e-01 7.484435e-01 7.742826e-01 6.492966e-01 7.327983e-01 6.644179e-01 8.356196e-01 5.333904e-02
<GCONST> 5.357680e+01
~h "a"
<BEGINHMM>
<NUMSTATES> 5
<STATE> 2
~s "ST_a_2_1"
<STATE> 3
~s "ST_a_3_1"
<STATE> 4
~s "ST_a_4_1"
~t "T_a"
<ENDHMM>
~h "b"
<BEGINHMM>
<NUMSTATES> 5
<STATE> 2
~s "ST_b_2_1"
<STATE> 3
~s "ST_b_3_1"
<STATE> 4
~s "ST_b_4_1"
~t "T_b"
<ENDHMM>
~h "e"
<BEGINHMM>
<NUMSTATES> 5
<STATE> 2
~s "ST_e_2_1"
<STATE> 3
~s "ST_e_3_1"
<STATE> 4
~s "ST_e_4_1"
~t "T_e"
<ENDHMM>
~h "h"
<BEGINHMM>
<NUMSTATES> 5
<STATE> 2
~s "ST_h_2_1"
<STATE> 3
~s "ST_h_3_1"
<STATE> 4
~s "ST_h_4_1"
~t "T_h"
<ENDHMM>
~h "i"
<BEGINHMM>
<NUMSTATES> 5
<STATE> 2
~s "ST_i_2_1"
<STATE> 3
~s "ST_i_3_1"
<STATE> 4
~s "ST_i_4_1"
~t "T_i"
<ENDHMM>
~h "j"
<BEGINHMM>
<NUMSTATES> 5
<STATE> 2
~s "ST_j_2_1"
<STATE> 3
~s "ST_j_3_1"
<STATE> 4
~s "ST_j_4_1"
~t "T_j"
<ENDHMM>
~h "k"
<BEGINHMM>
<NUMSTATES> 5
<STATE> 2
~s "ST_k_2_1"
<STATE> 3
~s "ST_k_3_1"
<STATE> 4
~s "ST_k_4_1"
~t "T_k"
<ENDHMM>
~h "l"
<BEGINHMM>
<NUMSTATES> 5
<STATE> 2
~s "ST_l_2_1"
<STATE> 3
~s "ST_l_3_1"
<STATE> 4
~s "ST_l_4_1"
~t "T_l"
<ENDHMM>
~h "m"
<BEGINHMM>
<NUMSTATES> 5
<STATE> 2
~s "ST_m_2_1"
<STATE> 3
~s "ST_m_3_1"
<STATE> 4
~s "ST_m_4_1"
~t "T_m"
<ENDHMM>
~h "n"
<BEGINHMM>
<NUMSTATES> 5
<STATE> 2
~s "ST_n_2_1"
<STATE> 3
~s "ST_n_3_1"
<STATE> 4
~s "ST_n_4_1"
~t "T_n"
<ENDHMM>
~h "p"
<BEGINHMM>
<NUMSTATES> 5
<STATE> 2
~s "ST_p_2_1"
<STATE> 3
~s "ST_p_3_1"
<STATE> 4
~s "ST_p_4_1"
~t "T_p"
<ENDHMM>
~h "r"
<BEGINHMM>
<NUMSTATES> 5
<STATE> 2
~s "ST_r_2_1"
<STATE> 3
~s "ST_r_3_1"
<STATE> 4
~s "ST_r_4_1"
~t "T_r"
<ENDHMM>
~h "s"
<BEGINHMM>
<NUMSTATES> 5
<STATE> 2
~s "ST_s_2_1"
<STATE> 3
~s "ST_s_3_1"
<STATE> 4
~s "ST_s_4_1"
~t "T_s"
<ENDHMM>
~h "t"
<BEGINHMM>
<NUMSTATES> 5
<STATE> 2
~s "ST_t_2_1"
<STATE> 3
~s "ST_t_3_1"
<STATE> 4
~s "ST_t_4_1"
~t "T_t"
<ENDHMM>
~h "u"
<BEGINHMM>
<NUMSTATES> 5
<STATE> 2
~s "ST_u_2_1"
<STATE> 3
~s "ST_u_3_1"
<STATE> 4
~s "ST_u_4_1"
~t "T_u"
<ENDHMM>
~h "w"
<BEGINHMM>
<NUMSTATES> 5
<STATE> 2
~s "ST_w_2_1"
<STATE> 3
~s "ST_w_3_1"
<STATE> 4
~s "ST_w_4_1"
~t "T_w"
<ENDHMM>
~h "kh"
<BEGINHMM>
<NUMSTATES> 5
<STATE> 2
~s "ST_kh_2_1"
<STATE> 3
~s "ST_kh_3_1"
<STATE> 4
~s "ST_kh_4_1"
~t "T_kh"
<ENDHMM>
~h "ny"
<BEGINHMM>
<NUMSTATES> 5
<STATE> 2
~s "ST_ny_2_1"
<STATE> 3
~s "ST_ny_3_1"
<STATE> 4
~s "ST_ny_4_1"
~t "T_ny"
<ENDHMM>
~h "sp"
<BEGINHMM>
<NUMSTATES> 3
<STATE> 2
~s "ST_sil_3_1"
<TRANSP> 3
 0.000000e+00 1.449096e-01 8.550904e-01
 0.000000e+00 7.870755e-01 2.129245e-01
 0.000000e+00 0.000000e+00 0.000000e+00
<ENDHMM>
~h "sil"
<BEGINHMM>
<NUMSTATES> 5
<STATE> 2
~s "ST_sil_2_1"
<STATE> 3
~s "ST_sil_3_1"
<STATE> 4
~s "ST_sil_4_1"
<TRANSP> 5
 0.000000e+00 1.000000e+00 0.000000e+00 0.000000e+00 0.000000e+00
 0.000000e+00 6.961413e-01 1.078331e-01 1.960257e-01 0.000000e+00
 0.000000e+00 0.000000e+00 8.047515e-01 1.952486e-01 0.000000e+00
 0.000000e+00 4.862215e-03 0.000000e+00 9.352750e-01 5.986284e-02
 0.000000e+00 0.000000e+00 0.000000e+00 0.000000e+00 0.000000e+00
<ENDHMM>
