~o
<STREAMINFO> 1 25
<VECSIZE> 25<NULLD><MFCC_D_N_Z_0><DIAGC>
~h "proto"
<BEGINHMM>
<NUMSTATES> 5
<STATE> 2
<MEAN> 25
 1.197295e-07 -5.031414e-08 1.113527e-07 1.200496e-07 8.648909e-08 -1.552642e-08 -6.226575e-08 2.598408e-08 2.614414e-08 -2.966560e-08 2.790487e-08 -2.288946e-08 3.507745e-02 3.488998e-02 1.483731e-03 2.012489e-02 8.079535e-03 -3.547370e-03 3.334396e-03 1.559629e-02 -1.849628e-03 6.899605e-05 7.315164e-03 2.044287e-02 -6.716008e-03
<VARIANCE> 25
 1.529304e+02 4.351760e+01 4.042494e+01 4.478496e+01 4.271296e+01 6.263599e+01 4.795097e+01 3.379714e+01 3.883251e+01 4.725272e+01 2.722965e+01 2.395380e+01 1.734622e+00 2.859429e+00 2.248969e+00 2.577276e+00 2.827180e+00 3.142573e+00 2.933978e+00 2.458067e+00 2.511347e+00 2.421298e+00 2.047112e+00 1.762858e+00 2.068043e+00
<GCONST> 1.028627e+02
<STATE> 3
<MEAN> 25
 1.197295e-07 -5.031414e-08 1.113527e-07 1.200496e-07 8.648909e-08 -1.552642e-08 -6.226575e-08 2.598408e-08 2.614414e-08 -2.966560e-08 2.790487e-08 -2.288946e-08 3.507745e-02 3.488998e-02 1.483731e-03 2.012489e-02 8.079535e-03 -3.547370e-03 3.334396e-03 1.559629e-02 -1.849628e-03 6.899605e-05 7.315164e-03 2.044287e-02 -6.716008e-03
<VARIANCE> 25
 1.529304e+02 4.351760e+01 4.042494e+01 4.478496e+01 4.271296e+01 6.263599e+01 4.795097e+01 3.379714e+01 3.883251e+01 4.725272e+01 2.722965e+01 2.395380e+01 1.734622e+00 2.859429e+00 2.248969e+00 2.577276e+00 2.827180e+00 3.142573e+00 2.933978e+00 2.458067e+00 2.511347e+00 2.421298e+00 2.047112e+00 1.762858e+00 2.068043e+00
<GCONST> 1.028627e+02
<STATE> 4
<MEAN> 25
 1.197295e-07 -5.031414e-08 1.113527e-07 1.200496e-07 8.648909e-08 -1.552642e-08 -6.226575e-08 2.598408e-08 2.614414e-08 -2.966560e-08 2.790487e-08 -2.288946e-08 3.507745e-02 3.488998e-02 1.483731e-03 2.012489e-02 8.079535e-03 -3.547370e-03 3.334396e-03 1.559629e-02 -1.849628e-03 6.899605e-05 7.315164e-03 2.044287e-02 -6.716008e-03
<VARIANCE> 25
 1.529304e+02 4.351760e+01 4.042494e+01 4.478496e+01 4.271296e+01 6.263599e+01 4.795097e+01 3.379714e+01 3.883251e+01 4.725272e+01 2.722965e+01 2.395380e+01 1.734622e+00 2.859429e+00 2.248969e+00 2.577276e+00 2.827180e+00 3.142573e+00 2.933978e+00 2.458067e+00 2.511347e+00 2.421298e+00 2.047112e+00 1.762858e+00 2.068043e+00
<GCONST> 1.028627e+02
<TRANSP> 5
 0.000000e+00 1.000000e+00 0.000000e+00 0.000000e+00 0.000000e+00
 0.000000e+00 6.000000e-01 4.000000e-01 0.000000e+00 0.000000e+00
 0.000000e+00 0.000000e+00 6.000000e-01 4.000000e-01 0.000000e+00
 0.000000e+00 0.000000e+00 0.000000e+00 7.000000e-01 3.000000e-01
 0.000000e+00 0.000000e+00 0.000000e+00 0.000000e+00 0.000000e+00
<ENDHMM>
