~o
<STREAMINFO> 1 25
<VECSIZE> 25<NULLD><MFCC_D_N_Z_0><DIAGC>
~h "a"
<BEGINHMM>
<NUMSTATES> 5
<STATE> 2
<MEAN> 25
 2.968490e-02 -7.188448e-01 -3.025166e-01 -1.058413e+00 -8.045801e-02 -6.616094e-01 3.083321e-01 7.715631e-01 5.279499e-01 4.209789e-02 -4.621932e-01 -2.314701e-02 -6.511512e-03 6.602266e-02 2.260733e-02 4.559195e-02 1.878620e-02 1.288218e-02 2.539409e-03 -3.262746e-03 2.271571e-02 -2.338658e-02 8.924983e-03 2.511987e-02 -3.609764e-02
<VARIANCE> 25
 1.288955e+02 4.035754e+01 3.367058e+01 4.077921e+01 4.484977e+01 5.846138e+01 4.461486e+01 3.318295e+01 4.494807e+01 3.860484e+01 2.954955e+01 2.496498e+01 1.511556e+00 2.714556e+00 2.081131e+00 2.676161e+00 3.201802e+00 2.951795e+00 2.756866e+00 2.423538e+00 2.722299e+00 2.036171e+00 2.229114e+00 1.949321e+00 1.777375e+00
<GCONST> 1.019940e+02
<STATE> 3
<MEAN> 25
 1.078450e-01 -5.797803e-01 -2.565959e-01 -9.291821e-01 -5.000454e-02 -5.910904e-01 3.311068e-01 7.579235e-01 5.435215e-01 5.092009e-03 -4.252062e-01 3.485252e-02 -3.172756e-02 8.153358e-02 2.577677e-02 5.274262e-02 2.448530e-03 4.794763e-02 1.665695e-02 -6.843174e-03 9.580726e-03 -1.010436e-02 2.711880e-02 1.493699e-02 -7.434233e-02
<VARIANCE> 25
 1.267792e+02 4.142777e+01 3.411806e+01 4.150320e+01 4.482555e+01 5.925583e+01 4.423623e+01 3.341770e+01 4.553363e+01 3.907439e+01 2.932398e+01 2.489283e+01 1.578917e+00 2.790776e+00 2.101105e+00 2.728383e+00 3.229286e+00 2.928906e+00 2.727203e+00 2.454759e+00 2.723838e+00 2.089123e+00 2.244958e+00 1.948629e+00 1.822980e+00
<GCONST> 1.022216e+02
<STATE> 4
<MEAN> 25
 5.383036e-01 -3.655122e-01 -2.469530e-01 -5.475954e-01 -1.268764e-01 -4.025298e-01 3.244139e-01 6.622586e-01 4.943133e-01 -8.396413e-02 -2.701974e-01 8.284883e-02 5.708080e-03 6.060541e-02 2.048252e-02 5.439277e-02 -8.047877e-03 5.960491e-02 1.316350e-02 -1.392245e-02 -6.602416e-03 2.465233e-03 2.894709e-02 8.920711e-03 -4.711134e-02
<VARIANCE> 25
 1.805402e+02 4.200312e+01 3.617081e+01 4.149960e+01 3.957469e+01 6.577710e+01 4.189588e+01 3.244769e+01 4.172289e+01 4.493657e+01 2.493362e+01 2.231586e+01 1.572581e+00 2.564908e+00 1.977124e+00 2.563860e+00 2.743880e+00 2.721544e+00 2.479960e+00 2.135273e+00 2.373856e+00 1.919746e+00 1.926413e+00 1.734625e+00 1.760945e+00
<GCONST> 1.011159e+02
<TRANSP> 5
 0.000000e+00 1.000000e+00 0.000000e+00 0.000000e+00 0.000000e+00
 0.000000e+00 6.299284e-01 3.700716e-01 0.000000e+00 0.000000e+00
 0.000000e+00 0.000000e+00 6.299279e-01 3.700722e-01 0.000000e+00
 0.000000e+00 0.000000e+00 0.000000e+00 7.895938e-01 2.104063e-01
 0.000000e+00 0.000000e+00 0.000000e+00 0.000000e+00 0.000000e+00
<ENDHMM>
~h "b"
<BEGINHMM>
<NUMSTATES> 5
<STATE> 2
<MEAN> 25
 6.482975e+00 2.764707e-01 1.306436e+00 1.591311e+00 -8.303691e-01 -6.474274e-01 -3.217039e+00 -1.860396e+00 9.073585e-01 -3.319813e+00 -1.666348e+00 -1.530113e+00 2.742978e-01 3.096539e-04 -1.003067e-01 5.248715e-02 1.763054e-01 -8.920256e-02 -2.912036e-01 -2.827986e-02 -4.605037e-02 -8.336226e-02 -1.394912e-01 -2.009578e-01 2.005364e-01
<VARIANCE> 25
 1.251036e+02 6.625822e+01 7.402911e+01 4.758794e+01 7.588525e+01 9.334115e+01 5.275677e+01 7.801286e+01 3.476881e+01 7.044262e+01 4.853606e+01 3.436823e+01 2.339348e+00 5.271862e+00 5.263322e+00 4.861221e+00 5.557213e+00 6.021464e+00 4.426181e+00 6.160931e+00 3.447233e+00 5.002601e+00 3.062494e+00 2.066908e+00 3.347733e+00
<GCONST> 1.140193e+02
<STATE> 3
<MEAN> 25
 7.154265e+00 3.101826e-01 1.148788e+00 1.758066e+00 -3.480160e-01 -8.630811e-01 -3.895629e+00 -2.051789e+00 8.632860e-01 -3.631598e+00 -1.939885e+00 -1.952844e+00 2.288696e-01 -5.242078e-03 -9.556700e-02 -8.714463e-03 2.052987e-01 -7.722772e-02 -2.378576e-01 -7.550153e-02 -7.828999e-02 -8.965172e-02 -8.934361e-02 -1.510470e-01 2.269739e-01
<VARIANCE> 25
 1.161705e+02 6.262234e+01 7.198461e+01 4.740907e+01 8.039420e+01 9.125272e+01 5.364863e+01 7.557307e+01 3.696127e+01 6.943077e+01 5.054785e+01 3.367340e+01 2.105019e+00 4.895479e+00 5.137858e+00 4.812957e+00 5.656722e+00 5.842428e+00 4.546618e+00 6.156219e+00 3.492032e+00 4.717304e+00 2.967298e+00 2.002799e+00 3.172795e+00
<GCONST> 1.135813e+02
<STATE> 4
<MEAN> 25
 1.079031e+01 -2.041979e-01 1.165236e+00 2.339592e+00 4.756800e-01 -2.053915e+00 -4.844697e+00 -2.078731e+00 1.186885e+00 -5.397201e+00 -2.149284e+00 -1.593802e+00 1.656558e-01 -6.885283e-03 -4.806804e-02 1.702477e-02 1.541612e-01 -9.760415e-02 -1.585110e-01 -8.086520e-02 -6.464693e-02 -8.378204e-02 -4.338440e-02 -7.469506e-02 1.828262e-01
<VARIANCE> 25
 1.293806e+02 6.532575e+01 9.635448e+01 5.355069e+01 9.438635e+01 1.126240e+02 5.559578e+01 7.062623e+01 3.860599e+01 7.881166e+01 4.665110e+01 3.322767e+01 2.218245e+00 5.023997e+00 6.623039e+00 4.725441e+00 6.174915e+00 6.189867e+00 4.633092e+00 5.578329e+00 3.439913e+00 4.678898e+00 2.857573e+00 2.182083e+00 2.862800e+00
<GCONST> 1.148618e+02
<TRANSP> 5
 0.000000e+00 1.000000e+00 0.000000e+00 0.000000e+00 0.000000e+00
 0.000000e+00 6.072349e-01 3.927651e-01 0.000000e+00 0.000000e+00
 0.000000e+00 0.000000e+00 6.072349e-01 3.927651e-01 0.000000e+00
 0.000000e+00 0.000000e+00 0.000000e+00 7.571298e-01 2.428702e-01
 0.000000e+00 0.000000e+00 0.000000e+00 0.000000e+00 0.000000e+00
<ENDHMM>
~h "e"
<BEGINHMM>
<NUMSTATES> 5
<STATE> 2
<MEAN> 25
 5.710323e+00 -7.768916e-01 1.156898e+00 -2.742518e-01 -4.906338e-02 -4.496461e-01 -2.961791e+00 -1.859252e+00 5.525796e-01 -2.771112e+00 -1.326756e+00 -5.524324e-01 3.071680e-01 -3.235700e-02 -8.528940e-02 1.643429e-01 1.113518e-02 -1.771450e-01 -1.996558e-01 2.163586e-02 -6.877837e-02 -1.171186e-01 -6.238176e-02 -5.421374e-02 1.168515e-01
<VARIANCE> 25
 1.437820e+02 6.490723e+01 7.694608e+01 5.045012e+01 6.613024e+01 9.050742e+01 5.168013e+01 5.851559e+01 3.714716e+01 6.968121e+01 4.526381e+01 3.164574e+01 2.688726e+00 5.432349e+00 4.808507e+00 3.837889e+00 4.808889e+00 5.555933e+00 4.279752e+00 4.561158e+00 3.229636e+00 4.597412e+00 3.246941e+00 2.271490e+00 2.481760e+00
<GCONST> 1.126482e+02
<STATE> 3
<MEAN> 25
 6.403935e+00 -7.784882e-01 1.044892e+00 1.540033e-01 1.497933e-03 -8.884343e-01 -3.408935e+00 -1.835840e+00 4.719882e-01 -3.123910e+00 -1.451541e+00 -6.581056e-01 2.509259e-01 1.216596e-02 -4.747948e-02 1.856848e-01 5.461740e-03 -1.688811e-01 -1.605975e-01 3.488259e-02 -5.573536e-02 -1.257546e-01 -4.383289e-02 -4.329105e-02 7.914836e-02
<VARIANCE> 25
 1.353816e+02 6.135425e+01 7.483501e+01 5.105351e+01 6.895739e+01 8.997395e+01 5.143826e+01 5.811939e+01 3.776589e+01 6.769826e+01 4.661989e+01 3.243739e+01 2.342973e+00 5.178855e+00 4.749201e+00 3.887851e+00 4.860934e+00 5.673198e+00 4.260212e+00 4.511248e+00 3.160514e+00 4.438119e+00 3.235829e+00 2.254378e+00 2.408343e+00
<GCONST> 1.123153e+02
<STATE> 4
<MEAN> 25
 9.970774e+00 -9.675906e-01 7.549602e-01 1.319436e+00 3.387129e-01 -2.193665e+00 -4.170099e+00 -1.534129e+00 8.500375e-01 -4.710603e+00 -1.496784e+00 -3.290439e-01 1.629349e-01 4.865936e-02 3.379870e-03 1.661570e-01 1.933029e-02 -1.146355e-01 -1.076567e-01 2.182643e-02 -3.683053e-02 -1.070361e-01 -3.868993e-03 -2.456783e-02 4.541728e-02
<VARIANCE> 25
 1.505699e+02 6.194265e+01 9.478511e+01 5.693473e+01 8.042234e+01 1.083662e+02 5.381427e+01 5.706139e+01 3.780818e+01 7.274973e+01 4.426651e+01 3.388389e+01 2.262669e+00 5.303666e+00 5.883321e+00 4.063492e+00 5.310410e+00 6.158287e+00 4.348449e+00 4.313153e+00 3.051693e+00 4.311814e+00 3.239772e+00 2.389336e+00 2.301487e+00
<GCONST> 1.135515e+02
<TRANSP> 5
 0.000000e+00 1.000000e+00 0.000000e+00 0.000000e+00 0.000000e+00
 0.000000e+00 6.064530e-01 3.935470e-01 0.000000e+00 0.000000e+00
 0.000000e+00 0.000000e+00 6.064536e-01 3.935464e-01 0.000000e+00
 0.000000e+00 0.000000e+00 0.000000e+00 7.532464e-01 2.467536e-01
 0.000000e+00 0.000000e+00 0.000000e+00 0.000000e+00 0.000000e+00
<ENDHMM>
~h "h"
<BEGINHMM>
<NUMSTATES> 5
<STATE> 2
<MEAN> 25
 -5.787731e+00 -1.066342e+00 -8.540013e-01 -1.350983e+00 -2.644846e-01 1.061078e+00 2.387314e+00 3.802164e-02 -5.190402e-01 2.132782e+00 8.372493e-01 -4.441818e-01 4.347434e-01 -9.904338e-02 2.628915e-01 -1.807872e-01 -9.394647e-03 -3.253297e-01 -1.980173e-01 1.047891e-01 1.101988e-02 -7.353403e-02 -1.415349e-01 -4.353819e-02 5.725001e-01
<VARIANCE> 25
 1.631885e+02 4.262733e+01 3.843756e+01 5.788348e+01 4.730009e+01 5.546365e+01 5.632594e+01 3.064269e+01 3.536726e+01 3.268242e+01 2.153677e+01 1.871864e+01 2.224304e+00 2.812773e+00 2.555337e+00 2.239435e+00 2.955729e+00 3.522054e+00 3.399363e+00 2.487505e+00 2.920032e+00 2.156083e+00 1.912738e+00 1.568242e+00 2.158287e+00
<GCONST> 1.026429e+02
<STATE> 3
<MEAN> 25
 -4.907610e+00 -1.256273e+00 -2.966477e-01 -1.603705e+00 -3.560722e-01 3.821601e-01 1.775167e+00 1.918270e-01 -3.128968e-01 1.846518e+00 5.346240e-01 -5.148042e-01 3.816928e-01 -7.801034e-02 2.066403e-01 -1.312172e-01 -4.538869e-02 -3.116226e-01 -2.638737e-01 7.932348e-02 7.367280e-02 -1.234653e-01 -1.323882e-01 -8.755073e-05 4.142608e-01
<VARIANCE> 25
 1.656364e+02 3.954201e+01 3.738267e+01 5.543479e+01 4.800991e+01 5.408222e+01 5.540631e+01 3.180277e+01 3.727161e+01 3.227577e+01 2.104942e+01 1.944818e+01 1.880817e+00 2.437971e+00 2.280946e+00 2.152419e+00 2.830664e+00 3.462678e+00 3.218978e+00 2.394583e+00 3.021369e+00 2.025315e+00 1.970569e+00 1.629882e+00 1.720066e+00
<GCONST> 1.017734e+02
<STATE> 4
<MEAN> 25
 -6.574014e+00 -1.056785e+00 5.124430e-01 -1.712849e+00 -2.067431e-01 3.554470e-02 6.139219e-01 7.611175e-02 -2.959048e-01 1.830914e+00 4.275150e-01 -7.915247e-01 2.091852e-01 -1.918902e-02 9.041625e-02 -3.432228e-02 -3.640780e-02 -1.633102e-01 -1.757702e-01 2.113039e-02 7.936358e-02 -9.108727e-02 -9.870711e-02 1.019551e-02 1.638457e-01
<VARIANCE> 25
 2.279318e+02 3.728187e+01 3.108904e+01 5.627618e+01 4.173841e+01 5.028742e+01 4.853690e+01 3.101786e+01 3.317713e+01 3.212907e+01 1.856364e+01 1.849083e+01 1.282333e+00 1.768037e+00 1.695505e+00 1.886047e+00 2.246279e+00 2.679749e+00 2.460048e+00 1.933022e+00 2.320615e+00 1.710264e+00 1.613491e+00 1.494008e+00 1.180869e+00
<GCONST> 9.799765e+01
<TRANSP> 5
 0.000000e+00 1.000000e+00 0.000000e+00 0.000000e+00 0.000000e+00
 0.000000e+00 6.370434e-01 3.629566e-01 0.000000e+00 0.000000e+00
 0.000000e+00 0.000000e+00 6.370432e-01 3.629567e-01 0.000000e+00
 0.000000e+00 0.000000e+00 0.000000e+00 7.984139e-01 2.015861e-01
 0.000000e+00 0.000000e+00 0.000000e+00 0.000000e+00 0.000000e+00
<ENDHMM>
~h "i"
<BEGINHMM>
<NUMSTATES> 5
<STATE> 2
<MEAN> 25
 3.130028e+00 -9.156104e-01 4.685409e+00 3.878620e+00 5.350340e-01 -7.892314e-01 -3.360963e+00 -2.165890e+00 -3.057292e+00 -5.606024e-01 1.179474e+00 -3.931915e-01 6.104187e-02 3.870482e-02 -6.952572e-03 7.791090e-02 5.456631e-02 -1.899383e-01 -2.164144e-01 -5.236745e-02 -9.675990e-02 -8.488233e-02 2.766354e-03 1.495009e-02 -3.629160e-02
<VARIANCE> 25
 8.039197e+01 4.923746e+01 6.187063e+01 9.024300e+01 9.218820e+01 7.103997e+01 7.096202e+01 5.084789e+01 2.843993e+01 4.877614e+01 2.819143e+01 2.826443e+01 1.578130e+00 2.662565e+00 2.901248e+00 3.171705e+00 3.424667e+00 3.537576e+00 3.035892e+00 3.069609e+00 2.835782e+00 3.104936e+00 1.961247e+00 2.162525e+00 1.554002e+00
<GCONST> 1.061942e+02
<STATE> 3
<MEAN> 25
 2.975312e+00 -6.804858e-01 4.547646e+00 3.958142e+00 6.642287e-01 -1.103148e+00 -3.738590e+00 -2.431744e+00 -3.158378e+00 -6.905688e-01 1.148137e+00 -3.440694e-01 -1.557979e-02 8.692942e-02 -2.075376e-01 4.256779e-02 8.034682e-02 -8.246497e-02 -1.119241e-01 -8.250175e-02 3.863796e-02 -5.744671e-02 4.179006e-03 7.100062e-02 -1.676733e-01
<VARIANCE> 25
 7.014556e+01 4.415673e+01 5.755952e+01 8.551724e+01 9.064326e+01 6.476974e+01 6.849452e+01 5.533593e+01 2.602416e+01 4.574098e+01 2.664553e+01 2.756775e+01 1.306866e+00 2.311877e+00 2.797025e+00 3.020904e+00 3.087225e+00 3.430017e+00 2.965468e+00 2.756450e+00 2.632942e+00 2.942023e+00 1.911710e+00 2.122675e+00 1.370994e+00
<GCONST> 1.045500e+02
<STATE> 4
<MEAN> 25
 4.169005e+00 -7.385479e-02 3.058677e+00 3.739639e+00 7.973627e-01 -4.984997e-01 -3.231908e+00 -3.327031e+00 -2.748047e+00 -6.968883e-01 9.545977e-01 -2.848028e-02 -1.637634e-01 1.251450e-01 -2.407468e-01 -4.307072e-02 1.603511e-03 5.753642e-02 4.586477e-02 -4.950645e-02 1.171894e-01 2.588788e-02 -3.182238e-03 7.059297e-02 -3.058932e-01
<VARIANCE> 25
 8.856683e+01 5.016797e+01 4.459656e+01 8.448637e+01 7.267049e+01 7.044592e+01 7.059181e+01 5.197712e+01 2.309119e+01 3.781623e+01 2.298838e+01 2.291295e+01 1.171751e+00 2.006462e+00 2.506018e+00 2.736012e+00 2.474080e+00 3.410965e+00 2.823945e+00 2.290205e+00 2.233493e+00 2.513085e+00 1.713777e+00 2.020335e+00 1.147574e+00
<GCONST> 1.022521e+02
<TRANSP> 5
 0.000000e+00 1.000000e+00 0.000000e+00 0.000000e+00 0.000000e+00
 0.000000e+00 6.597045e-01 3.402955e-01 0.000000e+00 0.000000e+00
 0.000000e+00 0.000000e+00 6.597044e-01 3.402955e-01 0.000000e+00
 0.000000e+00 0.000000e+00 0.000000e+00 8.239183e-01 1.760817e-01
 0.000000e+00 0.000000e+00 0.000000e+00 0.000000e+00 0.000000e+00
<ENDHMM>
~h "j"
<BEGINHMM>
<NUMSTATES> 5
<STATE> 2
<MEAN> 25
 4.736886e+00 9.330565e-01 2.284406e+00 4.619640e+00 1.768402e+00 -1.435758e+00 -3.851352e+00 -2.659053e+00 -2.625337e+00 -2.482951e+00 1.373602e+00 5.670382e-01 -9.191335e-02 4.371092e-02 -2.921521e-01 -9.596802e-02 -4.735769e-02 1.292928e-01 7.151721e-02 -1.534036e-02 1.424330e-01 1.354656e-01 -8.271802e-02 4.048546e-02 -2.547141e-01
<VARIANCE> 25
 1.098176e+02 6.822689e+01 4.919429e+01 5.714314e+01 5.755532e+01 7.017761e+01 5.663547e+01 3.273898e+01 2.814933e+01 3.896357e+01 2.721232e+01 3.420707e+01 2.175999e+00 6.417244e+00 3.861669e+00 3.616380e+00 4.698768e+00 4.999330e+00 4.563231e+00 2.901715e+00 3.052850e+00 2.399776e+00 2.437886e+00 2.497987e+00 4.037491e+00
<GCONST> 1.086818e+02
<STATE> 3
<MEAN> 25
 4.330714e+00 1.084239e+00 1.677387e+00 4.323144e+00 1.658157e+00 -1.056788e+00 -3.604815e+00 -2.722871e+00 -2.364913e+00 -2.126197e+00 1.140513e+00 6.081887e-01 -9.756394e-02 7.824329e-02 -2.963211e-01 -1.162639e-01 -5.205493e-02 1.538892e-01 1.327151e-01 -2.355667e-02 1.300959e-01 1.410207e-01 -9.353244e-02 4.300544e-02 -2.648801e-01
<VARIANCE> 25
 1.082332e+02 6.814150e+01 4.832837e+01 5.634282e+01 5.422863e+01 6.779889e+01 5.743797e+01 3.152254e+01 2.689594e+01 3.713573e+01 2.576907e+01 3.310690e+01 2.037462e+00 5.916698e+00 3.832348e+00 3.378148e+00 4.375565e+00 4.909772e+00 4.390852e+00 2.807669e+00 2.767603e+00 2.297875e+00 2.140749e+00 2.414433e+00 4.022774e+00
<GCONST> 1.076429e+02
<STATE> 4
<MEAN> 25
 5.770427e+00 1.529502e+00 1.013905e+00 4.296017e+00 1.782569e+00 -1.000569e+00 -3.326092e+00 -2.902457e+00 -2.445890e+00 -2.292074e+00 9.016193e-01 1.214408e+00 -1.511257e-01 7.555654e-02 -1.803880e-01 -1.358555e-01 -6.778504e-02 1.462835e-01 1.541354e-01 6.237577e-03 6.007999e-02 1.440859e-01 -8.445651e-02 -1.109158e-02 -2.400535e-01
<VARIANCE> 25
 1.247441e+02 6.576994e+01 4.936481e+01 6.109914e+01 5.162122e+01 7.087641e+01 6.244020e+01 2.819541e+01 2.636105e+01 4.097521e+01 2.393392e+01 3.393753e+01 2.008904e+00 5.422430e+00 3.646815e+00 3.460160e+00 3.935017e+00 4.911923e+00 4.250162e+00 2.569036e+00 2.422877e+00 2.393064e+00 1.940288e+00 2.122320e+00 3.621007e+00
<GCONST> 1.070690e+02
<TRANSP> 5
 0.000000e+00 1.000000e+00 0.000000e+00 0.000000e+00 0.000000e+00
 0.000000e+00 6.048169e-01 3.951831e-01 0.000000e+00 0.000000e+00
 0.000000e+00 0.000000e+00 6.048171e-01 3.951829e-01 0.000000e+00
 0.000000e+00 0.000000e+00 0.000000e+00 7.449703e-01 2.550297e-01
 0.000000e+00 0.000000e+00 0.000000e+00 0.000000e+00 0.000000e+00
<ENDHMM>
~h "k"
<BEGINHMM>
<NUMSTATES> 5
<STATE> 2
<MEAN> 25
 -1.513887e-08 8.685321e-09 6.289883e-08 7.186313e-08 3.131923e-08 4.571417e-08 5.014053e-08 1.333485e-08 -7.134006e-08 8.713219e-09 1.011273e-09 4.209684e-08 -6.534437e-03 7.731597e-03 -5.306157e-03 4.609803e-03 -4.191151e-03 8.242088e-03 -6.219152e-03 5.951754e-03 -5.249157e-03 1.868283e-03 2.200403e-03 -1.269434e-03 2.744509e-03
<VARIANCE> 25
 6.716856e+01 2.941401e+01 5.663681e+01 4.741492e+01 4.696264e+01 4.914315e+01 4.999928e+01 4.303569e+01 5.672998e+01 3.222253e+01 2.850756e+01 4.103967e+01 2.100924e+00 1.434693e+00 1.891293e+00 2.194988e+00 2.363979e+00 2.636887e+00 2.464799e+00 2.732278e+00 2.851009e+00 2.222413e+00 2.036798e+00 2.011688e+00 1.909456e+00
<GCONST> 1.015924e+02
<STATE> 3
<MEAN> 25
 -1.513887e-08 8.685321e-09 6.289883e-08 7.186313e-08 3.131923e-08 4.571417e-08 5.014053e-08 1.333485e-08 -7.134006e-08 8.713219e-09 1.011273e-09 4.209684e-08 -6.534437e-03 7.731597e-03 -5.306157e-03 4.609803e-03 -4.191151e-03 8.242088e-03 -6.219152e-03 5.951754e-03 -5.249157e-03 1.868283e-03 2.200403e-03 -1.269434e-03 2.744509e-03
<VARIANCE> 25
 6.716856e+01 2.941401e+01 5.663681e+01 4.741492e+01 4.696264e+01 4.914315e+01 4.999928e+01 4.303569e+01 5.672998e+01 3.222253e+01 2.850756e+01 4.103967e+01 2.100924e+00 1.434693e+00 1.891293e+00 2.194988e+00 2.363979e+00 2.636887e+00 2.464799e+00 2.732278e+00 2.851009e+00 2.222413e+00 2.036798e+00 2.011688e+00 1.909456e+00
<GCONST> 1.015924e+02
<STATE> 4
<MEAN> 25
 -1.513887e-08 8.685321e-09 6.289883e-08 7.186313e-08 3.131923e-08 4.571417e-08 5.014053e-08 1.333485e-08 -7.134006e-08 8.713219e-09 1.011273e-09 4.209684e-08 -6.534437e-03 7.731597e-03 -5.306157e-03 4.609803e-03 -4.191151e-03 8.242088e-03 -6.219152e-03 5.951754e-03 -5.249157e-03 1.868283e-03 2.200403e-03 -1.269434e-03 2.744509e-03
<VARIANCE> 25
 6.716856e+01 2.941401e+01 5.663681e+01 4.741492e+01 4.696264e+01 4.914315e+01 4.999928e+01 4.303569e+01 5.672998e+01 3.222253e+01 2.850756e+01 4.103967e+01 2.100924e+00 1.434693e+00 1.891293e+00 2.194988e+00 2.363979e+00 2.636887e+00 2.464799e+00 2.732278e+00 2.851009e+00 2.222413e+00 2.036798e+00 2.011688e+00 1.909456e+00
<GCONST> 1.015924e+02
<TRANSP> 5
 0.000000e+00 1.000000e+00 0.000000e+00 0.000000e+00 0.000000e+00
 0.000000e+00 6.000000e-01 4.000000e-01 0.000000e+00 0.000000e+00
 0.000000e+00 0.000000e+00 6.000000e-01 4.000000e-01 0.000000e+00
 0.000000e+00 0.000000e+00 0.000000e+00 7.000000e-01 3.000000e-01
 0.000000e+00 0.000000e+00 0.000000e+00 0.000000e+00 0.000000e+00
<ENDHMM>
~h "l"
<BEGINHMM>
<NUMSTATES> 5
<STATE> 2
<MEAN> 25
 5.065308e-01 -5.706293e-01 5.651467e-02 -9.809368e-01 -9.078056e-01 -9.557317e-01 -4.744359e-01 2.631787e-01 1.450263e+00 -3.369603e-01 -1.091845e+00 -6.164919e-01 4.924790e-02 1.197363e-01 4.320621e-03 1.933861e-01 1.731641e-03 1.119939e-01 1.158796e-02 1.476077e-02 -8.647388e-03 -8.673466e-02 -9.156400e-04 -1.483418e-02 -1.440636e-01
<VARIANCE> 25
 1.482064e+02 3.397886e+01 3.433847e+01 3.955846e+01 4.759929e+01 6.186361e+01 4.853674e+01 3.699757e+01 3.926442e+01 3.941706e+01 2.898457e+01 2.651737e+01 1.039828e+00 2.460839e+00 2.153921e+00 2.886255e+00 3.257406e+00 3.308235e+00 2.770036e+00 2.487252e+00 2.573220e+00 2.115476e+00 2.289922e+00 1.998914e+00 1.483901e+00
<GCONST> 1.018398e+02
<STATE> 3
<MEAN> 25
 6.086397e-01 -2.743427e-01 5.550195e-02 -5.364907e-01 -8.223370e-01 -6.135367e-01 -3.795516e-01 2.950000e-01 1.276089e+00 -4.652759e-01 -1.077970e+00 -6.302652e-01 -8.668485e-03 1.310180e-01 2.853858e-02 1.828628e-01 5.154738e-02 1.176550e-01 9.168728e-03 2.450411e-02 -7.167640e-02 -5.294229e-02 -2.623721e-03 -2.148907e-02 -1.649843e-01
<VARIANCE> 25
 1.422244e+02 3.490040e+01 3.483771e+01 4.133817e+01 4.734139e+01 5.968824e+01 4.806686e+01 3.710822e+01 3.882404e+01 3.931293e+01 2.997039e+01 2.688060e+01 1.049067e+00 2.580068e+00 2.181211e+00 3.015515e+00 3.350270e+00 3.338557e+00 2.808861e+00 2.579636e+00 2.606350e+00 2.109194e+00 2.322365e+00 2.098129e+00 1.582940e+00
<GCONST> 1.022060e+02
<STATE> 4
<MEAN> 25
 -5.503263e-01 1.339839e-01 3.996673e-01 -7.465177e-02 -4.395190e-01 3.867063e-01 -2.183220e-02 7.572728e-02 5.175431e-01 1.369534e-02 -6.615756e-01 -5.872089e-01 -1.501181e-02 9.664723e-02 2.114036e-02 1.138008e-01 8.725373e-02 9.007970e-02 1.940374e-02 2.580761e-02 -1.122385e-01 -3.619950e-03 1.631772e-02 1.788877e-03 -1.048271e-01
<VARIANCE> 25
 1.749629e+02 3.387100e+01 3.505064e+01 4.072673e+01 4.184660e+01 6.008777e+01 4.519232e+01 3.240735e+01 3.466445e+01 4.275990e+01 2.637015e+01 2.447439e+01 1.167930e+00 2.496997e+00 2.061718e+00 2.549035e+00 2.934386e+00 3.059041e+00 2.559793e+00 2.319681e+00 2.364473e+00 1.897975e+00 2.027448e+00 1.894823e+00 1.535963e+00
<GCONST> 1.007700e+02
<TRANSP> 5
 0.000000e+00 1.000000e+00 0.000000e+00 0.000000e+00 0.000000e+00
 0.000000e+00 6.257936e-01 3.742064e-01 0.000000e+00 0.000000e+00
 0.000000e+00 0.000000e+00 6.257935e-01 3.742064e-01 0.000000e+00
 0.000000e+00 0.000000e+00 0.000000e+00 7.841929e-01 2.158070e-01
 0.000000e+00 0.000000e+00 0.000000e+00 0.000000e+00 0.000000e+00
<ENDHMM>
~h "m"
<BEGINHMM>
<NUMSTATES> 5
<STATE> 2
<MEAN> 25
 1.165212e+00 -1.433080e-01 5.884373e-02 -4.504210e-01 9.982274e-01 4.703047e-01 -3.083535e-03 1.131456e+00 -5.186982e-01 -2.780655e-01 -1.184319e+00 -4.585364e-01 -9.559679e-02 1.555369e-02 2.799994e-02 3.287094e-02 1.192981e-01 6.226317e-02 3.419373e-02 -4.643897e-02 -1.204953e-01 2.424429e-02 1.139484e-01 1.134083e-01 -2.095946e-02
<VARIANCE> 25
 8.624187e+01 4.031480e+01 3.077842e+01 4.153499e+01 4.972543e+01 5.105090e+01 4.593089e+01 3.269190e+01 4.496021e+01 3.861572e+01 2.936460e+01 3.198077e+01 1.220959e+00 3.043433e+00 1.944746e+00 3.206830e+00 3.992793e+00 2.964277e+00 2.938024e+00 2.888103e+00 3.112151e+00 1.931463e+00 2.365011e+00 2.380265e+00 2.033591e+00
<GCONST> 1.026960e+02
<STATE> 3
<MEAN> 25
 1.115895e+00 -1.220721e-01 4.773555e-02 -3.436050e-01 1.231205e+00 6.400754e-01 9.814004e-02 9.417324e-01 -7.719653e-01 -2.270556e-01 -9.030603e-01 -1.930367e-01 -1.300261e-01 2.606259e-02 7.592296e-03 4.173974e-02 9.718967e-02 5.820215e-02 5.835085e-02 -1.009004e-01 -6.565962e-02 1.775382e-02 1.292357e-01 1.179625e-01 -3.429542e-02
<VARIANCE> 25
 8.260398e+01 4.314867e+01 3.358715e+01 4.153276e+01 5.055031e+01 5.169138e+01 4.535927e+01 3.225765e+01 4.668939e+01 3.930726e+01 3.022787e+01 3.152831e+01 1.449927e+00 3.250647e+00 2.104195e+00 3.141746e+00 4.003200e+00 3.008284e+00 2.911963e+00 2.839784e+00 3.146152e+00 2.062777e+00 2.415082e+00 2.306225e+00 2.036596e+00
<GCONST> 1.032364e+02
<STATE> 4
<MEAN> 25
 2.042900e+00 -1.719469e-01 -4.255547e-01 -1.438790e-01 9.669794e-01 8.880608e-01 6.596062e-01 4.773903e-01 -7.033271e-01 -2.982926e-01 -4.051498e-01 2.693093e-01 -5.153778e-02 1.539337e-02 -2.385813e-02 1.579981e-02 4.739188e-02 9.893192e-03 4.680340e-02 -8.121113e-02 -5.948069e-05 -1.150708e-02 8.937056e-02 8.045244e-02 2.411843e-02
<VARIANCE> 25
 1.196340e+02 4.245432e+01 3.559676e+01 3.852433e+01 4.442896e+01 5.845442e+01 4.289011e+01 2.881206e+01 4.315916e+01 4.537175e+01 2.655731e+01 2.723582e+01 1.756327e+00 2.881528e+00 2.018070e+00 2.866284e+00 3.213220e+00 2.819119e+00 2.544721e+00 2.344640e+00 2.638869e+00 1.987738e+00 2.129721e+00 1.956312e+00 1.922866e+00
<GCONST> 1.019533e+02
<TRANSP> 5
 0.000000e+00 1.000000e+00 0.000000e+00 0.000000e+00 0.000000e+00
 0.000000e+00 6.263024e-01 3.736976e-01 0.000000e+00 0.000000e+00
 0.000000e+00 0.000000e+00 6.263030e-01 3.736970e-01 0.000000e+00
 0.000000e+00 0.000000e+00 0.000000e+00 7.847153e-01 2.152847e-01
 0.000000e+00 0.000000e+00 0.000000e+00 0.000000e+00 0.000000e+00
<ENDHMM>
~h "n"
<BEGINHMM>
<NUMSTATES> 5
<STATE> 2
<MEAN> 25
 2.511709e+00 -3.094285e-02 5.422672e-02 -6.512457e-01 1.136019e+00 6.287467e-02 -1.277871e-01 -3.949359e-01 -1.904446e-01 -1.614039e+00 -1.424660e-02 7.326969e-01 -7.515470e-02 -1.335046e-02 7.285278e-02 -7.709119e-02 -1.600744e-01 -5.108268e-02 2.897438e-02 -1.342677e-02 5.965631e-02 1.409999e-02 4.537272e-02 1.192698e-02 7.070320e-03
<VARIANCE> 25
 1.424690e+02 6.839859e+01 5.975413e+01 5.579298e+01 5.236404e+01 6.854499e+01 4.933263e+01 3.564257e+01 5.101562e+01 5.292022e+01 2.816583e+01 2.327394e+01 3.254740e+00 4.776763e+00 3.368216e+00 3.416134e+00 3.844735e+00 3.630804e+00 3.533006e+00 2.949229e+00 3.158916e+00 3.273926e+00 2.839997e+00 2.126722e+00 2.532412e+00
<GCONST> 1.085179e+02
<STATE> 3
<MEAN> 25
 2.595074e+00 -1.035938e-01 1.834755e-01 -7.719855e-01 7.935055e-01 -1.590479e-01 -1.934443e-01 -3.877699e-01 -2.958544e-02 -1.606359e+00 1.932546e-02 7.745257e-01 9.094353e-03 -3.601594e-02 6.269472e-02 -4.875220e-02 -1.780815e-01 -5.965690e-02 -1.713432e-02 -9.821699e-03 5.069318e-02 3.602810e-02 1.445390e-02 7.190084e-03 1.532667e-02
<VARIANCE> 25
 1.481783e+02 6.928775e+01 6.170466e+01 5.805063e+01 5.106914e+01 7.197237e+01 5.147851e+01 3.741646e+01 4.924526e+01 5.354327e+01 2.753334e+01 2.349073e+01 3.266190e+00 4.829032e+00 3.424412e+00 3.337207e+00 3.748287e+00 3.680829e+00 3.603440e+00 2.917970e+00 3.103874e+00 3.356195e+00 2.762012e+00 2.101149e+00 2.611365e+00
<GCONST> 1.087226e+02
<STATE> 4
<MEAN> 25
 6.589496e+00 -4.547257e-01 -6.672767e-01 6.744538e-02 6.018819e-01 -1.629660e+00 -9.561090e-01 4.582292e-02 4.733285e-01 -2.726143e+00 -2.983080e-01 1.080109e+00 8.721825e-02 -3.580879e-02 3.687528e-02 1.624289e-02 -1.169752e-01 -6.737842e-02 -7.063615e-02 -1.132946e-02 3.423295e-02 2.581084e-02 -8.325054e-03 8.351401e-04 3.949104e-02
<VARIANCE> 25
 1.872132e+02 6.951024e+01 6.739915e+01 6.329377e+01 4.933335e+01 8.740324e+01 5.530972e+01 4.117475e+01 4.565833e+01 6.162525e+01 2.688316e+01 2.443872e+01 2.810431e+00 4.532085e+00 3.482536e+00 3.456452e+00 3.465708e+00 3.780160e+00 3.536360e+00 2.642261e+00 2.806020e+00 3.147147e+00 2.459363e+00 2.084199e+00 2.572545e+00
<GCONST> 1.089063e+02
<TRANSP> 5
 0.000000e+00 1.000000e+00 0.000000e+00 0.000000e+00 0.000000e+00
 0.000000e+00 6.258799e-01 3.741201e-01 0.000000e+00 0.000000e+00
 0.000000e+00 0.000000e+00 6.258796e-01 3.741203e-01 0.000000e+00
 0.000000e+00 0.000000e+00 0.000000e+00 7.829301e-01 2.170699e-01
 0.000000e+00 0.000000e+00 0.000000e+00 0.000000e+00 0.000000e+00
<ENDHMM>
~h "p"
<BEGINHMM>
<NUMSTATES> 5
<STATE> 2
<MEAN> 25
 4.520578e+00 -8.491432e-01 1.001660e+00 -8.934317e-01 -1.806865e+00 -9.814646e-01 -2.353790e+00 9.576430e-01 1.216866e+00 -1.096228e+00 2.508609e-01 -5.411842e-02 2.270054e-01 2.054514e-01 -2.820397e-02 6.203075e-02 -2.589140e-01 -3.201972e-02 -2.346299e-01 9.119405e-02 1.202675e-01 -1.440763e-01 3.236809e-01 -9.403606e-02 -2.777452e-02
<VARIANCE> 25
 5.128146e+01 4.313320e+01 2.732242e+01 2.641955e+01 1.855335e+01 5.081717e+01 3.512360e+01 2.400828e+01 3.975445e+01 6.073692e+01 2.368553e+01 1.693043e+01 1.730809e+00 3.296405e+00 1.920129e+00 3.005509e+00 1.770691e+00 3.248151e+00 3.802745e+00 2.634241e+00 3.344899e+00 4.051056e+00 2.022284e+00 1.676986e+00 3.571268e+00
<GCONST> 1.002484e+02
<STATE> 3
<MEAN> 25
 4.471732e+00 -5.865543e-01 7.498311e-01 -6.337465e-01 -2.192276e+00 -9.467793e-01 -2.375907e+00 8.137573e-01 1.269700e+00 -9.228657e-01 9.017701e-01 -3.195797e-01 6.689512e-02 2.660560e-01 -1.953218e-01 1.634059e-01 -1.807830e-01 -7.477251e-02 9.364043e-02 -5.435017e-02 1.560796e-03 3.685006e-02 2.018278e-01 -7.281597e-02 -2.940325e-01
<VARIANCE> 25
 4.271713e+01 3.474715e+01 2.786259e+01 2.482599e+01 1.739242e+01 4.919600e+01 2.762311e+01 2.326220e+01 3.212091e+01 5.450008e+01 2.238668e+01 1.920357e+01 1.213555e+00 2.297907e+00 1.352806e+00 2.358491e+00 1.596574e+00 2.964069e+00 2.676145e+00 2.549849e+00 2.366004e+00 3.009496e+00 1.821797e+00 1.682895e+00 2.124575e+00
<GCONST> 9.603487e+01
<STATE> 4
<MEAN> 25
 5.042550e+00 -1.693379e-01 1.715069e-01 7.368432e-01 -1.311451e+00 2.836202e-01 -1.461590e-01 -1.088686e-01 6.848480e-01 -6.174480e-02 3.995941e-01 -3.339365e-02 -1.043403e-01 1.398725e-01 -1.147568e-01 8.950418e-02 2.558311e-02 6.259549e-02 2.184225e-01 -3.704135e-02 -3.990982e-02 1.326241e-01 2.640767e-02 -1.342737e-02 -2.661335e-01
<VARIANCE> 25
 4.748359e+01 2.471546e+01 2.201325e+01 1.618405e+01 1.635786e+01 4.454177e+01 2.479712e+01 1.870445e+01 2.109475e+01 5.508339e+01 1.494106e+01 1.561180e+01 7.809566e-01 1.491424e+00 7.096764e-01 1.398587e+00 1.194244e+00 2.204879e+00 1.897232e+00 1.852740e+00 1.440361e+00 2.191478e+00 1.143890e+00 1.422351e+00 1.327673e+00
<GCONST> 8.842094e+01
<TRANSP> 5
 0.000000e+00 1.000000e+00 0.000000e+00 0.000000e+00 0.000000e+00
 0.000000e+00 6.072525e-01 3.927476e-01 0.000000e+00 0.000000e+00
 0.000000e+00 0.000000e+00 6.072527e-01 3.927474e-01 0.000000e+00
 0.000000e+00 0.000000e+00 0.000000e+00 8.601253e-01 1.398747e-01
 0.000000e+00 0.000000e+00 0.000000e+00 0.000000e+00 0.000000e+00
<ENDHMM>
~h "r"
<BEGINHMM>
<NUMSTATES> 5
<STATE> 2
<MEAN> 25
 9.428508e-01 4.912936e-01 2.740505e+00 3.222480e+00 4.474164e-01 -4.918402e-01 -3.146151e+00 -2.803868e+00 -2.256744e+00 -2.018582e-01 1.063538e+00 1.338376e-01 -1.761330e-01 2.333532e-01 -4.375675e-01 -9.920790e-03 -3.095308e-02 1.324213e-01 1.418869e-01 -4.469965e-02 2.412322e-01 3.557125e-02 -7.972980e-03 1.413876e-01 -4.864617e-01
<VARIANCE> 25
 4.138148e+01 3.159800e+01 3.811493e+01 5.396619e+01 6.982777e+01 5.192955e+01 5.997751e+01 5.830336e+01 2.608522e+01 3.410954e+01 1.985431e+01 2.230956e+01 1.018070e+00 2.082951e+00 2.443323e+00 2.473765e+00 2.344932e+00 3.649046e+00 2.948494e+00 2.290710e+00 2.843210e+00 2.459295e+00 1.770423e+00 1.850712e+00 1.185781e+00
<GCONST> 9.990142e+01
<STATE> 3
<MEAN> 25
 2.944888e-01 1.105994e+00 1.668287e+00 3.021785e+00 2.186759e-01 -1.128052e-01 -2.615175e+00 -2.823309e+00 -1.703296e+00 7.496767e-02 1.018932e+00 4.493586e-01 -2.171376e-01 3.279205e-01 -3.742694e-01 8.768084e-03 -4.348661e-02 1.619434e-01 2.200051e-01 3.214609e-02 2.352731e-01 1.004618e-01 -4.731297e-02 1.313765e-01 -5.582495e-01
<VARIANCE> 25
 3.798538e+01 3.098454e+01 3.127875e+01 4.278131e+01 5.831594e+01 5.331441e+01 5.533298e+01 5.345443e+01 2.825890e+01 3.263988e+01 1.810861e+01 1.965134e+01 9.926034e-01 2.206585e+00 2.193392e+00 2.173139e+00 2.130169e+00 3.787682e+00 2.911947e+00 2.090770e+00 3.039157e+00 2.238182e+00 1.727511e+00 1.681513e+00 1.171798e+00
<GCONST> 9.833453e+01
<STATE> 4
<MEAN> 25
 -3.743075e-01 1.725889e+00 9.760089e-01 2.056604e+00 -4.123296e-01 1.197210e+00 -8.011758e-01 -2.505494e+00 -1.151659e+00 1.042341e+00 4.132788e-01 4.248769e-01 -2.192110e-01 3.039530e-01 -1.747804e-01 2.757377e-02 5.236133e-03 1.829535e-01 2.423321e-01 9.272408e-02 1.216076e-01 1.682380e-01 -5.031792e-02 4.666536e-02 -4.493853e-01
<VARIANCE> 25
 4.315208e+01 2.751548e+01 2.190578e+01 3.434232e+01 3.919984e+01 5.013906e+01 4.748450e+01 3.701402e+01 2.697057e+01 2.836236e+01 1.550234e+01 1.519684e+01 7.640964e-01 1.727284e+00 1.431200e+00 1.562630e+00 1.579916e+00 2.977977e+00 2.278601e+00 1.581127e+00 2.545991e+00 1.756544e+00 1.477649e+00 1.403157e+00 8.741105e-01
<GCONST> 9.281178e+01
<TRANSP> 5
 0.000000e+00 1.000000e+00 0.000000e+00 0.000000e+00 0.000000e+00
 0.000000e+00 6.596640e-01 3.403359e-01 0.000000e+00 0.000000e+00
 0.000000e+00 0.000000e+00 6.596639e-01 3.403361e-01 0.000000e+00
 0.000000e+00 0.000000e+00 0.000000e+00 8.237845e-01 1.762155e-01
 0.000000e+00 0.000000e+00 0.000000e+00 0.000000e+00 0.000000e+00
<ENDHMM>
~h "s"
<BEGINHMM>
<NUMSTATES> 5
<STATE> 2
<MEAN> 25
 5.879060e-01 -3.552061e-01 1.894719e+00 -2.713237e+00 -1.432679e-01 1.841222e+00 4.188338e-01 -1.505718e+00 7.443396e-01 -5.213412e-01 -3.317880e-01 6.117892e-01 3.718073e-01 -1.998805e-01 -5.471350e-02 2.023447e-02 -9.222426e-02 -9.864867e-02 -2.426350e-01 -7.023182e-02 -1.011139e-01 -2.107757e-02 -2.599253e-02 -2.271485e-02 1.242048e-01
<VARIANCE> 25
 1.665173e+02 7.654664e+01 8.163748e+01 4.161610e+01 4.480133e+01 8.140260e+01 4.441020e+01 4.104525e+01 4.024043e+01 6.410596e+01 3.029742e+01 2.322607e+01 4.813186e+00 5.953778e+00 4.519333e+00 3.278332e+00 3.797390e+00 4.213517e+00 3.726855e+00 3.339406e+00 3.279145e+00 4.722217e+00 3.289416e+00 2.252157e+00 2.283480e+00
<GCONST> 1.105655e+02
<STATE> 3
<MEAN> 25
 1.609812e+00 -7.559894e-01 1.702120e+00 -2.555648e+00 -2.821385e-01 1.429446e+00 -2.170177e-01 -1.574937e+00 6.166881e-01 -8.034703e-01 -4.421507e-01 5.925267e-01 4.427092e-01 -1.690093e-01 -1.117369e-01 1.135764e-01 -7.931697e-02 -1.536092e-01 -2.785203e-01 -1.056793e-02 -8.602549e-02 -6.950801e-02 -5.695790e-02 -3.782119e-02 1.335653e-01
<VARIANCE> 25
 1.658275e+02 7.461881e+01 8.123073e+01 4.211861e+01 4.645622e+01 8.399477e+01 4.513246e+01 4.559688e+01 3.747338e+01 6.633597e+01 3.321185e+01 2.451613e+01 4.311987e+00 6.037380e+00 4.542933e+00 3.256004e+00 3.882497e+00 4.576197e+00 3.858690e+00 3.579218e+00 3.206797e+00 4.819134e+00 3.371480e+00 2.310669e+00 2.331682e+00
<GCONST> 1.110210e+02
<STATE> 4
<MEAN> 25
 5.697299e+00 -1.268870e+00 4.733216e-01 -1.572189e+00 -3.595192e-01 -7.422394e-02 -1.258863e+00 -1.056767e+00 8.590901e-01 -2.183389e+00 -7.440788e-01 6.638483e-01 3.920872e-01 -9.093608e-02 -8.726583e-02 1.627822e-01 -3.977603e-02 -1.738991e-01 -2.409177e-01 2.697432e-02 -3.773873e-02 -1.317316e-01 -6.419904e-02 -3.707937e-02 1.595179e-01
<VARIANCE> 25
 1.938186e+02 6.538044e+01 9.225529e+01 4.386978e+01 5.405379e+01 9.935300e+01 4.651652e+01 4.883644e+01 3.389624e+01 7.346272e+01 3.394141e+01 2.640250e+01 3.409951e+00 5.689311e+00 4.955225e+00 3.352633e+00 4.218080e+00 5.064359e+00 3.922083e+00 3.454648e+00 2.921518e+00 4.335795e+00 3.278558e+00 2.429595e+00 2.293923e+00
<GCONST> 1.115228e+02
<TRANSP> 5
 0.000000e+00 1.000000e+00 0.000000e+00 0.000000e+00 0.000000e+00
 0.000000e+00 6.060842e-01 3.939158e-01 0.000000e+00 0.000000e+00
 0.000000e+00 0.000000e+00 6.060842e-01 3.939159e-01 0.000000e+00
 0.000000e+00 0.000000e+00 0.000000e+00 7.513014e-01 2.486986e-01
 0.000000e+00 0.000000e+00 0.000000e+00 0.000000e+00 0.000000e+00
<ENDHMM>
~h "t"
<BEGINHMM>
<NUMSTATES> 5
<STATE> 2
<MEAN> 25
 -1.128165e+00 4.235502e-01 2.116908e-01 5.333756e-01 7.018915e-01 2.602341e-01 -6.808967e-01 -6.421090e-01 -1.032057e+00 2.106455e-02 -1.821600e-01 -4.838949e-01 9.716652e-02 -2.891989e-02 -9.667741e-04 -1.571053e-01 -8.834345e-02 -1.889961e-01 -1.078114e-01 5.181840e-02 -8.663355e-02 -1.857257e-03 -8.769266e-02 5.950673e-02 1.046446e-01
<VARIANCE> 25
 9.963473e+01 4.141145e+01 3.134336e+01 3.384497e+01 2.605196e+01 3.983180e+01 4.564004e+01 2.510728e+01 3.429048e+01 4.971257e+01 2.470022e+01 2.076915e+01 2.282488e+00 2.796044e+00 1.910777e+00 2.255998e+00 2.263210e+00 2.911304e+00 3.964580e+00 2.902423e+00 2.599974e+00 3.574694e+00 2.044450e+00 1.779308e+00 3.819195e+00
<GCONST> 1.014126e+02
<STATE> 3
<MEAN> 25
 -8.845897e-01 3.482147e-01 2.221752e-01 2.858880e-01 5.352005e-01 -8.736811e-02 -7.277564e-01 -4.954074e-01 -1.102985e+00 -3.923052e-02 -3.349644e-01 -2.987048e-01 2.309694e-02 -8.426952e-02 5.443643e-03 -7.892854e-02 -5.338889e-02 -1.293026e-01 5.997255e-02 5.644208e-02 -4.599270e-02 1.636967e-02 1.552967e-02 1.303739e-01 9.554031e-02
<VARIANCE> 25
 9.560523e+01 4.159443e+01 3.278136e+01 3.375513e+01 2.660048e+01 3.949780e+01 4.704916e+01 2.436643e+01 3.604001e+01 5.243556e+01 2.589612e+01 2.156228e+01 2.072933e+00 2.822747e+00 1.830334e+00 2.289273e+00 2.260809e+00 2.855738e+00 3.738325e+00 2.651747e+00 2.611227e+00 3.667339e+00 1.955450e+00 1.694345e+00 3.802854e+00
<GCONST> 1.012662e+02
<STATE> 4
<MEAN> 25
 -5.901294e-03 1.952494e-01 3.471491e-01 1.506987e-01 -9.475828e-03 -3.749681e-01 -4.291285e-01 -1.602093e-01 -6.207998e-01 -5.427426e-01 -2.959118e-01 -9.984834e-02 7.091392e-02 -6.467703e-02 9.934581e-03 1.212880e-02 -4.220906e-02 -2.933953e-02 6.007401e-02 3.605901e-02 2.449107e-02 -5.374113e-03 4.497684e-02 7.909865e-02 9.578226e-02
<VARIANCE> 25
 1.585780e+02 3.402911e+01 2.644442e+01 2.666598e+01 2.309073e+01 4.473922e+01 3.965369e+01 2.308708e+01 2.977444e+01 7.025496e+01 2.180655e+01 1.742459e+01 2.019863e+00 2.357339e+00 1.307186e+00 1.835315e+00 1.758654e+00 2.537784e+00 2.984878e+00 2.447224e+00 2.207005e+00 3.546601e+00 1.488448e+00 1.334992e+00 3.255349e+00
<GCONST> 9.828903e+01
<TRANSP> 5
 0.000000e+00 1.000000e+00 0.000000e+00 0.000000e+00 0.000000e+00
 0.000000e+00 6.065258e-01 3.934742e-01 0.000000e+00 0.000000e+00
 0.000000e+00 0.000000e+00 6.065258e-01 3.934743e-01 0.000000e+00
 0.000000e+00 0.000000e+00 0.000000e+00 8.370325e-01 1.629675e-01
 0.000000e+00 0.000000e+00 0.000000e+00 0.000000e+00 0.000000e+00
<ENDHMM>
~h "u"
<BEGINHMM>
<NUMSTATES> 5
<STATE> 2
<MEAN> 25
 3.046546e+00 6.536723e-01 3.701320e-01 1.596396e+00 4.416473e-01 -1.032669e+00 -1.580084e+00 -6.651072e-01 -8.722501e-01 -1.684246e+00 -6.830779e-01 2.871538e-01 -6.743557e-02 -5.903834e-03 -2.167250e-03 -2.254102e-02 -2.542108e-02 4.185511e-02 9.981438e-02 1.094234e-01 2.474250e-02 9.284547e-02 6.417857e-02 8.185130e-02 -5.118051e-02
<VARIANCE> 25
 1.108525e+02 5.243068e+01 3.877771e+01 4.743967e+01 4.065915e+01 5.677073e+01 6.313234e+01 3.063231e+01 4.366626e+01 6.035230e+01 2.988356e+01 2.860711e+01 1.889583e+00 3.846070e+00 2.630660e+00 3.123362e+00 3.003167e+00 3.621499e+00 4.490391e+00 2.862572e+00 2.911806e+00 3.975239e+00 2.152115e+00 1.899056e+00 4.568847e+00
<GCONST> 1.064769e+02
<STATE> 3
<MEAN> 25
 2.926049e+00 7.142645e-01 3.516600e-01 1.520374e+00 3.808360e-01 -8.708974e-01 -1.405248e+00 -4.242881e-01 -8.250523e-01 -1.439550e+00 -5.640892e-01 3.569479e-01 -3.289987e-02 1.869582e-02 1.172335e-02 -5.857836e-02 -2.077820e-02 4.655766e-03 -1.484135e-02 1.182085e-01 1.480339e-02 7.060932e-02 5.453810e-02 1.771324e-02 1.611168e-03
<VARIANCE> 25
 1.050669e+02 5.261155e+01 3.815778e+01 4.718738e+01 3.917831e+01 5.643359e+01 6.089510e+01 3.007786e+01 4.306452e+01 5.753036e+01 2.816974e+01 2.853326e+01 1.902914e+00 3.926449e+00 2.662117e+00 3.224886e+00 2.841792e+00 3.630780e+00 4.504250e+00 2.936034e+00 3.001527e+00 3.929283e+00 2.190109e+00 1.910706e+00 4.709013e+00
<GCONST> 1.063044e+02
<STATE> 4
<MEAN> 25
 4.937003e+00 7.806861e-01 5.249694e-01 1.643704e+00 -8.339384e-02 -9.344158e-01 -1.102232e+00 -2.466222e-01 -4.754075e-01 -1.885369e+00 -6.003387e-01 4.454146e-01 -4.129271e-03 2.327060e-02 5.434499e-03 -3.593980e-02 -3.002747e-02 -7.211472e-03 -2.432152e-02 6.370055e-02 -3.048197e-03 4.547432e-02 3.711802e-02 -1.109037e-02 7.009998e-03
<VARIANCE> 25
 1.330919e+02 4.468242e+01 3.382613e+01 3.692611e+01 3.412862e+01 6.406887e+01 5.297250e+01 2.818590e+01 3.579905e+01 7.475555e+01 2.351417e+01 2.509806e+01 1.937911e+00 3.000291e+00 1.897180e+00 2.503741e+00 2.161677e+00 3.310607e+00 3.417857e+00 2.908103e+00 2.575966e+00 3.797168e+00 1.747955e+00 1.627848e+00 3.392340e+00
<GCONST> 1.031696e+02
<TRANSP> 5
 0.000000e+00 1.000000e+00 0.000000e+00 0.000000e+00 0.000000e+00
 0.000000e+00 6.066793e-01 3.933208e-01 0.000000e+00 0.000000e+00
 0.000000e+00 0.000000e+00 6.066791e-01 3.933210e-01 0.000000e+00
 0.000000e+00 0.000000e+00 0.000000e+00 8.230304e-01 1.769696e-01
 0.000000e+00 0.000000e+00 0.000000e+00 0.000000e+00 0.000000e+00
<ENDHMM>
~h "w"
<BEGINHMM>
<NUMSTATES> 5
<STATE> 2
<MEAN> 25
 7.131783e+00 -1.032840e-02 7.564865e-01 -4.135597e-01 -3.508046e+00 -7.833043e+00 -3.397663e+00 2.116797e+00 2.896627e+00 -8.007996e-01 -1.096133e+00 3.962302e-01 -3.275293e-02 1.602314e-02 2.059924e-01 1.545896e-01 8.272973e-03 -1.518200e-01 -3.624023e-02 -7.221452e-02 -2.469400e-02 2.297308e-01 2.823614e-02 -9.653651e-02 -4.673104e-02
<VARIANCE> 25
 1.190984e+02 4.985529e+01 4.802909e+01 3.968647e+01 4.111629e+01 7.333952e+01 4.463575e+01 3.684371e+01 6.199302e+01 5.165085e+01 2.739660e+01 1.997361e+01 9.276556e-01 1.813515e+00 1.843132e+00 2.028250e+00 1.772231e+00 2.080633e+00 2.922217e+00 1.713568e+00 2.295152e+00 1.541439e+00 1.430697e+00 1.148479e+00 1.105677e+00
<GCONST> 9.859712e+01
<STATE> 3
<MEAN> 25
 6.881887e+00 8.888023e-02 1.276997e+00 -1.373814e-01 -3.528594e+00 -7.984296e+00 -3.367238e+00 1.912364e+00 2.937355e+00 -2.253166e-01 -9.910445e-01 1.436452e-01 -6.858751e-02 1.404682e-02 9.588116e-02 1.182467e-01 8.022454e-02 -5.502742e-02 9.155220e-02 -4.554459e-02 1.194011e-02 1.709595e-01 5.665699e-02 -7.102966e-02 -1.139607e-01
<VARIANCE> 25
 1.116141e+02 4.814972e+01 4.406429e+01 3.607050e+01 4.325558e+01 7.392836e+01 4.466765e+01 3.505912e+01 6.051057e+01 5.169167e+01 2.791502e+01 2.044960e+01 7.780511e-01 1.643012e+00 1.692511e+00 1.843193e+00 1.700903e+00 2.119438e+00 2.810293e+00 1.637194e+00 1.966872e+00 1.568802e+00 1.456075e+00 1.112257e+00 9.733525e-01
<GCONST> 9.750290e+01
<STATE> 4
<MEAN> 25
 1.012645e+01 7.671225e-01 9.546167e-01 8.445516e-01 -3.200038e+00 -8.590426e+00 -3.765681e+00 2.442362e+00 3.958146e+00 -1.477599e+00 -1.088528e+00 6.128724e-01 -1.581520e-01 4.572174e-02 3.928991e-02 5.220305e-02 5.862667e-02 1.401135e-01 1.566758e-01 -4.678943e-02 -5.419457e-03 1.181545e-01 7.154511e-02 -4.038744e-02 -2.244935e-01
<VARIANCE> 25
 1.338900e+02 5.267439e+01 4.827433e+01 3.064683e+01 3.525277e+01 9.752751e+01 4.613638e+01 4.277528e+01 5.702137e+01 5.864704e+01 2.596871e+01 1.977902e+01 7.127792e-01 1.559950e+00 1.695027e+00 1.829901e+00 1.447115e+00 2.376052e+00 2.577716e+00 1.568169e+00 1.637115e+00 1.709905e+00 1.367882e+00 9.897428e-01 8.257450e-01
<GCONST> 9.720493e+01
<TRANSP> 5
 0.000000e+00 1.000000e+00 0.000000e+00 0.000000e+00 0.000000e+00
 0.000000e+00 6.409881e-01 3.590119e-01 0.000000e+00 0.000000e+00
 0.000000e+00 0.000000e+00 6.409878e-01 3.590122e-01 0.000000e+00
 0.000000e+00 0.000000e+00 0.000000e+00 8.090975e-01 1.909025e-01
 0.000000e+00 0.000000e+00 0.000000e+00 0.000000e+00 0.000000e+00
<ENDHMM>
~h "kh"
<BEGINHMM>
<NUMSTATES> 5
<STATE> 2
<MEAN> 25
 -1.513887e-08 8.685321e-09 6.289883e-08 7.186313e-08 3.131923e-08 4.571417e-08 5.014053e-08 1.333485e-08 -7.134006e-08 8.713219e-09 1.011273e-09 4.209684e-08 -6.534437e-03 7.731597e-03 -5.306157e-03 4.609803e-03 -4.191151e-03 8.242088e-03 -6.219152e-03 5.951754e-03 -5.249157e-03 1.868283e-03 2.200403e-03 -1.269434e-03 2.744509e-03
<VARIANCE> 25
 6.716856e+01 2.941401e+01 5.663681e+01 4.741492e+01 4.696264e+01 4.914315e+01 4.999928e+01 4.303569e+01 5.672998e+01 3.222253e+01 2.850756e+01 4.103967e+01 2.100924e+00 1.434693e+00 1.891293e+00 2.194988e+00 2.363979e+00 2.636887e+00 2.464799e+00 2.732278e+00 2.851009e+00 2.222413e+00 2.036798e+00 2.011688e+00 1.909456e+00
<GCONST> 1.015924e+02
<STATE> 3
<MEAN> 25
 -1.513887e-08 8.685321e-09 6.289883e-08 7.186313e-08 3.131923e-08 4.571417e-08 5.014053e-08 1.333485e-08 -7.134006e-08 8.713219e-09 1.011273e-09 4.209684e-08 -6.534437e-03 7.731597e-03 -5.306157e-03 4.609803e-03 -4.191151e-03 8.242088e-03 -6.219152e-03 5.951754e-03 -5.249157e-03 1.868283e-03 2.200403e-03 -1.269434e-03 2.744509e-03
<VARIANCE> 25
 6.716856e+01 2.941401e+01 5.663681e+01 4.741492e+01 4.696264e+01 4.914315e+01 4.999928e+01 4.303569e+01 5.672998e+01 3.222253e+01 2.850756e+01 4.103967e+01 2.100924e+00 1.434693e+00 1.891293e+00 2.194988e+00 2.363979e+00 2.636887e+00 2.464799e+00 2.732278e+00 2.851009e+00 2.222413e+00 2.036798e+00 2.011688e+00 1.909456e+00
<GCONST> 1.015924e+02
<STATE> 4
<MEAN> 25
 -1.513887e-08 8.685321e-09 6.289883e-08 7.186313e-08 3.131923e-08 4.571417e-08 5.014053e-08 1.333485e-08 -7.134006e-08 8.713219e-09 1.011273e-09 4.209684e-08 -6.534437e-03 7.731597e-03 -5.306157e-03 4.609803e-03 -4.191151e-03 8.242088e-03 -6.219152e-03 5.951754e-03 -5.249157e-03 1.868283e-03 2.200403e-03 -1.269434e-03 2.744509e-03
<VARIANCE> 25
 6.716856e+01 2.941401e+01 5.663681e+01 4.741492e+01 4.696264e+01 4.914315e+01 4.999928e+01 4.303569e+01 5.672998e+01 3.222253e+01 2.850756e+01 4.103967e+01 2.100924e+00 1.434693e+00 1.891293e+00 2.194988e+00 2.363979e+00 2.636887e+00 2.464799e+00 2.732278e+00 2.851009e+00 2.222413e+00 2.036798e+00 2.011688e+00 1.909456e+00
<GCONST> 1.015924e+02
<TRANSP> 5
 0.000000e+00 1.000000e+00 0.000000e+00 0.000000e+00 0.000000e+00
 0.000000e+00 6.000000e-01 4.000000e-01 0.000000e+00 0.000000e+00
 0.000000e+00 0.000000e+00 6.000000e-01 4.000000e-01 0.000000e+00
 0.000000e+00 0.000000e+00 0.000000e+00 7.000000e-01 3.000000e-01
 0.000000e+00 0.000000e+00 0.000000e+00 0.000000e+00 0.000000e+00
<ENDHMM>
~h "ny"
<BEGINHMM>
<NUMSTATES> 5
<STATE> 2
<MEAN> 25
 7.545955e-01 1.312249e-01 1.496495e+00 2.670747e+00 8.105451e-01 -1.025410e+00 -1.013601e+00 4.209689e-01 -1.764835e+00 4.873084e-01 1.761068e+00 1.804401e-01 -8.702043e-02 -2.014314e-01 -1.588584e-01 7.128895e-02 -4.859729e-03 -1.314671e-01 1.395013e-01 3.666301e-02 4.582633e-02 3.156521e-02 1.681180e-01 1.871012e-01 -4.147423e-03
<VARIANCE> 25
 3.745152e+01 2.861873e+01 3.818885e+01 3.571107e+01 3.862481e+01 5.625944e+01 4.445224e+01 2.606638e+01 2.371514e+01 2.819203e+01 3.973096e+01 4.237551e+01 8.841737e-01 2.018210e+00 1.663368e+00 2.350628e+00 1.995304e+00 3.220545e+00 1.847745e+00 1.606977e+00 1.556369e+00 1.472539e+00 1.692593e+00 1.610729e+00 1.359815e+00
<GCONST> 9.584577e+01
<STATE> 3
<MEAN> 25
 4.365406e-01 -3.492029e-01 1.172572e+00 2.774439e+00 7.233237e-01 -1.229147e+00 -6.917413e-01 4.782951e-01 -1.665670e+00 6.029698e-01 2.192762e+00 5.536790e-01 -8.063983e-02 -1.169992e-01 -2.531694e-01 9.563594e-02 -1.171005e-02 -2.979184e-02 1.739383e-01 3.366971e-02 6.125498e-02 -2.400542e-02 1.565662e-01 2.117213e-01 -1.139211e-01
<VARIANCE> 25
 3.164809e+01 2.454648e+01 3.591434e+01 3.086867e+01 3.407103e+01 5.405336e+01 4.205921e+01 2.595969e+01 2.309428e+01 2.802651e+01 4.479080e+01 4.045347e+01 8.051537e-01 1.659778e+00 1.536322e+00 2.145218e+00 1.827289e+00 2.898593e+00 1.631429e+00 1.455851e+00 1.466095e+00 1.380901e+00 1.552300e+00 1.432757e+00 1.152592e+00
<GCONST> 9.376337e+01
<STATE> 4
<MEAN> 25
 -1.736465e-01 -3.618986e-01 7.083117e-01 2.412449e+00 2.620037e-01 -3.139077e-02 5.466349e-01 2.488670e-01 -1.412933e+00 1.159312e+00 2.071697e+00 7.668979e-01 -1.092428e-01 -6.667232e-03 -2.363430e-01 7.287332e-02 -1.618757e-02 5.876993e-02 1.922330e-01 4.098399e-02 4.974525e-02 -8.991958e-03 1.101403e-01 1.609020e-01 -2.072672e-01
<VARIANCE> 25
 3.298229e+01 1.915673e+01 2.670393e+01 2.445904e+01 2.634627e+01 5.059832e+01 3.834823e+01 2.074697e+01 2.126789e+01 2.876870e+01 3.914919e+01 3.181169e+01 6.618647e-01 1.189755e+00 1.327521e+00 1.606740e+00 1.423456e+00 2.326118e+00 1.447808e+00 1.252038e+00 1.226624e+00 1.223031e+00 1.215171e+00 1.129861e+00 8.312820e-01
<GCONST> 8.914388e+01
<TRANSP> 5
 0.000000e+00 1.000000e+00 0.000000e+00 0.000000e+00 0.000000e+00
 0.000000e+00 6.059189e-01 3.940811e-01 0.000000e+00 0.000000e+00
 0.000000e+00 0.000000e+00 6.059189e-01 3.940811e-01 0.000000e+00
 0.000000e+00 0.000000e+00 0.000000e+00 7.509427e-01 2.490573e-01
 0.000000e+00 0.000000e+00 0.000000e+00 0.000000e+00 0.000000e+00
<ENDHMM>
~h "sil"
<BEGINHMM>
<NUMSTATES> 5
<STATE> 2
<MEAN> 25
 -6.787344e+00 1.597302e+00 -1.565794e+00 1.316755e+00 -3.859873e-01 2.664797e+00 2.103835e+00 -4.274259e-01 -3.752344e-01 2.354019e+00 1.949605e+00 2.192603e-01 4.357478e-02 1.273412e-01 -1.180659e-01 4.649993e-02 1.253865e-01 7.152564e-02 2.407717e-01 6.774852e-02 -3.373912e-02 9.261629e-02 6.953849e-02 8.849247e-02 -6.957363e-02
<VARIANCE> 25
 9.036002e+01 3.481535e+01 3.132389e+01 4.027063e+01 3.119208e+01 4.993712e+01 3.754432e+01 2.596754e+01 3.257957e+01 3.053610e+01 2.073031e+01 2.039996e+01 1.504304e+00 2.223638e+00 1.224215e+00 1.736982e+00 1.787441e+00 2.766325e+00 2.667784e+00 1.994169e+00 1.996312e+00 1.774773e+00 1.721609e+00 1.271375e+00 1.866362e+00
<GCONST> 9.622782e+01
<STATE> 3
<MEAN> 25
 -6.571837e+00 1.845828e+00 -1.776427e+00 1.196880e+00 -8.414765e-02 2.840654e+00 2.743789e+00 -1.346612e-01 -4.017283e-01 2.650321e+00 2.043478e+00 3.509448e-01 6.339499e-02 6.464437e-02 -6.641797e-03 -8.825953e-02 1.215263e-01 8.921897e-02 1.752260e-01 1.372217e-01 -4.810336e-03 1.343191e-01 -1.698670e-02 -1.306265e-03 4.584065e-02
<VARIANCE> 25
 8.687978e+01 3.539908e+01 3.326030e+01 4.165370e+01 3.170934e+01 4.619474e+01 3.705109e+01 2.554549e+01 3.199978e+01 2.939579e+01 2.058247e+01 2.025611e+01 2.045966e+00 2.299305e+00 1.521069e+00 2.001643e+00 1.796486e+00 2.778259e+00 2.812371e+00 1.992624e+00 2.163511e+00 2.055031e+00 1.717777e+00 1.311493e+00 2.337363e+00
<GCONST> 9.737983e+01
<STATE> 4
<MEAN> 25
 -8.005239e+00 1.349913e+00 -1.002278e+00 -3.076765e-01 2.040977e-01 2.728899e+00 2.457808e+00 1.145463e-01 -5.130723e-01 3.241224e+00 1.406268e+00 -9.384816e-02 1.865334e-02 8.160995e-03 4.173541e-02 -1.088579e-01 5.656680e-02 -1.554602e-02 -1.804846e-02 4.283059e-02 -3.922746e-03 -1.432198e-02 -7.209603e-02 8.945385e-03 6.627101e-02
<VARIANCE> 25
 1.027120e+02 2.811218e+01 2.385832e+01 3.180339e+01 2.156240e+01 3.154169e+01 2.770084e+01 1.926556e+01 2.637446e+01 2.180363e+01 1.546112e+01 1.507344e+01 1.277244e+00 1.225330e+00 1.106658e+00 1.345419e+00 1.293058e+00 1.810964e+00 2.087587e+00 1.580497e+00 1.590840e+00 1.468908e+00 1.239451e+00 1.009922e+00 1.342261e+00
<GCONST> 8.941280e+01
<TRANSP> 5
 0.000000e+00 1.000000e+00 0.000000e+00 0.000000e+00 0.000000e+00
 0.000000e+00 6.259418e-01 3.740582e-01 0.000000e+00 0.000000e+00
 0.000000e+00 0.000000e+00 6.259422e-01 3.740578e-01 0.000000e+00
 0.000000e+00 0.000000e+00 0.000000e+00 8.097610e-01 1.902390e-01
 0.000000e+00 0.000000e+00 0.000000e+00 0.000000e+00 0.000000e+00
<ENDHMM>
