~o
<STREAMINFO> 1 25
<VECSIZE> 25<NULLD><MFCC_D_N_Z_0><DIAGC>
~h "a"
<BEGINHMM>
<NUMSTATES> 5
<STATE> 2
<MEAN> 25
 3.956594e+00 -2.346748e+00 -1.141767e+00 -2.474591e+00 -1.474135e+00 -2.573795e+00 1.165282e-01 2.096591e+00 1.607188e+00 -1.146214e+00 -1.381339e+00 1.201722e+00 7.759667e-03 -1.718665e-01 2.134452e-02 -4.418235e-01 -1.908926e-01 -4.162252e-02 1.692972e-01 1.610368e-01 3.426374e-01 -1.579999e-01 3.389508e-02 4.745844e-01 2.019078e-01
<VARIANCE> 25
 4.196476e+01 3.584149e+01 3.176644e+01 3.803556e+01 5.680558e+01 5.186665e+01 3.895590e+01 3.204735e+01 4.604650e+01 2.892966e+01 3.629306e+01 2.689494e+01 8.863737e-01 1.829790e+00 1.745491e+00 2.169326e+00 2.825624e+00 2.887235e+00 2.234751e+00 2.472777e+00 3.429691e+00 2.127647e+00 2.381397e+00 2.093418e+00 1.100916e+00
<GCONST> 9.886950e+01
<STATE> 3
<MEAN> 25
 3.952245e+00 -2.599618e+00 -8.567868e-01 -2.752140e+00 -9.391295e-01 -1.735886e+00 9.142797e-02 1.981579e+00 1.924607e+00 -1.365539e+00 -1.123215e+00 1.558909e+00 -1.087288e-01 6.284868e-02 -3.875026e-02 -1.385441e-02 1.693262e-01 3.809934e-01 1.088575e-01 -1.460593e-01 -6.438246e-02 -9.788757e-03 1.891896e-01 2.298909e-02 -1.850002e-01
<VARIANCE> 25
 4.548865e+01 3.347659e+01 3.315028e+01 4.082257e+01 5.397743e+01 5.218234e+01 4.340137e+01 3.772638e+01 4.583699e+01 3.778511e+01 3.268297e+01 2.278367e+01 8.395750e-01 1.968674e+00 1.386191e+00 1.825683e+00 2.323689e+00 3.033099e+00 2.248213e+00 2.262739e+00 2.602107e+00 1.932419e+00 2.514467e+00 1.667795e+00 1.202778e+00
<GCONST> 9.814334e+01
<STATE> 4
<MEAN> 25
 3.010902e+00 -2.497194e+00 -6.393163e-01 -2.421873e+00 -6.041730e-01 -1.970200e-01 -1.685022e-02 1.153193e+00 1.942681e+00 -1.324890e+00 -2.558742e-01 1.104984e+00 -1.019673e-01 2.068585e-01 -5.865029e-02 1.719182e-01 1.336019e-01 2.302040e-01 -3.043543e-03 -2.032063e-01 -1.541851e-01 1.394760e-01 1.463726e-01 -5.762123e-02 -3.330315e-01
<VARIANCE> 25
 5.112665e+01 3.185043e+01 3.074202e+01 3.470277e+01 4.088467e+01 5.121994e+01 3.728478e+01 3.050993e+01 4.202007e+01 3.409522e+01 2.492656e+01 1.842349e+01 8.260842e-01 1.621562e+00 1.138165e+00 1.895042e+00 2.260145e+00 2.525774e+00 2.094178e+00 1.853060e+00 1.908326e+00 1.683343e+00 1.911746e+00 1.485609e+00 1.036361e+00
<GCONST> 9.480065e+01
<TRANSP> 5
 0.000000e+00 1.000000e+00 0.000000e+00 0.000000e+00 0.000000e+00
 0.000000e+00 3.576614e-01 6.423386e-01 0.000000e+00 0.000000e+00
 0.000000e+00 0.000000e+00 2.935619e-01 7.064381e-01 0.000000e+00
 0.000000e+00 0.000000e+00 0.000000e+00 5.062887e-01 4.937113e-01
 0.000000e+00 0.000000e+00 0.000000e+00 0.000000e+00 0.000000e+00
<ENDHMM>
~h "b"
<BEGINHMM>
<NUMSTATES> 5
<STATE> 2
<MEAN> 25
 8.727373e-01 1.025605e+01 9.015729e-01 4.885623e+00 1.280655e+00 -1.989227e+00 4.246937e+00 8.466664e+00 -7.669652e-01 -3.052888e+00 -4.115832e+00 -2.719545e+00 6.613219e-02 8.878825e-01 -4.463086e-02 4.372191e-01 2.669962e-02 -8.221909e-02 -2.663771e-02 8.330259e-01 1.270937e-01 -3.697084e-01 -3.962286e-01 -7.239473e-01 -8.431121e-01
<VARIANCE> 25
 5.710399e+01 9.644312e+01 1.204262e+01 2.705958e+01 4.383605e+01 3.883447e+01 5.957261e+01 1.219258e+02 1.405905e+01 4.951214e+01 2.332668e+01 3.860254e+01 1.274867e+00 9.930821e+00 2.033368e+00 2.072318e+00 3.984862e+00 3.895392e+00 7.218921e+00 1.403082e+01 2.583501e+00 4.340910e+00 1.749346e+00 1.418104e+00 7.785747e+00
<GCONST> 1.067412e+02
<STATE> 3
<MEAN> 25
 4.779667e+00 -1.410332e+00 2.084820e+00 4.261817e+00 -6.947653e+00 -2.583134e+00 -3.390843e+00 -4.136755e+00 -5.965128e+00 -3.493593e-01 5.049465e+00 -7.336042e+00 -4.901746e-02 -2.626624e-01 2.551761e-01 -1.243186e+00 2.850759e-01 1.488778e-01 -6.644960e-01 -1.117449e-01 -3.745953e-01 -7.606819e-01 -1.780373e-01 3.626992e-01 6.327582e-01
<VARIANCE> 25
 3.770459e+01 2.425939e+01 1.428189e+01 6.586036e+01 6.219191e+01 3.510712e+01 8.360378e+01 6.470915e+01 8.353166e+01 7.179942e+01 6.246143e+01 3.953203e+01 1.114742e+00 5.557695e+00 3.641026e+00 1.056124e+01 8.428530e+00 5.722581e+00 1.002619e+01 1.505949e+01 7.602139e+00 5.074356e+00 3.847521e+00 1.667597e+00 4.647945e+00
<GCONST> 1.138218e+02
<STATE> 4
<MEAN> 25
 1.957382e+01 5.814160e-01 5.701426e+00 4.525288e+00 3.386427e-01 -2.370645e+00 -7.326735e+00 -2.950451e+00 2.086442e+00 -9.074005e+00 -3.053808e+00 -1.520581e+00 -3.537742e-02 6.626065e-02 1.914699e-01 -1.825115e-02 2.215615e-02 -1.669179e-01 -1.444140e-01 -1.343056e-01 9.295916e-02 3.456556e-01 -5.378124e-02 -2.092258e-01 3.561246e-02
<VARIANCE> 25
 7.449174e+01 8.648924e+01 1.744272e+02 6.473366e+01 1.699656e+02 1.900463e+02 5.435310e+01 7.401309e+01 5.186138e+01 9.433499e+01 3.429654e+01 2.609115e+01 3.209564e+00 7.103637e+00 1.477081e+01 4.335163e+00 1.066249e+01 1.050685e+01 5.389151e+00 5.682634e+00 4.163276e+00 7.245798e+00 3.045901e+00 3.170640e+00 2.212792e+00
<GCONST> 1.199195e+02
<TRANSP> 5
 0.000000e+00 1.000000e+00 0.000000e+00 0.000000e+00 0.000000e+00
 0.000000e+00 6.185290e-01 3.814709e-01 0.000000e+00 0.000000e+00
 0.000000e+00 0.000000e+00 6.997514e-01 3.002485e-01 0.000000e+00
 0.000000e+00 0.000000e+00 0.000000e+00 8.966550e-01 1.033450e-01
 0.000000e+00 0.000000e+00 0.000000e+00 0.000000e+00 0.000000e+00
<ENDHMM>
~h "e"
<BEGINHMM>
<NUMSTATES> 5
<STATE> 2
<MEAN> 25
 3.914951e+00 2.771657e-01 2.850928e+00 -1.947213e+00 -1.924066e+00 9.018683e-01 -3.901529e+00 -3.016165e+00 -5.043581e-01 -3.120331e+00 -8.763091e-01 -2.811067e-01 6.554141e-01 -6.809422e-01 -2.578837e-01 7.533790e-01 -2.190444e-01 -5.259822e-01 -8.843845e-01 5.179603e-01 3.821236e-01 -2.178877e-02 -6.425607e-01 -3.373023e-01 3.389847e-01
<VARIANCE> 25
 9.373995e+01 4.235568e+01 5.972231e+01 4.030603e+01 2.740900e+01 5.857901e+01 3.250906e+01 6.203775e+01 3.883601e+01 7.290301e+01 6.180770e+01 3.150852e+01 1.845751e+00 8.180416e+00 7.076142e+00 4.168548e+00 5.561363e+00 7.792739e+00 4.258678e+00 3.391196e+00 2.744897e+00 4.919549e+00 3.071283e+00 2.096275e+00 2.880180e+00
<GCONST> 1.105942e+02
<STATE> 3
<MEAN> 25
 4.704618e+00 -9.642807e-01 2.702250e+00 -6.919464e-01 -2.438721e+00 -1.279085e+00 -4.109385e+00 -1.573967e+00 -2.869699e-02 -3.088871e+00 -2.584016e+00 -7.476394e-01 4.489580e-01 -2.455277e-01 -9.118096e-01 1.041815e+00 4.541005e-01 -1.756667e+00 -1.889571e-02 8.245549e-01 4.706337e-01 4.562159e-02 -4.640350e-01 -3.453452e-01 2.776683e-01
<VARIANCE> 25
 7.971399e+01 2.954627e+01 3.430665e+01 3.813729e+01 3.753748e+01 6.397705e+01 3.654440e+01 4.616042e+01 3.259959e+01 5.712639e+01 4.136049e+01 2.962729e+01 1.307691e+00 5.986440e+00 3.373062e+00 4.926537e+00 5.400032e+00 1.045705e+01 3.252830e+00 3.286709e+00 2.564152e+00 5.793682e+00 3.232880e+00 2.834593e+00 1.942047e+00
<GCONST> 1.075917e+02
<STATE> 4
<MEAN> 25
 1.905929e+01 -4.574258e+00 -5.605016e+00 6.846623e+00 4.520228e+00 -1.200935e+01 -7.679660e+00 1.283421e+00 1.494144e+00 -9.214218e+00 1.291947e+00 4.252766e+00 1.779556e-01 -1.301369e-01 -6.680287e-01 -2.007532e-01 2.410434e-01 4.154344e-02 4.477364e-01 1.508337e-01 -2.675227e-01 -2.983085e-01 1.901339e-01 5.371152e-01 1.002544e-01
<VARIANCE> 25
 1.181970e+02 2.761361e+01 5.815369e+01 8.199931e+01 4.640891e+01 8.287431e+01 5.961755e+01 3.214227e+01 2.790051e+01 5.822010e+01 3.872544e+01 4.958245e+01 6.027172e-01 2.792488e+00 3.095334e+00 3.795611e+00 2.994022e+00 6.147541e+00 2.820415e+00 2.728882e+00 2.162898e+00 2.903493e+00 3.120397e+00 2.566367e+00 1.092356e+00
<GCONST> 1.052173e+02
<TRANSP> 5
 0.000000e+00 1.000000e+00 0.000000e+00 0.000000e+00 0.000000e+00
 0.000000e+00 2.459330e-01 7.540670e-01 0.000000e+00 0.000000e+00
 0.000000e+00 0.000000e+00 2.337629e-01 7.662370e-01 0.000000e+00
 0.000000e+00 0.000000e+00 0.000000e+00 6.862687e-01 3.137313e-01
 0.000000e+00 0.000000e+00 0.000000e+00 0.000000e+00 0.000000e+00
<ENDHMM>
~h "h"
<BEGINHMM>
<NUMSTATES> 5
<STATE> 2
<MEAN> 25
 -2.351045e+00 -6.282805e-01 -4.558063e+00 -9.703596e-01 -1.313590e+00 2.351481e+00 8.827191e+00 1.146834e+00 -1.238298e+00 3.190117e+00 1.465321e+00 1.240238e+00 1.153010e+00 -6.747168e-02 7.722986e-01 -2.545099e-01 7.456891e-01 -1.174423e+00 -4.456202e-02 4.289242e-01 -7.512455e-02 3.085902e-01 -4.914006e-01 2.421533e-01 2.040284e+00
<VARIANCE> 25
 7.689791e+01 6.129436e+01 4.380576e+01 7.091810e+01 6.100140e+01 7.172609e+01 4.403876e+01 3.234624e+01 3.601189e+01 3.436389e+01 2.277005e+01 1.837374e+01 5.655413e+00 7.864187e+00 4.965714e+00 3.824689e+00 4.430773e+00 4.106997e+00 5.979885e+00 3.625331e+00 5.312541e+00 3.462322e+00 2.254119e+00 1.566702e+00 5.069485e+00
<GCONST> 1.097625e+02
<STATE> 3
<MEAN> 25
 1.508223e+00 -3.529818e+00 -7.426037e-01 -2.907106e+00 -1.078655e+00 -5.901240e-01 4.529811e+00 1.447539e+00 9.429645e-02 3.081920e+00 -2.384678e-01 1.198261e+00 1.360388e+00 -1.017190e+00 4.369284e-01 -2.517659e-01 -8.581028e-01 -1.133319e-01 -1.390791e+00 8.376406e-02 2.405365e-01 -8.848870e-01 -2.949694e-01 -2.618603e-01 7.547086e-01
<VARIANCE> 25
 4.823606e+01 3.542865e+01 3.800328e+01 4.021616e+01 5.544810e+01 6.759126e+01 4.143723e+01 3.718387e+01 4.589907e+01 2.969518e+01 2.820311e+01 1.645452e+01 2.256238e+00 3.245219e+00 3.804868e+00 2.216514e+00 3.961969e+00 6.456146e+00 4.127413e+00 2.777005e+00 4.119304e+00 1.979369e+00 2.642537e+00 1.734396e+00 1.805985e+00
<GCONST> 1.036648e+02
<STATE> 4
<MEAN> 25
 3.037232e+00 -3.294070e+00 -8.342683e-01 -2.569531e+00 -7.869361e-01 -6.057175e-01 1.123616e+00 1.238560e+00 -2.297940e-01 1.716222e-01 -7.072912e-01 3.604900e-02 2.406297e-01 3.127863e-02 -1.523649e-01 1.029986e-02 -7.437508e-02 -7.264078e-01 -6.119410e-01 -7.703502e-02 2.353075e-01 -4.974139e-01 -3.930807e-01 -2.570976e-02 5.320650e-02
<VARIANCE> 25
 2.437478e+01 2.902590e+01 3.259428e+01 3.444847e+01 4.555791e+01 5.814917e+01 3.042153e+01 2.748794e+01 5.123884e+01 2.246670e+01 1.680116e+01 1.362836e+01 5.883399e-01 1.183030e+00 1.345304e+00 1.967251e+00 2.301193e+00 2.595753e+00 1.710386e+00 1.984636e+00 2.198813e+00 1.671335e+00 1.672857e+00 1.383648e+00 5.272083e-01
<GCONST> 9.174628e+01
<TRANSP> 5
 0.000000e+00 1.000000e+00 0.000000e+00 0.000000e+00 0.000000e+00
 0.000000e+00 7.221103e-01 2.778897e-01 0.000000e+00 0.000000e+00
 0.000000e+00 0.000000e+00 4.876142e-01 5.123858e-01 0.000000e+00
 0.000000e+00 0.000000e+00 0.000000e+00 7.050166e-01 2.949835e-01
 0.000000e+00 0.000000e+00 0.000000e+00 0.000000e+00 0.000000e+00
<ENDHMM>
~h "i"
<BEGINHMM>
<NUMSTATES> 5
<STATE> 2
<MEAN> 25
 7.256898e+00 -1.035020e+01 6.269269e+00 7.616653e+00 -3.207632e+00 -1.011039e+00 -4.279154e+00 -2.654341e+00 -8.969826e-01 -3.248608e-01 2.139263e+00 -2.491579e+00 7.123172e-01 1.055901e+00 7.704492e-01 2.000817e+00 1.303248e+00 -1.210848e+00 -1.258785e+00 -4.593801e-01 -7.729042e-01 -8.709085e-01 2.447252e-01 -8.874584e-01 2.032918e-01
<VARIANCE> 25
 9.620111e+01 1.216987e+02 5.039127e+01 9.366628e+01 7.513365e+01 7.651443e+01 4.472420e+01 4.881519e+01 2.161773e+01 4.485495e+01 2.161805e+01 2.578534e+01 2.090636e+00 4.964744e+00 4.227128e+00 2.728333e+00 6.108814e+00 6.155708e+00 3.467733e+00 2.403547e+00 3.206570e+00 6.341691e+00 2.461610e+00 1.970572e+00 1.603207e+00
<GCONST> 1.089162e+02
<STATE> 3
<MEAN> 25
 1.468580e+00 -1.632069e+00 1.117183e+01 7.436488e+00 1.542447e+00 -5.319449e+00 -6.467690e+00 -3.751699e+00 -5.065730e+00 -1.572428e+00 -6.857836e-01 -3.400507e+00 3.166784e-01 -9.094568e-02 -8.313717e-01 -1.418344e-01 -2.465487e-02 -3.348604e-02 -2.626615e-01 -9.697112e-01 9.066833e-02 1.451857e-01 3.180601e-01 5.519996e-01 1.638927e-01
<VARIANCE> 25
 2.238173e+01 1.324588e+01 3.383936e+01 1.172112e+02 1.243889e+02 2.045356e+01 8.094260e+01 2.976643e+01 1.317429e+01 8.339517e+01 2.855000e+01 4.946467e+01 2.862112e-01 5.449673e-01 1.488337e+00 1.262738e+00 1.372852e+00 1.754949e+00 1.630321e+00 2.168965e+00 1.634557e+00 1.728060e+00 1.442470e+00 1.238230e+00 4.999935e-01
<GCONST> 9.164841e+01
<STATE> 4
<MEAN> 25
 1.846591e+01 7.604418e-01 -1.803012e-01 1.232710e+01 8.908891e+00 -7.176002e+00 -1.264973e+01 -9.993563e+00 -6.027485e+00 -4.689732e+00 4.123943e+00 6.245825e-01 -1.699882e-01 6.183282e-01 -3.571348e-01 -1.019145e+00 -2.007949e-01 8.772445e-01 4.729818e-01 2.024018e-02 2.160404e-01 3.031000e-01 -1.574272e-01 5.201858e-01 -4.418170e-01
<VARIANCE> 25
 7.750202e+01 3.213991e+01 3.072167e+01 1.630630e+02 4.295716e+01 1.419347e+02 6.185610e+01 3.475184e+01 1.916966e+01 3.587902e+01 3.711150e+01 2.235096e+01 8.929162e-01 6.992002e-01 3.235684e+00 3.862280e+00 1.282387e+00 3.936446e+00 3.613549e+00 2.732201e+00 9.966576e-01 2.284988e+00 1.779576e+00 2.898991e+00 8.774186e-01
<GCONST> 1.002255e+02
<TRANSP> 5
 0.000000e+00 1.000000e+00 0.000000e+00 0.000000e+00 0.000000e+00
 0.000000e+00 8.080919e-01 1.919081e-01 0.000000e+00 0.000000e+00
 0.000000e+00 0.000000e+00 7.960542e-01 2.039458e-01 0.000000e+00
 0.000000e+00 0.000000e+00 0.000000e+00 8.049702e-01 1.950299e-01
 0.000000e+00 0.000000e+00 0.000000e+00 0.000000e+00 0.000000e+00
<ENDHMM>
~h "j"
<BEGINHMM>
<NUMSTATES> 5
<STATE> 2
<MEAN> 25
 1.010865e+01 2.592190e+00 7.919123e+00 1.134052e+01 2.688750e+00 -4.589708e+00 -5.767696e+00 -3.801728e+00 -4.540047e+00 -5.730452e+00 2.395135e+00 1.076159e-01 2.829022e-01 -1.794667e-01 -1.844802e-01 4.970872e-01 1.746064e-01 -5.713704e-01 -9.916052e-01 -3.669709e-01 -5.132771e-02 8.004484e-02 2.264627e-01 -2.877093e-01 1.817202e-01
<VARIANCE> 25
 1.198438e+02 8.432042e+01 4.071130e+01 8.060809e+01 9.567049e+01 5.384915e+01 5.758408e+01 2.642322e+01 3.153837e+01 6.942030e+01 2.022757e+01 2.748025e+01 4.673322e+00 1.054212e+01 6.142103e+00 7.269894e+00 7.930068e+00 6.204950e+00 7.832359e+00 3.764974e+00 4.021179e+00 4.846784e+00 2.507037e+00 2.145941e+00 4.481546e+00
<GCONST> 1.142791e+02
<STATE> 3
<MEAN> 25
 5.035141e-01 3.930787e-01 5.324439e+00 8.952613e+00 5.294204e+00 1.445085e+00 -6.372941e+00 -6.530229e+00 -4.297441e+00 -1.264219e+00 2.087817e+00 -2.518681e+00 -2.932502e-01 1.221388e+00 -1.067658e+00 -7.911381e-02 -5.033921e-02 5.591372e-01 3.964157e-01 -1.035534e-01 -1.677453e-01 1.049084e-01 1.478323e-01 4.790988e-01 -1.423469e+00
<VARIANCE> 25
 2.699108e+01 5.663491e+01 2.298552e+01 2.923568e+01 4.182774e+01 5.724471e+01 3.472121e+01 2.689316e+01 1.689108e+01 1.766191e+01 3.434034e+01 2.190962e+01 2.612871e+00 6.377627e+00 2.867446e+00 2.936035e+00 3.432957e+00 3.778498e+00 3.320163e+00 2.967816e+00 2.306581e+00 2.320282e+00 2.964722e+00 2.369067e+00 6.072791e+00
<GCONST> 1.019557e+02
<STATE> 4
<MEAN> 25
 1.518054e+01 -4.478607e-03 -5.862780e+00 8.493955e+00 5.586989e+00 -7.180467e+00 -8.843969e+00 -3.712476e+00 -3.923441e+00 -8.313013e+00 4.571006e+00 7.138748e+00 -2.695087e-01 7.770137e-01 -5.287869e-01 -1.593129e+00 -7.384955e-01 1.399432e+00 1.207019e+00 -5.666493e-02 -4.244469e-01 1.358609e-01 -9.277492e-01 -4.067922e-02 -7.385609e-01
<VARIANCE> 25
 1.796315e+02 4.985050e+01 2.982981e+01 4.244094e+01 5.901903e+01 8.371315e+01 5.377839e+01 2.230090e+01 1.301017e+01 4.359232e+01 2.165546e+01 3.998505e+01 6.369932e-01 1.209931e+00 2.328318e+00 1.893124e+00 1.768743e+00 3.060211e+00 2.310732e+00 2.328048e+00 1.618335e+00 2.850419e+00 1.899120e+00 1.734020e+00 1.178931e+00
<GCONST> 9.836920e+01
<TRANSP> 5
 0.000000e+00 1.000000e+00 0.000000e+00 0.000000e+00 0.000000e+00
 0.000000e+00 8.363365e-01 1.636636e-01 0.000000e+00 0.000000e+00
 0.000000e+00 0.000000e+00 8.103687e-01 1.896314e-01 0.000000e+00
 0.000000e+00 0.000000e+00 0.000000e+00 7.457626e-01 2.542374e-01
 0.000000e+00 0.000000e+00 0.000000e+00 0.000000e+00 0.000000e+00
<ENDHMM>
~h "k"
<BEGINHMM>
<NUMSTATES> 5
<STATE> 2
<MEAN> 25
 -1.513887e-08 8.685321e-09 6.289883e-08 7.186313e-08 3.131923e-08 4.571417e-08 5.014053e-08 1.333485e-08 -7.134006e-08 8.713219e-09 1.011273e-09 4.209684e-08 -6.534437e-03 7.731597e-03 -5.306157e-03 4.609803e-03 -4.191151e-03 8.242088e-03 -6.219152e-03 5.951754e-03 -5.249157e-03 1.868283e-03 2.200403e-03 -1.269434e-03 2.744509e-03
<VARIANCE> 25
 6.716856e+01 2.941401e+01 5.663681e+01 4.741492e+01 4.696264e+01 4.914315e+01 4.999928e+01 4.303569e+01 5.672998e+01 3.222253e+01 2.850756e+01 4.103967e+01 2.100924e+00 1.434693e+00 1.891293e+00 2.194988e+00 2.363979e+00 2.636887e+00 2.464799e+00 2.732278e+00 2.851009e+00 2.222413e+00 2.036798e+00 2.011688e+00 1.909456e+00
<GCONST> 1.015924e+02
<STATE> 3
<MEAN> 25
 -1.513887e-08 8.685321e-09 6.289883e-08 7.186313e-08 3.131923e-08 4.571417e-08 5.014053e-08 1.333485e-08 -7.134006e-08 8.713219e-09 1.011273e-09 4.209684e-08 -6.534437e-03 7.731597e-03 -5.306157e-03 4.609803e-03 -4.191151e-03 8.242088e-03 -6.219152e-03 5.951754e-03 -5.249157e-03 1.868283e-03 2.200403e-03 -1.269434e-03 2.744509e-03
<VARIANCE> 25
 6.716856e+01 2.941401e+01 5.663681e+01 4.741492e+01 4.696264e+01 4.914315e+01 4.999928e+01 4.303569e+01 5.672998e+01 3.222253e+01 2.850756e+01 4.103967e+01 2.100924e+00 1.434693e+00 1.891293e+00 2.194988e+00 2.363979e+00 2.636887e+00 2.464799e+00 2.732278e+00 2.851009e+00 2.222413e+00 2.036798e+00 2.011688e+00 1.909456e+00
<GCONST> 1.015924e+02
<STATE> 4
<MEAN> 25
 -1.513887e-08 8.685321e-09 6.289883e-08 7.186313e-08 3.131923e-08 4.571417e-08 5.014053e-08 1.333485e-08 -7.134006e-08 8.713219e-09 1.011273e-09 4.209684e-08 -6.534437e-03 7.731597e-03 -5.306157e-03 4.609803e-03 -4.191151e-03 8.242088e-03 -6.219152e-03 5.951754e-03 -5.249157e-03 1.868283e-03 2.200403e-03 -1.269434e-03 2.744509e-03
<VARIANCE> 25
 6.716856e+01 2.941401e+01 5.663681e+01 4.741492e+01 4.696264e+01 4.914315e+01 4.999928e+01 4.303569e+01 5.672998e+01 3.222253e+01 2.850756e+01 4.103967e+01 2.100924e+00 1.434693e+00 1.891293e+00 2.194988e+00 2.363979e+00 2.636887e+00 2.464799e+00 2.732278e+00 2.851009e+00 2.222413e+00 2.036798e+00 2.011688e+00 1.909456e+00
<GCONST> 1.015924e+02
<TRANSP> 5
 0.000000e+00 1.000000e+00 0.000000e+00 0.000000e+00 0.000000e+00
 0.000000e+00 6.000000e-01 4.000000e-01 0.000000e+00 0.000000e+00
 0.000000e+00 0.000000e+00 6.000000e-01 4.000000e-01 0.000000e+00
 0.000000e+00 0.000000e+00 0.000000e+00 7.000000e-01 3.000000e-01
 0.000000e+00 0.000000e+00 0.000000e+00 0.000000e+00 0.000000e+00
<ENDHMM>
~h "l"
<BEGINHMM>
<NUMSTATES> 5
<STATE> 2
<MEAN> 25
 4.940346e+00 -2.245116e+00 -2.339575e+00 -3.871331e+00 -2.723392e+00 -4.328598e+00 1.037629e+00 1.387486e+00 1.397026e+00 -9.447578e-01 -1.862950e+00 2.534236e+00 2.319920e-01 4.608827e-01 1.891980e-02 4.535655e-01 -2.440570e-01 4.702367e-01 -3.944422e-01 -3.165522e-01 3.256626e-01 -1.160639e-01 -3.855840e-02 -2.190790e-01 -4.240195e-01
<VARIANCE> 25
 2.727018e+01 1.898526e+01 1.820035e+01 2.431058e+01 5.230661e+01 4.351311e+01 4.389332e+01 3.781591e+01 3.347174e+01 2.830110e+01 2.574125e+01 2.861654e+01 4.517223e-01 1.512625e+00 1.088370e+00 2.183488e+00 3.868858e+00 2.260195e+00 2.716289e+00 1.939333e+00 2.377319e+00 2.120574e+00 3.084208e+00 2.330954e+00 6.401216e-01
<GCONST> 9.434802e+01
<STATE> 3
<MEAN> 25
 5.552030e+00 5.476267e-01 -1.930979e+00 -4.718858e-01 -1.614195e+00 -1.223603e+00 -7.035726e-01 9.777582e-02 2.325866e+00 -1.841845e+00 -2.959818e+00 -1.296542e+00 -3.987152e-02 7.166005e-01 5.405062e-01 1.496580e+00 3.429539e-01 9.408500e-01 -4.839567e-01 -6.238428e-01 -5.516256e-02 -2.338900e-01 -3.452354e-01 -9.807969e-01 -8.251991e-01
<VARIANCE> 25
 2.885991e+01 2.057230e+01 2.282947e+01 3.323835e+01 5.168009e+01 4.756821e+01 3.420429e+01 3.905223e+01 3.109649e+01 2.576963e+01 4.343647e+01 4.573138e+01 5.856370e-01 1.553797e+00 1.730231e+00 3.576161e+00 6.104358e+00 3.414074e+00 2.304837e+00 2.537116e+00 2.608804e+00 2.158800e+00 3.642660e+00 5.064112e+00 8.168531e-01
<GCONST> 9.922214e+01
<STATE> 4
<MEAN> 25
 4.491643e+00 1.051345e+00 -1.413927e-01 1.966295e+00 -1.011992e+00 8.587590e-01 -1.269177e+00 -1.359612e+00 9.072691e-01 -1.825747e+00 -3.629267e+00 -4.015698e+00 -9.411959e-02 1.668058e-01 -7.990210e-03 1.178844e-01 -7.010079e-02 -2.007920e-01 1.420788e-01 2.462436e-01 -2.295349e-02 8.430491e-02 1.108234e-01 -1.453085e-02 -1.412901e-01
<VARIANCE> 25
 2.321776e+01 1.825004e+01 2.274807e+01 2.561167e+01 5.248523e+01 3.766043e+01 3.124413e+01 4.111039e+01 3.808796e+01 2.269440e+01 3.368672e+01 3.339653e+01 3.934475e-01 1.044358e+00 9.757824e-01 2.050966e+00 1.942912e+00 2.972128e+00 1.310201e+00 1.896374e+00 1.392669e+00 1.394830e+00 1.479500e+00 2.258630e+00 7.590178e-01
<GCONST> 9.096106e+01
<TRANSP> 5
 0.000000e+00 1.000000e+00 0.000000e+00 0.000000e+00 0.000000e+00
 0.000000e+00 6.070485e-01 3.929516e-01 0.000000e+00 0.000000e+00
 0.000000e+00 0.000000e+00 5.359426e-01 4.640574e-01 0.000000e+00
 0.000000e+00 0.000000e+00 0.000000e+00 6.496039e-01 3.503961e-01
 0.000000e+00 0.000000e+00 0.000000e+00 0.000000e+00 0.000000e+00
<ENDHMM>
~h "m"
<BEGINHMM>
<NUMSTATES> 5
<STATE> 2
<MEAN> 25
 3.745397e+00 1.379359e+00 1.053687e-01 -4.848963e-01 2.347409e-01 9.451987e-01 -9.855860e-01 2.360038e+00 1.213767e+00 -1.586486e+00 -2.991676e+00 -2.594665e+00 -2.677772e-01 1.037784e+00 -2.325124e-01 3.733245e-01 1.033955e+00 9.293836e-02 5.258759e-01 5.707959e-01 -1.304232e+00 3.247516e-01 -1.223480e-01 -1.991016e-01 -9.022778e-01
<VARIANCE> 25
 2.707856e+01 5.839891e+01 2.279252e+01 2.756898e+01 4.431711e+01 6.159027e+01 5.393240e+01 4.488867e+01 5.005650e+01 2.869510e+01 2.743878e+01 3.118222e+01 8.296048e-01 6.132938e+00 2.295388e+00 4.587972e+00 5.608349e+00 5.345949e+00 5.280759e+00 5.320443e+00 4.959602e+00 2.434933e+00 3.914463e+00 3.560479e+00 4.125043e+00
<GCONST> 1.067419e+02
<STATE> 3
<MEAN> 25
 3.126768e+00 1.790446e+00 1.874070e-01 6.899314e-01 2.358343e+00 2.035926e-01 -4.261115e-01 3.845739e+00 -1.173142e+00 -7.976638e-01 -2.638643e+00 -2.383006e+00 -2.074642e-01 -1.412767e+00 2.224858e-01 -5.405564e-01 5.024432e-01 -2.441405e-01 -6.928895e-01 7.775879e-03 7.873963e-01 1.663851e-01 -9.819447e-02 2.695153e-01 9.958091e-01
<VARIANCE> 25
 3.017801e+01 6.539886e+01 3.128057e+01 4.974230e+01 5.651585e+01 5.619981e+01 6.318161e+01 3.702354e+01 5.214100e+01 4.350127e+01 2.392795e+01 3.234690e+01 7.612316e-01 6.316946e+00 2.271516e+00 5.844540e+00 1.014512e+01 4.806054e+00 5.187595e+00 4.922449e+00 7.084383e+00 2.000465e+00 4.232628e+00 3.781444e+00 4.606028e+00
<GCONST> 1.093186e+02
<STATE> 4
<MEAN> 25
 2.413770e+00 -1.112416e+00 -4.523503e-01 -2.761362e-01 4.645289e+00 1.255687e+00 -2.006170e+00 8.783433e-01 3.352995e-01 -1.118645e+00 -2.078607e+00 2.506118e-01 -3.471667e-01 -2.472290e-01 1.631314e-01 3.647138e-02 1.501637e-01 2.905796e-01 -2.035848e-01 -2.945545e-01 -7.586581e-02 6.963903e-02 1.044932e-01 3.424302e-01 -8.264326e-02
<VARIANCE> 25
 4.075270e+01 3.633365e+01 2.501887e+01 4.394707e+01 5.460263e+01 4.946952e+01 3.460963e+01 3.330749e+01 4.122089e+01 3.680751e+01 2.929237e+01 3.041725e+01 7.671782e-01 1.351262e+00 1.540842e+00 2.607541e+00 2.660039e+00 2.081645e+00 2.615921e+00 2.626410e+00 2.363757e+00 1.757758e+00 2.631502e+00 2.927336e+00 1.411475e+00
<GCONST> 9.819419e+01
<TRANSP> 5
 0.000000e+00 1.000000e+00 0.000000e+00 0.000000e+00 0.000000e+00
 0.000000e+00 6.056565e-01 3.943436e-01 0.000000e+00 0.000000e+00
 0.000000e+00 0.000000e+00 5.511006e-01 4.488994e-01 0.000000e+00
 0.000000e+00 0.000000e+00 0.000000e+00 4.456261e-01 5.543738e-01
 0.000000e+00 0.000000e+00 0.000000e+00 0.000000e+00 0.000000e+00
<ENDHMM>
~h "n"
<BEGINHMM>
<NUMSTATES> 5
<STATE> 2
<MEAN> 25
 -5.932739e-01 6.761367e+00 -2.192866e+00 1.946463e+00 7.026163e+00 4.293065e+00 1.438958e+00 -2.228719e+00 -7.064703e+00 -1.034178e+00 3.257884e-01 9.551000e-01 -6.923943e-01 9.001247e-01 -3.484821e-01 4.069783e-01 1.655461e-01 4.559270e-02 5.675731e-01 1.787779e-01 -3.145314e-01 4.142284e-01 6.359007e-02 -1.069584e-03 -1.160012e+00
<VARIANCE> 25
 6.161834e+01 8.519341e+01 2.929355e+01 2.653212e+01 4.672657e+01 4.514537e+01 5.854291e+01 3.020557e+01 8.117861e+01 3.308405e+01 3.367620e+01 1.922885e+01 1.818862e+00 6.536246e+00 2.845722e+00 3.137488e+00 5.586965e+00 3.462755e+00 4.623788e+00 3.086540e+00 5.025416e+00 3.359907e+00 3.918515e+00 2.185004e+00 3.318148e+00
<GCONST> 1.071282e+02
<STATE> 3
<MEAN> 25
 -1.683269e+00 8.851349e-01 -1.058835e+00 1.064940e-02 -4.670858e-01 1.117234e+00 3.000393e+00 -1.557524e+00 -1.038665e+00 7.935464e-01 1.531130e+00 1.244128e+00 4.117042e-01 -1.413848e+00 1.078133e+00 -1.807226e-01 -1.416661e+00 -4.274963e-01 -4.264032e-02 2.691385e-01 7.623030e-01 -7.423825e-02 6.126697e-01 8.937433e-02 1.541862e+00
<VARIANCE> 25
 1.139043e+02 5.269580e+01 4.207524e+01 4.232833e+01 5.366512e+01 4.134036e+01 6.868352e+01 4.116806e+01 6.790087e+01 3.674185e+01 2.485871e+01 2.038353e+01 5.761471e+00 7.983494e+00 5.360738e+00 4.523119e+00 6.453461e+00 5.093773e+00 6.766478e+00 7.581697e+00 7.710150e+00 4.308938e+00 2.989087e+00 2.468942e+00 6.270864e+00
<GCONST> 1.136185e+02
<STATE> 4
<MEAN> 25
 2.008091e+01 -1.369805e+00 -4.916566e+00 2.121980e+00 3.000578e+00 -7.562059e+00 -3.634576e+00 3.094998e+00 2.750026e+00 -9.802653e+00 -2.227159e+00 2.314511e+00 -1.821062e-01 -1.085087e-01 3.041186e-01 4.587854e-02 -1.285266e-01 5.701711e-02 3.146614e-02 -1.081993e-01 5.272803e-02 -4.015720e-02 -8.667348e-02 1.233887e-03 6.179922e-02
<VARIANCE> 25
 1.194779e+02 5.460011e+01 7.082870e+01 6.210232e+01 3.680651e+01 5.914005e+01 4.221217e+01 3.090517e+01 3.035438e+01 5.445380e+01 2.766753e+01 2.484836e+01 2.065771e+00 3.411994e+00 4.557072e+00 6.677560e+00 3.054937e+00 3.984106e+00 3.551157e+00 2.901472e+00 2.762553e+00 3.267674e+00 2.447208e+00 2.744706e+00 2.251193e+00
<GCONST> 1.070378e+02
<TRANSP> 5
 0.000000e+00 1.000000e+00 0.000000e+00 0.000000e+00 0.000000e+00
 0.000000e+00 7.259293e-01 2.740707e-01 0.000000e+00 0.000000e+00
 0.000000e+00 0.000000e+00 5.251732e-01 4.748268e-01 0.000000e+00
 0.000000e+00 0.000000e+00 0.000000e+00 8.162028e-01 1.837973e-01
 0.000000e+00 0.000000e+00 0.000000e+00 0.000000e+00 0.000000e+00
<ENDHMM>
~h "p"
<BEGINHMM>
<NUMSTATES> 5
<STATE> 2
<MEAN> 25
 6.589089e+00 -3.941711e+00 1.920091e+00 -4.052577e+00 -9.261692e-01 -4.724922e+00 -6.952768e+00 1.558379e+00 2.596617e+00 -8.162153e+00 -6.498156e+00 9.927258e-01 5.419358e-01 6.548069e-01 -1.056552e-01 4.828994e-01 -2.903046e-01 -3.055634e-01 -1.038645e+00 1.099357e+00 1.507716e+00 -4.597811e-01 4.833906e-01 7.118017e-02 -3.771449e-01
<VARIANCE> 25
 1.246514e+01 2.870644e+01 1.620281e+01 2.645107e+01 9.462324e+00 2.958973e+01 3.960526e+01 1.829825e+01 4.547709e+01 4.646928e+01 4.865028e+01 2.153143e+01 1.447163e+00 4.796939e+00 1.937927e+00 3.585269e+00 2.617640e+00 4.716256e+00 3.798027e+00 1.392908e+00 4.686136e+00 3.542604e+00 1.992812e+00 1.165340e+00 3.384875e-01
<GCONST> 9.534210e+01
<STATE> 3
<MEAN> 25
 5.104358e+00 -5.793216e-01 5.152053e-01 -8.107436e-01 -2.933424e+00 -4.677956e+00 -4.903415e+00 3.249048e+00 4.904975e+00 -2.586797e+00 -7.273238e-01 9.086716e-02 -4.012632e-01 3.492896e-01 -2.394962e-01 8.327124e-02 -3.069636e-01 1.426187e-01 5.157776e-01 6.300882e-02 -3.169935e-02 7.102245e-01 6.637803e-01 -1.265840e-01 -7.102365e-01
<VARIANCE> 25
 9.067430e+00 2.602641e+01 2.106217e+01 1.389959e+01 6.300838e+00 4.431262e+01 1.059428e+01 2.472863e+01 3.269763e+01 3.537053e+01 2.470793e+01 1.425365e+01 5.962051e-01 5.940202e-01 4.766794e-01 8.372986e-01 8.145569e-01 2.734358e+00 1.627419e+00 2.011250e+00 2.108832e+00 2.675287e+00 1.985659e+00 1.297310e+00 4.338146e-01
<GCONST> 8.307894e+01
<STATE> 4
<MEAN> 25
 2.955131e+00 -1.210951e+00 -9.847966e-01 7.530287e-01 2.251407e-01 2.729879e+00 1.832583e+00 -5.958363e-01 6.068332e-01 2.268219e+00 8.375878e-01 4.557623e-01 -4.881180e-02 -6.276203e-03 -4.223303e-02 -3.015831e-02 -2.582471e-02 -8.718363e-03 4.599800e-02 3.509435e-02 -3.687530e-03 4.087633e-02 2.959952e-02 -7.441101e-03 -5.728905e-02
<VARIANCE> 25
 1.775858e+00 5.669563e+00 5.621718e+00 4.789309e+00 5.284318e+00 1.109213e+01 9.024120e+00 6.309655e+00 6.702844e+00 9.390859e+00 6.785644e+00 6.262650e+00 1.467354e-01 1.621092e-01 2.557490e-01 4.357086e-01 4.689404e-01 7.255314e-01 7.369865e-01 7.773918e-01 6.328303e-01 7.188063e-01 6.552496e-01 8.527134e-01 6.146713e-02
<GCONST> 5.582687e+01
<TRANSP> 5
 0.000000e+00 1.000000e+00 0.000000e+00 0.000000e+00 0.000000e+00
 0.000000e+00 5.271798e-01 4.728202e-01 0.000000e+00 0.000000e+00
 0.000000e+00 0.000000e+00 7.348835e-01 2.651164e-01 0.000000e+00
 0.000000e+00 0.000000e+00 0.000000e+00 9.399363e-01 6.006373e-02
 0.000000e+00 0.000000e+00 0.000000e+00 0.000000e+00 0.000000e+00
<ENDHMM>
~h "r"
<BEGINHMM>
<NUMSTATES> 5
<STATE> 2
<MEAN> 25
 3.420926e+00 9.478158e-01 2.789750e+00 1.256583e+00 1.382251e+00 -2.995847e+00 -6.501668e+00 -3.538032e+00 -2.534204e+00 -2.037107e+00 1.392294e+00 2.972370e+00 -3.798671e-01 5.318763e-01 -1.047176e+00 -2.428338e-01 7.615294e-01 5.257061e-01 2.857874e-01 3.100052e-01 4.795414e-01 -2.126136e-01 4.883985e-02 9.874165e-01 -1.004123e+00
<VARIANCE> 25
 1.767178e+01 2.606391e+01 2.288923e+01 2.894341e+01 9.340869e+01 2.818435e+01 9.410174e+01 7.916554e+01 2.562820e+01 1.923496e+01 1.411132e+01 1.378358e+01 9.725737e-01 1.997261e+00 3.050120e+00 4.487567e+00 1.633254e+00 3.613962e+00 5.683105e+00 2.823276e+00 3.653895e+00 4.804176e+00 2.225162e+00 3.069978e+00 9.475505e-01
<GCONST> 9.940214e+01
<STATE> 3
<MEAN> 25
 8.877931e-01 5.065985e-01 -5.590589e-01 2.123815e+00 1.909534e+00 1.019169e+00 -3.936664e+00 -4.690240e+00 -7.713475e-01 9.210945e-01 1.253773e+00 1.514150e+00 -3.708588e-01 1.742798e-01 -3.693249e-01 -3.183183e-02 -6.053787e-01 8.091930e-01 8.997658e-01 6.953590e-01 3.696607e-01 1.898067e-01 -9.891222e-02 -2.308628e-03 -9.112561e-01
<VARIANCE> 25
 2.469336e+01 5.418146e+01 1.945856e+01 1.659587e+01 5.847604e+01 6.463586e+01 3.983044e+01 4.014797e+01 4.195084e+01 3.552773e+01 1.668345e+01 1.685450e+01 1.667878e+00 4.507144e+00 2.254227e+00 1.837602e+00 3.624809e+00 8.349225e+00 3.502801e+00 1.789480e+00 7.465463e+00 1.703782e+00 2.103658e+00 1.761664e+00 1.963099e+00
<GCONST> 1.006952e+02
<STATE> 4
<MEAN> 25
 -1.831207e-01 3.724070e+00 -1.919440e-02 3.605271e+00 1.620309e+00 2.660129e+00 -1.777354e+00 -3.370957e+00 -1.757325e+00 4.138030e-01 1.327094e+00 2.008927e+00 -5.795977e-01 5.404558e-01 1.194253e-01 3.107663e-01 -4.578762e-02 1.333013e-01 4.575191e-01 2.154113e-01 1.455608e-01 4.935991e-01 -8.808506e-02 -4.223384e-01 -7.079481e-01
<VARIANCE> 25
 3.364170e+01 1.920923e+01 2.129726e+01 1.687476e+01 3.594138e+01 5.954902e+01 2.942720e+01 1.925943e+01 3.207215e+01 2.498014e+01 1.351978e+01 1.538616e+01 7.207640e-01 1.189625e+00 9.047998e-01 1.468816e+00 1.250279e+00 1.608966e+00 1.695693e+00 1.178112e+00 1.348709e+00 1.359148e+00 1.285543e+00 1.352918e+00 3.154686e-01
<GCONST> 8.586210e+01
<TRANSP> 5
 0.000000e+00 1.000000e+00 0.000000e+00 0.000000e+00 0.000000e+00
 0.000000e+00 6.382552e-01 3.617449e-01 0.000000e+00 0.000000e+00
 0.000000e+00 0.000000e+00 7.339014e-01 2.660986e-01 0.000000e+00
 0.000000e+00 0.000000e+00 0.000000e+00 8.221470e-01 1.778530e-01
 0.000000e+00 0.000000e+00 0.000000e+00 0.000000e+00 0.000000e+00
<ENDHMM>
~h "s"
<BEGINHMM>
<NUMSTATES> 5
<STATE> 2
<MEAN> 25
 -8.219564e+00 4.158262e-01 9.397605e+00 -4.766473e+00 -1.562472e+00 6.510015e+00 2.348536e+00 -5.652443e+00 4.234416e+00 9.722414e-01 1.980563e+00 2.942500e-01 -1.568939e+00 -8.257963e-01 1.104175e+00 -1.290543e+00 -1.480586e-01 3.348284e-01 7.609692e-01 -7.117622e-01 -1.856907e-01 1.771861e-01 6.849576e-01 -5.416649e-02 3.001939e-01
<VARIANCE> 25
 1.714182e+02 2.116589e+02 1.723828e+02 6.954345e+01 9.772246e+01 1.059144e+02 5.260028e+01 4.161310e+01 5.903570e+01 5.653011e+01 3.777689e+01 1.523113e+01 1.260036e+01 1.645296e+01 1.095615e+01 5.826558e+00 7.888473e+00 7.567505e+00 5.193585e+00 5.887490e+00 3.999830e+00 6.284765e+00 5.243199e+00 1.778255e+00 1.378778e+00
<GCONST> 1.200197e+02
<STATE> 3
<MEAN> 25
 -7.838706e+00 -6.601004e+00 1.067554e+01 -7.673306e+00 -1.254587e+00 4.606660e+00 1.461589e+00 -5.823247e+00 -1.254615e+00 2.459020e+00 -3.069453e-01 1.040602e+00 2.125075e+00 1.203840e+00 -1.726009e+00 9.050706e-01 -2.045534e-01 -9.142032e-01 -4.419391e-01 3.826252e-01 -1.013618e+00 -1.341025e+00 -5.014412e-01 2.525373e-01 -1.659428e-01
<VARIANCE> 25
 7.638085e+01 8.799688e+01 6.604458e+01 3.174381e+01 2.837172e+01 5.946407e+01 4.053385e+01 3.328835e+01 3.925303e+01 4.673779e+01 2.288845e+01 1.214378e+01 5.455402e+00 5.917305e+00 3.554044e+00 2.846518e+00 3.196615e+00 4.128959e+00 3.792610e+00 3.778725e+00 3.795118e+00 8.906889e+00 3.123376e+00 1.323095e+00 1.511338e+00
<GCONST> 1.065718e+02
<STATE> 4
<MEAN> 25
 1.461338e+00 -1.370992e+00 3.358919e+00 -3.659760e+00 -1.879799e+00 9.580904e-01 -3.523886e-01 -2.675769e+00 -1.914865e+00 -1.424836e+00 -1.349479e+00 1.746189e+00 1.759532e+00 1.901346e-01 -1.115995e+00 8.579044e-01 -2.560064e-01 -1.686387e-02 -1.123547e+00 7.782823e-01 4.233520e-01 -7.202914e-01 -3.943197e-01 -1.290080e-01 -4.148581e-02
<VARIANCE> 25
 7.750704e+01 7.886520e+01 5.656973e+01 3.154917e+01 4.343824e+01 7.052197e+01 2.951291e+01 5.102533e+01 3.084619e+01 7.367659e+01 3.056468e+01 2.329027e+01 2.849441e+00 8.070081e+00 6.074577e+00 3.307689e+00 4.767892e+00 6.002307e+00 3.519352e+00 3.511981e+00 2.684175e+00 5.675126e+00 3.519281e+00 2.726316e+00 3.223498e+00
<GCONST> 1.099523e+02
<TRANSP> 5
 0.000000e+00 1.000000e+00 0.000000e+00 0.000000e+00 0.000000e+00
 0.000000e+00 8.002700e-01 1.997300e-01 0.000000e+00 0.000000e+00
 0.000000e+00 0.000000e+00 7.153566e-01 2.846434e-01 0.000000e+00
 0.000000e+00 0.000000e+00 0.000000e+00 4.163146e-01 5.836855e-01
 0.000000e+00 0.000000e+00 0.000000e+00 0.000000e+00 0.000000e+00
<ENDHMM>
~h "t"
<BEGINHMM>
<NUMSTATES> 5
<STATE> 2
<MEAN> 25
 -2.552395e+00 3.448685e+00 8.145062e-01 1.453791e+00 1.076459e+00 3.342373e+00 1.476688e+00 -1.913661e+00 -3.304973e+00 1.183111e+00 -2.013327e-01 -3.246481e-01 9.747449e-01 -2.384517e-01 1.223083e-01 -1.832222e-01 -1.281281e-01 -8.569241e-01 -7.511606e-01 2.243638e-01 2.210832e-01 -4.579540e-01 -3.292565e-01 8.763944e-02 1.065263e+00
<VARIANCE> 25
 6.162631e+01 4.656614e+01 3.700948e+01 2.963230e+01 1.848675e+01 4.067876e+01 4.420332e+01 3.083945e+01 4.161815e+01 4.348207e+01 2.697206e+01 1.976293e+01 4.997434e+00 3.267433e+00 2.637460e+00 3.069580e+00 1.872974e+00 4.526477e+00 4.755418e+00 3.846301e+00 3.156653e+00 5.679948e+00 3.265384e+00 2.011997e+00 6.731287e+00
<GCONST> 1.051327e+02
<STATE> 3
<MEAN> 25
 9.337374e-01 2.793964e+00 2.130281e-01 4.494314e-01 2.720549e-01 -4.686320e-01 -4.636990e-01 -8.203616e-01 -2.970567e+00 -6.596024e-01 -1.780816e+00 1.938720e-01 5.403040e-02 -4.721946e-01 -3.437195e-01 2.208008e-01 -9.800532e-02 -6.037306e-01 -3.940703e-01 5.082465e-02 5.316070e-01 -1.768159e-01 2.250006e-01 1.136313e-01 1.740458e-01
<VARIANCE> 25
 4.138961e+01 4.991138e+01 5.451424e+01 3.469686e+01 1.669295e+01 3.645011e+01 3.942909e+01 2.020357e+01 3.703676e+01 3.302903e+01 2.239177e+01 2.592768e+01 1.773997e+00 4.122754e+00 2.401352e+00 1.766079e+00 2.559725e+00 2.396542e+00 3.606643e+00 2.379275e+00 3.125154e+00 2.506673e+00 1.720020e+00 1.759232e+00 3.178346e+00
<GCONST> 9.940998e+01
<STATE> 4
<MEAN> 25
 8.736395e-01 -4.558297e-01 5.001717e-01 3.132360e-01 -7.416143e-01 9.980965e-01 -1.823987e+00 -1.313943e+00 1.102642e+00 -2.463021e-01 -6.512011e-01 -7.864621e-01 -1.091488e-02 -2.268604e-01 -1.119764e-01 1.538343e-01 9.728305e-02 -2.801048e-02 -3.217430e-02 -6.117116e-02 9.123599e-02 1.987042e-01 3.066284e-01 2.375714e-02 1.473809e-02
<VARIANCE> 25
 3.252207e+01 3.766087e+01 2.828686e+01 3.019511e+01 1.671190e+01 2.007171e+01 4.614713e+01 1.438665e+01 3.433592e+01 3.275868e+01 1.880973e+01 1.610040e+01 7.885204e-01 1.219148e+00 1.054268e+00 8.876939e-01 1.095473e+00 1.157391e+00 1.470184e+00 9.606638e-01 1.483649e+00 1.318486e+00 1.064546e+00 1.061318e+00 9.310480e-01
<GCONST> 8.605818e+01
<TRANSP> 5
 0.000000e+00 1.000000e+00 0.000000e+00 0.000000e+00 0.000000e+00
 0.000000e+00 4.580259e-01 5.419741e-01 0.000000e+00 0.000000e+00
 0.000000e+00 0.000000e+00 2.294628e-01 7.705371e-01 0.000000e+00
 0.000000e+00 0.000000e+00 0.000000e+00 6.797594e-01 3.202405e-01
 0.000000e+00 0.000000e+00 0.000000e+00 0.000000e+00 0.000000e+00
<ENDHMM>
~h "u"
<BEGINHMM>
<NUMSTATES> 5
<STATE> 2
<MEAN> 25
 2.054162e+00 2.283103e+00 -6.937784e-01 1.969631e+00 -1.152432e-01 1.437782e+00 2.201275e-01 -1.978627e+00 -2.170331e+00 -1.303832e+00 -1.240124e+00 3.422818e-01 -2.235265e-01 -5.246918e-01 3.660815e-01 -2.239483e-02 -2.488531e-01 -1.509064e-02 1.242617e+00 -4.217459e-01 -3.705078e-01 1.672067e-01 -3.473260e-01 4.064613e-01 1.715728e-01
<VARIANCE> 25
 5.991870e+01 3.847149e+01 2.909147e+01 4.426266e+01 5.244708e+01 3.191653e+01 5.303921e+01 4.821650e+01 4.973768e+01 5.164561e+01 3.962405e+01 2.694888e+01 4.180060e+00 7.888678e+00 3.730077e+00 5.865061e+00 8.347652e+00 4.455914e+00 6.031360e+00 5.542189e+00 4.795689e+00 7.268020e+00 4.887751e+00 3.602937e+00 1.006301e+01
<GCONST> 1.133800e+02
<STATE> 3
<MEAN> 25
 3.031482e+00 -6.667575e-01 1.009807e+00 2.363073e-01 -8.918087e-01 -5.550973e-01 2.075616e+00 -2.358819e+00 -4.035444e+00 -1.453987e+00 -1.978940e+00 1.577664e+00 6.519529e-01 -4.856056e-01 1.170235e+00 -1.048262e+00 -1.741200e-01 -6.507925e-01 -7.321218e-01 8.306038e-01 1.001202e-01 -1.023295e+00 -5.383415e-01 2.859680e-01 1.830005e+00
<VARIANCE> 25
 1.255850e+02 1.044697e+02 5.452888e+01 4.500465e+01 4.950552e+01 5.227353e+01 5.342603e+01 6.319962e+01 5.543416e+01 8.516115e+01 4.405735e+01 3.507330e+01 6.717537e+00 9.848697e+00 5.883110e+00 7.493205e+00 6.029339e+00 8.069368e+00 1.294711e+01 8.104501e+00 8.557458e+00 1.590612e+01 5.041276e+00 3.556146e+00 1.460618e+01
<GCONST> 1.220176e+02
<STATE> 4
<MEAN> 25
 1.534310e+01 4.322701e+00 5.917896e+00 2.350356e+00 -3.835561e+00 -7.348848e+00 -3.890350e+00 2.072453e+00 6.268525e-02 -1.103924e+01 -4.306922e+00 2.028178e+00 -5.289757e-01 5.647179e-01 5.841956e-03 -9.751055e-02 -1.007130e-01 2.905401e-01 2.110743e-01 7.746098e-02 -1.039648e-01 6.089632e-01 4.505874e-02 -2.317155e-01 -8.421347e-01
<VARIANCE> 25
 1.749784e+02 6.878893e+01 5.060059e+01 4.028513e+01 4.219770e+01 1.018800e+02 8.309162e+01 4.595996e+01 7.219143e+01 1.556564e+02 2.772595e+01 3.461126e+01 1.562975e+00 2.807893e+00 2.178987e+00 3.292892e+00 2.322916e+00 5.426908e+00 4.981310e+00 4.117193e+00 3.843762e+00 4.574287e+00 1.452103e+00 2.041631e+00 2.389815e+00
<GCONST> 1.095996e+02
<TRANSP> 5
 0.000000e+00 1.000000e+00 0.000000e+00 0.000000e+00 0.000000e+00
 0.000000e+00 3.501011e-01 6.498989e-01 0.000000e+00 0.000000e+00
 0.000000e+00 0.000000e+00 4.824983e-01 5.175017e-01 0.000000e+00
 0.000000e+00 0.000000e+00 0.000000e+00 6.042271e-01 3.957729e-01
 0.000000e+00 0.000000e+00 0.000000e+00 0.000000e+00 0.000000e+00
<ENDHMM>
~h "w"
<BEGINHMM>
<NUMSTATES> 5
<STATE> 2
<MEAN> 25
 3.301087e+00 -1.233185e+00 2.918710e-01 -4.037590e+00 -4.826042e+00 -7.303257e+00 -4.145529e-01 4.065772e+00 3.556071e+00 -9.013093e-01 -2.499542e+00 3.898125e-01 -9.673215e-03 8.575763e-01 8.909678e-01 6.267524e-01 -3.872431e-01 -1.014725e+00 -1.070521e+00 1.515745e-01 -4.254442e-02 4.270203e-01 6.191448e-02 -5.729341e-01 -4.445020e-01
<VARIANCE> 25
 3.210814e+01 3.871858e+01 4.078616e+01 2.595160e+01 2.060063e+01 3.019561e+01 3.181528e+01 1.033528e+01 3.982023e+01 2.029786e+01 1.528967e+01 1.632075e+01 2.927631e-01 1.295855e+00 8.546451e-01 1.353267e+00 7.614635e-01 1.168279e+00 1.982330e+00 1.317956e+00 1.428295e+00 8.294241e-01 1.123419e+00 4.722894e-01 6.046208e-01
<GCONST> 8.353209e+01
<STATE> 3
<MEAN> 25
 2.520792e+00 -1.614528e+00 3.850477e+00 -6.561483e-01 -4.880555e+00 -6.070230e+00 -5.420438e+00 -1.173430e-03 6.848497e+00 3.542165e+00 1.035154e+00 -3.268596e+00 7.138685e-03 -1.594186e-01 -1.920108e-01 -6.815733e-03 -5.470024e-02 -3.311737e-02 2.999342e-01 3.853482e-02 -3.191342e-02 2.191917e-02 -5.496833e-02 5.385800e-02 8.044576e-02
<VARIANCE> 25
 1.226725e+01 3.895785e+01 1.315198e+01 1.233668e+01 2.537060e+01 3.778146e+01 5.140879e+01 2.455775e+01 3.875938e+01 1.954106e+01 2.190965e+01 1.592444e+01 2.328515e-01 9.057933e-01 5.100883e-01 8.782309e-01 1.226114e+00 1.492379e+00 2.702586e+00 1.239906e+00 6.037021e-01 1.178819e+00 1.377611e+00 9.591137e-01 3.692127e-01
<GCONST> 8.209261e+01
<STATE> 4
<MEAN> 25
 2.168859e+01 1.615248e+00 -1.753658e+00 2.965089e+00 -3.257116e+00 -1.661950e+01 -6.019462e+00 8.034449e+00 8.238744e+00 -7.201612e+00 -2.136485e+00 2.993295e+00 -2.552559e-01 3.805424e-01 3.851712e-01 3.637067e-02 -1.020733e-01 3.037877e-01 5.427618e-02 -2.156593e-01 -7.926030e-02 2.287405e-01 5.253613e-02 1.292442e-02 -3.684157e-01
<VARIANCE> 25
 6.425755e+01 6.482370e+01 6.199408e+01 2.114568e+01 1.315970e+01 8.670011e+01 4.628039e+01 2.408984e+01 3.492785e+01 3.403817e+01 2.330711e+01 1.000344e+01 4.782602e-01 1.199855e+00 2.000849e+00 1.598616e+00 6.247892e-01 2.612292e+00 2.501722e+00 1.054138e+00 1.118147e+00 1.743201e+00 9.231251e-01 7.087545e-01 4.953872e-01
<GCONST> 8.965619e+01
<TRANSP> 5
 0.000000e+00 1.000000e+00 0.000000e+00 0.000000e+00 0.000000e+00
 0.000000e+00 6.997939e-01 3.002062e-01 0.000000e+00 0.000000e+00
 0.000000e+00 0.000000e+00 8.980926e-01 1.019074e-01 0.000000e+00
 0.000000e+00 0.000000e+00 0.000000e+00 8.876932e-01 1.123068e-01
 0.000000e+00 0.000000e+00 0.000000e+00 0.000000e+00 0.000000e+00
<ENDHMM>
~h "kh"
<BEGINHMM>
<NUMSTATES> 5
<STATE> 2
<MEAN> 25
 -1.513887e-08 8.685321e-09 6.289883e-08 7.186313e-08 3.131923e-08 4.571417e-08 5.014053e-08 1.333485e-08 -7.134006e-08 8.713219e-09 1.011273e-09 4.209684e-08 -6.534437e-03 7.731597e-03 -5.306157e-03 4.609803e-03 -4.191151e-03 8.242088e-03 -6.219152e-03 5.951754e-03 -5.249157e-03 1.868283e-03 2.200403e-03 -1.269434e-03 2.744509e-03
<VARIANCE> 25
 6.716856e+01 2.941401e+01 5.663681e+01 4.741492e+01 4.696264e+01 4.914315e+01 4.999928e+01 4.303569e+01 5.672998e+01 3.222253e+01 2.850756e+01 4.103967e+01 2.100924e+00 1.434693e+00 1.891293e+00 2.194988e+00 2.363979e+00 2.636887e+00 2.464799e+00 2.732278e+00 2.851009e+00 2.222413e+00 2.036798e+00 2.011688e+00 1.909456e+00
<GCONST> 1.015924e+02
<STATE> 3
<MEAN> 25
 -1.513887e-08 8.685321e-09 6.289883e-08 7.186313e-08 3.131923e-08 4.571417e-08 5.014053e-08 1.333485e-08 -7.134006e-08 8.713219e-09 1.011273e-09 4.209684e-08 -6.534437e-03 7.731597e-03 -5.306157e-03 4.609803e-03 -4.191151e-03 8.242088e-03 -6.219152e-03 5.951754e-03 -5.249157e-03 1.868283e-03 2.200403e-03 -1.269434e-03 2.744509e-03
<VARIANCE> 25
 6.716856e+01 2.941401e+01 5.663681e+01 4.741492e+01 4.696264e+01 4.914315e+01 4.999928e+01 4.303569e+01 5.672998e+01 3.222253e+01 2.850756e+01 4.103967e+01 2.100924e+00 1.434693e+00 1.891293e+00 2.194988e+00 2.363979e+00 2.636887e+00 2.464799e+00 2.732278e+00 2.851009e+00 2.222413e+00 2.036798e+00 2.011688e+00 1.909456e+00
<GCONST> 1.015924e+02
<STATE> 4
<MEAN> 25
 -1.513887e-08 8.685321e-09 6.289883e-08 7.186313e-08 3.131923e-08 4.571417e-08 5.014053e-08 1.333485e-08 -7.134006e-08 8.713219e-09 1.011273e-09 4.209684e-08 -6.534437e-03 7.731597e-03 -5.306157e-03 4.609803e-03 -4.191151e-03 8.242088e-03 -6.219152e-03 5.951754e-03 -5.249157e-03 1.868283e-03 2.200403e-03 -1.269434e-03 2.744509e-03
<VARIANCE> 25
 6.716856e+01 2.941401e+01 5.663681e+01 4.741492e+01 4.696264e+01 4.914315e+01 4.999928e+01 4.303569e+01 5.672998e+01 3.222253e+01 2.850756e+01 4.103967e+01 2.100924e+00 1.434693e+00 1.891293e+00 2.194988e+00 2.363979e+00 2.636887e+00 2.464799e+00 2.732278e+00 2.851009e+00 2.222413e+00 2.036798e+00 2.011688e+00 1.909456e+00
<GCONST> 1.015924e+02
<TRANSP> 5
 0.000000e+00 1.000000e+00 0.000000e+00 0.000000e+00 0.000000e+00
 0.000000e+00 6.000000e-01 4.000000e-01 0.000000e+00 0.000000e+00
 0.000000e+00 0.000000e+00 6.000000e-01 4.000000e-01 0.000000e+00
 0.000000e+00 0.000000e+00 0.000000e+00 7.000000e-01 3.000000e-01
 0.000000e+00 0.000000e+00 0.000000e+00 0.000000e+00 0.000000e+00
<ENDHMM>
~h "ny"
<BEGINHMM>
<NUMSTATES> 5
<STATE> 2
<MEAN> 25
 1.433267e+00 2.053303e+00 3.124116e+00 3.780073e+00 3.961699e+00 -1.855067e+00 -5.720391e+00 9.115895e-01 -1.216633e-01 -1.485657e+00 1.145608e-01 -4.252925e+00 -4.179827e-02 -5.697154e-01 1.427532e-02 1.527319e-01 1.077772e-01 -7.344292e-01 -1.233254e-01 -8.983215e-02 -1.544054e-01 2.673261e-01 6.293130e-01 7.158095e-02 4.339268e-01
<VARIANCE> 25
 7.408293e+00 2.737745e+01 2.141803e+01 3.349916e+01 4.909788e+01 5.534077e+01 5.199318e+01 2.245581e+01 1.961929e+01 2.277223e+01 2.645148e+01 4.339656e+01 5.055971e-01 1.378542e+00 1.631684e+00 1.814566e+00 2.542395e+00 4.725610e+00 3.251119e+00 1.668826e+00 1.325203e+00 1.368089e+00 1.597604e+00 2.531069e+00 6.917666e-01
<GCONST> 9.247805e+01
<STATE> 3
<MEAN> 25
 2.420446e+00 -3.381815e+00 -2.044232e-02 5.388749e+00 4.968616e+00 -7.596831e+00 -4.875947e+00 -2.091079e+00 -2.811789e+00 4.695116e-01 5.773136e+00 1.697907e+00 3.508661e-01 1.151916e-01 -1.078476e+00 -5.068851e-01 -4.845980e-01 2.028367e-01 3.828592e-01 1.267301e-01 -2.347080e-01 -9.010022e-02 5.223747e-01 7.231322e-01 -1.718417e-01
<VARIANCE> 25
 9.714612e+00 2.017357e+01 3.141857e+01 3.856794e+01 3.493218e+01 4.716728e+01 3.856011e+01 2.929272e+01 2.031263e+01 2.336367e+01 2.965068e+01 3.294993e+01 7.509597e-01 7.213064e-01 1.113538e+00 1.706377e+00 2.552078e+00 3.417290e+00 1.149505e+00 1.292962e+00 1.285862e+00 1.051328e+00 9.494412e-01 1.008538e+00 4.568957e-01
<GCONST> 8.787397e+01
<STATE> 4
<MEAN> 25
 3.345765e+00 -3.132103e+00 -2.115190e+00 2.146924e+00 9.313293e-01 -2.807417e+00 -2.183706e+00 -1.724796e-01 -2.583572e+00 -7.586849e-01 6.728227e+00 3.381189e+00 -2.258248e-01 2.918244e-01 -2.761779e-01 -1.066112e-01 -9.506795e-03 6.238309e-01 6.768193e-01 5.123239e-01 -1.400666e-03 -5.971738e-02 -8.293738e-02 1.487696e-01 -4.860243e-01
<VARIANCE> 25
 1.103258e+01 2.191312e+01 1.627202e+01 2.387285e+01 1.518293e+01 2.517550e+01 2.446079e+01 1.351021e+01 2.452505e+01 1.678015e+01 2.314422e+01 1.515236e+01 4.512509e-01 4.980046e-01 8.481310e-01 9.763487e-01 1.313285e+00 1.317405e+00 9.322834e-01 8.773426e-01 7.404193e-01 1.064242e+00 1.016270e+00 8.502458e-01 3.259332e-01
<GCONST> 7.818366e+01
<TRANSP> 5
 0.000000e+00 1.000000e+00 0.000000e+00 0.000000e+00 0.000000e+00
 0.000000e+00 8.312081e-01 1.687919e-01 0.000000e+00 0.000000e+00
 0.000000e+00 0.000000e+00 7.296199e-01 2.703801e-01 0.000000e+00
 0.000000e+00 0.000000e+00 0.000000e+00 8.216838e-01 1.783161e-01
 0.000000e+00 0.000000e+00 0.000000e+00 0.000000e+00 0.000000e+00
<ENDHMM>
~h "sil"
<BEGINHMM>
<NUMSTATES> 5
<STATE> 2
<MEAN> 25
 -6.918365e+00 4.007270e+00 -2.107911e+00 2.812209e+00 -1.390785e+00 4.047543e+00 1.014992e+00 -1.789683e+00 7.794545e-01 2.811118e+00 3.416693e+00 -6.478974e-01 -2.547289e-01 8.157179e-02 -2.168470e-01 -5.681663e-02 2.592250e-01 3.172509e-01 3.725429e-01 3.010464e-02 4.367419e-03 1.269458e-01 1.967305e-01 1.588369e-01 -2.570096e-01
<VARIANCE> 25
 7.152862e+01 4.912980e+01 3.018300e+01 4.317093e+01 3.036601e+01 5.200309e+01 3.887578e+01 2.612974e+01 3.400988e+01 3.058339e+01 2.230554e+01 2.251158e+01 1.219753e+00 1.902768e+00 1.273580e+00 1.595139e+00 1.904018e+00 2.555429e+00 2.050222e+00 1.926133e+00 1.679024e+00 1.603556e+00 1.552642e+00 1.162085e+00 1.446771e+00
<GCONST> 9.519431e+01
<STATE> 3
<MEAN> 25
 -3.399502e+00 3.751358e+00 -4.586661e+00 2.097395e+00 1.047923e+00 2.916638e+00 4.351237e+00 8.589159e-01 -1.562362e+00 1.664230e+00 2.095222e+00 1.714405e+00 -8.798610e-02 -5.466587e-02 -2.005110e-01 -1.936090e-01 -1.385753e-01 5.111954e-02 1.041569e-01 1.159775e-02 -8.348782e-02 1.353199e-01 -2.714450e-02 -1.078871e-01 -2.994154e-01
<VARIANCE> 25
 5.576487e+01 5.932273e+01 4.923843e+01 5.654797e+01 3.851151e+01 5.007041e+01 4.069840e+01 3.481032e+01 5.433524e+01 3.610001e+01 2.708747e+01 2.824503e+01 3.328887e+00 3.854826e+00 2.796956e+00 4.000982e+00 2.637711e+00 3.872411e+00 4.745262e+00 2.971523e+00 3.274359e+00 3.117080e+00 2.860926e+00 2.140287e+00 3.297970e+00
<GCONST> 1.062902e+02
<STATE> 4
<MEAN> 25
 -1.183672e+01 5.839906e-01 8.108653e-01 -1.948834e+00 -4.345086e-01 3.511344e+00 2.317721e+00 -6.554651e-02 -6.150224e-01 4.317075e+00 6.530830e-01 -1.160924e+00 7.286156e-02 -2.172288e-02 1.716249e-03 1.174243e-02 -7.184599e-03 2.647165e-02 2.993949e-02 -6.509405e-03 7.673793e-03 6.490825e-03 6.002299e-03 1.741470e-02 7.128009e-02
<VARIANCE> 25
 1.060903e+02 5.034338e+00 6.756347e+00 1.278574e+01 7.272580e+00 1.214776e+01 1.146118e+01 1.042199e+01 9.044492e+00 8.901158e+00 7.424633e+00 6.972227e+00 6.098283e-01 1.799475e-01 2.683875e-01 4.654833e-01 4.531977e-01 5.639271e-01 8.172805e-01 7.866411e-01 6.873963e-01 6.362481e-01 6.560472e-01 5.812960e-01 3.450736e-01
<GCONST> 6.533482e+01
<TRANSP> 5
 0.000000e+00 1.000000e+00 0.000000e+00 0.000000e+00 0.000000e+00
 0.000000e+00 5.729579e-01 4.270421e-01 0.000000e+00 0.000000e+00
 0.000000e+00 0.000000e+00 5.715359e-01 4.284641e-01 0.000000e+00
 0.000000e+00 0.000000e+00 0.000000e+00 9.436536e-01 5.634630e-02
 0.000000e+00 0.000000e+00 0.000000e+00 0.000000e+00 0.000000e+00
<ENDHMM>
