~o
<STREAMINFO> 1 25
<VECSIZE> 25<NULLD><MFCC_D_N_Z_0><DIAGC>
~s "silst"
<MEAN> 25
 -1.638822e+00 2.112041e+00 -3.439019e+00 2.213329e+00 3.931216e-01 1.428550e+00 5.137547e+00 1.160219e+00 -1.543181e+00 9.032408e-01 3.484654e-01 1.992281e+00 9.216731e-01 9.299744e-02 1.847800e-01 -5.297247e-02 -1.466655e-01 9.373156e-02 -1.090276e-01 4.712703e-02 -1.304881e-01 2.303844e-01 -1.070903e-01 -3.984675e-02 5.092364e-01
<VARIANCE> 25
 6.740200e+01 6.192709e+01 5.467752e+01 6.688206e+01 4.254711e+01 5.017358e+01 5.599070e+01 3.409656e+01 6.080514e+01 3.949764e+01 3.174848e+01 2.861721e+01 6.822574e+00 5.216403e+00 4.505872e+00 5.200568e+00 3.811211e+00 6.216878e+00 6.755242e+00 3.573914e+00 4.868487e+00 3.992415e+00 3.901571e+00 2.583567e+00 7.210771e+00
<GCONST> 1.126329e+02
~h "a"
<BEGINHMM>
<NUMSTATES> 5
<STATE> 2
<MEAN> 25
 3.383595e+00 -1.803658e+00 -1.186917e+00 -2.245031e+00 -2.237219e+00 -1.992588e+00 1.411856e-01 1.669485e+00 1.118834e+00 -1.029868e+00 -1.820232e+00 7.394713e-01 9.641548e-02 -1.538839e-01 5.068322e-02 -8.339543e-01 -5.978265e-01 -1.788489e-02 3.791211e-01 3.399045e-01 4.940274e-01 -3.107225e-01 2.488206e-01 8.669878e-01 2.812914e-01
<VARIANCE> 25
 2.626466e+01 3.445647e+01 2.737161e+01 3.518171e+01 5.303174e+01 5.331842e+01 3.640150e+01 3.344910e+01 4.263453e+01 2.713797e+01 3.117967e+01 2.334713e+01 1.141680e+00 2.116792e+00 1.932193e+00 2.628129e+00 2.679622e+00 3.305374e+00 2.212117e+00 2.082063e+00 3.707236e+00 2.389329e+00 2.309595e+00 2.660047e+00 1.416490e+00
<GCONST> 9.888128e+01
<STATE> 3
<MEAN> 25
 3.648860e+00 -1.525961e+00 -4.419538e-01 -3.386447e+00 -2.126494e+00 -8.352326e-01 7.460985e-01 1.656861e+00 1.194406e+00 -1.124072e+00 -1.044754e+00 1.630114e+00 -1.361175e-01 -6.896470e-02 2.901727e-02 -4.041965e-01 1.098183e-01 4.933717e-01 3.890888e-01 -6.275401e-02 1.907500e-02 1.833756e-01 4.061399e-01 3.476169e-01 -6.864791e-02
<VARIANCE> 25
 3.628949e+01 4.237369e+01 3.555922e+01 4.036288e+01 4.943690e+01 5.145798e+01 3.953401e+01 3.944861e+01 4.684780e+01 3.205470e+01 3.124049e+01 1.769134e+01 1.128648e+00 2.348638e+00 1.398607e+00 1.970978e+00 2.656449e+00 3.589522e+00 2.148477e+00 2.228330e+00 2.736173e+00 1.741115e+00 2.330831e+00 1.678931e+00 1.410666e+00
<GCONST> 9.845628e+01
<STATE> 4
<MEAN> 25
 1.973252e+00 -3.697828e+00 1.139071e-01 -4.304597e+00 -9.573820e-01 6.409868e-01 -3.358324e-01 1.043387e+00 2.562615e+00 -8.865851e-01 2.744579e-02 1.482179e+00 -7.537082e-02 1.469443e-01 -1.772529e-01 2.420478e-01 5.037918e-01 2.503599e-01 6.124233e-02 -3.956259e-01 -4.212952e-01 1.893661e-01 2.736971e-01 -4.583156e-02 -2.499577e-01
<VARIANCE> 25
 2.622339e+01 3.380869e+01 2.809861e+01 2.964074e+01 4.821039e+01 4.012935e+01 3.645591e+01 2.741064e+01 4.959745e+01 3.128805e+01 2.462207e+01 2.008751e+01 9.137054e-01 1.810912e+00 1.240814e+00 1.942194e+00 2.939520e+00 2.441833e+00 2.251099e+00 2.175274e+00 2.448668e+00 1.946829e+00 2.099609e+00 1.495432e+00 1.084471e+00
<GCONST> 9.521454e+01
<TRANSP> 5
 0.000000e+00 1.000000e+00 0.000000e+00 0.000000e+00 0.000000e+00
 0.000000e+00 2.768836e-01 7.231164e-01 0.000000e+00 0.000000e+00
 0.000000e+00 0.000000e+00 8.388720e-02 9.161128e-01 0.000000e+00
 0.000000e+00 0.000000e+00 0.000000e+00 5.251335e-01 4.748665e-01
 0.000000e+00 0.000000e+00 0.000000e+00 0.000000e+00 0.000000e+00
<ENDHMM>
~h "b"
<BEGINHMM>
<NUMSTATES> 5
<STATE> 2
<MEAN> 25
 6.878199e-01 9.386086e+00 1.260689e+00 4.370880e+00 4.550179e-01 -5.591745e-01 4.526154e+00 6.706486e+00 -1.434501e+00 -2.905349e+00 -4.613414e+00 -3.112151e+00 -1.606111e-01 2.003874e-01 1.645787e-01 -1.370012e-01 -4.133234e-01 3.426087e-01 -1.489324e-02 -1.708131e-01 4.525169e-01 3.653760e-01 -1.620287e-01 -3.245289e-01 -2.910430e-01
<VARIANCE> 25
 4.247208e+01 9.197810e+01 1.235576e+01 2.586070e+01 4.481376e+01 4.385615e+01 5.238464e+01 1.351711e+02 1.600122e+01 3.094057e+01 1.662810e+01 2.729870e+01 1.345878e+00 1.371856e+01 1.180523e+00 2.784120e+00 4.248103e+00 2.421673e+00 6.697559e+00 1.899787e+01 2.969979e+00 3.572548e+00 1.274541e+00 9.749546e-01 1.179672e+01
<GCONST> 1.050850e+02
<STATE> 3
<MEAN> 25
 4.222511e+00 -1.364974e+00 2.903473e+00 2.931127e+00 -6.764224e+00 -1.515780e+00 -2.857743e+00 -4.513620e+00 -7.448918e+00 9.476653e-01 5.797647e+00 -7.160436e+00 -2.593185e-01 5.515804e-02 6.812243e-01 -1.110951e+00 1.133264e-01 3.541697e-01 -3.298478e-01 5.044875e-01 -1.355363e-01 -4.553549e-01 4.180923e-02 6.568326e-01 2.353721e-01
<VARIANCE> 25
 3.308599e+01 2.061709e+01 2.339217e+01 8.171391e+01 6.983096e+01 3.802976e+01 7.503501e+01 6.296875e+01 8.197412e+01 5.339283e+01 5.455625e+01 2.797220e+01 1.013162e+00 2.325893e+00 5.190779e+00 1.284079e+01 8.369378e+00 5.035324e+00 9.413096e+00 1.031693e+01 9.543633e+00 4.061178e+00 3.479531e+00 1.573802e+00 2.096369e+00
<GCONST> 1.115589e+02
<STATE> 4
<MEAN> 25
 2.054809e+01 3.250133e+00 1.385580e+00 7.962999e+00 3.527490e+00 -9.563168e+00 -1.021035e+01 1.552884e-01 5.347929e+00 -8.208816e+00 -3.918007e+00 -2.788353e+00 6.725812e-02 6.491101e-02 1.335335e-01 1.998531e-01 -8.919349e-02 -4.124446e-01 -3.360163e-01 -1.524553e-01 1.850221e-01 5.685631e-01 1.816670e-01 -2.751924e-01 3.272676e-02
<VARIANCE> 25
 8.621927e+01 3.203586e+01 4.445512e+01 4.845308e+01 6.954248e+01 8.521362e+01 4.829722e+01 5.435619e+01 3.662731e+01 1.159096e+02 3.194238e+01 3.032532e+01 5.187621e-01 2.878503e+00 3.988370e+00 2.239261e+00 5.210843e+00 5.558120e+00 3.297587e+00 4.468673e+00 2.946138e+00 6.695681e+00 3.556367e+00 3.487562e+00 1.310356e+00
<GCONST> 1.077523e+02
<TRANSP> 5
 0.000000e+00 1.000000e+00 0.000000e+00 0.000000e+00 0.000000e+00
 0.000000e+00 6.667802e-01 3.332198e-01 0.000000e+00 0.000000e+00
 0.000000e+00 0.000000e+00 7.079786e-01 2.920214e-01 0.000000e+00
 0.000000e+00 0.000000e+00 0.000000e+00 8.298296e-01 1.701704e-01
 0.000000e+00 0.000000e+00 0.000000e+00 0.000000e+00 0.000000e+00
<ENDHMM>
~h "e"
<BEGINHMM>
<NUMSTATES> 5
<STATE> 2
<MEAN> 25
 4.109225e+00 2.464468e-01 3.243956e+00 -1.646198e+00 -3.471835e+00 1.831254e+00 -3.991526e+00 -3.488576e+00 -3.039939e-01 -1.496116e+00 -1.085861e+00 -4.255140e-01 1.478311e+00 -1.018487e+00 -1.088371e+00 1.109676e+00 -2.153248e-01 -1.638756e+00 -1.300539e+00 8.363873e-01 7.602641e-01 -1.271773e+00 -8.709353e-01 -7.032082e-02 1.144805e+00
<VARIANCE> 25
 6.865600e+01 2.281034e+01 3.033820e+01 3.699815e+01 1.870246e+01 4.744903e+01 3.128179e+01 4.029267e+01 4.312655e+01 6.663865e+01 3.664414e+01 2.794356e+01 2.377851e+00 6.247994e+00 7.677254e+00 4.363216e+00 6.100711e+00 9.110308e+00 3.125748e+00 3.074448e+00 2.922813e+00 9.185279e+00 3.878414e+00 2.575878e+00 2.475026e+00
<GCONST> 1.081374e+02
<STATE> 3
<MEAN> 25
 5.389709e+00 -1.956696e+00 1.977638e+00 1.908022e-01 -3.190287e+00 -2.654341e+00 -4.025632e+00 -2.422979e+00 -2.954230e-01 -3.807506e+00 -3.682502e+00 -3.146721e-01 4.480012e-01 -1.235185e-01 -1.383844e+00 8.278858e-01 1.015537e+00 -2.492496e+00 2.658337e-01 1.298266e+00 5.215418e-02 -5.787217e-01 -4.929419e-01 -2.025102e-01 3.958163e-01
<VARIANCE> 25
 6.731919e+01 2.019946e+01 2.767786e+01 4.642245e+01 3.628854e+01 7.437304e+01 3.404208e+01 4.712496e+01 3.063168e+01 5.944966e+01 2.407201e+01 2.448376e+01 7.894318e-01 4.600659e+00 2.757839e+00 3.416294e+00 4.905022e+00 9.575918e+00 3.296381e+00 2.696954e+00 2.413083e+00 3.966707e+00 2.883730e+00 2.901610e+00 1.530983e+00
<GCONST> 1.038640e+02
<STATE> 4
<MEAN> 25
 1.853091e+01 -4.145847e+00 -5.915880e+00 6.479650e+00 5.304568e+00 -1.018203e+01 -6.983074e+00 -2.856685e-01 -9.938608e-01 -9.535282e+00 1.297626e+00 5.140993e+00 3.624233e-02 2.592738e-01 -5.233222e-01 -3.418600e-01 4.271430e-01 7.006052e-01 8.619387e-01 2.077726e-01 -4.419813e-01 -1.138721e-01 8.148806e-02 3.639309e-01 -2.085973e-01
<VARIANCE> 25
 1.139197e+02 2.792639e+01 4.830439e+01 7.915947e+01 6.432150e+01 1.001546e+02 7.219315e+01 3.006959e+01 2.500768e+01 6.195556e+01 4.617775e+01 5.091376e+01 4.536488e-01 2.172223e+00 2.590037e+00 2.810571e+00 2.595819e+00 3.871131e+00 2.547048e+00 3.008703e+00 1.610757e+00 2.259724e+00 2.580980e+00 1.478613e+00 8.292367e-01
<GCONST> 1.025809e+02
<TRANSP> 5
 0.000000e+00 1.000000e+00 0.000000e+00 0.000000e+00 0.000000e+00
 0.000000e+00 3.480349e-01 6.519652e-01 0.000000e+00 0.000000e+00
 0.000000e+00 0.000000e+00 3.464244e-01 6.535757e-01 0.000000e+00
 0.000000e+00 0.000000e+00 0.000000e+00 6.511169e-01 3.488831e-01
 0.000000e+00 0.000000e+00 0.000000e+00 0.000000e+00 0.000000e+00
<ENDHMM>
~h "h"
<BEGINHMM>
<NUMSTATES> 5
<STATE> 2
<MEAN> 25
 -2.940289e+00 -6.852408e-01 -4.227049e+00 -1.748611e+00 -2.650750e+00 3.293827e+00 7.971033e+00 2.028073e+00 -3.456933e-01 3.178975e+00 1.444570e+00 6.874270e-01 6.105245e-01 1.508956e-02 3.641013e-01 -9.986190e-02 6.928971e-01 -1.463506e+00 4.476810e-01 4.515043e-01 -1.325740e-02 1.287500e-01 -2.579070e-01 3.229850e-01 1.604213e+00
<VARIANCE> 25
 5.641184e+01 6.593104e+01 4.470076e+01 5.180306e+01 4.312340e+01 6.865078e+01 4.799175e+01 2.851361e+01 2.901681e+01 3.642648e+01 1.539904e+01 1.965337e+01 4.053913e+00 7.604909e+00 3.799849e+00 3.316412e+00 3.580238e+00 4.196112e+00 4.114938e+00 3.236079e+00 2.345602e+00 3.016687e+00 1.372387e+00 1.449558e+00 4.425081e+00
<GCONST> 1.051986e+02
<STATE> 3
<MEAN> 25
 -1.137706e+00 -2.441345e+00 2.403220e-01 -1.558944e+00 1.298835e+00 -9.586440e-01 4.503436e+00 6.085733e-01 7.807664e-01 2.125268e+00 3.034143e-01 9.318984e-01 1.283454e+00 -8.882617e-01 2.671408e-01 -1.915157e-02 -5.718654e-01 -2.055646e-02 -1.540088e+00 -3.323391e-01 5.803605e-02 -8.746053e-01 -5.049241e-01 -1.534714e-01 6.039392e-01
<VARIANCE> 25
 3.902136e+01 3.530406e+01 2.530048e+01 4.728394e+01 5.631910e+01 6.428769e+01 4.012882e+01 3.442316e+01 4.488799e+01 2.472871e+01 2.974984e+01 1.802440e+01 2.410175e+00 2.769550e+00 3.938160e+00 1.820856e+00 3.802370e+00 3.627504e+00 3.569998e+00 3.119004e+00 5.503572e+00 1.725873e+00 2.752064e+00 1.368073e+00 1.297094e+00
<GCONST> 1.017236e+02
<STATE> 4
<MEAN> 25
 3.207370e+00 -2.941099e+00 -1.510010e+00 -1.507314e+00 -1.285291e+00 -1.837797e+00 4.229040e-01 1.112439e-01 -5.632858e-03 -1.261100e+00 -1.449732e+00 2.089436e-01 7.852112e-02 1.023428e-01 -1.405046e-01 -2.337172e-02 -1.358107e-02 -6.505241e-01 -3.189963e-01 -5.606310e-02 1.996675e-01 -3.866938e-01 -4.632235e-01 4.657004e-02 3.743278e-03
<VARIANCE> 25
 1.032511e+01 2.509104e+01 2.208808e+01 2.148411e+01 4.561315e+01 5.316249e+01 2.762856e+01 2.400959e+01 4.534762e+01 2.689000e+01 1.737189e+01 1.448125e+01 4.132969e-01 9.444221e-01 1.222057e+00 1.762195e+00 1.697927e+00 2.367922e+00 1.831316e+00 1.627597e+00 1.827140e+00 1.500449e+00 1.800163e+00 1.120966e+00 3.579650e-01
<GCONST> 8.758418e+01
<TRANSP> 5
 0.000000e+00 1.000000e+00 0.000000e+00 0.000000e+00 0.000000e+00
 0.000000e+00 6.605819e-01 3.394181e-01 0.000000e+00 0.000000e+00
 0.000000e+00 0.000000e+00 5.146698e-01 4.853303e-01 0.000000e+00
 0.000000e+00 0.000000e+00 0.000000e+00 7.290904e-01 2.709097e-01
 0.000000e+00 0.000000e+00 0.000000e+00 0.000000e+00 0.000000e+00
<ENDHMM>
~h "i"
<BEGINHMM>
<NUMSTATES> 5
<STATE> 2
<MEAN> 25
 6.333310e+00 -1.032394e+01 6.505477e+00 7.154886e+00 -2.499557e+00 -1.174204e+00 -4.073681e+00 -2.277376e+00 -9.189481e-01 -3.287237e-01 1.809965e+00 -2.335352e+00 6.475264e-01 9.470260e-01 6.927945e-01 1.942309e+00 1.155942e+00 -1.161163e+00 -1.271707e+00 -4.424365e-01 -7.799426e-01 -9.088542e-01 2.569603e-01 -8.950757e-01 1.527632e-01
<VARIANCE> 25
 1.108187e+02 1.121265e+02 5.023727e+01 9.849079e+01 7.647725e+01 7.718011e+01 4.440924e+01 4.688611e+01 2.342751e+01 4.642794e+01 2.268425e+01 2.487096e+01 2.054505e+00 4.801175e+00 4.164434e+00 2.562095e+00 5.796599e+00 5.800066e+00 3.312159e+00 2.313387e+00 3.158026e+00 6.317678e+00 2.394025e+00 1.927515e+00 1.613019e+00
<GCONST> 1.087410e+02
<STATE> 3
<MEAN> 25
 1.839548e+00 -1.876972e+00 1.017349e+01 7.485432e+00 2.766757e+00 -5.397385e+00 -8.260139e+00 -4.848377e+00 -4.640770e+00 -1.541867e+00 -3.264908e-01 -3.098688e+00 3.229274e-01 4.202680e-03 -8.908966e-01 -2.878626e-01 -8.267048e-02 8.048270e-02 -1.983525e-01 -9.172392e-01 1.601241e-03 2.437892e-01 4.637200e-01 7.525893e-01 8.780184e-02
<VARIANCE> 25
 2.089736e+01 1.374731e+01 3.449129e+01 1.072413e+02 1.175982e+02 1.842104e+01 8.630674e+01 3.168425e+01 1.441626e+01 7.313017e+01 2.742118e+01 4.624620e+01 2.257804e-01 4.180458e-01 1.121595e+00 1.281874e+00 1.211704e+00 1.839269e+00 1.775179e+00 2.215179e+00 1.715690e+00 1.270075e+00 1.394408e+00 1.322379e+00 3.941265e-01
<GCONST> 9.015662e+01
<STATE> 4
<MEAN> 25
 1.917671e+01 8.156371e-01 -5.335522e-01 1.223733e+01 8.849582e+00 -7.475662e+00 -1.266150e+01 -1.005509e+01 -6.314281e+00 -4.766994e+00 4.434844e+00 1.023940e+00 -2.010024e-01 7.061871e-01 -4.109471e-01 -1.076525e+00 -1.058232e-01 1.017381e+00 5.409282e-01 2.364095e-03 2.872601e-01 2.994576e-01 -3.470519e-01 3.701321e-01 -4.932936e-01
<VARIANCE> 25
 6.859614e+01 2.957926e+01 3.019581e+01 1.687569e+02 4.522144e+01 1.435425e+02 5.746172e+01 3.427135e+01 2.006228e+01 3.662409e+01 3.508020e+01 2.179610e+01 8.634681e-01 6.614007e-01 3.254889e+00 4.065432e+00 1.290522e+00 4.177397e+00 3.721167e+00 2.728767e+00 9.669905e-01 2.444399e+00 1.790029e+00 2.818349e+00 9.053854e-01
<GCONST> 1.001053e+02
<TRANSP> 5
 0.000000e+00 1.000000e+00 0.000000e+00 0.000000e+00 0.000000e+00
 0.000000e+00 8.287223e-01 1.712777e-01 0.000000e+00 0.000000e+00
 0.000000e+00 0.000000e+00 8.201696e-01 1.798304e-01 0.000000e+00
 0.000000e+00 0.000000e+00 0.000000e+00 7.876175e-01 2.123825e-01
 0.000000e+00 0.000000e+00 0.000000e+00 0.000000e+00 0.000000e+00
<ENDHMM>
~h "j"
<BEGINHMM>
<NUMSTATES> 5
<STATE> 2
<MEAN> 25
 1.036304e+01 2.791735e+00 7.475294e+00 1.173612e+01 2.545663e+00 -5.292681e+00 -5.692900e+00 -3.680625e+00 -4.030477e+00 -6.103617e+00 2.836284e+00 7.978687e-02 1.490684e-01 -9.117786e-02 -2.314901e-01 3.873130e-01 4.203299e-01 -5.170802e-01 -8.548827e-01 -5.373120e-01 3.430500e-03 3.263154e-02 1.312154e-01 -2.628583e-01 2.059069e-01
<VARIANCE> 25
 1.248148e+02 8.677261e+01 4.258998e+01 8.631211e+01 9.471086e+01 5.791812e+01 6.533659e+01 2.827606e+01 3.103018e+01 7.200174e+01 2.357453e+01 3.122419e+01 5.094990e+00 1.058769e+01 6.924775e+00 7.512230e+00 7.641983e+00 5.921772e+00 8.278832e+00 4.065557e+00 4.329184e+00 4.760959e+00 2.305018e+00 2.340439e+00 4.495124e+00
<GCONST> 1.153735e+02
<STATE> 3
<MEAN> 25
 4.358746e-01 -8.984840e-01 5.655366e+00 8.601760e+00 5.384235e+00 1.784703e+00 -6.883346e+00 -7.384777e+00 -4.688672e+00 -1.527662e+00 1.847717e+00 -1.930624e+00 -4.457504e-01 1.565969e+00 -1.308017e+00 -2.854145e-01 -1.446202e-01 5.494227e-01 5.626467e-01 2.375043e-02 -3.121483e-01 2.857912e-01 3.493731e-01 5.897395e-01 -1.701841e+00
<VARIANCE> 25
 3.125131e+01 3.732102e+01 2.599563e+01 2.797474e+01 3.521469e+01 5.568882e+01 3.060778e+01 2.169285e+01 1.898418e+01 2.061447e+01 3.302354e+01 2.001669e+01 2.639411e+00 3.490169e+00 2.508386e+00 2.891415e+00 3.075732e+00 3.273944e+00 2.510794e+00 2.541144e+00 2.164018e+00 2.300147e+00 2.936707e+00 2.070652e+00 5.145467e+00
<GCONST> 9.955349e+01
<STATE> 4
<MEAN> 25
 1.640786e+01 -6.176410e-01 -6.677439e+00 9.299550e+00 6.070158e+00 -9.037593e+00 -9.559347e+00 -3.314227e+00 -3.652444e+00 -9.331590e+00 4.924175e+00 8.037972e+00 -1.574275e-01 7.441088e-01 -7.250302e-01 -1.523836e+00 -6.488553e-01 1.305985e+00 1.049259e+00 -5.899599e-03 -4.275077e-01 -1.871398e-01 -1.035135e+00 8.943278e-02 -7.081397e-01
<VARIANCE> 25
 1.714097e+02 5.188477e+01 2.634585e+01 3.124690e+01 6.039161e+01 6.154671e+01 4.902203e+01 2.272096e+01 1.085290e+01 3.676954e+01 2.148409e+01 3.423747e+01 5.186672e-01 8.362085e-01 1.679349e+00 1.974322e+00 1.558959e+00 2.177563e+00 1.727363e+00 2.500935e+00 1.394595e+00 2.080661e+00 1.279291e+00 1.535892e+00 8.768240e-01
<GCONST> 9.423717e+01
<TRANSP> 5
 0.000000e+00 1.000000e+00 0.000000e+00 0.000000e+00 0.000000e+00
 0.000000e+00 8.377076e-01 1.622924e-01 0.000000e+00 0.000000e+00
 0.000000e+00 0.000000e+00 7.902806e-01 2.097195e-01 0.000000e+00
 0.000000e+00 0.000000e+00 0.000000e+00 6.930975e-01 3.069025e-01
 0.000000e+00 0.000000e+00 0.000000e+00 0.000000e+00 0.000000e+00
<ENDHMM>
~h "k"
<BEGINHMM>
<NUMSTATES> 5
<STATE> 2
<MEAN> 25
 -1.513887e-08 8.685321e-09 6.289883e-08 7.186313e-08 3.131923e-08 4.571417e-08 5.014053e-08 1.333485e-08 -7.134006e-08 8.713219e-09 1.011273e-09 4.209684e-08 -6.534437e-03 7.731597e-03 -5.306157e-03 4.609803e-03 -4.191151e-03 8.242088e-03 -6.219152e-03 5.951754e-03 -5.249157e-03 1.868283e-03 2.200403e-03 -1.269434e-03 2.744509e-03
<VARIANCE> 25
 6.716856e+01 2.941401e+01 5.663681e+01 4.741492e+01 4.696264e+01 4.914315e+01 4.999928e+01 4.303569e+01 5.672998e+01 3.222253e+01 2.850756e+01 4.103967e+01 2.100924e+00 1.434693e+00 1.891293e+00 2.194988e+00 2.363979e+00 2.636887e+00 2.464799e+00 2.732278e+00 2.851009e+00 2.222413e+00 2.036798e+00 2.011688e+00 1.909456e+00
<GCONST> 1.015924e+02
<STATE> 3
<MEAN> 25
 -1.513887e-08 8.685321e-09 6.289883e-08 7.186313e-08 3.131923e-08 4.571417e-08 5.014053e-08 1.333485e-08 -7.134006e-08 8.713219e-09 1.011273e-09 4.209684e-08 -6.534437e-03 7.731597e-03 -5.306157e-03 4.609803e-03 -4.191151e-03 8.242088e-03 -6.219152e-03 5.951754e-03 -5.249157e-03 1.868283e-03 2.200403e-03 -1.269434e-03 2.744509e-03
<VARIANCE> 25
 6.716856e+01 2.941401e+01 5.663681e+01 4.741492e+01 4.696264e+01 4.914315e+01 4.999928e+01 4.303569e+01 5.672998e+01 3.222253e+01 2.850756e+01 4.103967e+01 2.100924e+00 1.434693e+00 1.891293e+00 2.194988e+00 2.363979e+00 2.636887e+00 2.464799e+00 2.732278e+00 2.851009e+00 2.222413e+00 2.036798e+00 2.011688e+00 1.909456e+00
<GCONST> 1.015924e+02
<STATE> 4
<MEAN> 25
 -1.513887e-08 8.685321e-09 6.289883e-08 7.186313e-08 3.131923e-08 4.571417e-08 5.014053e-08 1.333485e-08 -7.134006e-08 8.713219e-09 1.011273e-09 4.209684e-08 -6.534437e-03 7.731597e-03 -5.306157e-03 4.609803e-03 -4.191151e-03 8.242088e-03 -6.219152e-03 5.951754e-03 -5.249157e-03 1.868283e-03 2.200403e-03 -1.269434e-03 2.744509e-03
<VARIANCE> 25
 6.716856e+01 2.941401e+01 5.663681e+01 4.741492e+01 4.696264e+01 4.914315e+01 4.999928e+01 4.303569e+01 5.672998e+01 3.222253e+01 2.850756e+01 4.103967e+01 2.100924e+00 1.434693e+00 1.891293e+00 2.194988e+00 2.363979e+00 2.636887e+00 2.464799e+00 2.732278e+00 2.851009e+00 2.222413e+00 2.036798e+00 2.011688e+00 1.909456e+00
<GCONST> 1.015924e+02
<TRANSP> 5
 0.000000e+00 1.000000e+00 0.000000e+00 0.000000e+00 0.000000e+00
 0.000000e+00 6.000000e-01 4.000000e-01 0.000000e+00 0.000000e+00
 0.000000e+00 0.000000e+00 6.000000e-01 4.000000e-01 0.000000e+00
 0.000000e+00 0.000000e+00 0.000000e+00 7.000000e-01 3.000000e-01
 0.000000e+00 0.000000e+00 0.000000e+00 0.000000e+00 0.000000e+00
<ENDHMM>
~h "l"
<BEGINHMM>
<NUMSTATES> 5
<STATE> 2
<MEAN> 25
 4.610208e+00 -1.608214e+00 -2.867243e+00 -3.769003e+00 -2.929331e+00 -5.743143e+00 3.781138e+00 2.893046e+00 1.038593e-03 -1.096269e+00 -1.498911e+00 3.536381e+00 1.644637e-01 3.045469e-01 -9.302610e-02 4.059905e-01 -1.528892e-01 3.578134e-01 -3.434934e-01 -5.692091e-02 1.889219e-01 -2.879007e-02 2.189598e-02 -2.771037e-01 -3.924167e-01
<VARIANCE> 25
 2.293897e+01 1.731697e+01 1.704985e+01 2.118443e+01 4.747824e+01 4.079284e+01 3.411383e+01 3.156063e+01 2.401837e+01 1.906905e+01 2.303536e+01 2.184713e+01 3.661762e-01 1.539191e+00 9.206663e-01 1.804648e+00 3.372413e+00 1.842818e+00 2.362649e+00 1.984969e+00 2.004379e+00 1.735172e+00 2.495554e+00 1.915810e+00 5.182741e-01
<GCONST> 9.017972e+01
<STATE> 3
<MEAN> 25
 4.561794e+00 5.645893e-01 -8.317032e-01 -1.106195e+00 -1.245401e+00 -8.931056e-01 -1.787812e+00 -1.010877e-01 1.279912e+00 -1.065257e+00 -1.628731e+00 -6.444892e-01 -6.127325e-02 8.147387e-01 8.592466e-01 1.974601e+00 3.014174e-01 1.516407e+00 -9.316790e-01 -8.208739e-01 3.252859e-01 -1.148633e-01 -4.591978e-01 -1.335418e+00 -1.076243e+00
<VARIANCE> 25
 1.838395e+01 2.131319e+01 2.013504e+01 3.198727e+01 5.130790e+01 5.106236e+01 3.162450e+01 4.815456e+01 3.328425e+01 2.325808e+01 4.409761e+01 3.003847e+01 6.462764e-01 1.475496e+00 1.754119e+00 2.805113e+00 6.836621e+00 2.538109e+00 1.873670e+00 2.778907e+00 2.740557e+00 2.394801e+00 3.763077e+00 4.115578e+00 5.823950e-01
<GCONST> 9.755580e+01
<STATE> 4
<MEAN> 25
 3.959188e+00 1.293867e+00 -3.363068e-01 2.758582e+00 3.456217e-01 1.427047e+00 -7.874302e-01 -2.509582e-01 2.094421e+00 -1.858240e+00 -4.833195e+00 -5.040376e+00 -3.312718e-02 1.166008e-01 -3.614577e-02 -1.112740e-01 -1.512814e-01 -1.628735e-01 9.319240e-02 8.983885e-02 -1.763143e-02 3.659177e-02 9.920897e-02 8.544741e-02 -3.579031e-02
<VARIANCE> 25
 1.295876e+01 1.568966e+01 2.034835e+01 2.092986e+01 5.434787e+01 3.608681e+01 3.367992e+01 3.947409e+01 3.082599e+01 2.090500e+01 3.434402e+01 3.117009e+01 3.056971e-01 6.467493e-01 6.160846e-01 1.976466e+00 1.877488e+00 2.593244e+00 1.389520e+00 1.378217e+00 1.264511e+00 1.230829e+00 1.314405e+00 2.285481e+00 5.410331e-01
<GCONST> 8.727064e+01
<TRANSP> 5
 0.000000e+00 1.000000e+00 0.000000e+00 0.000000e+00 0.000000e+00
 0.000000e+00 5.953129e-01 4.046871e-01 0.000000e+00 0.000000e+00
 0.000000e+00 0.000000e+00 5.005789e-01 4.994210e-01 0.000000e+00
 0.000000e+00 0.000000e+00 0.000000e+00 6.967030e-01 3.032970e-01
 0.000000e+00 0.000000e+00 0.000000e+00 0.000000e+00 0.000000e+00
<ENDHMM>
~h "m"
<BEGINHMM>
<NUMSTATES> 5
<STATE> 2
<MEAN> 25
 3.010450e+00 1.352163e+00 5.038393e-01 -1.303131e+00 7.503097e-01 1.073840e+00 -1.047559e+00 1.489736e+00 3.674063e-01 -1.264720e+00 -2.086977e+00 -1.965185e+00 -3.592659e-01 1.194861e+00 -1.127236e-01 8.111858e-01 1.182679e+00 5.476044e-01 2.720662e-01 5.022756e-01 -1.335536e+00 6.811484e-01 -5.214626e-02 -6.902257e-01 -1.226164e+00
<VARIANCE> 25
 9.554068e+00 5.508451e+01 2.482226e+01 3.193784e+01 5.305098e+01 5.571620e+01 5.409247e+01 4.647172e+01 4.864212e+01 2.871586e+01 2.970976e+01 3.206673e+01 9.439108e-01 6.578870e+00 3.142117e+00 3.426814e+00 5.569638e+00 5.063510e+00 6.515534e+00 5.536044e+00 5.121573e+00 2.449517e+00 4.175230e+00 2.664639e+00 3.876336e+00
<GCONST> 1.062316e+02
<STATE> 3
<MEAN> 25
 1.949737e+00 1.835909e+00 -1.819948e-01 1.107641e+00 1.603892e+00 1.408923e+00 2.794830e-01 3.695445e+00 -2.294868e+00 1.032934e-02 -1.839104e+00 -3.236942e+00 -7.059275e-02 -1.602917e+00 9.456993e-02 -2.005400e-01 4.410615e-01 -4.514178e-01 -8.946826e-01 4.976230e-02 9.766161e-01 1.560467e-01 -2.090915e-01 -3.753671e-02 1.041862e+00
<VARIANCE> 25
 8.699642e+00 7.259346e+01 3.249148e+01 4.861773e+01 5.825688e+01 5.070077e+01 6.809962e+01 4.147573e+01 4.814489e+01 3.772918e+01 2.285194e+01 3.034728e+01 9.881641e-01 5.348073e+00 1.985924e+00 5.290589e+00 8.816464e+00 4.482874e+00 3.949236e+00 5.300765e+00 5.821774e+00 1.774176e+00 2.821357e+00 2.521318e+00 4.281533e+00
<GCONST> 1.062297e+02
<STATE> 4
<MEAN> 25
 1.164334e+00 -3.571236e+00 -2.179709e-01 -1.015144e+00 5.809451e+00 2.617498e-01 -2.349807e+00 9.241234e-01 -4.130014e-01 1.979648e+00 -3.006699e+00 -1.388324e+00 -1.432589e-01 -2.333055e-01 1.253021e-01 1.564654e-02 -1.479416e-02 2.192981e-01 2.719954e-01 -3.887441e-01 -1.044833e-01 -1.660087e-01 -3.524404e-01 2.733403e-01 9.604718e-02
<VARIANCE> 25
 1.169472e+01 3.516862e+01 2.883608e+01 4.885054e+01 6.337325e+01 4.054261e+01 3.544406e+01 4.152623e+01 4.292898e+01 3.361237e+01 3.376788e+01 2.050070e+01 1.454756e+00 1.162974e+00 1.251600e+00 2.359025e+00 2.500622e+00 1.845185e+00 2.241445e+00 2.749011e+00 2.022014e+00 1.525255e+00 2.115151e+00 3.054120e+00 1.430649e+00
<GCONST> 9.648267e+01
<TRANSP> 5
 0.000000e+00 1.000000e+00 0.000000e+00 0.000000e+00 0.000000e+00
 0.000000e+00 6.001593e-01 3.998407e-01 0.000000e+00 0.000000e+00
 0.000000e+00 0.000000e+00 5.492123e-01 4.507877e-01 0.000000e+00
 0.000000e+00 0.000000e+00 0.000000e+00 4.327809e-01 5.672191e-01
 0.000000e+00 0.000000e+00 0.000000e+00 0.000000e+00 0.000000e+00
<ENDHMM>
~h "n"
<BEGINHMM>
<NUMSTATES> 5
<STATE> 2
<MEAN> 25
 -1.043331e+00 7.330299e+00 -1.986495e+00 2.079746e+00 7.145815e+00 4.868745e+00 1.956734e+00 -2.303090e+00 -6.881216e+00 -5.962374e-01 4.433441e-01 7.803012e-01 -6.993120e-01 1.015088e+00 -3.412369e-01 4.774642e-01 2.235653e-01 2.881600e-02 5.020983e-01 2.607631e-01 -2.263738e-01 4.060713e-01 1.502172e-02 -3.761546e-02 -1.149101e+00
<VARIANCE> 25
 5.389034e+01 8.290067e+01 2.897379e+01 2.657944e+01 4.489457e+01 3.990434e+01 5.611065e+01 2.606061e+01 7.858025e+01 3.038721e+01 3.083847e+01 1.870181e+01 2.204491e+00 6.590172e+00 2.783795e+00 3.212179e+00 5.798519e+00 3.697049e+00 4.762819e+00 3.340503e+00 5.112516e+00 3.373060e+00 3.694134e+00 2.017277e+00 3.387367e+00
<GCONST> 1.066871e+02
<STATE> 3
<MEAN> 25
 -9.455988e-01 1.497155e+00 -1.541832e+00 4.437743e-01 -1.251336e+00 9.916429e-01 4.216523e+00 -1.277898e+00 -1.565803e+00 5.915663e-01 2.043625e+00 1.286994e+00 1.081454e+00 -1.594478e+00 8.653025e-01 -8.028604e-02 -1.535090e+00 -9.700771e-01 -4.392305e-01 4.302720e-01 9.138972e-01 -4.970844e-01 4.597122e-01 3.004918e-02 1.965195e+00
<VARIANCE> 25
 1.525100e+02 5.239679e+01 4.402998e+01 4.439232e+01 5.155147e+01 2.854717e+01 6.549272e+01 3.967205e+01 7.302627e+01 3.099006e+01 2.817810e+01 2.209597e+01 5.932303e+00 8.434828e+00 5.707214e+00 4.541771e+00 5.740430e+00 5.624759e+00 7.035735e+00 7.385783e+00 7.610962e+00 3.967750e+00 3.226003e+00 2.264062e+00 5.873785e+00
<GCONST> 1.135859e+02
<STATE> 4
<MEAN> 25
 2.248883e+01 -2.221438e+00 -6.451447e+00 2.082923e+00 3.520994e+00 -9.720562e+00 -4.400863e+00 4.048410e+00 4.097031e+00 -1.077166e+01 -2.317684e+00 2.471316e+00 -1.032119e-01 -3.684195e-02 3.000575e-01 6.925167e-02 -5.369927e-02 -3.604895e-02 -1.702236e-01 -1.055104e-01 9.366298e-02 -1.368847e-01 -1.178830e-01 3.058145e-02 5.253589e-02
<VARIANCE> 25
 8.801151e+01 3.634607e+01 5.275058e+01 5.627911e+01 3.135429e+01 4.488422e+01 3.728750e+01 2.246606e+01 2.318203e+01 4.703832e+01 2.811140e+01 2.879094e+01 1.531404e+00 3.073784e+00 4.078016e+00 5.594497e+00 2.594587e+00 3.276300e+00 3.265628e+00 2.325982e+00 2.275430e+00 3.221226e+00 2.881442e+00 3.082118e+00 2.000949e+00
<GCONST> 1.033977e+02
<TRANSP> 5
 0.000000e+00 1.000000e+00 0.000000e+00 0.000000e+00 0.000000e+00
 0.000000e+00 7.245653e-01 2.754348e-01 0.000000e+00 0.000000e+00
 0.000000e+00 0.000000e+00 5.293534e-01 4.706466e-01 0.000000e+00
 0.000000e+00 0.000000e+00 0.000000e+00 8.534396e-01 1.465604e-01
 0.000000e+00 0.000000e+00 0.000000e+00 0.000000e+00 0.000000e+00
<ENDHMM>
~h "p"
<BEGINHMM>
<NUMSTATES> 5
<STATE> 2
<MEAN> 25
 7.173862e+00 -4.473502e+00 1.080349e+00 -4.216259e+00 -1.182922e+00 -5.569906e+00 -7.349256e+00 2.255618e+00 3.654592e+00 -8.793963e+00 -7.223644e+00 1.581559e+00 3.273544e-01 2.318846e-01 -1.010246e-01 4.256394e-01 -2.795837e-01 7.057957e-02 -9.475588e-01 8.693470e-01 1.443916e+00 -4.966422e-03 7.164837e-01 2.508669e-01 -3.991040e-01
<VARIANCE> 25
 1.024499e+01 2.100981e+01 1.554913e+01 2.470322e+01 1.015267e+01 3.558278e+01 3.492594e+01 1.665792e+01 4.086010e+01 4.852485e+01 4.478721e+01 2.014404e+01 7.905897e-01 2.184710e+00 1.429508e+00 1.782588e+00 2.480902e+00 2.967582e+00 3.417144e+00 1.019128e+00 4.342360e+00 3.002759e+00 1.960829e+00 1.019733e+00 3.452280e-01
<GCONST> 9.084574e+01
<STATE> 3
<MEAN> 25
 4.618942e+00 -1.487087e+00 1.451811e+00 -4.425177e-01 -2.951685e+00 -3.608361e+00 -4.707370e+00 2.833492e+00 5.002974e+00 -1.899989e+00 6.044321e-01 -2.644344e-01 -4.705794e-01 3.080653e-01 -1.957387e-01 2.061222e-02 -1.651246e-01 5.154227e-02 5.458955e-01 -5.198622e-02 -1.812717e-01 6.614835e-01 5.506200e-01 -9.219883e-02 -6.559958e-01
<VARIANCE> 25
 8.485645e+00 3.686915e+01 2.604243e+01 1.200161e+01 7.019665e+00 3.942656e+01 1.088881e+01 2.393249e+01 2.814030e+01 3.049959e+01 2.350002e+01 1.424677e+01 5.019396e-01 4.553193e-01 3.552982e-01 5.892955e-01 6.353774e-01 2.446103e+00 1.256525e+00 1.745787e+00 1.547658e+00 2.326421e+00 1.782660e+00 1.145867e+00 4.260748e-01
<GCONST> 8.052108e+01
<STATE> 4
<MEAN> 25
 2.981284e+00 -1.086179e+00 -1.260725e+00 7.360088e-01 3.262514e-01 2.904221e+00 2.058099e+00 -6.355621e-01 4.753006e-01 2.400324e+00 7.210910e-01 5.827998e-01 -2.522231e-02 7.270109e-03 -3.753181e-02 -2.503238e-02 -2.531082e-02 -1.047044e-02 4.793388e-02 3.139008e-02 4.870351e-03 3.297053e-02 2.538041e-02 -3.871349e-03 -4.470172e-02
<VARIANCE> 25
 1.529304e+00 2.850745e+00 3.296643e+00 4.874698e+00 4.850749e+00 1.049026e+01 7.749911e+00 6.353164e+00 6.524734e+00 8.962857e+00 6.253171e+00 5.954732e+00 1.158265e-01 1.592458e-01 2.485043e-01 4.328639e-01 4.786955e-01 6.837996e-01 7.496296e-01 7.788849e-01 6.492052e-01 7.314333e-01 6.645687e-01 8.307909e-01 5.220095e-02
<GCONST> 5.353961e+01
<TRANSP> 5
 0.000000e+00 1.000000e+00 0.000000e+00 0.000000e+00 0.000000e+00
 0.000000e+00 5.433238e-01 4.566763e-01 0.000000e+00 0.000000e+00
 0.000000e+00 0.000000e+00 7.395024e-01 2.604976e-01 0.000000e+00
 0.000000e+00 0.000000e+00 0.000000e+00 9.370245e-01 6.297554e-02
 0.000000e+00 0.000000e+00 0.000000e+00 0.000000e+00 0.000000e+00
<ENDHMM>
~h "r"
<BEGINHMM>
<NUMSTATES> 5
<STATE> 2
<MEAN> 25
 3.622952e+00 3.072667e+00 1.840812e+00 1.048966e+00 -2.734868e+00 -4.368995e+00 -3.570430e+00 -3.819969e-01 -2.096289e+00 -4.008456e+00 1.547356e+00 3.896608e+00 -5.234306e-01 3.703351e-01 -5.344593e-01 1.909590e-01 7.701178e-01 9.370419e-02 -1.674506e-02 -5.613529e-03 3.266934e-01 -2.202455e-01 5.883253e-02 8.162245e-01 -9.097509e-01
<VARIANCE> 25
 1.873556e+01 2.029913e+01 2.084180e+01 2.245231e+01 7.065166e+01 3.193010e+01 5.881133e+01 7.374772e+01 1.932652e+01 1.927851e+01 1.102732e+01 1.401406e+01 1.003898e+00 2.417583e+00 3.513076e+00 3.837977e+00 1.577906e+00 3.151238e+00 5.091916e+00 2.930811e+00 3.426045e+00 3.916629e+00 1.624032e+00 2.767458e+00 9.898953e-01
<GCONST> 9.697774e+01
<STATE> 3
<MEAN> 25
 4.092697e-01 4.811889e-01 -1.365261e+00 2.165668e+00 3.268431e+00 1.702889e+00 -3.776822e+00 -5.905432e+00 -1.514507e+00 2.739840e+00 1.081452e+00 1.126887e+00 -4.006918e-01 4.475773e-01 -4.744312e-01 4.490917e-02 -4.676951e-01 1.135886e+00 1.037858e+00 8.753103e-01 2.585941e-01 3.818116e-01 -6.580233e-03 -1.257300e-01 -1.113614e+00
<VARIANCE> 25
 2.372050e+01 5.863192e+01 2.398451e+01 1.469652e+01 5.001096e+01 6.179756e+01 4.390068e+01 2.361955e+01 4.964249e+01 3.218297e+01 1.929325e+01 1.646335e+01 1.737139e+00 5.042861e+00 2.231766e+00 1.779996e+00 3.893862e+00 8.036344e+00 3.307413e+00 1.380055e+00 7.969486e+00 1.881098e+00 2.158652e+00 2.197297e+00 2.115090e+00
<GCONST> 1.006914e+02
<STATE> 4
<MEAN> 25
 6.758114e-02 4.345568e+00 -5.655926e-01 3.515745e+00 3.008219e+00 4.956108e+00 -1.127355e+00 -4.132844e+00 -2.425749e+00 1.937407e+00 1.319143e+00 1.517812e+00 -6.753340e-01 4.961854e-01 3.270289e-02 6.636515e-02 -1.782991e-01 1.415338e-01 6.276952e-01 4.133571e-01 2.422348e-01 3.500462e-01 -2.035975e-01 -4.581102e-01 -7.816049e-01
<VARIANCE> 25
 4.141809e+01 2.307067e+01 2.756409e+01 1.593999e+01 2.850058e+01 4.047176e+01 3.298386e+01 1.559036e+01 3.775275e+01 2.161430e+01 1.338381e+01 1.385131e+01 7.115813e-01 9.398310e-01 9.615484e-01 1.646835e+00 1.213859e+00 1.331329e+00 1.672810e+00 8.287351e-01 1.090629e+00 1.572625e+00 1.311465e+00 1.064271e+00 2.517147e-01
<GCONST> 8.447202e+01
<TRANSP> 5
 0.000000e+00 1.000000e+00 0.000000e+00 0.000000e+00 0.000000e+00
 0.000000e+00 6.848071e-01 3.151929e-01 0.000000e+00 0.000000e+00
 0.000000e+00 0.000000e+00 7.461218e-01 2.538783e-01 0.000000e+00
 0.000000e+00 0.000000e+00 0.000000e+00 7.939041e-01 2.060959e-01
 0.000000e+00 0.000000e+00 0.000000e+00 0.000000e+00 0.000000e+00
<ENDHMM>
~h "s"
<BEGINHMM>
<NUMSTATES> 5
<STATE> 2
<MEAN> 25
 -2.183150e+00 3.741400e+00 8.500484e+00 -2.393154e+00 -3.773834e+00 6.563932e+00 1.536227e+00 -6.447330e+00 4.050061e+00 -2.832375e+00 2.866674e+00 -8.622571e-02 -1.523796e+00 -8.384784e-01 1.856751e+00 -1.568649e+00 -9.635044e-01 1.145682e+00 4.821365e-01 -1.194208e+00 -7.425284e-01 4.473132e-01 1.042097e+00 -3.644992e-01 -1.624715e-02
<VARIANCE> 25
 2.308800e+02 2.500664e+02 2.852321e+02 5.893988e+01 1.702162e+02 1.433066e+02 7.145483e+01 5.776350e+01 7.424198e+01 4.563186e+01 4.557399e+01 1.784640e+01 1.595138e+01 1.826495e+01 1.731454e+01 6.937181e+00 1.227726e+01 1.293786e+01 9.174697e+00 7.683136e+00 5.148326e+00 7.631305e+00 5.781713e+00 2.957566e+00 1.434405e+00
<GCONST> 1.265540e+02
<STATE> 3
<MEAN> 25
 -1.052970e+01 -9.248713e+00 1.391167e+01 -9.735889e+00 -2.138637e+00 7.861166e+00 2.687603e-01 -6.820634e+00 3.792548e-01 4.925222e+00 7.048629e-01 2.115649e-01 5.133899e-01 -3.285676e-01 -5.743910e-01 2.707082e-01 -4.693311e-02 -4.967290e-01 9.284613e-02 -1.850032e-01 -7.023181e-01 -5.186619e-01 -9.503490e-02 2.651123e-01 3.760737e-01
<VARIANCE> 25
 5.483241e+01 4.935467e+01 5.286568e+01 2.457150e+01 3.880051e+01 5.576226e+01 3.787114e+01 2.741929e+01 2.793189e+01 3.475162e+01 2.135963e+01 1.114214e+01 5.852421e+00 6.499305e+00 4.726105e+00 2.945847e+00 2.707246e+00 3.015500e+00 3.688038e+00 2.017041e+00 2.891312e+00 5.705998e+00 1.983308e+00 1.036541e+00 6.526577e-01
<GCONST> 1.014704e+02
<STATE> 4
<MEAN> 25
 2.158665e+00 -4.469214e-01 7.553544e+00 -2.516997e+00 -2.791657e+00 4.515050e+00 1.291690e-01 -5.407742e+00 -3.085997e+00 -7.827425e-01 -2.880058e-01 2.236358e+00 1.681641e+00 2.188075e+00 -1.819260e+00 1.166202e+00 5.078259e-01 -8.336715e-01 -2.742180e-01 1.225317e+00 3.336783e-01 -8.042537e-01 -9.700380e-01 -1.438576e-01 -6.309343e-01
<VARIANCE> 25
 1.323937e+02 1.123588e+02 4.743971e+01 2.408723e+01 3.739281e+01 4.883984e+01 3.132181e+01 5.587212e+01 3.398251e+01 5.768467e+01 2.669078e+01 1.560303e+01 4.708312e+00 1.056273e+01 8.449424e+00 1.684194e+00 8.012737e+00 5.998436e+00 3.116756e+00 3.059630e+00 3.522147e+00 7.912836e+00 2.563193e+00 1.713475e+00 3.000228e+00
<GCONST> 1.097813e+02
<TRANSP> 5
 0.000000e+00 1.000000e+00 0.000000e+00 0.000000e+00 0.000000e+00
 0.000000e+00 7.615562e-01 2.384439e-01 0.000000e+00 0.000000e+00
 0.000000e+00 0.000000e+00 7.742165e-01 2.257835e-01 0.000000e+00
 0.000000e+00 0.000000e+00 0.000000e+00 6.110700e-01 3.889300e-01
 0.000000e+00 0.000000e+00 0.000000e+00 0.000000e+00 0.000000e+00
<ENDHMM>
~h "t"
<BEGINHMM>
<NUMSTATES> 5
<STATE> 2
<MEAN> 25
 -9.942511e-01 3.579277e+00 1.183107e+00 1.222818e+00 8.966752e-01 3.103965e+00 6.323649e-01 -2.316759e+00 -3.852483e+00 1.119490e+00 3.674712e-02 -2.065640e-01 7.799258e-01 -6.945821e-01 3.215160e-01 6.614449e-02 1.558199e-02 -8.658665e-01 -3.867156e-01 4.638472e-01 2.413108e-01 -6.505024e-01 -1.833903e-01 1.662733e-01 1.135781e+00
<VARIANCE> 25
 7.508749e+01 4.949988e+01 3.630594e+01 3.474362e+01 1.763629e+01 4.035288e+01 4.137005e+01 2.703257e+01 3.660761e+01 5.069006e+01 2.797633e+01 2.525786e+01 5.493842e+00 4.677142e+00 3.067016e+00 3.557770e+00 1.425285e+00 4.881948e+00 3.780255e+00 4.655135e+00 3.468549e+00 5.636478e+00 3.746298e+00 2.128212e+00 8.109010e+00
<GCONST> 1.065671e+02
<STATE> 3
<MEAN> 25
 1.564544e+00 4.303203e+00 -7.231805e-01 -5.384574e-01 -1.319688e-01 -1.856420e-01 -2.767898e-01 -1.736584e+00 -5.124465e+00 -1.350655e+00 -2.713676e+00 1.166399e+00 -4.845907e-01 -3.413400e-01 -4.151320e-01 1.294449e-01 5.138360e-02 -1.752938e-01 -3.303781e-02 -2.610031e-02 6.157910e-01 -2.244415e-02 9.195458e-02 2.637431e-01 -3.290347e-01
<VARIANCE> 25
 5.439223e+01 5.917129e+01 7.223022e+01 3.544873e+01 1.348137e+01 3.571056e+01 3.622868e+01 2.247774e+01 4.065581e+01 3.498857e+01 2.656769e+01 2.539265e+01 1.136232e+00 2.102063e+00 1.944711e+00 1.109710e+00 2.012317e+00 1.405199e+00 2.685364e+00 1.731232e+00 2.414060e+00 2.106827e+00 1.328728e+00 1.503765e+00 1.413550e+00
<GCONST> 9.540575e+01
<STATE> 4
<MEAN> 25
 3.430862e-02 -8.622096e-01 6.054416e-01 9.642698e-01 -1.642477e-01 9.970633e-01 -5.762796e-01 -9.422702e-01 1.546463e+00 -3.273433e-01 -6.432753e-01 -5.926251e-01 -9.992098e-02 -1.156882e-01 -1.923926e-01 1.035848e-01 4.712009e-02 -7.981983e-02 2.305681e-02 -5.987193e-02 1.551636e-01 1.987571e-01 1.999814e-01 6.879094e-02 -9.648571e-02
<VARIANCE> 25
 3.050092e+01 3.583266e+01 2.896740e+01 3.141769e+01 1.735218e+01 2.221665e+01 5.069592e+01 1.499838e+01 3.026399e+01 2.948810e+01 1.835276e+01 1.442684e+01 5.135764e-01 6.199012e-01 7.595795e-01 7.562358e-01 7.271626e-01 9.113637e-01 1.531981e+00 7.891473e-01 1.391288e+00 1.338191e+00 1.041413e+00 1.022740e+00 6.157823e-01
<GCONST> 8.299740e+01
<TRANSP> 5
 0.000000e+00 1.000000e+00 0.000000e+00 0.000000e+00 0.000000e+00
 0.000000e+00 4.333638e-01 5.666361e-01 0.000000e+00 0.000000e+00
 0.000000e+00 0.000000e+00 3.813354e-01 6.186646e-01 0.000000e+00
 0.000000e+00 0.000000e+00 0.000000e+00 6.559423e-01 3.440577e-01
 0.000000e+00 0.000000e+00 0.000000e+00 0.000000e+00 0.000000e+00
<ENDHMM>
~h "u"
<BEGINHMM>
<NUMSTATES> 5
<STATE> 2
<MEAN> 25
 1.528263e+00 2.970406e+00 -1.047003e+00 2.364621e+00 4.229196e-01 1.769221e+00 1.097952e-01 -1.116806e+00 -1.750946e+00 -1.875010e+00 -4.332989e-01 8.417740e-01 -5.711891e-01 -3.654285e-01 5.135712e-02 -1.249214e-01 -1.817431e-01 -1.007439e-01 1.260028e+00 -2.081449e-01 -3.349558e-01 4.441963e-01 -2.130233e-01 4.787188e-01 -2.531178e-01
<VARIANCE> 25
 5.277104e+01 3.305864e+01 2.676514e+01 3.752412e+01 4.752011e+01 3.098610e+01 5.598883e+01 3.478598e+01 5.168472e+01 5.304754e+01 3.467805e+01 2.695908e+01 1.834702e+00 9.899535e+00 4.118186e+00 5.616745e+00 8.090535e+00 4.466831e+00 5.565326e+00 4.205099e+00 4.354545e+00 6.001650e+00 5.249653e+00 3.813281e+00 9.277606e+00
<GCONST> 1.112174e+02
<STATE> 3
<MEAN> 25
 3.900799e+00 -2.366639e+00 1.666182e+00 -1.065939e-01 -1.337233e+00 -5.411731e-01 1.596033e+00 -3.595702e+00 -3.940997e+00 -1.024082e+00 -1.847060e+00 5.514895e-01 1.230035e+00 -6.130797e-01 1.451917e+00 -9.030405e-01 -3.166798e-01 -7.774413e-01 -8.703259e-01 5.911980e-01 -1.390574e-02 -1.165353e+00 -6.796702e-01 -2.531935e-02 2.460686e+00
<VARIANCE> 25
 1.243224e+02 9.051500e+01 4.180719e+01 4.298487e+01 4.896340e+01 5.670671e+01 5.217358e+01 7.001531e+01 5.333819e+01 8.791627e+01 3.879510e+01 3.296394e+01 7.350968e+00 9.097344e+00 4.813028e+00 8.005614e+00 6.044940e+00 8.694823e+00 1.223498e+01 9.043190e+00 8.858950e+00 1.681257e+01 5.328518e+00 3.028818e+00 1.260164e+01
<GCONST> 1.213494e+02
<STATE> 4
<MEAN> 25
 1.520497e+01 4.426869e+00 6.010387e+00 2.517469e+00 -3.819533e+00 -7.544982e+00 -3.422631e+00 2.314418e+00 1.594304e-03 -1.107594e+01 -4.315645e+00 1.969736e+00 -5.960814e-01 5.334484e-01 -8.793574e-02 -2.147857e-01 -2.132626e-01 2.858847e-01 2.327317e-01 1.528066e-01 -1.012726e-01 6.392699e-01 4.889873e-02 -2.380537e-01 -9.369776e-01
<VARIANCE> 25
 1.647148e+02 6.347202e+01 4.702753e+01 3.863817e+01 4.103063e+01 1.027691e+02 8.702980e+01 4.450237e+01 6.847643e+01 1.484502e+02 2.452572e+01 3.315348e+01 1.450834e+00 3.022456e+00 2.197706e+00 3.528747e+00 2.690059e+00 5.402567e+00 5.081887e+00 4.313931e+00 3.954356e+00 4.301229e+00 1.486715e+00 2.252033e+00 2.047251e+00
<GCONST> 1.092921e+02
<TRANSP> 5
 0.000000e+00 1.000000e+00 0.000000e+00 0.000000e+00 0.000000e+00
 0.000000e+00 3.580102e-01 6.419899e-01 0.000000e+00 0.000000e+00
 0.000000e+00 0.000000e+00 4.729549e-01 5.270451e-01 0.000000e+00
 0.000000e+00 0.000000e+00 0.000000e+00 6.137865e-01 3.862135e-01
 0.000000e+00 0.000000e+00 0.000000e+00 0.000000e+00 0.000000e+00
<ENDHMM>
~h "w"
<BEGINHMM>
<NUMSTATES> 5
<STATE> 2
<MEAN> 25
 3.401916e+00 -7.739422e-01 -9.426106e-01 -3.514461e+00 -4.371904e+00 -7.397710e+00 2.136878e-01 3.447526e+00 2.927442e+00 -7.739667e-01 -2.133514e+00 1.039688e+00 4.622430e-02 1.031298e+00 8.344469e-01 4.955410e-01 -5.106382e-01 -9.104567e-01 -1.127965e+00 4.007560e-01 -3.810058e-02 4.673043e-01 1.603854e-01 -7.457482e-01 -5.644194e-01
<VARIANCE> 25
 2.706611e+01 3.383388e+01 3.825248e+01 3.220218e+01 1.928698e+01 2.800078e+01 3.512339e+01 1.243936e+01 2.890489e+01 1.755386e+01 1.600091e+01 1.561151e+01 3.239556e-01 1.145495e+00 8.005616e-01 1.366779e+00 7.392848e-01 1.207691e+00 2.360238e+00 1.680905e+00 1.336932e+00 8.036501e-01 1.157050e+00 8.539042e-01 5.293442e-01
<GCONST> 8.379129e+01
<STATE> 3
<MEAN> 25
 2.571768e+00 -2.345862e+00 4.425009e+00 -7.850708e-01 -4.619668e+00 -5.053548e+00 -6.290170e+00 -5.069498e-01 7.498747e+00 3.664063e+00 1.504628e+00 -4.027581e+00 3.749441e-02 -1.788930e-01 -4.053475e-02 7.872421e-02 -1.413427e-01 -1.218589e-02 3.309111e-02 1.070117e-02 7.106505e-02 -1.801172e-02 -1.719741e-02 4.729781e-02 1.022464e-01
<VARIANCE> 25
 1.339467e+01 4.171317e+01 1.282987e+01 1.289976e+01 2.591959e+01 3.127255e+01 4.702838e+01 2.673446e+01 3.952842e+01 2.051596e+01 2.291401e+01 1.416224e+01 2.140423e-01 8.248557e-01 3.954032e-01 7.161046e-01 1.290169e+00 1.625494e+00 2.388950e+00 1.305336e+00 5.667706e-01 1.245349e+00 1.476668e+00 1.089359e+00 2.815180e-01
<GCONST> 8.143800e+01
<STATE> 4
<MEAN> 25
 2.292603e+01 -1.200960e+00 -3.835620e+00 3.465126e+00 -2.869712e+00 -1.964288e+01 -7.735147e+00 9.409455e+00 9.865133e+00 -8.253239e+00 -1.761896e+00 3.728663e+00 -1.085981e-01 3.294843e-01 2.894019e-01 4.089253e-02 -1.366101e-01 -2.657869e-02 -1.070338e-02 -4.258785e-02 3.055329e-02 -4.734829e-02 -2.030967e-01 1.232293e-01 -1.876966e-01
<VARIANCE> 25
 6.068053e+01 2.730708e+01 3.951479e+01 2.196847e+01 1.448664e+01 4.454655e+01 3.338070e+01 1.203495e+01 2.221969e+01 2.460823e+01 2.360293e+01 7.641756e+00 3.271933e-01 1.153108e+00 2.043702e+00 1.543980e+00 5.793779e-01 1.537091e+00 2.239892e+00 7.323295e-01 5.472755e-01 1.070327e+00 7.634523e-01 4.172254e-01 4.572993e-01
<GCONST> 8.218268e+01
<TRANSP> 5
 0.000000e+00 1.000000e+00 0.000000e+00 0.000000e+00 0.000000e+00
 0.000000e+00 7.412431e-01 2.587568e-01 0.000000e+00 0.000000e+00
 0.000000e+00 0.000000e+00 8.803832e-01 1.196168e-01 0.000000e+00
 0.000000e+00 0.000000e+00 0.000000e+00 8.641766e-01 1.358234e-01
 0.000000e+00 0.000000e+00 0.000000e+00 0.000000e+00 0.000000e+00
<ENDHMM>
~h "kh"
<BEGINHMM>
<NUMSTATES> 5
<STATE> 2
<MEAN> 25
 -4.967043e+00 -2.194099e+00 4.959420e+00 2.897272e+00 -2.212828e+00 -6.379023e-01 -2.329819e-01 4.418693e+00 -8.394149e-01 2.456333e+00 9.401054e+00 1.524495e-01 -2.093726e-01 2.749312e-01 -1.829441e-01 6.862749e-01 -2.156304e-01 -9.735285e-01 1.014179e-01 1.343786e+00 5.389183e-01 9.337456e-01 -1.062308e-01 2.787656e-01 -7.641690e-02
<VARIANCE> 25
 1.561091e+01 3.429998e+01 3.485466e+01 7.775745e+01 5.471921e+01 1.031535e+02 1.064447e+01 5.592580e+01 2.474085e+01 8.038615e+01 1.875811e+01 1.127653e+01 3.761641e-01 1.017707e+00 9.706560e-01 2.455077e+00 4.019481e+00 1.321488e+00 9.540106e-01 2.415321e+00 2.807020e+00 7.389389e-01 3.358324e+00 5.025377e-01 1.344761e+00
<GCONST> 9.207397e+01
<STATE> 3
<MEAN> 25
 -4.401228e+00 -1.290636e+00 5.885991e+00 3.068110e+00 -3.060639e+00 -1.105996e+00 2.330361e+00 7.570351e+00 -4.892098e-01 2.641949e+00 4.860907e+00 2.390319e+00 2.568106e-01 -5.922702e-02 2.210981e-01 -4.430708e-01 4.405868e-03 1.079833e-01 7.757969e-01 5.011857e-01 4.239990e-01 1.824226e-01 -2.297100e+00 1.166824e-01 -3.212124e-01
<VARIANCE> 25
 1.324008e+01 3.637672e+01 1.543237e+01 3.781113e+01 4.178073e+01 8.959090e+01 5.170280e+00 8.802219e+01 3.652195e+01 7.404841e+01 9.382927e+00 1.055711e+01 1.674539e+00 1.262713e+00 9.541113e-01 3.199660e+00 5.322211e+00 1.106778e+00 1.118145e+00 3.353722e+00 9.408886e-01 7.970760e-01 1.575346e+00 1.523842e+00 4.679946e-01
<GCONST> 9.012834e+01
<STATE> 4
<MEAN> 25
 -1.921716e+00 -2.173685e+00 6.571622e+00 -8.611652e-01 -5.395781e+00 -1.762229e+00 3.382168e+00 5.051860e+00 -2.303711e+00 4.235868e+00 -2.292434e-01 7.599596e-01 1.014542e+00 -3.511732e-01 5.289050e-01 -8.703293e-01 -1.639499e+00 -7.491900e-01 -4.020801e-01 -1.025828e+00 -8.553284e-01 2.878226e-01 -2.276682e+00 -1.181444e+00 6.092175e-01
<VARIANCE> 25
 2.175481e+01 4.340937e+01 1.090109e+01 3.378765e+01 2.989118e+01 6.429036e+01 2.757288e+00 6.789975e+01 4.762043e+01 6.078445e+01 3.198365e+01 9.813298e+00 1.537369e+00 1.388988e+00 1.587033e+00 6.317787e+00 8.610557e+00 1.437663e+00 3.105207e+00 2.442459e+00 2.995459e+00 4.782866e+00 6.776374e-01 1.905331e+00 1.371509e+00
<GCONST> 9.605873e+01
<TRANSP> 5
 0.000000e+00 1.000000e+00 0.000000e+00 0.000000e+00 0.000000e+00
 0.000000e+00 3.742129e-01 6.257871e-01 0.000000e+00 0.000000e+00
 0.000000e+00 0.000000e+00 3.486302e-01 6.513699e-01 0.000000e+00
 0.000000e+00 0.000000e+00 0.000000e+00 3.923737e-01 6.076264e-01
 0.000000e+00 0.000000e+00 0.000000e+00 0.000000e+00 0.000000e+00
<ENDHMM>
~h "ny"
<BEGINHMM>
<NUMSTATES> 5
<STATE> 2
<MEAN> 25
 6.195422e-01 2.694958e+00 3.334015e+00 3.378950e+00 3.598036e+00 -4.879660e-01 -5.698868e+00 9.559309e-01 4.121318e-01 -2.437679e-01 6.737928e-01 -4.586184e+00 6.349353e-02 -5.195404e-01 1.612330e-01 3.064009e-01 5.945995e-02 -8.444914e-01 -1.981366e-01 -1.343416e-01 -2.849781e-01 1.991242e-01 6.863782e-01 5.984031e-02 5.394211e-01
<VARIANCE> 25
 7.681542e+00 3.012920e+01 2.056930e+01 3.435186e+01 5.409691e+01 5.154676e+01 5.417636e+01 1.897985e+01 2.124913e+01 1.487856e+01 2.148823e+01 4.327481e+01 7.911637e-01 1.690135e+00 1.788701e+00 2.003326e+00 2.779717e+00 5.223995e+00 3.324837e+00 1.771607e+00 1.292484e+00 1.453637e+00 1.442637e+00 2.523332e+00 7.207333e-01
<GCONST> 9.302287e+01
<STATE> 3
<MEAN> 25
 2.371799e+00 -3.276276e+00 2.643166e-01 5.480587e+00 4.470073e+00 -7.539243e+00 -5.163885e+00 -2.306331e+00 -2.632111e+00 1.057381e+00 6.361191e+00 1.431042e+00 3.400843e-01 1.181491e-01 -9.735552e-01 -5.911016e-01 -4.684034e-01 3.453639e-01 4.694127e-01 7.150411e-02 -2.595997e-01 -1.092713e-01 4.452167e-01 7.336345e-01 -1.074909e-01
<VARIANCE> 25
 7.131345e+00 1.755756e+01 2.841873e+01 3.402528e+01 3.208289e+01 4.171692e+01 3.139499e+01 2.437219e+01 1.648824e+01 2.154367e+01 2.662559e+01 2.866187e+01 5.765927e-01 5.954425e-01 1.179836e+00 1.585536e+00 2.297195e+00 2.972561e+00 1.161147e+00 1.280736e+00 1.078412e+00 9.431788e-01 8.957490e-01 9.300812e-01 3.767794e-01
<GCONST> 8.473406e+01
<STATE> 4
<MEAN> 25
 3.783476e+00 -3.509491e+00 -2.533258e+00 1.639427e+00 9.582807e-01 -2.849089e+00 -1.902086e+00 3.705991e-01 -2.800828e+00 -1.649201e+00 6.189054e+00 3.637080e+00 -2.549810e-01 4.081915e-01 -2.139789e-01 9.438739e-02 1.534823e-01 6.204463e-01 6.889337e-01 6.393867e-01 -8.201575e-02 -5.751718e-02 -1.349392e-01 -3.714720e-02 -5.845975e-01
<VARIANCE> 25
 9.824608e+00 2.371693e+01 1.572664e+01 2.411637e+01 1.585439e+01 2.109741e+01 2.370492e+01 1.238379e+01 2.801066e+01 1.365375e+01 2.718689e+01 1.277559e+01 4.414649e-01 5.440565e-01 8.850055e-01 8.458300e-01 1.206665e+00 1.350168e+00 9.495800e-01 8.880290e-01 8.058777e-01 1.210429e+00 1.038957e+00 6.710488e-01 3.330609e-01
<GCONST> 7.774446e+01
<TRANSP> 5
 0.000000e+00 1.000000e+00 0.000000e+00 0.000000e+00 0.000000e+00
 0.000000e+00 8.094009e-01 1.905991e-01 0.000000e+00 0.000000e+00
 0.000000e+00 0.000000e+00 7.791053e-01 2.208947e-01 0.000000e+00
 0.000000e+00 0.000000e+00 0.000000e+00 7.834914e-01 2.165086e-01
 0.000000e+00 0.000000e+00 0.000000e+00 0.000000e+00 0.000000e+00
<ENDHMM>
~h "sp"
<BEGINHMM>
<NUMSTATES> 3
<STATE> 2
~s "silst"
<TRANSP> 3
 0.000000e+00 1.729213e-01 8.270787e-01
 0.000000e+00 7.971587e-01 2.028413e-01
 0.000000e+00 0.000000e+00 0.000000e+00
<ENDHMM>
~h "sil"
<BEGINHMM>
<NUMSTATES> 5
<STATE> 2
<MEAN> 25
 -6.489795e+00 4.206130e+00 -2.105866e+00 2.059945e+00 -1.040792e+00 4.277528e+00 1.367992e+00 -1.576031e+00 7.754217e-01 3.506553e+00 3.478100e+00 -1.731060e-01 -2.729089e-01 -1.081664e-01 -1.188233e-01 -1.572538e-01 1.232824e-01 2.536518e-01 2.744715e-01 1.000986e-02 1.111423e-01 1.306166e-01 4.157386e-02 4.225997e-02 -1.234844e-01
<VARIANCE> 25
 6.721836e+01 4.061572e+01 3.676213e+01 3.881678e+01 2.753436e+01 4.568054e+01 3.167701e+01 2.305090e+01 2.719971e+01 2.489657e+01 2.130082e+01 2.039397e+01 1.278324e+00 1.287474e+00 1.031413e+00 1.260422e+00 1.461678e+00 1.640863e+00 1.724597e+00 1.654520e+00 1.408024e+00 1.364886e+00 1.253512e+00 1.074625e+00 1.159560e+00
<GCONST> 9.122781e+01
<STATE> 3
~s "silst"
<STATE> 4
<MEAN> 25
 -1.211567e+01 5.136805e-01 9.219157e-01 -2.073437e+00 -3.815695e-01 3.434487e+00 2.195442e+00 8.134796e-03 -6.445288e-01 4.350101e+00 5.854852e-01 -1.223073e+00 -1.750684e-02 -1.301672e-02 1.186168e-03 -4.402248e-03 4.277482e-03 2.579258e-03 -4.531225e-04 -4.739854e-03 -4.403763e-03 -4.121969e-03 1.276329e-02 2.555927e-03 -6.867251e-03
<VARIANCE> 25
 1.090858e+02 4.437519e+00 5.653839e+00 1.270020e+01 7.260603e+00 1.209235e+01 1.125828e+01 1.046847e+01 8.891425e+00 8.536306e+00 6.935155e+00 6.764961e+00 9.611013e-02 1.570979e-01 2.477133e-01 4.212899e-01 4.376899e-01 5.367623e-01 8.090358e-01 7.757372e-01 6.703470e-01 6.276274e-01 6.531717e-01 5.616258e-01 4.756486e-02
<GCONST> 6.054375e+01
<TRANSP> 5
 0.000000e+00 1.000000e+00 0.000000e+00 0.000000e+00 0.000000e+00
 0.000000e+00 6.979758e-01 1.072731e-01 1.947511e-01 0.000000e+00
 0.000000e+00 0.000000e+00 7.996923e-01 2.003077e-01 0.000000e+00
 0.000000e+00 4.861122e-03 0.000000e+00 9.353704e-01 5.976843e-02
 0.000000e+00 0.000000e+00 0.000000e+00 0.000000e+00 0.000000e+00
<ENDHMM>
